-0.06003179773688316,-0.08078575879335403,0.40043875575065613,-0.17763850092887878,0.13122519850730896,-0.09703412652015686,-0.025940442457795143,0.3562891185283661,-0.40383341908454895,-0.06561312079429626,-0.05618629977107048,-0.07698535174131393,0.6154865622520447,-0.0960274264216423,-0.3352828323841095,-0.05822725221514702,-0.283527135848999,0.07440907508134842,-0.10658557713031769,-0.2356027364730835,-0.14975310862064362,0.4339521527290344,0.7372710704803467,-0.36796876788139343,-0.2492130845785141,-0.40440741181373596,0.12467290461063385,-0.09399992972612381,-0.6095159649848938,0.1119694858789444,-0.06272593140602112,-0.47160568833351135,-0.4862616956233978,0.18617820739746094,0.03308021277189255,0.019184641540050507,-0.46279263496398926,-0.3766399919986725,0.7047029733657837,0.43389931321144104,0.9028782844543457,0.12705715000629425,-0.06954536586999893,0.2742440402507782,-0.25903773307800293,-0.08884278684854507,-0.05682753399014473,-0.4482195973396301,-0.0571075938642025,-0.08301270753145218,-0.15531396865844727,0.10570874065160751,-0.07508467882871628,-0.2638678550720215,0.2745873034000397,-0.08097974956035614,0.8949381709098816,-0.3085957467556,0.132426455616951,0.5488601922988892,0.1396634876728058,-0.46811428666114807,-0.4331980049610138,-0.5915166139602661
