{"weights": [[[-0.1078566238284111, -0.13638296723365784, -0.030268853530287743, -0.25990501046180725, -0.4048353135585785, -0.5715600252151489, -0.4835001230239868, -0.15614987909793854, -0.5595877170562744, -0.1276647299528122, -0.1339527666568756, -0.19272327423095703, -0.12008104473352432, 0.007716920226812363, -0.18367967009544373, 0.26733624935150146, 0.13077078759670258, 0.7138539552688599, 0.08939351886510849, 0.2819675803184509, -0.5571281313896179, -0.3375130295753479, 0.5648775696754456, 0.44692787528038025, 0.03994577005505562, -0.4079006314277649, -0.08773063868284225, 0.42410987615585327, 0.18849600851535797, -0.8451547622680664, -1.26400625705719, -0.196116641163826, 0.5427930355072021, 0.14328081905841827, 0.4304697811603546, 0.8337314128875732, 0.3002040982246399, -0.19932778179645538, -0.7899109721183777, 0.005513458047062159, 0.4039316177368164, 0.3773055076599121, -1.0903979539871216, -0.6910640597343445, 0.8835954666137695, 0.07954727113246918, -0.5479921698570251, 0.33955302834510803, 0.06737429648637772, -0.7686722874641418, -0.7921358942985535, -0.4433842599391937, -0.16182997822761536, 0.1500270664691925, -0.07094920426607132, -1.5376598834991455, -1.630860686302185, 1.1271470785140991, 0.5665283203125, 1.0836784839630127, 0.784187376499176, -0.11586375534534454, 0.6122673749923706, -2.5914788246154785, -0.6605676412582397, -0.2149389237165451, 2.5584118366241455, -0.904861569404602, -1.3734235763549805, -2.2824437618255615, -1.1570011377334595, -0.1376664787530899, 1.004231572151184, 0.7283806204795837, 0.05789674073457718, 0.021354567259550095, -1.2054332494735718, -0.5617218017578125, -0.023535432294011116, 3.1688923835754395, 0.9706189632415771, 0.2088240087032318, -1.809564471244812, -2.357379198074341, -1.2737852334976196, -0.5994188189506531, 0.0022098873741924763, 0.12408698350191116, 0.1909031718969345, 1.064037799835205, 0.8348315954208374, -0.010470621287822723, 1.5741055011749268, 0.7320416569709778, 1.420501947402954, -0.050117127597332, -0.39655303955078125, -0.6169112920761108, -0.40936484932899475, -0.39786195755004883, 1.2669230699539185, 0.147630974650383, -1.0515738725662231, 0.6268240213394165, -0.2400355041027069, 0.2066856473684311, -0.21059034764766693, 1.3918367624282837, 1.1185722351074219, -0.6770452260971069, -1.0251460075378418, -0.013429729267954826, 2.2323760986328125, 1.1765204668045044, 0.8441876173019409, -0.7259247303009033, 1.8185100555419922, -0.06322214752435684, 1.4190342426300049, 0.11260313540697098, 0.14457210898399353, 0.331866592168808, 1.0084081888198853, -0.14648383855819702, 0.7313470840454102, 1.453942060470581, 0.6860479116439819, -0.05758390948176384, 0.5054729580879211, 0.17745187878608704, -0.15062153339385986, 0.21427933871746063, -0.2655239999294281, -0.6316712498664856, -0.9950308799743652, 0.04134015366435051, 0.330485075712204, -0.007638195529580116, -0.3376588225364685, 0.27176985144615173, 0.8888742327690125, -0.5438981652259827, -1.1510001420974731, -0.0017041054088622332, -0.7752404808998108, 0.3039203882217407, 0.7498452067375183, -0.40406009554862976, -0.7777820229530334, -0.011324421502649784, 0.43396201729774475, -0.4712425470352173, -0.41843339800834656, -0.9719703793525696, -1.951412558555603, -0.7711750268936157, -0.011795596219599247, -0.3178601861000061, 0.5859506726264954, 0.7868714332580566, 1.5713979005813599, -0.32753705978393555, -0.7045692801475525, -2.3549718856811523, -1.695776343345642, -1.6252751350402832, 1.0652482509613037, -0.5186553597450256, -0.1266445368528366], [-0.9420465230941772, -0.71014004945755, -1.0165578126907349, -1.0047718286514282, -0.9171565175056458, -1.5238757133483887, -1.6662955284118652, 0.4428368806838989, -0.8361989259719849, -1.0649272203445435, -0.8337685465812683, -1.0376940965652466, -0.7092731595039368, -0.897958517074585, -0.9195997714996338, -0.6318717002868652, 0.7752496004104614, 1.4324076175689697, -0.5938590168952942, -0.7664410471916199, 0.46675699949264526, 0.698286235332489, 0.9833089113235474, 0.18625511229038239, -0.6448566317558289, -0.8479146361351013, -0.8709774017333984, -0.5071285963058472, 1.4288915395736694, 1.8003506660461426, 0.9816092252731323, -1.6375638246536255, -0.08214500546455383, 0.6338759064674377, 1.0163456201553345, 0.4449273347854614, 0.4291175603866577, -0.47459954023361206, 0.10393026471138, -0.9715180993080139, -1.0046253204345703, 0.26521140336990356, 1.6635111570358276, -0.29019469022750854, 0.7667039036750793, 0.8796936869621277, 0.05583689734339714, 0.05716921016573906, 0.3568081855773926, -0.3458457589149475, 1.479458212852478, 0.6305140256881714, -0.8333294987678528, -0.6234771013259888, 0.5292525887489319, -0.8755229115486145, -1.3635258674621582, -0.04563296586275101, 0.9742130041122437, 0.2710345685482025, -0.6872337460517883, -0.38622546195983887, 0.6710930466651917, 1.3570411205291748, 1.2483197450637817, -1.1364222764968872, 1.8125559091567993, 0.45351874828338623, -1.127487063407898, -1.2531402111053467, 0.09396317601203918, 0.3982362151145935, 0.5179888010025024, -0.9740293622016907, -0.4042378067970276, -1.3294349908828735, 0.8259264230728149, 1.1853078603744507, -0.7585650086402893, 1.4776947498321533, 2.1119544506073, 0.06529777497053146, -0.5791751742362976, -0.17761966586112976, 1.678752064704895, 0.44330376386642456, -1.187729001045227, -1.0679774284362793, -0.7276280522346497, 2.7550454139709473, 0.4105302095413208, -1.0392504930496216, 0.18081945180892944, 0.671999454498291, -1.521385669708252, 0.12140469998121262, -0.012784497812390327, 0.7905746698379517, -0.2622680962085724, -1.0682893991470337, 0.3600410223007202, 1.3634684085845947, 2.1150732040405273, 0.3881383240222931, -1.1545212268829346, -1.117371916770935, 0.7420812845230103, -0.48920705914497375, 0.8984976410865784, -0.6580291390419006, -0.00794917717576027, 0.1341279000043869, -0.5285745859146118, 0.5280727744102478, 1.9461243152618408, 1.6889179944992065, 0.2200540453195572, -1.1840684413909912, 1.0819146633148193, 1.5316022634506226, 0.7402688264846802, 1.2336111068725586, -0.3211667239665985, 0.9271606802940369, 0.6457846760749817, -1.6633247137069702, -0.6586124300956726, 2.588358163833618, 1.3070878982543945, -0.46217378973960876, -0.9570661783218384, -0.039844248443841934, 0.16514268517494202, 1.2108306884765625, 1.0591131448745728, -0.031020361930131912, -0.3420179486274719, -0.568142831325531, -0.3495716154575348, 1.5303434133529663, 3.045069694519043, 0.8013322353363037, -0.6901036500930786, -1.0108933448791504, -1.4241876602172852, -0.49308037757873535, -0.4750543534755707, -0.14272964000701904, 1.060168981552124, 0.5320817828178406, -0.5091466903686523, 0.5709864497184753, 2.198207139968872, 1.2271778583526611, -0.18111859261989594, -0.9183840155601501, -0.896424412727356, -0.700704038143158, -1.0387390851974487, -0.266695111989975, -0.2945084869861603, 1.150225043296814, -0.40710145235061646, -0.4845438301563263, -2.7329423427581787, -0.16004052758216858, 0.03695123270153999, -0.852288544178009, -0.8310903310775757], [-0.06463789194822311, 0.059519629925489426, -0.02934332937002182, 0.24321499466896057, 0.22375249862670898, 0.10936690866947174, 0.012558580376207829, -0.06791698932647705, -0.013333014212548733, 0.06711690872907639, 0.11001095175743103, -0.03810063749551773, 0.10943607240915298, -0.07000691443681717, 0.14956727623939514, 0.5212830305099487, -0.06767342984676361, -0.09028160572052002, 3.031196117401123, 1.5242338180541992, -0.3656949996948242, -2.0934746265411377, -2.7445335388183594, -0.5458921194076538, -0.2062041461467743, 0.06984598189592361, -0.02916288934648037, 0.59022456407547, -1.6838090419769287, -1.307359218597412, 0.4428746998310089, 1.653171181678772, 0.19120778143405914, 0.9653190970420837, 0.9451047778129578, 0.8640953302383423, -1.9259382486343384, -0.13670942187309265, -0.5693182349205017, -0.0681607648730278, 1.7652742862701416, -1.584179162979126, -1.8454780578613281, -1.9008748531341553, -0.7434582114219666, 0.31696075201034546, -0.038989290595054626, -0.5492110252380371, 0.12516500055789948, -0.15012431144714355, 0.1395980417728424, 0.7399700880050659, 0.39486780762672424, -0.4215465486049652, -1.1948295831680298, -1.114501953125, -1.7226264476776123, -1.545691728591919, -1.415677785873413, -0.14739589393138885, -0.35524722933769226, -0.9860305786132812, -0.8888710737228394, -1.1404342651367188, -0.8330786824226379, 0.21721255779266357, -0.12756885588169098, 0.35298067331314087, -0.2700703740119934, -0.9295295476913452, -1.09442138671875, 3.4047341346740723, 1.195443034172058, 0.4311229884624481, 0.19270040094852448, 0.4818609654903412, -0.4410592317581177, -1.0680524110794067, -0.03455372899770737, 2.2465498447418213, -0.24437187612056732, -0.29850631952285767, -0.32638266682624817, 1.043615698814392, 2.255390167236328, 0.7376256585121155, 0.7660737037658691, 0.4954509139060974, 1.758495569229126, -1.6571933031082153, -0.7051941752433777, -0.07889038324356079, 1.171159029006958, -0.7457084655761719, -1.5885682106018066, -0.5194637775421143, 2.4978554248809814, 1.360623836517334, 0.6312572956085205, 1.1884033679962158, 0.9075345993041992, 0.49924835562705994, -2.6268861293792725, -1.1401081085205078, 0.13190585374832153, 0.44974058866500854, -0.45148783922195435, 0.12541760504245758, 2.581603765487671, 2.921790838241577, -0.9278814196586609, 0.04315930977463722, 0.7551766633987427, 0.3163101077079773, -0.18939493596553802, -0.6730093955993652, 0.2740310728549957, 0.020402412861585617, 0.24484682083129883, -0.8278109431266785, 0.10964711010456085, 3.328817367553711, 1.7258957624435425, 0.8373520970344543, 1.0548096895217896, 0.540863037109375, -0.23111550509929657, 0.28989192843437195, -0.5918673276901245, -0.3202429413795471, 0.17136171460151672, 0.41110989451408386, -0.07822510600090027, 0.7148006558418274, -0.12050865590572357, 0.8915091753005981, 0.5756729245185852, 0.06913944333791733, -0.5531734228134155, 0.8860054016113281, 0.27155059576034546, -1.5982882976531982, -0.7373561263084412, 0.09711357206106186, 0.527234673500061, -1.363630771636963, -1.4743847846984863, -1.3540953397750854, -0.08792497962713242, -0.4790683686733246, -0.044965218752622604, 0.6638965606689453, 0.9109166264533997, 0.9223530888557434, 0.16327740252017975, 0.030338197946548462, 0.043629761785268784, 0.4117814302444458, 1.8430145978927612, -1.9119499921798706, -0.20023947954177856, -1.3115110397338867, -0.9115666151046753, 0.1379851996898651, -0.2534703016281128, -0.5047399401664734, -0.8463671803474426, -1.0831819772720337, -0.015677671879529953], [-0.27334192395210266, -0.26273560523986816, -0.24966686964035034, -0.41242456436157227, -1.4609445333480835, -1.1781055927276611, -1.2851347923278809, -1.5667012929916382, -2.8983607292175293, -0.28270190954208374, -1.2983412742614746, -0.15685133635997772, -0.34745508432388306, -0.2557060718536377, -0.3214453458786011, -1.0068800449371338, -2.0859198570251465, -2.6621005535125732, -1.2055467367172241, -0.6927371621131897, -2.5500328540802, -2.18650484085083, -1.1756118535995483, 0.4497184455394745, 1.146289587020874, -0.10016638785600662, -0.3040443956851959, -1.7141566276550293, -0.6014938354492188, 0.27157774567604065, 0.35461559891700745, -0.5779050588607788, -0.4525628983974457, 0.161375492811203, 0.5259895920753479, -0.10069851577281952, 0.39349719882011414, 1.7721986770629883, 0.9307459592819214, -0.3764633238315582, -1.8293851613998413, -1.7964982986450195, 0.22756196558475494, 0.1489165872335434, 0.18319714069366455, 0.47279906272888184, 0.5433289408683777, 0.6379440426826477, 1.72508704662323, 0.7799379825592041, 3.1212751865386963, -0.46415942907333374, -0.4463309943675995, -0.8097288012504578, -1.0452280044555664, 1.9186601638793945, 2.5573880672454834, 1.2025552988052368, 0.7261114120483398, 0.7142859101295471, 0.4285515248775482, 0.19999587535858154, 1.0250043869018555, 1.0728397369384766, 0.5849988460540771, -0.12376603484153748, 0.9096195101737976, 2.445462942123413, 1.831019401550293, 1.2344746589660645, 0.4669775068759918, -0.4386407434940338, -0.1311594396829605, 0.6036076545715332, 0.40800681710243225, 0.5288518667221069, -0.09669234603643417, 0.5910407900810242, -0.3447871506214142, 1.7675988674163818, 1.1974406242370605, 0.13267424702644348, -1.1099178791046143, -0.4490032494068146, -0.1885720044374466, -0.25385916233062744, 0.07518881559371948, -0.7391812205314636, -1.2623409032821655, 0.3086341619491577, -1.2816416025161743, -0.30178678035736084, -0.6945753693580627, -1.2389270067214966, -1.2882226705551147, -1.041440486907959, -0.276699423789978, -0.319573312997818, -0.7294690012931824, -0.45833513140678406, -1.0560320615768433, -1.16502046585083, -0.9439398646354675, -3.2316575050354004, -0.2236890345811844, -2.6416327953338623, -1.2939069271087646, -0.8234068155288696, -0.7876976132392883, 0.46507528424263, 0.1373962014913559, 0.1558167040348053, 0.3811400830745697, -0.022715413942933083, -1.190468192100525, -2.0978987216949463, -1.7768429517745972, 0.9279811382293701, -0.5501723885536194, -0.46240121126174927, -0.046313319355249405, 0.8291594386100769, 0.7487491965293884, 0.19257570803165436, -1.0657755136489868, -0.34984251856803894, -0.37914496660232544, -1.9475067853927612, -1.3403726816177368, -0.1191614419221878, -0.6283097863197327, 0.1599261462688446, 0.1650645136833191, -0.2757825255393982, -0.15735401213169098, -0.2518117427825928, -0.3525524437427521, -1.146864652633667, -0.6400545239448547, 0.19279396533966064, 0.6474608182907104, 2.2141001224517822, 0.98295658826828, -0.21408337354660034, -0.2176428586244583, 0.14244778454303741, 0.36117491126060486, -0.4759770631790161, 1.1138149499893188, 1.5722761154174805, 0.9882009625434875, 1.2018587589263916, 2.058983564376831, 0.8818413615226746, 1.714198350906372, 0.3419385254383087, -0.30121976137161255, -0.10324114561080933, 0.7586691379547119, 0.516473650932312, 1.1284105777740479, 2.6224493980407715, 2.2633650302886963, 0.910081684589386, 2.309032440185547, 1.1806246042251587, -0.016353216022253036, 0.11117250472307205, -0.32855552434921265], [-0.7187352776527405, -0.6936848163604736, -0.615868091583252, -0.8545387983322144, -0.48167598247528076, -0.5566531419754028, -0.6359801292419434, -0.3614898920059204, 0.42415252327919006, -0.5485612750053406, -0.3232935667037964, -0.6957475543022156, -0.6662609577178955, -0.7005267143249512, -0.8121837377548218, -0.6842895746231079, -0.257624089717865, 0.5272361040115356, 0.6543809175491333, 0.4344075620174408, 0.7023853659629822, -0.8060130476951599, -1.0100494623184204, -2.1410841941833496, -2.2831923961639404, -1.3887994289398193, -0.86531662940979, -0.551189661026001, 0.05273716524243355, -0.8870510458946228, -1.9357479810714722, -1.2613904476165771, -0.701625645160675, 0.9304525852203369, 0.8770344853401184, 0.6378575563430786, -1.030077338218689, -1.3303992748260498, 0.6096940040588379, -0.7862839102745056, 0.23885710537433624, 1.3341076374053955, 0.4321185052394867, -0.5406746864318848, -0.8644231557846069, 0.3933582603931427, 0.24289758503437042, -0.4183320999145508, -0.254843145608902, -0.9838820695877075, -1.2366492748260498, 0.4519062340259552, -0.8611888289451599, 0.370418518781662, -0.13251100480556488, -0.3242112398147583, 0.3817243278026581, -0.41685426235198975, 0.13081659376621246, 0.3991297483444214, -1.1150048971176147, -0.6618426442146301, 0.42669034004211426, -2.3259806632995605, -1.9513596296310425, -0.7596629858016968, 0.6635710000991821, 0.4558870196342468, 0.06275022029876709, -0.31487125158309937, 0.037626247853040695, 2.4158313274383545, 0.9766554236412048, 0.30490627884864807, 0.8952776193618774, 0.04609730467200279, -2.5350565910339355, -2.8594861030578613, -0.756925642490387, 0.9834303855895996, 1.7053627967834473, -0.010535391047596931, -0.2391669601202011, 0.6108118891716003, 0.4638610780239105, 0.18769094347953796, 1.0294781923294067, -0.6154653429985046, -0.27885907888412476, 0.26487183570861816, -1.2041696310043335, -0.81268709897995, -0.6266750693321228, 1.3873543739318848, 0.7956852912902832, -0.7508392333984375, -0.054479192942380905, -1.2049999237060547, -0.35440728068351746, 0.17103929817676544, 0.9848679304122925, 1.0683894157409668, 0.872282087802887, 0.21276676654815674, -0.6792876720428467, 0.10398870706558228, 0.5200640559196472, 0.712723970413208, 0.07358737289905548, -2.002058982849121, 0.7377929091453552, 1.0640581846237183, 0.5455626249313354, 0.8264997005462646, 0.6498289108276367, 1.9599039554595947, -0.8558552861213684, -0.8944552540779114, 1.734331727027893, 2.2645678520202637, 1.3180553913116455, -0.8677051663398743, -0.5112006068229675, 2.0181214809417725, 1.6516815423965454, 2.6725025177001953, 2.0603256225585938, 1.7162851095199585, 1.1850361824035645, -0.6971985101699829, -0.4983271360397339, 1.1334236860275269, 0.4567960798740387, -1.1829537153244019, -1.5711970329284668, -0.03328382596373558, 1.6694496870040894, 2.3083741664886475, 2.8154895305633545, 0.9363656044006348, -0.08132230490446091, 0.17595833539962769, -0.6124455332756042, -0.8415744304656982, -1.0949643850326538, -1.5852049589157104, -1.690292477607727, -1.3150267601013184, -0.27550551295280457, 0.05575438216328621, 1.7914972305297852, 2.8051061630249023, 1.4482070207595825, -0.21407653391361237, -0.6762822866439819, -0.7461439371109009, -0.6915342211723328, -0.7230720520019531, 1.123415470123291, -1.4358701705932617, 0.5806659460067749, 0.003816134063526988, 2.907928466796875, 2.5095062255859375, 0.9563499093055725, 0.17825549840927124, -0.7222866415977478, -0.7231418490409851, -0.6142318248748779], [-1.1023823022842407, -1.0175856351852417, -0.9288392066955566, -0.8873871564865112, -0.597827136516571, -0.675070583820343, -0.8385201692581177, -0.5941276550292969, -1.2217990159988403, -1.070397138595581, -0.8784950375556946, -1.0316689014434814, -0.8466491103172302, -0.9958221316337585, -1.1034297943115234, -0.7376752495765686, -0.18351686000823975, 2.3164265155792236, 1.629490852355957, 1.8291070461273193, 2.414294719696045, 0.026193466037511826, -0.3276272714138031, -1.0653396844863892, -0.631811797618866, -1.1960500478744507, -1.0980144739151, -1.2140922546386719, -1.0153919458389282, -0.8652298450469971, 0.5990670919418335, 0.4636025130748749, 1.0916883945465088, 0.7107375264167786, 0.42206671833992004, 0.5649553537368774, -1.6255264282226562, 0.6139216423034668, 1.2273101806640625, -1.509878158569336, -0.9059805274009705, 0.8821030855178833, 0.15236757695674896, -1.1668617725372314, -0.19671973586082458, -0.5724779367446899, -0.05160369724035263, -0.9922375679016113, -0.05396028980612755, -0.3644479215145111, 0.335906445980072, 0.23489691317081451, -0.9654060006141663, 1.3795626163482666, 0.013983589597046375, -0.6782342195510864, -0.09701315313577652, 0.27183467149734497, 0.8953582048416138, -0.523145854473114, -0.8765702843666077, 0.33426201343536377, -0.23967967927455902, 0.11472343653440475, -0.40155959129333496, -0.8647029399871826, -2.0301671028137207, 0.11238466203212738, 0.6098250150680542, 0.8851441144943237, -0.6793825626373291, 0.3447769284248352, 0.19504375755786896, 0.8332249522209167, -0.09097397327423096, -1.150865912437439, 0.686038613319397, 0.2869641184806824, -1.1452020406723022, -1.46058988571167, -0.48073703050613403, -1.4647058248519897, -0.2732555568218231, 0.4957403838634491, -0.007687654346227646, 0.039089564234018326, -0.15831586718559265, -0.9106205105781555, -0.9827600717544556, 1.0890443325042725, -0.28974583745002747, -0.8027200102806091, 0.3331703543663025, 0.011397125199437141, -1.774901270866394, -0.7561039328575134, -0.08033004403114319, -1.2945557832717896, -0.9634599089622498, 0.3667294383049011, -0.6305176019668579, -1.2107874155044556, 0.49536874890327454, 1.2246978282928467, -0.4937502443790436, 0.7888041734695435, 0.9933255910873413, -0.05273978039622307, 1.50983464717865, 1.0327345132827759, -1.066739559173584, -0.15176922082901, 1.510860562324524, -0.20849113166332245, 0.12487691640853882, 1.729578971862793, -0.49490219354629517, -1.102476954460144, 0.5534399747848511, 3.2041194438934326, 2.1610889434814453, 2.474461078643799, -0.17346136271953583, -1.3488200902938843, 2.609278678894043, 2.6167094707489014, 1.5596625804901123, 0.49142515659332275, 1.0973933935165405, -0.6722087264060974, -0.9940003752708435, 0.3030746579170227, 0.9260507822036743, 2.486208915710449, 0.5235006213188171, -1.7207039594650269, -1.1764109134674072, 1.870996356010437, 2.1927762031555176, 1.5407341718673706, -0.052287306636571884, 0.28170016407966614, -0.49481824040412903, -0.8002225160598755, -0.06813187897205353, 2.117372989654541, 2.089937925338745, -0.2634933590888977, -1.2223509550094604, -0.29369062185287476, 0.9292696714401245, 5.353903770446777, 2.415024995803833, 0.12312102317810059, 0.6393419504165649, -1.1383682489395142, -1.0750137567520142, -0.6653492450714111, 2.0462710857391357, 0.5244157314300537, -1.4678775072097778, -1.0358991622924805, -0.811330258846283, 0.05193493142724037, 4.097003936767578, 0.6025916337966919, -1.106347680091858, -0.1545265167951584, -0.889970600605011], [-0.309614896774292, -0.37766706943511963, -0.22273960709571838, -0.5093073844909668, -0.7138270139694214, 0.11871175467967987, 0.14309507608413696, 0.7379363179206848, 0.6835743188858032, -0.25369876623153687, -0.2461635321378708, -0.28366586565971375, -0.23312470316886902, -0.3349604606628418, -0.4506032168865204, -0.8128015398979187, -1.071579098701477, -0.07789800316095352, -1.537379503250122, 0.10679475963115692, -0.11135341972112656, 1.738999605178833, 2.9428999423980713, 0.5016669034957886, -0.37764036655426025, -0.3835919499397278, -0.34858468174934387, -0.6990397572517395, -0.25541266798973083, 0.25961440801620483, -0.7748679518699646, -0.5788681507110596, 0.27026432752609253, -0.44915878772735596, 0.9529370069503784, 3.688901424407959, 4.586897373199463, 0.5543672442436218, -0.4452027380466461, -0.3483295440673828, -2.4567558765411377, -0.4872066080570221, -0.09576442092657089, 0.40889331698417664, 0.811927080154419, -0.5458657145500183, -1.8534278869628906, 0.22489474713802338, 4.281942367553711, 3.75836443901062, 1.0555225610733032, -0.24753539264202118, 0.03571084886789322, -1.1964689493179321, -0.32149308919906616, 0.7529968619346619, 0.1286766231060028, -0.5182902216911316, -2.4458799362182617, -1.893593430519104, 1.4149975776672363, 3.836728811264038, 2.0875186920166016, 0.891470193862915, -0.687866747379303, -0.28585678339004517, -1.6317485570907593, -0.05577249825000763, 0.3506537079811096, -0.44998699426651, -1.0541261434555054, -0.6306954622268677, 1.1219921112060547, 1.978576421737671, 2.1476078033447266, 0.2904530465602875, -1.1773607730865479, -1.5671879053115845, -0.44035881757736206, -0.6091488003730774, -0.5385234355926514, 1.1406240463256836, 0.9630703926086426, -0.27234870195388794, 0.9700635671615601, 0.8934033513069153, -0.01710442081093788, -0.09976644814014435, -1.1623650789260864, -1.1870026588439941, 0.23921407759189606, -0.2790822684764862, 0.07589036226272583, 0.17548783123493195, 1.2326833009719849, -0.02667834982275963, 0.30081871151924133, 0.9294232726097107, -0.2551003694534302, -0.836106538772583, -1.0506402254104614, -1.1298978328704834, -0.21512146294116974, 1.3421143293380737, -0.4073229730129242, -0.7947691679000854, -0.22703348100185394, -0.1703038066625595, 1.5093389749526978, 0.5601476430892944, 2.033378839492798, 1.5353386402130127, -0.6145087480545044, -0.4804323613643646, -1.1997159719467163, -0.676875114440918, 0.7398414611816406, 0.6860874891281128, 0.8296188116073608, -0.18252401053905487, -0.008086925372481346, 0.7836539149284363, 0.30603498220443726, -0.7937653660774231, -0.006497222930192947, -0.26179590821266174, -0.13994604349136353, -0.6032571196556091, -0.6216942667961121, 0.44872477650642395, -0.4245132803916931, -0.6018144488334656, -0.4332047402858734, -0.6852847933769226, 0.332649827003479, 0.6965413093566895, 0.028523774817585945, 0.37885090708732605, 1.286562204360962, -0.02342160791158676, -0.20920127630233765, 0.3662785291671753, 0.35738688707351685, -0.4896008372306824, -0.7279525399208069, 0.39144569635391235, -0.9441039562225342, -0.5033174753189087, -0.6874366998672485, 0.5299243927001953, 0.6385082602500916, 0.766468346118927, 0.10160478949546814, 0.8173367381095886, 0.8424153327941895, -0.37524309754371643, -0.44354259967803955, -0.3515212833881378, -0.3028067946434021, -1.3729923963546753, -2.206601142883301, -2.9196529388427734, -1.0706822872161865, -0.8853244781494141, -1.9160631895065308, -1.2724422216415405, -0.5228695869445801, 0.35444265604019165, -0.4258907437324524], [-0.2859352231025696, -0.1429419368505478, -0.17325574159622192, -0.08896216750144958, 0.6249219179153442, 0.4080992043018341, -1.1861732006072998, -2.4881670475006104, -0.3091646432876587, -2.280590534210205, -0.3955327272415161, -0.4091547429561615, -0.21823076903820038, -0.16292773187160492, -0.3159966766834259, 0.014836007729172707, 1.2573095560073853, 0.5702377557754517, 0.6656728386878967, -1.258362054824829, -1.1641687154769897, 0.0027275190223008394, -1.1057308912277222, 0.3988184332847595, 0.7151322364807129, 0.10758709162473679, -0.34913432598114014, -0.11430028080940247, 0.8114396929740906, 1.6274704933166504, 0.938809871673584, 0.34807536005973816, -1.0316182374954224, -0.5276376008987427, -0.1356891691684723, -0.015435173176229, 0.34708765149116516, -0.35049501061439514, 0.030669037252664566, -0.2919059991836548, -0.27256521582603455, -0.1100727915763855, 0.13610713183879852, -0.07017602771520615, 0.323589026927948, -1.1665699481964111, 0.045613259077072144, 1.2728722095489502, 0.5927625894546509, -0.25445058941841125, -2.0202207565307617, -0.28503841161727905, -0.28150200843811035, 0.13082312047481537, -0.07620016485452652, -0.420763224363327, -0.7153719663619995, 1.3432551622390747, -1.3746898174285889, 0.17880092561244965, 1.564648985862732, -0.11340883374214172, -1.286118984222412, -1.1072179079055786, -0.9540778994560242, -0.3996196985244751, 1.3836950063705444, 0.6506935358047485, 0.19878074526786804, -0.8322412371635437, 0.6194294691085815, 0.8433995246887207, 0.1638464331626892, 2.3315494060516357, 0.8938682675361633, 0.0011660237796604633, -1.470444917678833, -1.302384614944458, -0.13169512152671814, -0.8991039395332336, -1.5150442123413086, -0.6450158357620239, 0.7727445363998413, 2.687817096710205, 1.1951096057891846, -0.6350725293159485, 3.547121286392212, 0.8918242454528809, -0.07783819735050201, -0.567646861076355, -1.3394899368286133, -0.38008660078048706, -2.708704710006714, -2.5464744567871094, -0.8366004824638367, 2.5536348819732666, 4.994117736816406, 0.5958604216575623, 0.2799866795539856, 4.117879390716553, 1.631481409072876, -0.5661056637763977, -0.6980014443397522, -2.035898208618164, -0.30461937189102173, -0.9344694018363953, -0.1859198957681656, -0.5792262554168701, -0.25897589325904846, 3.3380823135375977, -0.5795813798904419, 0.12598395347595215, 2.4620401859283447, -0.3180837035179138, -0.5304802656173706, -0.7874072194099426, -1.9956754446029663, -0.03751714527606964, 0.34944382309913635, 0.8233557939529419, 0.6079813838005066, 0.3477678596973419, 0.6699885129928589, -0.8199126720428467, -0.8263485431671143, -0.25263404846191406, -1.3716504573822021, -1.0059208869934082, 0.46876436471939087, -1.2114964723587036, -0.1041899248957634, -1.5595825910568237, -0.6466140151023865, -0.6937988996505737, -0.5440338850021362, -0.11898895353078842, -1.2396763563156128, -0.9100775718688965, -0.7217555046081543, -0.22120380401611328, 0.2814882695674896, 2.454355239868164, -0.165647953748703, -0.27897462248802185, 0.2313355803489685, -0.9942619204521179, -0.37827354669570923, 0.38295915722846985, -0.6578074097633362, 0.37431275844573975, 0.5578811168670654, -0.03379081189632416, 1.511332631111145, 2.479884624481201, 1.0175763368606567, -0.16192728281021118, -0.1555938571691513, -0.22659632563591003, -0.22694459557533264, -0.14429377019405365, 1.754354476928711, 2.153765916824341, -1.026639699935913, 1.5827195644378662, 1.6765080690383911, 0.7211873531341553, 0.16465406119823456, -0.35159099102020264, -0.33093976974487305], [-0.1370101273059845, -0.2028263956308365, -0.10608331859111786, 0.13519112765789032, 0.036557234823703766, 0.06632571667432785, -0.2609439790248871, -0.24871018528938293, -0.018185487017035484, -0.3192344009876251, -0.10890361666679382, -0.08046385645866394, -0.10067323595285416, -0.10709111392498016, 0.14096711575984955, 0.12860973179340363, 0.19787739217281342, -0.049598708748817444, -1.333974003791809, -0.195034459233284, 0.7861642837524414, 1.9625904560089111, 0.7555174231529236, -2.352677822113037, -2.7521421909332275, -0.7650358080863953, -0.05063776671886444, -0.2012154757976532, -0.1469276249408722, 0.2941417992115021, -0.621588408946991, -1.4526351690292358, 0.17446108162403107, -0.19459961354732513, -0.6615713834762573, 0.010721028782427311, -1.4144123792648315, -2.2616970539093018, -1.7508366107940674, -0.16624872386455536, -1.4655249118804932, -1.3579083681106567, -0.5177509784698486, -0.49028903245925903, -0.9348439574241638, -0.5587621927261353, -0.355939656496048, -1.2185492515563965, -1.0263638496398926, -0.7910460829734802, 0.916092574596405, 0.6675681471824646, 0.0816740170121193, 0.2635817229747772, 0.9117797613143921, 0.2621263265609741, 0.12675955891609192, 0.5916532874107361, 1.9166266918182373, 3.3845303058624268, 3.883554458618164, 4.9195661544799805, 4.214707851409912, 2.3079581260681152, 0.34073880314826965, 0.07842569798231125, 0.9234569072723389, 1.66188645362854, 0.41538435220718384, -0.3183903396129608, -0.6644765734672546, -0.3324967622756958, 1.093652367591858, 1.6184316873550415, 1.9158227443695068, 3.4698989391326904, 2.9324252605438232, 0.671899676322937, -0.19774633646011353, -0.7202889323234558, -0.42100271582603455, -0.6341806054115295, -0.3771783709526062, -0.1952185332775116, 0.4037022590637207, 1.3569682836532593, 0.34583544731140137, -0.33412033319473267, 0.8891369104385376, 0.02345506101846695, 0.3934302031993866, -0.0768464058637619, 0.6299537420272827, -0.5493184924125671, -0.3860972225666046, -1.1562013626098633, 0.08184251934289932, 0.6983826756477356, 0.17732645571231842, 0.5349966883659363, -0.6820340752601624, -0.5636976361274719, 0.07851987332105637, 0.1448974758386612, -0.1830601543188095, 0.4315735697746277, 0.5213581919670105, 1.0298992395401, 0.5627371668815613, 0.26123517751693726, 2.1525497436523438, -0.26341402530670166, -0.6427518725395203, -0.734649121761322, -0.2961852252483368, -0.7719962000846863, -0.591300368309021, -0.5953546166419983, -2.0085628032684326, -0.897666335105896, -0.01764429546892643, 1.78794527053833, 3.0142822265625, 1.3176356554031372, -1.270315170288086, -0.19048020243644714, -0.2891043424606323, 0.10173992067575455, -1.6752684116363525, -2.3305466175079346, -0.043753646314144135, -2.5744051933288574, -1.1284282207489014, -0.8641720414161682, -0.5260767936706543, 0.06533334404230118, -0.942651093006134, -1.086267352104187, 0.3268415033817291, 0.26139378547668457, 0.1821242868900299, -1.074358582496643, -2.3806090354919434, -0.07518458366394043, 0.053244564682245255, -1.7188934087753296, -0.34448206424713135, -0.5993952751159668, -1.0649124383926392, -0.4138758182525635, 0.5146121978759766, 0.38427528738975525, -0.8469523787498474, -0.530606210231781, -0.26392093300819397, -0.6436343193054199, -0.048639219254255295, -0.2429162561893463, -0.6585929989814758, -0.04344923049211502, 0.23050376772880554, 0.22537614405155182, 0.38799428939819336, -0.29882627725601196, -0.24928870797157288, -0.15274862945079803, -0.30873554944992065, -0.43614479899406433, 0.08977816253900528], [-0.726477861404419, -0.6786676645278931, -0.960745096206665, -0.7286790609359741, -0.7304320931434631, -1.0402227640151978, -0.8013327717781067, -0.9912621378898621, -0.672465980052948, -0.8644688129425049, -0.7961674332618713, -0.8583498597145081, -0.9628748893737793, -0.8835655450820923, -0.9793529510498047, -0.9429581165313721, -0.4856823682785034, 0.43127191066741943, 1.181983232498169, -0.30534014105796814, 0.8169336318969727, 1.7307815551757812, 0.9733780026435852, -0.4007072150707245, -0.4518219530582428, -0.9087056517601013, -0.9959526062011719, -0.837591826915741, -2.0660297870635986, -1.8927268981933594, -0.2108713686466217, -0.6516332626342773, 0.4328862726688385, 0.8449155688285828, 0.7275701761245728, 1.6164847612380981, 0.5903410315513611, 1.4141860008239746, -1.0891151428222656, -1.5387566089630127, -1.4824755191802979, -1.7280789613723755, -1.6317965984344482, -1.0042812824249268, -0.7435426115989685, 0.30068668723106384, 0.24698978662490845, -0.2794124484062195, -0.39236724376678467, -0.47315844893455505, -0.5238423347473145, 0.5705233216285706, -0.6087095141410828, 0.04505552724003792, -1.186392068862915, -0.6082921624183655, -0.5840831995010376, 0.2051466405391693, -1.2611736059188843, -1.006243348121643, -0.7319734692573547, -0.5592929720878601, -0.7055150270462036, 1.5128253698349, 0.10232812166213989, -1.0409958362579346, 0.5480673313140869, 1.1186528205871582, 0.17407499253749847, -0.0539671815931797, 0.7522314786911011, 2.8417787551879883, 0.014237567782402039, -0.13769486546516418, 0.5756632685661316, 0.7162014842033386, 1.060856580734253, -1.5542412996292114, -0.9522770047187805, -0.004087372682988644, -0.8578915596008301, -0.8543891310691833, 1.0229603052139282, 2.514441728591919, 2.0842230319976807, 0.14498360455036163, -0.17083826661109924, 0.9131380915641785, 0.9977469444274902, 0.033355988562107086, -1.0974724292755127, -0.7707968950271606, 0.0036525274626910686, 1.1261111497879028, 2.8497862815856934, 3.306278705596924, 1.8379175662994385, -0.782940685749054, -0.6722173690795898, 0.11055148392915726, -0.024935835972428322, -0.40623801946640015, -0.18890464305877686, 0.3762008249759674, -0.8115108013153076, 0.9496477246284485, 0.9398435950279236, 0.8577916622161865, 0.5677382946014404, -0.04574888199567795, -1.2744733095169067, -0.9430196285247803, -0.940731406211853, 0.11458335071802139, 1.19977867603302, 0.20547720789909363, 0.0872369259595871, -0.8723399639129639, -0.7566725611686707, 0.5117635130882263, 0.5957516431808472, -0.27344831824302673, -1.5345803499221802, -0.6221411228179932, -0.24151326715946198, 1.2478774785995483, 0.27275073528289795, 1.7028274536132812, -0.4017500877380371, -0.35264134407043457, -0.8676369786262512, 0.6216444969177246, 1.0464295148849487, 1.8258886337280273, 0.4433087408542633, -0.5136517286300659, -0.27426284551620483, 0.28017106652259827, 2.321023464202881, 1.5989032983779907, 1.5406177043914795, -0.6376242637634277, -0.9427784085273743, -0.8910219669342041, -2.1496896743774414, -3.774384021759033, 0.5943582057952881, 0.6433237195014954, -0.052026987075805664, 0.4633834958076477, -0.008633607067167759, 2.4915366172790527, 2.2222044467926025, 0.08926087617874146, -0.09925885498523712, -0.7970856428146362, -0.7122738361358643, -0.3908931612968445, 1.889502763748169, -0.2967860996723175, 1.1035162210464478, 0.2429630011320114, -1.2220081090927124, -0.27761659026145935, 0.2309781163930893, 0.9337152242660522, -0.023198194801807404, -0.792021632194519, -0.9612270593643188], [-0.6451754570007324, -0.8048758506774902, -0.6784628033638, -1.2150388956069946, -0.7088953852653503, -0.6151137351989746, 0.8171984553337097, -0.624085545539856, -1.09853994846344, -1.6063987016677856, -0.980138897895813, -0.5907708406448364, -0.5839794278144836, -0.5845884084701538, -0.7481639981269836, -1.3690823316574097, -1.1963293552398682, -0.17891773581504822, 2.8504884243011475, 1.388225793838501, -1.7559746503829956, -1.605588674545288, -0.41149094700813293, -0.08016235381364822, 0.2962504029273987, -0.5030810236930847, -0.6466106176376343, -0.9383845925331116, -0.3645196557044983, -0.7456068992614746, 0.6370034217834473, 1.706228494644165, 0.9870850443840027, 0.0031343933660537004, -0.15575367212295532, 1.6485302448272705, 3.792389392852783, 0.8705263733863831, -0.7468786835670471, -0.8724619150161743, -0.5357936024665833, -0.014689037576317787, -1.2832541465759277, -0.047653086483478546, 3.6703202724456787, 0.4826242923736572, -0.11253945529460907, 0.4741878807544708, 3.2150490283966064, 1.062158465385437, 0.11702892184257507, 0.23852607607841492, -0.6200941801071167, 0.7914956212043762, 0.8377943634986877, -1.394258975982666, 0.42985233664512634, 2.7422239780426025, -0.08555059880018234, 1.4161179065704346, 4.229861736297607, 2.0836374759674072, 0.23431438207626343, 0.6876347661018372, -0.33522191643714905, -0.6353541016578674, 1.4492603540420532, -0.4590412974357605, -0.6702508926391602, 2.0641136169433594, 0.12733973562717438, -0.9127187728881836, 1.5077548027038574, 3.2733144760131836, 0.06574603170156479, -1.0594645738601685, -0.8099005818367004, -0.4192515015602112, -0.6376643776893616, 1.0163822174072266, -1.0609177350997925, -0.19631832838058472, 2.5455920696258545, -0.1609862744808197, -0.33893007040023804, 0.0597306527197361, -0.4651969373226166, -1.065508484840393, 0.7113471031188965, -1.8127855062484741, 0.5771805644035339, -0.7402210235595703, 0.9185894727706909, -0.8396801948547363, -0.14321887493133545, 0.18847054243087769, -1.3098444938659668, 0.14053982496261597, 1.165930986404419, -0.29788315296173096, -0.5013275146484375, 0.8233407139778137, -1.027513027191162, -0.03067205101251602, -0.9100810289382935, 0.3315106928348541, 0.2986104488372803, 0.7273383736610413, -0.41108059883117676, -1.0212430953979492, -0.15382155776023865, 0.9773915410041809, -1.29193115234375, 0.03970802575349808, 0.4154151678085327, 0.6000189781188965, 0.050462644547224045, -1.0276187658309937, -0.41606977581977844, 0.392691433429718, 1.9557406902313232, 0.49222615361213684, -0.6125602126121521, -1.1231673955917358, 1.1641099452972412, -0.5427079796791077, 0.5072928071022034, 0.8486170768737793, 1.6897943019866943, -0.23097050189971924, -0.8894473314285278, -0.2519925832748413, 0.8655597567558289, 0.49284684658050537, 1.145180344581604, -0.6252039074897766, -1.0927067995071411, 0.7444480657577515, 0.48612096905708313, 0.5637548565864563, -0.13260142505168915, 0.8632717728614807, -0.45072469115257263, -0.9163994789123535, -0.8208519220352173, -0.8120416402816772, 0.5290672183036804, 1.5812443494796753, 0.2690753936767578, 1.8571221828460693, 1.055428147315979, 0.2227402776479721, -0.4747708737850189, -1.618752360343933, -0.6849300265312195, -0.9692250490188599, -0.9177666902542114, -0.8211662769317627, -0.7995482087135315, -0.8669784665107727, -1.5128729343414307, -1.638620138168335, 1.4592195749282837, -0.25659796595573425, -0.26356279850006104, -0.33321312069892883, -0.7626305818557739, -0.9836693406105042, -0.9435670375823975], [-1.066947102546692, -0.8520565032958984, -1.0284658670425415, -0.8748745918273926, -0.9619185328483582, -0.7440676689147949, -0.7947691082954407, -0.9246793985366821, -0.7982676029205322, -0.9478889107704163, -0.8018813133239746, -0.8167064189910889, -1.0977874994277954, -0.8905367851257324, -1.0491118431091309, -1.0892438888549805, -0.7469066977500916, 0.011684134602546692, 1.5674512386322021, 0.06180582568049431, 3.605771541595459, 1.6138845682144165, 0.7929880023002625, -0.400740385055542, -0.7122750282287598, -0.8802008628845215, -1.0678516626358032, -1.0863910913467407, 0.2442859262228012, -0.39501479268074036, -0.5620879530906677, -0.7795714735984802, -0.4002964496612549, -0.16253431141376495, 0.2205759882926941, 2.18168044090271, -0.703448474407196, 0.8705849051475525, 0.23541775345802307, -1.0339325666427612, 0.26264700293540955, 1.8775581121444702, 1.8979105949401855, -0.06636680662631989, -0.48744142055511475, -0.7624656558036804, -0.37886324524879456, -0.6454580426216125, 0.08466323465108871, 0.6822777986526489, -0.38822975754737854, -1.2474995851516724, -0.4772703945636749, 0.5101847052574158, 1.7298099994659424, 0.03189191222190857, -0.38742852210998535, -1.3231792449951172, -0.04899567738175392, -0.3926831781864166, 0.10108942538499832, -0.05783958360552788, 0.8214046955108643, -0.4412557780742645, 0.7503929734230042, -1.1318310499191284, -0.6543499231338501, 0.8480628728866577, -0.2753821015357971, -0.9443707466125488, -1.0457253456115723, 0.7795484662055969, -0.8322080969810486, -0.7458590865135193, -0.7347016334533691, 0.5602105855941772, 1.0062572956085205, 0.5850331783294678, -1.0285570621490479, -0.5381635427474976, 1.607435703277588, 0.34394562244415283, 0.6437000036239624, -0.17210857570171356, 0.10270503908395767, -1.8149549961090088, -1.0425914525985718, -0.6645347476005554, 1.5306670665740967, 1.7480049133300781, -0.3265484869480133, -0.709010660648346, -0.9493274688720703, 0.5580859780311584, 0.7607631087303162, -0.14677052199840546, 0.1441383957862854, 0.5398251414299011, -1.3706424236297607, -0.12581445276737213, 2.809896230697632, 3.3211708068847656, 1.3232883214950562, -0.5039514303207397, -0.9933915138244629, -0.4538573920726776, -0.5829373598098755, -0.6642101407051086, 1.6832908391952515, 1.655872106552124, 1.7596791982650757, 0.7436977028846741, 2.8055551052093506, 4.542586326599121, 0.0447138249874115, 1.69490385055542, -1.0172576904296875, -1.0598257780075073, 0.2694772183895111, 1.8775945901870728, 0.9832839369773865, 0.8741110563278198, 1.4544997215270996, 1.4350634813308716, 1.816308856010437, 1.6442203521728516, 2.7499656677246094, 0.6296799778938293, 1.7253332138061523, -1.1066553592681885, -0.7590378522872925, -1.0952637195587158, 1.382532000541687, 0.3130311369895935, -0.5668215751647949, 0.3844175934791565, 0.11619830876588821, 0.4373263716697693, -0.5059553384780884, 2.143749952316284, 1.490736961364746, -0.338650107383728, -0.6930732727050781, -0.8538601994514465, -0.6212571263313293, -0.4118255376815796, -0.3495508134365082, -0.2900475561618805, 1.1338154077529907, 0.5661361813545227, 0.25142374634742737, -1.2271783351898193, 0.6299561858177185, -0.8203319907188416, -0.45446380972862244, -1.052135944366455, -0.9209209084510803, -1.006020426750183, -0.1588936597108841, -1.3145606517791748, -0.16018930077552795, -0.042478058487176895, -0.023392848670482635, 0.4212620258331299, -0.519930899143219, -0.1366671323776245, -0.9797030091285706, -0.7317076325416565, -0.902877926826477], [0.007512806914746761, 0.03822055086493492, -0.21518567204475403, 0.32370105385780334, 0.3637565076351166, 0.39255568385124207, 0.4427729845046997, 1.6182416677474976, 2.209275484085083, 0.10581109672784805, -0.2847333550453186, 0.019770042970776558, -0.05738579481840134, -0.17499195039272308, 0.09212630242109299, 0.33336636424064636, -1.2314954996109009, -0.7437702417373657, 0.16477464139461517, -0.5611847043037415, -0.24334312975406647, 0.7332971692085266, -0.8124476075172424, -0.06908714026212692, 0.6666513085365295, -0.2948756515979767, -0.22272934019565582, 0.11172284185886383, -1.6418143510818481, -1.394050121307373, -0.14519615471363068, 0.4986463189125061, 0.2670880854129791, -0.015522555448114872, 0.5715915560722351, -0.49348095059394836, 0.6270605325698853, -0.9946790933609009, 0.6886429786682129, -0.1693786233663559, -0.2626194655895233, -0.7696402668952942, -0.712579071521759, -0.9496105313301086, 0.23575745522975922, 0.5772337913513184, 0.5960631370544434, -0.06733497232198715, -0.2556673288345337, -0.34044671058654785, -1.3355317115783691, -0.5144972205162048, 0.1104978621006012, -0.31056416034698486, -0.9518979787826538, -0.6523547172546387, 0.25738561153411865, 0.6168779134750366, 1.1290547847747803, 1.9704574346542358, -0.03881062567234039, -0.8349469304084778, -0.22719062864780426, -0.4885194003582001, 0.4364573657512665, -0.354988694190979, -0.6274887919425964, -1.1588006019592285, 0.8481050729751587, 1.2292909622192383, -0.32337838411331177, 0.5093018412590027, 4.944710731506348, 0.08458586782217026, -1.0668790340423584, -0.8022397756576538, -0.46826744079589844, 0.9171426892280579, -0.07484742999076843, -0.6776772737503052, -0.8121491074562073, -0.7550148367881775, 0.21049898862838745, -0.7385414242744446, 0.6653963327407837, 4.731802940368652, -0.12236084789037704, -1.3567564487457275, -1.176936388015747, -0.9627043604850769, 0.5403392910957336, 0.4164734482765198, 0.40434369444847107, 0.3801482021808624, 0.1337500512599945, -0.4515174329280853, -1.0662609338760376, 1.5848231315612793, 2.850200653076172, -1.7171790599822998, -1.1616907119750977, 0.010170172899961472, 0.9172966480255127, -1.3157272338867188, 0.8234578371047974, 0.18572580814361572, 0.424799382686615, 0.046415504068136215, 0.29858314990997314, 1.2636189460754395, 2.0755488872528076, -1.0370287895202637, -1.9309197664260864, -0.144371896982193, 0.7730340957641602, 0.9816429615020752, -0.3380764424800873, -0.12255288660526276, 0.17883320152759552, 0.05692519620060921, 0.14268726110458374, 0.5580704808235168, 0.12318289279937744, 0.3026494085788727, -1.3727974891662598, -0.14678137004375458, -0.16249924898147583, 0.9655784368515015, -0.4486500024795532, 0.25017544627189636, -0.5193654894828796, -0.7106717228889465, 0.16695791482925415, 0.5052011609077454, 0.28682535886764526, -0.0009112055995501578, -0.5656638741493225, -0.744086503982544, -0.016418667510151863, -0.6794323921203613, 0.05967317521572113, -1.2069190740585327, 0.05600004270672798, -0.19426293671131134, 0.2796474099159241, 0.18878662586212158, -0.10093235969543457, -0.17277158796787262, -0.6742680668830872, 0.22293183207511902, -0.6655158996582031, 0.5961241722106934, -0.4547864496707916, 0.3061034083366394, -0.6120748519897461, 0.02349776215851307, 0.07682312279939651, -0.2656792998313904, 0.5753670930862427, -0.8076731562614441, -0.3030513823032379, 0.13292895257472992, 0.18649069964885712, -0.7609639763832092, 0.27250874042510986, -0.2816706895828247, -1.1069964170455933, 0.14722801744937897, -0.11763504147529602], [0.08656514436006546, -0.05911800265312195, -0.10355789959430695, -0.07063973695039749, -0.18986466526985168, -0.040243081748485565, 0.04188036546111107, 0.008371674455702305, -0.08908625692129135, -0.04752105474472046, -0.12046895921230316, -0.14699512720108032, 0.10624226927757263, -0.14530527591705322, -0.08018922805786133, -0.16136759519577026, 0.04713677987456322, 0.0846979171037674, 0.01671198196709156, -0.03129642456769943, -0.20907127857208252, -0.09288869798183441, -0.19323478639125824, -0.12453249096870422, 0.001748864189721644, 0.023551486432552338, -0.06911931931972504, -0.039793115109205246, 0.0439547635614872, 0.07676225155591965, -0.09452573210000992, 0.11163405328989029, -0.09252778440713882, 0.17704644799232483, 0.20898711681365967, 0.024302279576659203, 0.07220916450023651, -0.03562193736433983, 0.060047585517168045, -0.019467586651444435, -0.09955572336912155, -0.03026588447391987, 0.1296437382698059, 0.08488242328166962, 0.11344319581985474, 0.12712357938289642, 0.17136865854263306, 0.037253182381391525, -0.15963208675384521, 0.08336799591779709, 0.08374080806970596, -0.1607765257358551, 0.03318959102034569, 0.0022817004937678576, 0.06665332615375519, 0.14473994076251984, -0.07518640905618668, 0.04810735210776329, -0.08254449814558029, -0.05167362466454506, 0.19365189969539642, 0.08701731264591217, 0.008761724457144737, 0.032043956220149994, 0.009644563309848309, 0.0077015915885567665, 4.798725785803981e-05, 0.07270359992980957, 0.08116623759269714, 0.14497309923171997, 0.007948178797960281, 0.13080939650535583, 0.1199759766459465, -0.02937992848455906, -0.11361779272556305, 0.03621571883559227, -0.028638262301683426, -0.13043414056301117, -0.08507078140974045, -0.013408473692834377, -0.09330106526613235, 0.18071196973323822, 0.14637267589569092, 0.13223253190517426, 0.006579263135790825, 0.09850241988897324, 0.04538053274154663, 0.04636375978589058, 0.09126448631286621, -0.06113039702177048, -0.07378847151994705, -0.15947715938091278, -0.03475920110940933, 0.0021015703678131104, -0.007769877091050148, -0.02365685999393463, -0.06877182424068451, 0.010318603366613388, 0.18027691543102264, 0.15696057677268982, 0.08984176814556122, 0.02661573886871338, -0.07507917284965515, -0.0054359170608222485, 0.025431741029024124, -0.058061834424734116, 0.1388203501701355, 0.017432380467653275, 0.20618464052677155, 0.16073337197303772, 0.05892748385667801, -0.10924559086561203, 0.045533351600170135, 0.22357803583145142, 0.09664744883775711, -0.009711874648928642, 0.11549355834722519, -0.07294264435768127, -0.04214278236031532, 0.08935021609067917, -0.11121972650289536, 0.06610360741615295, 0.09820721298456192, 0.1386178582906723, -0.09333730489015579, 0.12605459988117218, -0.03742026537656784, 0.009934736415743828, 0.10105225443840027, 0.08072280883789062, 0.058712344616651535, -0.017017247155308723, -0.09503556787967682, 0.08143982291221619, -0.08439123630523682, 0.029346344992518425, -0.011738235130906105, 0.1602695882320404, 0.08700703829526901, -0.005768956616520882, -0.009103714488446712, -0.020720725879073143, 0.07217460870742798, 0.11031144112348557, -0.06652560830116272, -0.010098377242684364, 0.07151161879301071, -0.12376720458269119, 0.2342158854007721, 0.029132936149835587, 0.09410415589809418, 0.09304189682006836, 0.10915910452604294, -0.14297693967819214, -0.07450401037931442, -0.19172479212284088, -0.16273559629917145, -0.01719791069626808, 0.01307639293372631, -0.11499901860952377, 0.0841740071773529, 0.07371959090232849, 0.09841275960206985, 0.06995230913162231, -0.18576183915138245, -0.17378149926662445, 0.059838224202394485, -0.09788881242275238, -0.055842965841293335], [-0.3142367899417877, -0.43635085225105286, -0.4870046079158783, -0.5882846117019653, -0.5965794324874878, -1.3741377592086792, -1.1751075983047485, -2.263011932373047, 0.267274409532547, 0.990839421749115, -0.30507907271385193, -0.6010492444038391, -0.549355685710907, -0.3483136296272278, -0.2863413989543915, -1.034921407699585, 0.17658494412899017, -1.2156096696853638, -1.180237054824829, -0.7021121978759766, 1.7399402856826782, 0.27326110005378723, 0.1654113382101059, 0.2660806477069855, 0.5844104290008545, -0.3584461510181427, -0.511405348777771, -0.8184568881988525, -0.2599913775920868, 0.4301237463951111, 0.8982950448989868, -0.33884331583976746, -0.447010338306427, 0.2330867350101471, -0.3983609974384308, -0.752655565738678, 0.4473792612552643, 1.373691201210022, 0.007762615103274584, -0.3957216739654541, 0.7003778219223022, 2.343489646911621, 1.724238634109497, 0.498525470495224, -1.5113511085510254, -0.02833406627178192, 0.35735416412353516, 0.0002260482870042324, 0.14121823012828827, 0.6149611473083496, 2.3052923679351807, -0.07644203305244446, -0.5292479395866394, 1.4855542182922363, 1.61436128616333, 1.0417431592941284, 0.003964502364397049, -1.0735173225402832, 0.052645642310380936, 1.0398951768875122, -0.5097194314002991, -0.34253254532814026, 0.5778918266296387, 3.509389877319336, 0.8306624889373779, -0.4246584177017212, 0.4038962423801422, 0.8522922992706299, 0.44245731830596924, 1.1228009462356567, 0.07523384690284729, 0.9157589673995972, 1.6868233680725098, 0.6901353001594543, 0.067502960562706, 0.2409437894821167, 0.3535982370376587, -0.984632670879364, -0.1258784830570221, -0.17470739781856537, 0.8666587471961975, 1.266597867012024, 1.871522068977356, 0.49355295300483704, -0.8550866842269897, 0.653974711894989, 0.2787332236766815, 0.547227144241333, -0.020767580717802048, 1.291394591331482, -1.5861148834228516, 0.32032158970832825, -1.4951125383377075, -0.8574020862579346, 0.7665373682975769, 0.5930511951446533, -0.3377980887889862, -0.7566016912460327, -0.9065390229225159, -0.8514176607131958, -0.3655969500541687, -0.08508279919624329, 0.5128777623176575, -3.1588008403778076, 0.6235571503639221, -1.3812569379806519, -2.2743256092071533, -0.39415687322616577, -0.48819759488105774, 0.2713852822780609, 0.004440581426024437, -2.198660135269165, -1.1454238891601562, -1.2982333898544312, -0.961264967918396, -0.39480412006378174, -3.6216108798980713, 0.19415482878684998, -2.639780044555664, -0.5638539791107178, -0.6650855541229248, 0.04282113537192345, 0.978080153465271, 1.3253591060638428, -0.9479413032531738, -1.291185736656189, -0.5191230773925781, -0.8949549794197083, -2.6955482959747314, -2.980161190032959, -0.864355206489563, -0.9033083319664001, -0.4208068251609802, -0.838383138179779, -0.1444588005542755, 0.8509315252304077, 2.4764981269836426, 1.68991219997406, -0.1613473892211914, -1.135174036026001, -2.541416645050049, -0.988089919090271, -0.5055205225944519, -0.3645162284374237, -1.2661594152450562, 0.3871142566204071, 2.098580837249756, 1.6943031549453735, -0.3850831985473633, 3.79878830909729, 4.118800640106201, 2.627683401107788, 1.2948790788650513, 0.5207878947257996, 0.7970086932182312, -0.28335535526275635, -0.4562220275402069, -0.30835357308387756, -0.02726849541068077, 2.376589298248291, 3.8215253353118896, 0.6047558784484863, 1.3030908107757568, 1.2159552574157715, 2.4566524028778076, 2.0955445766448975, -0.0544276162981987, -0.383007287979126, -0.3635813891887665], [-0.42927849292755127, -0.5094595551490784, -0.3303576409816742, -0.4110577404499054, -0.04360679164528847, 0.3240557312965393, 0.02102193795144558, -0.5169697999954224, -0.18815180659294128, -0.10625404864549637, -0.2575486898422241, -0.40049490332603455, -0.601839542388916, -0.593399703502655, -0.3910374939441681, -0.15907081961631775, -0.6059904098510742, 2.3725991249084473, 2.464829921722412, 1.584536075592041, 0.22989343106746674, 1.8383234739303589, 1.5945664644241333, 1.5369043350219727, -0.5209265947341919, -0.6039142608642578, -0.6390840411186218, -0.35307928919792175, -0.9550725221633911, -0.37585577368736267, 0.5291755199432373, 1.3797909021377563, -0.0935530886054039, -0.8235442042350769, 0.4531145989894867, 0.5576189160346985, 0.8028945922851562, 1.0713744163513184, 0.3400714695453644, -1.0007622241973877, -1.3025010824203491, -1.200365424156189, -0.44220802187919617, -0.4459511935710907, -0.7486830353736877, -0.10118556767702103, 0.09478550404310226, 0.15387700498104095, -0.5921663045883179, -0.6767554879188538, -0.2774503231048584, 0.1948474943637848, -0.4729970693588257, -0.7891267538070679, -0.9879751205444336, -1.222670316696167, -2.0701959133148193, -0.3676774799823761, -0.2723468840122223, -1.3126438856124878, -0.35223230719566345, 0.031338710337877274, 0.8402220010757446, 0.17827703058719635, -1.107229471206665, -0.2523711025714874, -0.20262429118156433, 0.06072801724076271, 1.1306087970733643, 3.8613815307617188, 3.411146402359009, -0.10185784101486206, 0.5187124609947205, 0.24384264647960663, 0.21709878742694855, 1.8533040285110474, 1.5972658395767212, -0.3059581518173218, -0.46811699867248535, 2.717663526535034, 4.4358978271484375, 5.544900894165039, 1.580061912536621, -1.4639885425567627, -1.0113986730575562, 0.38337570428848267, -0.021768733859062195, 0.06004943698644638, -0.17524148523807526, -1.9868419170379639, -0.4979861378669739, -0.9195884466171265, 0.9071171283721924, 0.472807377576828, -0.5573217272758484, -0.8186464309692383, -1.384598731994629, -1.0656211376190186, -0.33233827352523804, -0.7709087133407593, -0.8256253600120544, -1.329174280166626, -1.3003357648849487, 0.1508435159921646, -0.7666125893592834, -1.0214638710021973, 0.21130269765853882, 0.4072512090206146, -0.23433896899223328, -0.3335130512714386, -0.1712137758731842, -0.2235848307609558, -0.08372638374567032, -1.0094953775405884, -0.3574441075325012, -1.0289911031723022, -1.7111577987670898, 0.2501665949821472, -0.7784615159034729, 1.4327691793441772, 2.6536450386047363, 1.9748649597167969, 1.757717251777649, 0.19804243743419647, 0.4418797791004181, 0.7204192876815796, -0.21837590634822845, 0.3584546148777008, -0.6204903721809387, -1.2571220397949219, -0.7241427302360535, -0.6961051821708679, -0.8271763324737549, -0.17773959040641785, 0.28222736716270447, -0.8853341937065125, -0.08210506290197372, -0.5982599854469299, 0.7703192830085754, 0.17883595824241638, 1.575896978378296, 0.06944306194782257, -0.7081658244132996, -0.3927620053291321, -2.1182591915130615, -1.6755648851394653, -0.6645936965942383, -0.5188149213790894, 0.3760577440261841, 0.642240047454834, -0.3763257563114166, -0.9820564389228821, 0.7670297026634216, 1.5767499208450317, 0.20869755744934082, -0.3750428259372711, -0.543741762638092, -0.2589733600616455, 1.6816104650497437, -1.786485195159912, -1.3148066997528076, 1.1472762823104858, 0.5552674531936646, 0.08573431521654129, 0.17592601478099823, 0.17802420258522034, 0.3164637088775635, -0.6847346425056458, -0.3287489414215088], [-1.1035354137420654, -1.2020037174224854, -1.1141104698181152, -1.2851940393447876, -0.28406110405921936, -0.5521801114082336, 0.9473285675048828, -0.2885013818740845, -1.6411372423171997, -2.3123908042907715, -2.4537696838378906, -1.2482465505599976, -0.9230344295501709, -1.0250235795974731, -1.0757267475128174, -1.0857863426208496, 0.3545472323894501, 2.893793821334839, 3.6487791538238525, -0.10599332302808762, -0.29630139470100403, 1.2934322357177734, -1.6483234167099, -0.6155002117156982, -0.5975109338760376, -0.16032466292381287, -1.0958606004714966, -0.8175795674324036, -0.7702898979187012, 4.543625831604004, 3.4529919624328613, -0.3848409950733185, -1.742537498474121, 0.4892635643482208, 1.0435391664505005, 0.7440816760063171, 0.947885274887085, -1.2933882474899292, -2.49100661277771, -1.2005501985549927, -0.7166779637336731, 0.1558142453432083, 4.264143943786621, 3.291966676712036, -1.1530072689056396, -0.946467936038971, 1.1716887950897217, 0.7893378138542175, 0.35422447323799133, 0.3084571361541748, -1.0275472402572632, -1.7097355127334595, -1.5486438274383545, -1.2154875993728638, 0.17103764414787292, 3.3577282428741455, 2.940905809402466, -0.4187266528606415, -1.2962453365325928, 1.2915689945220947, -0.7444579601287842, 0.7557820081710815, 0.32724013924598694, -2.4215049743652344, 0.010819544084370136, -1.226904273033142, -0.11342628300189972, 0.122637540102005, 2.563052177429199, 1.4754279851913452, -1.6353790760040283, -1.256144642829895, 0.5107796788215637, 0.05864069610834122, 0.7543138265609741, 0.4670335650444031, -0.013779368251562119, 1.8379637002944946, -0.7939370274543762, -0.9612182378768921, -0.37754350900650024, 1.951735019683838, -0.6419671773910522, -1.769974708557129, 0.08131888508796692, 0.2417639046907425, 0.3267804682254791, -0.6232733130455017, 0.2924163043498993, 1.0659513473510742, 1.217597246170044, -1.094408392906189, -0.5765985250473022, 1.9349658489227295, 0.9067749381065369, -0.43888622522354126, -0.3732428550720215, -0.06575608253479004, 0.6795600652694702, -0.6230466365814209, -0.8531350493431091, 0.5371214151382446, 1.1292234659194946, 1.786468267440796, -0.8440032005310059, 0.19765020906925201, 0.8527270555496216, -0.08269575983285904, -0.34826162457466125, -0.5662869215011597, 0.28361305594444275, 0.2299560308456421, -0.8502292633056641, -0.2937597334384918, 0.24262553453445435, -0.02980264090001583, 0.5901170372962952, -1.429021954536438, 0.7462733387947083, -0.0009529120288789272, -0.18780463933944702, 0.8284518718719482, 0.0031942313071340322, -0.04848469793796539, 0.027365701273083687, 0.43066874146461487, 0.2682865262031555, 1.3503179550170898, 0.4169284403324127, -0.5757709741592407, -1.0211063623428345, -0.4565778374671936, -0.18642859160900116, 0.38774964213371277, 0.7039197683334351, 0.11569076031446457, 0.17905877530574799, -0.8079671859741211, -0.8780856728553772, -1.494032382965088, -0.2304423451423645, -0.5304021835327148, -1.120111107826233, -1.1641589403152466, -1.0295206308364868, -0.9305234551429749, 0.016244960948824883, -0.2633250057697296, -0.4963633120059967, 0.004704614635556936, -0.02030213549733162, -0.015427480451762676, -1.309689998626709, -2.067049503326416, -1.0574963092803955, -1.30952787399292, -1.0813884735107422, -0.9017178416252136, 0.521432101726532, 0.6688843369483948, -0.8476545810699463, 0.05509089305996895, 3.8274641036987305, 2.1567230224609375, 1.6372243165969849, 0.6721838712692261, -1.1546664237976074, -1.3660463094711304, -1.1629594564437866], [-0.7340620160102844, -0.7317618727684021, -0.7748044729232788, -0.8541601896286011, -0.5118715763092041, -0.13282634317874908, -0.22199878096580505, 0.751171350479126, 0.29676124453544617, -0.7980865836143494, -0.7106422185897827, -0.9326499104499817, -0.8862671256065369, -0.9238120913505554, -0.9891055822372437, -0.522699773311615, 0.5856996774673462, 2.454298734664917, 0.7385801672935486, -1.4362107515335083, -1.5117164850234985, -0.8056088089942932, -0.4040619432926178, 0.6693806052207947, 0.9435017108917236, -0.4075213074684143, -0.726973831653595, -1.2126253843307495, 0.1555759608745575, 1.5411853790283203, 0.626120924949646, 0.967772901058197, 0.3975234925746918, -0.6514787077903748, -0.27979806065559387, -0.34895405173301697, -0.7249689102172852, 0.8711204528808594, 0.8947123885154724, -0.8972914814949036, -0.26836884021759033, 1.5835270881652832, 1.377287745475769, 0.7992494106292725, 1.017711877822876, 0.36795270442962646, -0.7670410871505737, -0.7694358229637146, -1.0863147974014282, -0.31597384810447693, 1.259841799736023, 1.3826045989990234, -0.7212981581687927, 0.2651120722293854, 1.5123192071914673, 1.3652065992355347, -0.6386556625366211, 0.79767906665802, 0.4695364534854889, -2.142777681350708, -1.573388695716858, -1.5138251781463623, -0.9139824509620667, 2.1827571392059326, 0.9040141701698303, -1.0414263010025024, -0.28283941745758057, 0.9838798642158508, 0.29326337575912476, -0.5593760013580322, 1.646292805671692, 0.16766390204429626, -0.8343674540519714, -0.8917884826660156, -0.9089319109916687, -1.9589929580688477, 3.1319992542266846, 1.1111186742782593, -0.8605446815490723, -1.9207522869110107, -0.6849603056907654, -0.44369515776634216, 0.2803879976272583, 0.6839500665664673, 0.3311118483543396, -0.6445581912994385, -0.6231307983398438, -1.0732982158660889, -1.5230504274368286, 1.9652400016784668, 0.7713913917541504, -0.48281019926071167, -0.4472436308860779, -0.9829387664794922, -0.34970590472221375, -0.5609540343284607, 0.30746281147003174, 0.5331908464431763, 0.05918712168931961, 0.42982515692710876, -0.08972001075744629, 0.04260491207242012, 1.8790827989578247, -0.12627653777599335, -1.4366724491119385, -0.20788516104221344, 1.356145977973938, 0.32504400610923767, -0.869799017906189, 0.3843344449996948, 0.7739207744598389, 0.9817439317703247, -0.2580016553401947, -0.06451259553432465, 0.3982914090156555, 1.0794821977615356, -1.3000458478927612, -1.0702478885650635, 1.0627561807632446, 0.7715935707092285, 0.33322903513908386, -0.2963981330394745, 0.2714027166366577, -0.6367241740226746, 0.2712351083755493, -0.7495741844177246, 0.8396270275115967, 2.1917572021484375, 0.13955190777778625, -2.0043833255767822, -0.5967327356338501, 0.4023910462856293, 0.4697081744670868, -0.029586493968963623, 0.9725134968757629, -0.09099319577217102, -1.1658629179000854, -0.10384655743837357, 1.1388208866119385, 3.539217710494995, 1.1278557777404785, -0.146783709526062, -1.1429508924484253, -0.7460965514183044, -0.6369778513908386, -0.6612929701805115, 0.33761852979660034, 0.26653438806533813, -0.09596876055002213, -0.33135905861854553, 0.7843101024627686, 1.3352460861206055, 2.422084093093872, -0.16262029111385345, -0.6045982241630554, -1.006879210472107, -0.8778561949729919, -1.4636027812957764, -3.7429137229919434, -1.073689579963684, -1.8970904350280762, 0.3573753535747528, -0.3657616972923279, -0.3417235314846039, 0.8866745829582214, -0.5879330039024353, -1.615200400352478, -0.8804768919944763, -0.9693575501441956], [-0.5846256017684937, -0.7750105261802673, -0.7495906949043274, -1.3691329956054688, -1.5740480422973633, -2.6774303913116455, -1.5063891410827637, -1.1899338960647583, -1.4650055170059204, -1.8296443223953247, -0.9311575293540955, -0.5729572772979736, -0.6547407507896423, -0.7369338274002075, -0.8175720572471619, -1.9042853116989136, -2.5555334091186523, -3.028333902359009, -1.964190125465393, -1.468556523323059, -0.027201050892472267, 0.07731013000011444, -1.7081685066223145, 0.8270294070243835, 1.1520018577575684, -0.1752307116985321, -0.5854959487915039, -1.681264042854309, -0.5026876330375671, -1.2110416889190674, -0.2626345753669739, -0.41785791516304016, 0.822413444519043, 1.0924811363220215, 2.885852575302124, 2.0546727180480957, 3.742304563522339, 3.4328973293304443, -0.1897258758544922, -0.47045227885246277, -0.4324347674846649, -0.048961129039525986, -0.45575132966041565, 0.43162116408348083, 0.07609640806913376, 0.26554977893829346, 1.4391323328018188, 1.8211866617202759, 2.1027352809906006, 3.478811502456665, 3.1881463527679443, 1.2356411218643188, -1.0962536334991455, -1.5991543531417847, 1.009250521659851, 0.409000962972641, 0.5815281867980957, -0.26760154962539673, 0.8355042934417725, 1.41048264503479, 0.39654403924942017, -0.09506410360336304, -1.0135741233825684, 1.4620282649993896, 1.7992914915084839, -0.6418905258178711, 0.34644776582717896, 1.3442344665527344, -0.5618182420730591, -0.41931039094924927, -0.5825738906860352, 1.002852201461792, -0.4326612055301666, -0.8969593644142151, -2.4103634357452393, -1.4859156608581543, -0.09828365594148636, -0.5253556370735168, -0.8561697006225586, -0.5114536881446838, 0.3636425733566284, -0.4274427592754364, -0.17621946334838867, 0.4217950701713562, 0.9914270043373108, -0.21184515953063965, -0.6797543168067932, -0.6300920844078064, -2.430244207382202, -1.9067327976226807, -0.7781760692596436, -0.536813497543335, -1.1130985021591187, -1.0008591413497925, 0.3145354986190796, -0.42260420322418213, 0.09650860726833344, 0.14585158228874207, 0.5407670140266418, 0.33483806252479553, -0.7581040263175964, -0.821572482585907, -0.6229937672615051, -1.4856475591659546, -0.8204524517059326, -0.5436591506004333, -0.25595521926879883, 0.09542104601860046, 0.18383605778217316, -0.7992541790008545, -0.8219485878944397, 0.538241446018219, 0.13488061726093292, 0.5823096036911011, -0.7713878154754639, -0.18622924387454987, -1.1236999034881592, -0.5053216218948364, 0.23075328767299652, 1.100061297416687, 0.4124075472354889, -0.042229220271110535, -0.8022409081459045, -1.1188923120498657, -1.0298060178756714, 0.0025184506084769964, 0.4487903416156769, 1.2266219854354858, 2.5073342323303223, -0.03670791536569595, -0.5565943121910095, -0.3537732660770416, 1.9696627855300903, 1.8463512659072876, -1.2233052253723145, 0.9193426966667175, -0.48446741700172424, -0.6384966969490051, -0.2389853596687317, 1.4427684545516968, 1.1790269613265991, 3.967456102371216, -0.1437993198633194, -0.5079243183135986, -0.43644389510154724, -0.8905550837516785, 1.187186598777771, 2.290904998779297, 4.768139362335205, 2.529656410217285, 2.6538734436035156, 4.385197162628174, 2.6261770725250244, 1.6050931215286255, 2.1272435188293457, -0.4093340337276459, -0.7043353915214539, -0.7196244597434998, -0.7622029185295105, -1.0797868967056274, 0.37758350372314453, 0.26054683327674866, -2.2641220092773438, -0.8782933354377747, 1.1701841354370117, -0.7051271796226501, 0.25993385910987854, -0.3908694386482239, -0.6974841952323914], [-0.07400325685739517, -0.061982881277799606, -0.1735905557870865, 0.0999332144856453, -0.03568876162171364, -0.07699774205684662, -0.046292755752801895, 0.11283811926841736, 0.03807224705815315, 0.023787137120962143, -0.06291229277849197, 0.09373831003904343, -0.11112777143716812, -0.17987103760242462, -0.07207640260457993, 0.026784250512719154, -0.1872461587190628, 0.14935733377933502, -0.037938959896564484, 0.09033151715993881, -0.06646760553121567, 0.043968528509140015, -0.1479955017566681, 0.136974036693573, 0.12615756690502167, -0.11657396703958511, -0.02818789705634117, -0.1033765897154808, 0.01769472472369671, 0.222097709774971, 0.07232276350259781, 0.1547696441411972, 0.041644386947155, 0.15870997309684753, 0.2051190882921219, 0.18912050127983093, 0.045937396585941315, 0.21472999453544617, -0.14548379182815552, -0.08519133925437927, -0.0030802797991782427, 0.012494475580751896, 0.11146185547113419, -0.04253387451171875, 0.11008130013942719, 0.11266870051622391, 0.1414681226015091, 0.15098637342453003, 0.17390865087509155, -0.032370295375585556, 0.14020326733589172, 0.19943691790103912, -0.0016038669273257256, -0.0224604532122612, 0.0009744890267029405, -0.035354532301425934, -0.08230723440647125, -0.024694431573152542, 0.035809360444545746, 0.16325651109218597, -0.18307337164878845, 0.1974049210548401, -0.09823939949274063, -0.05901245400309563, -0.0769185721874237, 0.039258651435375214, -0.14064833521842957, 0.09897253662347794, 0.10285139083862305, -0.01582859456539154, -0.06709771603345871, 0.1416531354188919, 0.118362657725811, 0.21380925178527832, 0.02537955529987812, -0.006368580739945173, 0.025650788098573685, -0.05090732127428055, -0.09972032159566879, -0.030856003984808922, -0.00918298214673996, 0.10299050062894821, 0.043973177671432495, 0.15646137297153473, 0.16688838601112366, -0.06973668187856674, 0.2010575234889984, -0.07473734766244888, 0.13130919635295868, -0.11373721063137054, -0.13504621386528015, -0.0162380151450634, 0.0528615266084671, 0.0053068301640450954, -0.05756092071533203, 0.12233144789934158, 0.12009981274604797, 0.15192407369613647, 0.06146317720413208, -0.05830220878124237, 0.18046453595161438, 0.13531935214996338, 0.03061000630259514, -0.1237591877579689, 0.024498768150806427, -0.08130250871181488, 0.21965879201889038, -0.03013576753437519, 0.07222268730401993, 0.018534861505031586, -0.034249406307935715, 0.04974012076854706, 0.10452655702829361, 0.050392042845487595, -0.04207925125956535, 0.12215530127286911, 0.1309799700975418, -0.08812621980905533, -0.0735897570848465, 0.08708256483078003, 0.10759887844324112, 0.15800191462039948, 0.03944551199674606, 0.2154138833284378, 0.15463708341121674, 0.22484871745109558, 0.12052479386329651, 0.19046077132225037, 0.013119966723024845, -0.11457502096891403, 0.020083999261260033, -0.17580530047416687, 0.15264305472373962, 0.07346295565366745, -0.10650277137756348, 0.06074947118759155, 0.09406135976314545, 0.18312083184719086, -0.09282789379358292, -0.012361839413642883, 0.09802024811506271, 0.08746708929538727, -0.0679418221116066, 0.06802883744239807, 0.00126531848218292, 0.0869346633553505, -0.158120259642601, -0.05449475347995758, 0.21326546370983124, 0.006075849290937185, -0.11245585232973099, -0.009902393445372581, -0.0631379708647728, 0.0566650852560997, -0.0977945327758789, -0.03916173428297043, -0.09500140696763992, -0.10534001141786575, 0.16360348463058472, -0.1591072380542755, -7.632970664417371e-05, -0.014613612554967403, 0.04219914227724075, 0.17000098526477814, 0.21266120672225952, -0.050939273089170456, 0.065821573138237, 0.049830686300992966, 0.11937213689088821], [-0.5491809844970703, -0.46375608444213867, -0.5718377828598022, -0.08371537178754807, -0.480512797832489, -0.23016257584095, -1.436173677444458, -0.5334003567695618, -0.9262542128562927, -0.17562860250473022, -0.3645423948764801, -0.454408198595047, -0.5187422037124634, -0.4077821969985962, -0.4511421024799347, -0.7295049428939819, -0.585408091545105, 0.7216999530792236, -0.28734245896339417, -1.4573804140090942, 2.9452297687530518, 4.137558460235596, 3.2890875339508057, 0.6923258304595947, -1.9734091758728027, -0.7198607325553894, -0.5057232975959778, -0.585536539554596, -2.391003131866455, -1.5846065282821655, -0.32648512721061707, -0.7009392976760864, -0.9505234956741333, 1.2416181564331055, 7.678006649017334, 1.547253131866455, -2.0533101558685303, -2.628687620162964, 0.6382634043693542, -0.5660959482192993, -0.7709280252456665, 0.5706707239151001, 1.585548996925354, 0.3931283950805664, -0.9740285873413086, -2.310619354248047, 3.327202081680298, 6.2617058753967285, -1.3451532125473022, -0.7505193948745728, -2.182985305786133, -0.04388705641031265, -0.19466565549373627, 0.044611841440200806, 0.9407600164413452, 0.2555401027202606, 0.8605149984359741, -0.33881741762161255, -1.2220733165740967, 4.679015636444092, 0.7028308510780334, -1.7001914978027344, -1.3014754056930542, -0.3308819532394409, 0.0842207670211792, -0.503631591796875, -0.41568347811698914, 1.226296305656433, 0.3365801274776459, 0.23801612854003906, -0.5243867635726929, 0.007899835705757141, 1.6361404657363892, -0.6881212592124939, -0.5851452350616455, -0.27599644660949707, 2.9332330226898193, 1.6599236726760864, -0.5730188488960266, -0.26531586050987244, 0.23255415260791779, 0.21849948167800903, -0.7373863458633423, 1.0765167474746704, -0.05628807470202446, 0.24399174749851227, -0.060499634593725204, 0.1544395238161087, 0.4703918397426605, 0.10712671279907227, 2.2034800052642822, -0.43820297718048096, 1.9045518636703491, -0.1622336506843567, -0.996803879737854, 0.7113008499145508, 0.8140277862548828, -0.7183732986450195, -0.6473135948181152, -0.1335562765598297, -0.6604277491569519, 0.5325842499732971, 0.7414752840995789, 0.8523218631744385, -0.5482092499732971, -0.3789428174495697, -0.3300655782222748, 0.34224146604537964, 0.14824973046779633, 0.09170591831207275, -1.0592929124832153, -0.6344912052154541, 0.355559378862381, -0.5956935882568359, 0.5216137170791626, -0.6149342060089111, -0.02799869328737259, -0.46976572275161743, -0.8388144969940186, 0.028138190507888794, -0.4826680123806, 0.7351413369178772, 0.45482054352760315, -0.38816437125205994, -0.1552298367023468, -0.0815669372677803, -0.30517756938934326, 0.18072426319122314, -0.32146191596984863, 1.2252964973449707, -0.471426784992218, -0.18733111023902893, -0.3260076344013214, 0.6461310386657715, 0.6887301802635193, 0.16925673186779022, 0.12808720767498016, -0.4929966330528259, 0.07710660248994827, -0.8983104825019836, -0.6833581924438477, 0.33433863520622253, 0.19657079875469208, -0.562928318977356, -0.14891810715198517, -0.4691478908061981, -0.4184734523296356, -0.8145240545272827, -1.197668194770813, -0.3305893838405609, 0.19433355331420898, -0.0332532562315464, -0.058225616812705994, 0.24970343708992004, 0.10879591107368469, -0.3129820227622986, -0.3490811884403229, -0.08652229607105255, 0.9193437695503235, 0.6640068888664246, -1.0329465866088867, -0.9191483855247498, 1.124912977218628, 1.793681263923645, 0.7828284502029419, 2.503166437149048, 0.35729485750198364, -0.3618490695953369, -0.577089786529541], [-0.124037966132164, -0.14972460269927979, 0.09555529057979584, -0.14853981137275696, -0.44367489218711853, -0.8585975766181946, -1.3404362201690674, -1.069783091545105, -0.6042172312736511, 0.608454704284668, -0.7658551335334778, 0.07732158899307251, -0.018295248970389366, 0.0706246942281723, -0.19495142996311188, 0.25139373540878296, 0.6748055219650269, -2.0286672115325928, -1.3088176250457764, -1.6900721788406372, -1.2997183799743652, -0.2979055643081665, 0.30483320355415344, -1.3725662231445312, 2.2636754512786865, 1.5146675109863281, -0.08085024356842041, 0.15295469760894775, 1.805934190750122, 1.5621057748794556, 0.9269552826881409, -0.7915856838226318, -0.4282499849796295, 0.26861879229545593, -0.6099185943603516, -0.5350009202957153, -0.2795705199241638, -0.11826925724744797, -0.34638792276382446, 0.10402055829763412, 0.40335944294929504, 1.4549437761306763, 1.6534900665283203, -0.19614025950431824, -0.968824565410614, -0.1556967943906784, 0.8182743191719055, 0.9414563775062561, 1.0803749561309814, -0.1013336256146431, -1.217002511024475, -1.9048956632614136, -0.0733189582824707, -0.011328878812491894, -0.014676813967525959, 0.565108597278595, -0.14475895464420319, 0.650272011756897, 0.35498666763305664, 0.5396115183830261, 0.19740919768810272, 0.07548405230045319, -0.49613523483276367, 0.18433915078639984, -0.43740323185920715, -0.22728648781776428, 0.01156576257199049, -1.2143603563308716, -1.2137988805770874, -0.27679625153541565, 0.5768790245056152, -0.19970911741256714, -0.025327106937766075, -0.0637463852763176, -0.630094051361084, -1.4781924486160278, -0.2990015745162964, -0.7514559030532837, 0.22198230028152466, 0.9821076393127441, 2.4306602478027344, 0.3131115734577179, 1.3490852117538452, 0.014354370534420013, -0.8163720369338989, -0.7140874266624451, 0.3422393202781677, -0.09906721115112305, -0.24858804047107697, 0.31131279468536377, -0.703765869140625, 0.2953629195690155, 0.814489483833313, 2.929457187652588, 0.37636393308639526, -0.7227877378463745, -1.9537400007247925, -0.20254172384738922, -0.06841704249382019, 0.38270026445388794, 0.7231740355491638, 0.0034450653474777937, -0.10814119130373001, -0.3031389117240906, 0.18515413999557495, 0.7057828307151794, 0.9486796259880066, -1.0581313371658325, -2.60200572013855, -1.442603588104248, 2.1046483516693115, 0.7456956505775452, 0.5336002707481384, 0.5971570611000061, 0.48358020186424255, -0.5603209733963013, -0.42573225498199463, 0.4591197967529297, 0.35763832926750183, 0.24149198830127716, -0.4131680130958557, -1.6091586351394653, 1.100506067276001, 1.3679704666137695, 1.0371462106704712, 1.027711272239685, 1.1817193031311035, -0.8436480760574341, 0.19843631982803345, 0.9335019588470459, -0.16330642998218536, -1.046540379524231, -1.5617088079452515, -1.3689764738082886, -0.48212939500808716, -0.03440084680914879, 0.3729090690612793, 1.0996840000152588, 0.5256808400154114, 0.8447456955909729, -1.1134579181671143, 2.042513132095337, 1.8522194623947144, -0.21966703236103058, -0.38792696595191956, 0.45986539125442505, 0.451793372631073, -0.20152096450328827, -1.1318485736846924, -0.6479077339172363, 0.5599480271339417, 1.1970781087875366, 0.10947183519601822, 1.7404249906539917, 1.6860969066619873, 0.6653532385826111, -0.004819198977202177, 0.5457421541213989, 1.6417112350463867, 3.091041326522827, -0.6768175363540649, -0.36767250299453735, -1.3364579677581787, -0.4365636706352234, -0.8158307075500488, 1.7768945693969727, 1.1366328001022339, 0.08471842110157013, 0.0445529967546463], [-0.937190592288971, -0.8275923132896423, -0.9789347648620605, -0.600822389125824, -0.4358362853527069, -0.5829848647117615, -0.45548945665359497, -1.1395243406295776, -0.8229933977127075, -0.9120602607727051, -1.0260899066925049, -0.707807183265686, -0.821150004863739, -1.0080102682113647, -0.9790414571762085, 0.0037870309315621853, 0.18922939896583557, 1.2624224424362183, 2.460787773132324, 3.350696325302124, 0.11774177849292755, -1.6303564310073853, -1.9166053533554077, -1.4222500324249268, 0.7714778184890747, -0.6819453239440918, -1.0120636224746704, -1.2129580974578857, -0.8159667253494263, -0.9467501044273376, 1.628671407699585, 3.896299123764038, 0.3621562123298645, -1.5232396125793457, -0.9086310267448425, 0.6420071721076965, 0.6143479943275452, 0.008053408935666084, -0.5659174919128418, -0.8160368204116821, -1.6783182621002197, -0.9022035598754883, -1.0292209386825562, 3.561128854751587, 2.535470485687256, -0.29485461115837097, -1.2516295909881592, 0.4432045817375183, 2.2961769104003906, 0.6185941696166992, 0.3932867646217346, -0.7091795206069946, -0.30601295828819275, -0.42885422706604004, -1.3085205554962158, -0.439290314912796, 2.0951242446899414, 2.918808937072754, -0.03757493570446968, -0.8837717175483704, 0.18560437858104706, 1.9114376306533813, -0.8577927947044373, 2.087843418121338, -0.859232485294342, -0.5151218175888062, 0.4541037082672119, 0.4598807990550995, -0.8375646471977234, 0.06746158003807068, 1.6663706302642822, 1.4030205011367798, -0.1799141764640808, 0.40095236897468567, 2.1778564453125, 0.3755277097225189, 0.9065568447113037, -0.9063189029693604, -0.5839462876319885, 0.6736658215522766, -0.7569944262504578, -1.5481393337249756, -1.1843440532684326, 0.3568522334098816, 0.5776383876800537, -0.14364901185035706, 0.5921571850776672, -0.2533602714538574, -0.2363632470369339, -1.2551535367965698, -1.3094918727874756, -0.9026205539703369, -1.052639365196228, -1.0383535623550415, -2.3819737434387207, 0.3319399654865265, 1.0114033222198486, -0.9376606345176697, -1.3233327865600586, -0.2088955193758011, 0.02441973239183426, -0.5278948545455933, 0.27735623717308044, -1.9491267204284668, -1.4298970699310303, -0.10896209627389908, 0.5140023827552795, -0.31083279848098755, 0.9063122868537903, 1.5163390636444092, -0.7126039862632751, -0.16816607117652893, 0.28376874327659607, 0.050517331808805466, 0.23604220151901245, 1.9171537160873413, 0.19849029183387756, -0.8168548345565796, -0.8850463032722473, -0.29158374667167664, 0.8043497204780579, 1.420562505722046, -0.11199481785297394, -0.017175450921058655, -0.8128960132598877, -1.2287983894348145, -0.2896062433719635, 0.5708063244819641, 1.1510294675827026, -0.2130262553691864, -0.9385469555854797, 0.5173092484474182, 1.2943534851074219, 1.0408538579940796, 1.497063398361206, -0.13263174891471863, -0.021014034748077393, 0.443263977766037, -1.2658456563949585, -1.7179739475250244, -1.469279408454895, -1.1751455068588257, -0.4219680726528168, -1.0239038467407227, -0.5441420674324036, -0.33616241812705994, -0.5455066561698914, 1.2623838186264038, 0.4119628965854645, 0.49420595169067383, 1.1725462675094604, 0.9439147710800171, -0.47891736030578613, -0.3813208341598511, 0.6482619643211365, -0.8239649534225464, -0.9902541637420654, -0.658851683139801, -0.7312358021736145, -0.08150442689657211, 1.525319218635559, 3.1906046867370605, 0.7159028053283691, 0.367893248796463, 3.120936155319214, 3.4136717319488525, 1.325593113899231, -0.3366166949272156, -0.9907259941101074], [0.03870195150375366, -0.25547289848327637, -0.03678007423877716, -0.4574379026889801, -1.0892220735549927, -1.3994848728179932, -0.5963528752326965, 0.07225574553012848, -0.39565029740333557, -0.33008289337158203, -0.49374696612358093, -0.19602671265602112, -0.07744365185499191, -0.06910806149244308, -0.13298699259757996, -0.48170679807662964, -1.1681021451950073, -1.5076605081558228, 0.9623724222183228, 1.1189991235733032, -0.057945799082517624, -0.5649000406265259, 0.14971177279949188, 1.5264614820480347, 0.8073564767837524, -0.322803258895874, -0.008915985003113747, 0.3248862326145172, 1.6061581373214722, 1.1145063638687134, 1.4368423223495483, -0.24464654922485352, 0.27876022458076477, 0.8521639704704285, 1.32901132106781, 0.3865640461444855, 0.07294052094221115, -2.1617836952209473, -1.0408728122711182, -0.0598566010594368, 0.45478740334510803, 0.3754674792289734, 0.6007495522499084, 0.37761151790618896, -0.16860997676849365, 0.8536258339881897, 1.5029973983764648, 0.6126007437705994, 0.8158313632011414, -0.468161016702652, -0.39138153195381165, 0.3924533724784851, -0.2581098675727844, -0.3644650876522064, -0.6045176982879639, 0.20771127939224243, 0.2826589345932007, 0.04355284199118614, 0.664251446723938, 0.41575491428375244, 0.11938841640949249, 0.11731105297803879, -0.7423703670501709, -0.1819385141134262, 0.43548375368118286, 0.31719157099723816, -0.8692787885665894, -0.7521052360534668, -0.4483703672885895, -0.3169267773628235, -0.002565937116742134, 0.19113339483737946, 0.5952919721603394, 0.5463700890541077, -0.6667105555534363, 0.5557849407196045, 0.19058376550674438, -0.17504186928272247, -0.07017981261014938, -0.9385242462158203, -0.8124322295188904, -0.04317464679479599, 0.7753978371620178, 0.5355111956596375, -0.352276474237442, -0.04471150040626526, -0.372342973947525, -0.6120301485061646, 0.14109785854816437, -0.29141324758529663, -0.08185367286205292, -0.01879890449345112, 0.4692098796367645, 1.274880290031433, 1.284183382987976, 1.6723002195358276, 0.8701338171958923, -1.497144103050232, -0.4594946503639221, 0.2323300540447235, 0.6156312823295593, 1.5741320848464966, -0.2000511884689331, -0.8070288896560669, -0.18172137439250946, 0.22138668596744537, 1.6167711019515991, 3.1139369010925293, 2.2879445552825928, -1.6641875505447388, -1.366244912147522, 0.195155531167984, -0.24658821523189545, 0.07089303433895111, 0.6315192580223083, -2.4205970764160156, -0.9942979216575623, -0.27136051654815674, 0.7590163350105286, 2.492079496383667, 4.3068413734436035, 1.204007625579834, -3.2818763256073, -1.6606714725494385, 0.21455825865268707, -0.18846218287944794, -0.7462170124053955, 0.45004981756210327, -0.9059388041496277, -0.31607717275619507, 0.06894820183515549, 0.09543944150209427, 2.8169844150543213, 1.7064486742019653, 0.04426274821162224, -1.188985824584961, -1.4953590631484985, -0.7337051033973694, -0.5411513447761536, -0.09538528323173523, -0.17214691638946533, -1.5852391719818115, -0.3450484573841095, -0.14824515581130981, 0.11273287236690521, 1.740760087966919, 2.6778228282928467, 2.2320964336395264, 0.6425197720527649, -1.5101802349090576, -1.3389005661010742, -1.3854787349700928, -0.5623373985290527, -1.0593019723892212, -1.2387642860412598, -0.3537384271621704, -0.10336332768201828, -0.18779484927654266, -0.6721908450126648, 1.4500732421875, 2.108689785003662, 1.5554592609405518, 1.7284008264541626, 0.5987610816955566, -1.8264280557632446, -0.022124046459794044, 1.1208531856536865, 0.017738819122314453, -0.0695800706744194], [-0.08596833795309067, 0.04356175288558006, 0.015030331909656525, -0.40310049057006836, -0.9336415529251099, -1.1203957796096802, -1.374780297279358, -1.933983564376831, -1.8326354026794434, -0.934984564781189, -0.5669935941696167, -0.20067198574543, -0.04435352608561516, -0.21370021998882294, -0.044067349284887314, 0.005894917994737625, -0.06805112212896347, -0.9565648436546326, 0.13250243663787842, 0.24745066463947296, -0.8729923963546753, -1.0899200439453125, -1.5024750232696533, -0.3678581118583679, -0.7964661121368408, -0.40451884269714355, 0.06215265765786171, -1.559935212135315, 1.3268953561782837, -0.11224550753831863, -0.5643935799598694, -0.4045720398426056, -0.9843428134918213, -0.5055091381072998, 0.26003363728523254, 1.878149151802063, 1.9198229312896729, 0.5896738171577454, -0.07473933696746826, -0.022443002089858055, 0.5366677641868591, 0.8121989369392395, 0.08319876343011856, -0.713882565498352, -0.4052307605743408, 0.7718202471733093, 1.7595044374465942, 2.9046316146850586, 3.667328357696533, 2.542057991027832, 3.1874845027923584, 1.1994668245315552, 0.048035670071840286, 1.0040286779403687, -0.12129941582679749, -0.34424397349357605, 0.2393069565296173, 0.005609013140201569, 1.3698034286499023, 0.9987276196479797, 1.5780037641525269, 2.344921350479126, 0.5493684411048889, 0.012820878066122532, 0.8047927618026733, -0.15288181602954865, -0.0066017452627420425, 1.3383530378341675, -0.1759113371372223, 1.1897250413894653, 0.49007976055145264, 1.187458872795105, -0.21507155895233154, -0.5830823183059692, -0.5978167057037354, -1.056585431098938, -3.3541834354400635, -2.1396939754486084, -0.0278541948646307, 0.9918602108955383, 3.256391763687134, 1.2392165660858154, 0.0933595523238182, -0.5924918055534363, 0.5375633835792542, -0.2689315974712372, 0.8045904040336609, 0.4662047028541565, -1.1290265321731567, -1.7229210138320923, -2.8815460205078125, -0.15255941450595856, 1.0881893634796143, 0.948593020439148, 1.0441334247589111, 0.13503366708755493, -0.6241453886032104, -0.8795117139816284, -0.8210268616676331, -0.4689580798149109, -0.4821150600910187, -1.366580605506897, -0.24272340536117554, -3.4371962547302246, -0.007826433517038822, 1.2856169939041138, 0.13580986857414246, 0.2379576414823532, -0.12170662730932236, -0.044934649020433426, 0.0435442179441452, -0.35171058773994446, -0.595570981502533, 0.34272444248199463, -0.19547197222709656, -0.15815776586532593, -3.2429542541503906, -1.2639297246932983, -2.3503737449645996, 0.7721044421195984, -0.30959194898605347, -1.1044392585754395, -1.2291028499603271, -0.7713682055473328, -0.9186844825744629, -0.4977903366088867, -0.48598089814186096, -1.6420818567276, -2.3424394130706787, -2.7678682804107666, -0.37799593806266785, -0.9366564154624939, -1.1515254974365234, -1.2012972831726074, -1.2883610725402832, -0.5101466774940491, 0.3505067229270935, 1.1491104364395142, 0.8938329219818115, -0.5305073857307434, -0.679009199142456, -1.3409124612808228, -2.1236517429351807, -0.17278297245502472, -0.22373825311660767, -0.05776911601424217, 0.6286438703536987, -0.00592828169465065, 0.5995675325393677, 1.6643821001052856, 2.942293882369995, 4.287256717681885, 4.235650539398193, 2.6209399700164795, 0.820292592048645, -0.15152859687805176, -0.09013234823942184, -0.09742674976587296, -0.041399456560611725, 0.5135398507118225, 0.6548239588737488, 0.33669838309288025, 0.6488173007965088, 0.6715075373649597, 0.5582525134086609, 1.8346889019012451, 1.0545130968093872, -0.14689655601978302, -0.0914275273680687], [-0.259492427110672, -0.16633065044879913, -0.16209498047828674, -0.3432546854019165, 0.48251017928123474, -0.2563364803791046, -0.26437896490097046, -0.44010642170906067, -1.015690803527832, -0.8237109184265137, 0.0440298467874527, -0.16355009377002716, -0.23314975202083588, -0.17950637638568878, -0.3009547293186188, -0.46189457178115845, -0.5561196208000183, 0.12221486866474152, -0.3201754093170166, 0.5566719770431519, -0.7797712683677673, 0.5834468603134155, 0.287712424993515, -0.3248908519744873, -0.5878469347953796, -0.21897487342357635, -0.23286202549934387, -0.1821521669626236, -1.3971415758132935, -0.7337978482246399, -0.32327380776405334, -0.36614418029785156, -0.44372203946113586, -0.40253981947898865, -0.44266510009765625, -0.10460657626390457, -0.5701715350151062, -0.6727511286735535, -1.2173352241516113, -0.35405245423316956, -1.8725603818893433, -1.9105077981948853, -0.20466244220733643, -0.01537119410932064, -0.4454386234283447, 0.17873936891555786, -0.12053313106298447, -0.28497371077537537, 0.198141947388649, -0.5686832070350647, 0.1846562772989273, -0.8884426355361938, 0.18349362909793854, 1.026763916015625, -0.004221645183861256, -0.4235353469848633, 0.3319133520126343, -0.3990303874015808, -0.7428131699562073, 0.4332287013530731, 0.05513519421219826, 0.9835740923881531, 0.37743043899536133, 0.24746237695217133, -1.0981658697128296, 0.2766377031803131, -0.039576563984155655, -0.07617178559303284, -0.7042694091796875, -0.668113112449646, -0.8451762795448303, -0.19279830157756805, -0.11548683792352676, -0.20536640286445618, 0.6977025866508484, 0.030197585001587868, 0.32370343804359436, 0.031384628266096115, 0.17397953569889069, 0.3956892192363739, -2.1844024658203125, -1.01997709274292, -1.1098859310150146, -1.262802243232727, -0.4318549633026123, 0.697990894317627, 0.37842369079589844, 0.7055928111076355, -0.9062701463699341, -0.17058341205120087, 0.8964473009109497, -0.3079615831375122, 3.1210131645202637, 2.979607105255127, 2.317105770111084, 0.30688074231147766, -0.9276519417762756, 0.04776214435696602, 0.6523016095161438, -0.2032908797264099, -0.03034830465912819, -0.8625434041023254, -1.0577471256256104, 0.786544680595398, -0.3839193880558014, 2.6586461067199707, 4.42736291885376, 5.231747627258301, 6.817042827606201, 5.26873779296875, 1.834145188331604, 0.10998938977718353, 0.34578433632850647, 0.0713505893945694, 0.09745979309082031, 0.0036011480260640383, 0.1826084852218628, -0.591526448726654, -0.6365399956703186, -0.6639716029167175, -0.9121371507644653, -0.8967376947402954, -0.3100781738758087, -1.2498853206634521, 0.11860394477844238, -0.16256582736968994, -0.19405733048915863, 0.031201910227537155, -0.8695036768913269, -0.1635100245475769, -0.058232761919498444, -1.3181018829345703, -1.7763227224349976, 0.00359609117731452, -0.9858016967773438, -0.7978448271751404, -0.5908397436141968, 0.20983600616455078, 0.3391936123371124, 0.029111521318554878, 0.708503782749176, -0.03566508740186691, 0.32339054346084595, -0.2797330915927887, -1.0237412452697754, -0.5579637885093689, -0.30721354484558105, -1.1050467491149902, -0.06567331403493881, 0.5216737389564514, -0.05679943785071373, 0.3751702904701233, 0.2566622793674469, -0.7903997302055359, -0.8779942393302917, -0.2998259961605072, -0.2969593405723572, -0.2181558459997177, -1.0773820877075195, -0.19930820167064667, 0.6622335910797119, 1.6971533298492432, 1.4329174757003784, 0.19296158850193024, -0.35576605796813965, -0.0516003742814064, -1.1254801750183105, -1.0273659229278564, -0.29410624504089355], [-0.08648069202899933, -0.059418030083179474, -0.028666310012340546, -0.05645168200135231, -0.4784657657146454, -0.42479634284973145, -0.17911013960838318, 1.0379223823547363, 1.6264333724975586, 0.47331562638282776, -0.031118690967559814, -0.24465054273605347, -0.18347908556461334, 0.004393264651298523, -0.19813498854637146, -1.0720818042755127, -2.827934503555298, -1.2184711694717407, -0.9929148554801941, 0.05975738540291786, 1.5657457113265991, 0.8235070109367371, 1.4086230993270874, -0.8199025392532349, 0.12300096452236176, 0.16891062259674072, -0.16017946600914001, -0.8362637758255005, -0.6176544427871704, -0.7321798205375671, -0.46305403113365173, -1.5811188220977783, -0.7507756948471069, 0.20665359497070312, 0.14401473104953766, 0.4848952293395996, 0.7759470343589783, 1.8723161220550537, 0.3338380753993988, -0.14613337814807892, -2.7932493686676025, -1.1834734678268433, -0.2523699998855591, -1.2124687433242798, -0.6957287788391113, -1.0211330652236938, -0.40119194984436035, -0.7600871920585632, 1.659698486328125, 3.9998111724853516, 1.2702817916870117, 0.3278760015964508, -0.7015064358711243, -0.73834627866745, 0.588992178440094, 2.8041491508483887, 3.3419904708862305, 2.8043198585510254, 0.30513325333595276, -0.6347582340240479, -1.3962810039520264, 1.0355291366577148, 2.2865841388702393, 0.14571870863437653, -0.25061652064323425, -0.11064552515745163, 1.7982871532440186, 4.181877613067627, 2.9992785453796387, 1.900721788406372, -1.1543325185775757, -0.0036337312776595354, 1.1476550102233887, -0.21744289994239807, -0.33258572220802307, 0.9706451296806335, 0.1304427832365036, -0.47400912642478943, -0.04656769335269928, 0.39473220705986023, 0.8615214824676514, -0.6168886423110962, -0.8437579274177551, -0.8537479043006897, 0.6808323264122009, 0.5006571412086487, -0.18765456974506378, -0.998767614364624, 0.12633438408374786, -1.6291782855987549, -1.0867841243743896, -0.08489461988210678, 0.2855488359928131, 0.9679815173149109, -0.11744716018438339, 0.4546794891357422, 0.6486144661903381, 1.4149799346923828, 0.04679969698190689, 0.33831214904785156, -0.29504066705703735, -0.8445510864257812, -0.6716226935386658, -0.8792861700057983, -0.07532040029764175, 0.698607861995697, 1.8804961442947388, 0.4735179543495178, 0.5684877038002014, 0.8448862433433533, 0.5622963309288025, -0.6285615563392639, -0.22771479189395905, -0.10377639532089233, -0.6562737822532654, -0.9461575746536255, -1.7704006433486938, 0.4252239763736725, 1.7121303081512451, 2.3764920234680176, 0.5736574530601501, -0.09149394929409027, -0.8043818473815918, -1.3450312614440918, -0.1082301139831543, -0.1381225436925888, -0.21834313869476318, -0.6660662889480591, 0.17939920723438263, -0.44555217027664185, -0.31680065393447876, -0.02993966080248356, 1.7934510707855225, 0.6922146677970886, -1.5215946435928345, -0.4223780632019043, -0.1398380845785141, 0.6343708634376526, 0.9076562523841858, -0.7827494144439697, -1.5439759492874146, -1.2099218368530273, -0.6335136890411377, 0.025962337851524353, 0.6156609058380127, 0.02611667476594448, -1.1719520092010498, -0.8327968120574951, 0.11333870887756348, -0.37689995765686035, -0.9736362099647522, -0.0371529720723629, -0.6640177369117737, -2.181124210357666, -0.4926394522190094, -0.3919878304004669, -0.028548507019877434, 0.09320838749408722, -0.9201724529266357, -1.0215497016906738, -1.138372778892517, -0.9951844215393066, -0.6588929295539856, -0.3455642759799957, -0.8489039540290833, -0.2667107880115509, 0.3653934597969055, 0.014076897874474525, 0.0523507185280323], [0.38150596618652344, 0.42716795206069946, 0.564640462398529, 0.3868177533149719, 0.5172846913337708, 0.8676469326019287, 0.7319673895835876, 0.32479000091552734, 0.2736927270889282, 0.7596688270568848, 0.8544279932975769, 0.4281765818595886, 0.36328843235969543, 0.28977105021476746, 0.3057880401611328, 0.9715822339057922, 0.015150605700910091, 0.19094103574752808, 0.07467112690210342, 0.5294599533081055, -0.0714183822274208, -1.7426401376724243, 0.4143904745578766, 1.2299044132232666, 1.3892451524734497, 0.44683411717414856, 0.5796034336090088, 0.7149379849433899, -1.039446234703064, -0.8569972515106201, 0.006733775604516268, -0.7582031488418579, 0.20375671982765198, 0.4350796341896057, -0.5949631333351135, -0.8842325210571289, -1.5761889219284058, -1.024678349494934, -0.6497623324394226, 0.45086461305618286, -1.2211943864822388, 0.2651696503162384, -0.2351808249950409, 0.37780308723449707, -0.750566303730011, -0.3269422650337219, -0.19624172151088715, -0.033150870352983475, 0.6954129934310913, -0.24669092893600464, -1.5160261392593384, -0.7694982290267944, 0.7501686215400696, -0.2811127007007599, -1.2336009740829468, 0.12408715486526489, 0.3297734260559082, -0.8025489449501038, -1.0631073713302612, -0.0936698317527771, 0.1654185801744461, 1.1729952096939087, -0.21303190290927887, -0.7640566229820251, -0.6248993277549744, 0.794491708278656, -2.453962802886963, -1.6782691478729248, -1.1428730487823486, -0.1497630625963211, -0.6991897821426392, -0.9940642714500427, 0.08021840453147888, 0.303028404712677, -0.2668290436267853, -0.08037477731704712, 1.1005749702453613, -0.907332718372345, 0.6235122084617615, 0.0697120800614357, 0.3254067897796631, 1.3889031410217285, 1.4298957586288452, 0.6879256367683411, -1.2067539691925049, -1.13978910446167, -0.3390907049179077, -1.0906583070755005, 0.5306615829467773, 1.6178451776504517, -1.046933650970459, 0.2987309694290161, 2.489718198776245, 2.9569222927093506, 0.9251761436462402, 0.7546396255493164, -0.9676889181137085, -2.53849458694458, -0.5462438464164734, 0.11995567381381989, -0.1548762172460556, -0.4250859022140503, 0.2704137861728668, 1.3818447589874268, -0.051369212567806244, 0.24811601638793945, 0.34703710675239563, 0.23913627862930298, 1.01172935962677, -0.09634906053543091, -0.13649305701255798, 0.8744409680366516, 0.8207221627235413, 0.5141065716743469, -0.5393304824829102, 0.6592944860458374, 1.0236272811889648, 0.18905816972255707, -0.7618682384490967, -0.19198866188526154, -0.3407515585422516, 0.06649098545312881, 2.055765151977539, 1.996689796447754, 0.4759807586669922, -0.8586388230323792, 0.05051315203309059, 0.7510228753089905, 2.36333966255188, 1.2466704845428467, 0.2073301076889038, 0.6743677854537964, -0.006174291949719191, 0.1720273494720459, 0.6604610085487366, 0.11356452107429504, -0.25025662779808044, 0.07029150426387787, 0.5088947415351868, 0.5083966255187988, -0.11113462597131729, 1.1490733623504639, 1.2226380109786987, 0.47580236196517944, 0.6454732418060303, -0.38273462653160095, -0.4022793173789978, 0.5228450298309326, 0.2306438386440277, -0.5649316906929016, 0.1292571723461151, 0.7836639285087585, -0.035862259566783905, -1.127260446548462, -0.13228653371334076, 0.6585768461227417, 0.43568307161331177, 0.737236738204956, -0.40409162640571594, -0.6414199471473694, -1.556570291519165, 0.045639440417289734, -2.292628049850464, -0.4702110290527344, -0.5432783365249634, 0.3559461832046509, 0.3974979817867279, 0.8363052606582642, 0.6033326387405396], [-0.9679761528968811, -1.011902093887329, -0.8160314559936523, -0.975010097026825, -0.809813380241394, -0.6357945203781128, -0.5252082943916321, -0.23558484017848969, -0.9324042201042175, -2.8470544815063477, -2.8796420097351074, -1.2329422235488892, -0.9498794078826904, -0.9413114190101624, -0.929806649684906, -0.7031445503234863, -0.5132220983505249, 0.04311949014663696, 1.237756609916687, 3.1126301288604736, 2.8895668983459473, 0.7191944122314453, -0.2773730456829071, -0.09500131756067276, -2.874589204788208, -0.4991212487220764, -0.9752290844917297, -0.9856333136558533, -0.4134184420108795, 0.17870067059993744, 1.8210132122039795, 4.460952281951904, 2.151235342025757, 0.08419179171323776, -0.21599672734737396, -0.7457786202430725, -0.18370333313941956, -2.6263983249664307, -2.2971343994140625, -0.7796696424484253, -0.6446381211280823, 0.4978938698768616, 0.16019761562347412, 1.5780190229415894, 3.390019416809082, -0.44519346952438354, -0.678694486618042, -0.13006559014320374, 0.015938058495521545, 0.16740469634532928, -0.4090191125869751, -0.7847746014595032, -1.04246187210083, 0.23777148127555847, 0.4970914125442505, 0.9498291611671448, 3.057295322418213, 1.2570933103561401, -1.1660040616989136, -0.6276149153709412, 0.5494976043701172, 3.029122829437256, 4.2040581703186035, 0.8131790161132812, -0.07447261363267899, -0.8649001717567444, 0.07951391488313675, -0.7377660274505615, -0.09283775836229324, 0.9856163263320923, -0.275314062833786, -1.3724931478500366, 1.647997498512268, -0.32264938950538635, -0.08424408733844757, 0.4134063422679901, 0.27159467339515686, 0.30767717957496643, 