{"weights": [[[0.045412056148052216, 0.050273992121219635, -0.016202189028263092, 0.0380813330411911, -0.007741399109363556, 0.04571016877889633, -0.08536551147699356, 0.04848223179578781, -0.00677499920129776, -0.007205590605735779, -0.06297559291124344, -0.0782279223203659, 0.1755521446466446, -0.04846116527915001, -0.23076222836971283, 0.01628333330154419, -0.0749015137553215, -0.053455885499715805, 0.06331975013017654, 0.029334649443626404, -0.02803206443786621, 0.06275761872529984, -0.08081495761871338, 0.06512860208749771, 0.04775569587945938, 0.08034244924783707, -0.01949893683195114, -0.036901604384183884, -0.02877301350235939, -0.033465318381786346, -0.02663974091410637, -0.07554452121257782, 0.16053159534931183, 0.31692609190940857, 0.4474687874317169, 0.8352072238922119, 0.9298757314682007, 1.1437265872955322, 1.224735140800476, 1.5869591236114502, 1.6046764850616455, 0.5665087699890137, -0.40168431401252747, -0.2678678035736084, 0.21259093284606934, 1.0720982551574707, 2.0458834171295166, 1.3155239820480347, 1.0853767395019531, 0.971462607383728, 0.7416313290596008, 0.4794563949108124, -0.06466120481491089, 0.029618434607982635, 0.03256528079509735, 0.04679582267999649, 0.02721366286277771, 0.03287220001220703, 0.3456761837005615, 0.45360448956489563, 0.6793801784515381, 0.3433544933795929, 1.4042346477508545, 1.0317991971969604, 1.8396246433258057, 1.5976262092590332, 0.8635836243629456, 1.1989872455596924, 1.213405728340149, 0.6473653316497803, 1.0997967720031738, 1.9338732957839966, 1.4491502046585083, 1.0084046125411987, 0.8019425272941589, 1.4621691703796387, 2.115779399871826, 1.6347782611846924, 1.4988682270050049, 1.1026309728622437, 0.7162090539932251, 0.3413585126399994, 0.08508504182100296, 0.015524327754974365, -0.021776698529720306, 0.05208057910203934, -0.25681445002555847, 0.30591246485710144, 0.7790671586990356, 1.3575102090835571, 1.344517707824707, 1.7371033430099487, 1.7233946323394775, 1.3227384090423584, 1.0391032695770264, 1.2584633827209473, 1.3081833124160767, 1.2262580394744873, 1.1578245162963867, 0.9957792162895203, 1.576645851135254, 1.5150916576385498, 0.8486403822898865, 0.5534258484840393, 0.22458277642726898, 0.9071741700172424, 0.7805413603782654, 0.8583385944366455, 0.4193030893802643, -0.3869588077068329, 0.007994902320206165, 0.0567413792014122, -0.04376814141869545, -0.06915366649627686, -0.3122524619102478, -0.24395397305488586, 0.7666498422622681, 1.2591421604156494, 1.4303988218307495, 1.5847824811935425, 1.1815717220306396, 1.2143287658691406, 1.1600146293640137, 0.767431914806366, 1.2497690916061401, 0.5750199556350708, 0.22943179309368134, 0.07213782519102097, 0.39516180753707886, 0.3144679069519043, 0.13742542266845703, 0.17848704755306244, 0.15804794430732727, -0.0686018168926239, -0.12257016450166702, 0.2893960773944855, 0.2449604719877243, 0.5210211277008057, -0.32279595732688904, 0.5180618762969971, -0.06900620460510254, 0.019603699445724487, -0.023591889068484306, 0.4090818762779236, -0.06634517014026642, 0.2991609573364258, 0.3724798262119293, 0.005515778437256813, 0.7665302753448486, 0.9220238924026489, 0.7981541752815247, 0.6116442084312439, 0.30180367827415466, 0.37598752975463867, -0.07495580613613129, 0.09551151096820831, 0.65662682056427, 0.41463518142700195, 0.20476360619068146, 0.26737797260284424, 0.20504742860794067, 0.06518399715423584, -0.26260074973106384, 0.3625536561012268, 0.22012732923030853, 0.30008333921432495, 0.35605761408805847, 0.4170612096786499, -0.0674060732126236, -0.1667558252811432, 0.5046068429946899, -0.18189622461795807, -0.480150431394577, -0.3536902070045471, -0.17774072289466858, -0.10751829296350479, 0.45087140798568726, 0.47747382521629333, 0.24775221943855286, -0.14086131751537323, 0.22668807208538055, -0.25984033942222595, -0.46757805347442627, -0.34757423400878906, -0.39781564474105835, -0.46934422850608826, -0.17270469665527344, -0.15235359966754913, -0.03305559232831001, -0.20791441202163696, 0.3681647777557373, 0.28637969493865967, -0.000817806227132678, -0.13177895545959473, -0.45433875918388367, 0.37176647782325745, 0.07210730016231537, 0.05259431526064873, 0.14442050457000732, -0.47073894739151, -1.1378014087677002, -0.005641170311719179, -0.206442192196846, -0.20812715590000153, 0.32928135991096497, 0.23624832928180695, 0.3092285096645355, 0.34659090638160706, -0.08803308755159378, -0.2529523968696594, -0.5304201245307922, -0.6247346997261047, -0.814261794090271, -0.4167637825012207, 0.01969163492321968, -0.18260788917541504, -0.030949540436267853, 0.301079124212265, 0.2558927834033966, -0.026299210265278816, 0.32109490036964417, -0.12119325250387192, -0.7320385575294495, 0.23031267523765564, 0.5303665995597839, 0.30504217743873596, 0.4708463251590729, -0.13235487043857574, 0.06408959627151489, -0.06829884648323059, 0.14806006848812103, 0.6516976952552795, 0.22403304278850555, 0.305277019739151, 0.1227191686630249, 0.45550939440727234, 0.31039950251579285, -0.03816059231758118, -0.5122210383415222, -0.6459379196166992, -0.361396849155426, -0.33959394693374634, -0.12269960343837738, 0.053244151175022125, 0.2378268986940384, 0.7539815902709961, 0.3973258137702942, 0.013046476058661938, 0.6003100275993347, 0.6060665249824524, -0.27721548080444336, 0.09329833835363388, 0.03597712144255638, -0.13901731371879578, 0.6111882925033569, 0.5855674147605896, 0.04958290606737137, 0.07949326932430267, -0.00408698758110404, 0.32943615317344666, 0.25201767683029175, 0.27690744400024414, 0.4881908893585205, 0.46193721890449524, 0.04937637597322464, -0.33189716935157776, -0.6556978225708008, -0.49370962381362915, -0.07748004794120789, -0.23553894460201263, 0.1331615149974823, 0.5014277100563049, 0.2604367434978485, 0.3658367097377777, 0.1252116709947586, 0.2014264613389969, 0.28576669096946716, 0.390161395072937, -0.6944283843040466, -0.4887533485889435, 0.06148175150156021, -0.159584179520607, 0.21034295856952667, 0.6627737879753113, 0.06397025287151337, 0.13582280278205872, 0.07245611399412155, -0.2802436649799347, 0.21755608916282654, 0.31009045243263245, 0.3506004810333252, 0.13867534697055817, 0.018860816955566406, -0.10210829973220825, -0.40773746371269226, -0.3956358730792999, -0.1725635826587677, 0.054309818893671036, -0.07734967023134232, 0.05111870542168617, 0.3380415439605713, 0.08200988918542862, -0.10946798324584961, -0.11376214772462845, 0.4233386814594269, 0.20645475387573242, -0.4662463665008545, -0.5490612983703613, 0.4182293117046356, 0.3779557943344116, -0.39909040927886963, -0.5763114094734192, -0.9077410697937012, -0.4746793210506439, -0.32827141880989075, -0.37179118394851685, 0.02111593633890152, 0.44805261492729187, 0.4203661382198334, 0.3973033130168915, 0.21580950915813446, -0.058166902512311935, -0.41290685534477234, -0.4214971661567688, -0.052488453686237335, -0.1702006757259369, -0.38210275769233704, 0.09874429553747177, 0.22087889909744263, 0.30755653977394104, -0.44764530658721924, -0.16149277985095978, 0.1691102385520935, 0.6101468801498413, -0.061289362609386444, -0.22505995631217957, 0.21748076379299164, 0.8688793182373047, -0.38143792748451233, -0.4926271438598633, -0.721079409122467, -0.564032793045044, -0.4241887927055359, -0.20445752143859863, 0.01581094041466713, 0.256667822599411, 0.3618342876434326, 0.5091151595115662, 0.21091274917125702, 0.04642309620976448, -0.5097612738609314, -0.4280380308628082, -0.28937262296676636, -0.37111884355545044, -0.14186789095401764, -0.02227403223514557, 0.3000897169113159, 0.02737857773900032, -0.06057780236005783, -0.24256248772144318, 0.6183775663375854, -0.07037020474672318, -0.44251954555511475, -0.5087868571281433, -0.06632567197084427, 0.4551338851451874, -0.34880170226097107, -0.6878753900527954, -0.5642391443252563, -0.4202088713645935, -0.4578470289707184, -0.25468266010284424, -0.009710012003779411, -0.17231862246990204, 0.18684805929660797, 0.07606908679008484, 0.3016588091850281, 0.07070952653884888, -0.20447538793087006, -0.16655150055885315, -0.2711341083049774, -0.382883757352829, -0.08276187628507614, -0.1800461709499359, -0.3792608976364136, -0.24899975955486298, 0.0404956191778183, -0.02252969518303871, 0.2033940553665161, -0.18660829961299896, -0.8412965536117554, 0.24034641683101654, 0.35804483294487, 0.3584250807762146, -0.6580057144165039, -0.9981324672698975, -1.0723233222961426, -0.60650235414505, -0.7653339505195618, -0.4848479926586151, -0.31805673241615295, -0.10944782942533493, 0.12270130962133408, 0.35060498118400574, 0.42315107583999634, 0.10072612017393112, 0.04794476926326752, 0.0514686182141304, -0.20250160992145538, -0.409062922000885, -0.09846140444278717, -0.3398774564266205, -0.06686903536319733, -0.16281640529632568, -0.4354495704174042, -0.6182093024253845, -0.37756335735321045, -0.21684333682060242, -0.4911124110221863, 0.6077176928520203, 0.25649571418762207, -0.02622033655643463, -0.47739824652671814, -0.8651691675186157, -0.5306152701377869, -1.0292837619781494, -0.7386213541030884, -0.48614904284477234, -0.700771152973175, -0.3791751563549042, 0.24364620447158813, -0.0673171654343605, 0.015744084492325783, 0.18052949011325836, 0.2900283932685852, 0.08392919600009918, -0.2452576607465744, -0.6725004315376282, -0.31838682293891907, 0.01638815551996231, -0.035488639026880264, -0.12565481662750244, -0.29163041710853577, -0.31902876496315, 0.23441220819950104, 0.15382355451583862, 0.07056338340044022, 0.32961854338645935, 0.07781750708818436, -0.007620423566550016, -0.7380928993225098, -0.8229487538337708, -0.5547776222229004, -0.6018526554107666, -0.6473301649093628, -0.35465770959854126, -0.36225035786628723, -0.10711991786956787, 0.1649499088525772, 0.08533869683742523, -0.12961259484291077, -0.3003383278846741, 0.11331763118505478, 0.2118835300207138, -0.26321718096733093, -0.4857282042503357, -0.11533733457326889, 0.140954852104187, 0.2532478868961334, -0.4248402714729309, -0.039675164967775345, -0.01859603263437748, -0.1712339222431183, 0.8921648263931274, 0.19253425300121307, 0.12606576085090637, 0.05603177100419998, 0.21063469350337982, -0.3076249659061432, -0.4907526671886444, 0.1222611665725708, 0.3070176839828491, -0.007921125739812851, -0.4860837161540985, -0.45257651805877686, -0.11355124413967133, -0.1988399624824524, -0.3552383780479431, -0.5496928095817566, -0.7155068516731262, -0.5072774887084961, -0.27605435252189636, -0.23613928258419037, -0.45518216490745544, 0.13527853786945343, 0.0987868532538414, 0.16886049509048462, -0.06495103985071182, -0.12364988774061203, -0.02987796626985073, 0.24738936126232147, -0.08505284041166306, -0.20740488171577454, -0.025849508121609688, -0.33776992559432983, 0.34699293971061707, -0.3148486912250519, 0.10650758445262909, 0.7588893175125122, 0.726025402545929, 0.11304209381341934, -0.05815577879548073, -0.273929625749588, -0.25234583020210266, -0.5194384455680847, -0.588994026184082, -0.693524181842804, -0.7744861841201782, -0.8113065361976624, -0.19514572620391846, 0.003278250340372324, -0.16387225687503815, -0.03281097486615181, 0.029529204592108727, 0.13175761699676514, -0.03738143667578697, -0.21589618921279907, 0.14996840059757233, 0.6323449015617371, -0.2983856201171875, 0.013761167414486408, -0.3469572961330414, -0.28718826174736023, -0.3879346251487732, -0.8143954277038574, 0.6325020790100098, 1.0832732915878296, 0.6332569718360901, 0.6392260789871216, 0.238125279545784, -0.0208857674151659, -0.03423726186156273, 0.06821037083864212, 0.04931192472577095, -0.2331893891096115, -0.537839949131012, -0.377458781003952, 0.12050408124923706, 0.16349157691001892, 0.3748350739479065, 0.46789324283599854, 0.0816551148891449, 0.31972363591194153, 0.19088761508464813, 0.12108881771564484, 0.9223999977111816, 0.37860268354415894, -0.34508731961250305, -0.16851060092449188, -0.5368674397468567, 0.02791258692741394, 0.547730028629303, -0.35631781816482544, 0.7452278733253479, 2.2009286880493164, 1.16065514087677, 1.1688858270645142, 0.7569243907928467, 0.49188512563705444, 0.1377144753932953, 0.6845647692680359, 0.5936644673347473, 0.6709587574005127, 0.3945259153842926, 0.1782277673482895, 0.3686105012893677, 0.15589569509029388, 0.36594825983047485, 0.2528088092803955, 0.17632991075515747, 0.3806612193584442, 0.4405006766319275, 0.3916802406311035, 0.6126655340194702, -0.01901610754430294, 0.13621534407138824, -0.09596049040555954, 0.0006584060029126704, -0.17757347226142883, 0.24092420935630798, -0.22175315022468567, 0.7127663493156433, 1.2847081422805786, 0.2867746651172638, 0.6424050331115723, 1.0229562520980835, 0.799606442451477, 0.6137880086898804, 0.8034180402755737, 0.8544620871543884, 0.9569602608680725, 0.9702025055885315, 0.3870132565498352, 0.2153341919183731, 0.3055838644504547, 0.5217993855476379, 0.04661601781845093, 0.11653640866279602, 0.37402066588401794, 0.16659165918827057, 0.9422261714935303, 0.4321662187576294, -0.3101790249347687, -0.056362032890319824, 0.600059449672699, -0.26176968216896057, -0.14981532096862793, -0.09308210760354996, -0.25867369771003723, 0.47062674164772034, 0.0970570370554924, 0.4578761160373688, 0.6628162264823914, 0.17848065495491028, 0.41970354318618774, -0.006453781854361296, 0.3228391110897064, 0.8730868101119995, 0.9995478987693787, 0.7575703859329224, 0.2830085754394531, 0.3946814239025116, 0.4365304410457611, -0.029886111617088318, -0.17093846201896667, 0.027079110965132713, -0.07576078921556473, 0.8403400778770447, 0.6105861067771912, 0.4157170057296753, -0.13726744055747986, -0.26350200176239014, 0.0827857181429863, -0.32707053422927856, 0.08020149916410446, -0.07523653656244278, 0.49848705530166626, 0.5189729928970337, -0.4966808557510376, -0.19156292080879211, 0.039298221468925476, -0.08588070422410965, -0.027790017426013947, -0.24847880005836487, 0.1063898429274559, 0.42526674270629883, 0.2701711356639862, 0.45137831568717957, 0.609653651714325, 0.39445698261260986, 0.12040465325117111, 0.042308300733566284, -0.09626555442810059, 0.18820598721504211, -0.097274050116539, 0.09207414835691452, 0.1553095430135727, 0.4286002218723297, -0.05732576176524162, 0.10919225960969925, 0.01729464717209339, -0.048914358019828796, 0.020191840827465057, 0.000898115336894989, -0.4563696086406708, -0.13817332684993744, -0.20444902777671814, -0.6528014540672302, -0.6551764607429504, -0.9114896059036255, -0.25640517473220825, 0.037377625703811646, 0.05610254406929016, 0.3713782727718353, 0.8104754090309143, 0.3556121289730072, 0.4770207107067108, 0.8159250020980835, 1.0115509033203125, 0.47885385155677795, 0.39130860567092896, 0.5405905246734619, 0.1937056928873062, 0.38858750462532043, 0.4038570821285248, 0.12728530168533325, 0.9925143122673035, 0.3564920127391815, -0.2797340452671051, -0.0602593794465065, -0.005614325404167175, 0.08411955088376999, 0.3756387233734131, 0.2980242669582367, -0.6684865951538086, -0.690009593963623, -0.3083201050758362, -0.6072552800178528, -0.5582199692726135, -0.5680517554283142, 0.0661344900727272, -0.11784618347883224, -0.8368697762489319, -0.30697354674339294, -0.5177944302558899, 0.08883212506771088, 0.16074831783771515, 0.2795705795288086, 0.06202827766537666, 0.21614184975624084, -0.10832308977842331, -0.09842728823423386, 0.22390614449977875, 0.5764946341514587, 0.9829536080360413, -0.2014194130897522, -0.16688264906406403, 0.02670910954475403, -0.014591515064239502, 0.002393290400505066, -0.02757938578724861, -0.11687088757753372, 0.2930338978767395, -0.24238301813602448, -0.21936854720115662, -0.5677385330200195, -0.639650821685791, -0.8968073129653931, -0.6199423670768738, -0.795215904712677, -0.8459343910217285, -1.3098106384277344, -1.3871828317642212, -0.8900163769721985, -0.06695490330457687, -0.18344268202781677, -0.6202384829521179, -0.29180943965911865, -0.350632905960083, -1.1770012378692627, -0.9182000756263733, -0.275950163602829, 0.26413923501968384, 0.03806411102414131, -0.000872299075126648, 0.0008398145437240601, -0.03813762590289116, -0.07804427295923233, -0.05902470648288727, 0.009056389331817627, -0.05571865290403366, 0.07507579028606415, 0.3087466061115265, -0.2521483302116394, -0.48017606139183044, -0.4238024652004242, -0.8961007595062256, -0.44156143069267273, 0.04506279155611992, -0.6249516010284424, -1.0410741567611694, 0.090621218085289, -0.4459887444972992, -0.4014247953891754, -0.024832261726260185, -0.43123435974121094, -0.6588895320892334, -0.6196475625038147, -0.49574553966522217, -0.39603617787361145, -0.04785783216357231, 0.005750283598899841, 0.036523088812828064, -0.07735118269920349], [-0.06329788267612457, -0.009006582200527191, -0.047275543212890625, -0.07965690642595291, -0.025029703974723816, -0.01613897830247879, 0.019628487527370453, -0.04355743154883385, 0.08581732958555222, -0.05496719479560852, 0.05343087762594223, 0.0432107076048851, 0.17387829720973969, 0.27711421251296997, 0.15910297632217407, -0.018109440803527832, -0.048236943781375885, 0.016291901469230652, -0.030384130775928497, -0.021824248135089874, 0.04838579148054123, -0.03185366466641426, -0.006532460451126099, -0.005193457007408142, 0.006641991436481476, 0.008705377578735352, 0.07018647342920303, -0.025399502366781235, 0.06033717840909958, -0.07504207640886307, 0.06676284223794937, 0.009515367448329926, -0.022600363940000534, -0.14500999450683594, 0.11350592225790024, 0.01790175959467888, 0.34340643882751465, 0.3298371732234955, 0.14044331014156342, -0.25240811705589294, -0.2814537584781647, -0.0755857303738594, 0.1318032592535019, 0.922964334487915, 0.7366149425506592, 0.44325634837150574, 0.0971117615699768, -0.11352553963661194, -0.22162854671478271, -0.09379629790782928, -0.032655104994773865, -0.027218487113714218, 0.02376912534236908, 0.06781039386987686, -0.0708894431591034, 0.026058368384838104, 0.07838655263185501, 0.07223621755838394, -0.2784756124019623, 0.05046824738383293, 0.32523226737976074, -0.5041778087615967, -0.2335505485534668, 0.34508368372917175, -0.3546459376811981, -0.5465376377105713, -0.5271255970001221, -0.37221798300743103, -0.7609574794769287, -0.4626450538635254, -0.15492193400859833, 0.042182087898254395, -0.09316878020763397, -0.4230378270149231, 0.20296217501163483, 0.27470529079437256, 0.2333802729845047, -0.7537841200828552, 0.08409502357244492, -0.15933862328529358, -0.5212031602859497, -0.06010952964425087, 0.07942534238100052, 0.054401688277721405, -0.04036702215671539, 0.07645367830991745, -0.10878993570804596, 0.08805137127637863, 0.4852914810180664, 0.2955753803253174, 0.5412813425064087, 0.7097997069358826, 0.009654912166297436, -0.12951380014419556, 0.13443045318126678, -0.43395888805389404, -0.14671550691127777, -0.004820746369659901, -0.13567326962947845, -0.037528619170188904, 0.5572030544281006, 0.5349511504173279, 0.6868536472320557, -0.03470342233777046, 0.5003539323806763, 0.5251803994178772, 0.24958014488220215, 0.2066432237625122, 0.10781977325677872, 0.14135447144508362, 0.1102079376578331, 0.056986190378665924, 0.059771470725536346, -0.2613809108734131, 0.2659027874469757, 0.14507421851158142, 0.4467259347438812, 0.021553343161940575, -0.023937774822115898, -0.07689101248979568, -0.11377882212400436, -0.19807694852352142, -0.08961480855941772, -0.032382287085056305, -0.04026155546307564, 0.03805438429117203, -0.04424435272812843, 0.16479428112506866, 0.07584555447101593, -0.17039215564727783, 0.13050468266010284, 0.014984098263084888, -0.2808530628681183, 0.011975838802754879, 0.11231052875518799, 0.37674394249916077, 0.5767470598220825, 0.44980886578559875, 0.8140572905540466, -0.22378896176815033, -0.03411222994327545, -0.02080569416284561, -0.09284548461437225, 0.06659794598817825, -0.04358328506350517, 0.2509136497974396, -0.19646628201007843, -0.1459166407585144, 0.3444385826587677, 0.45617353916168213, 0.06631894409656525, 0.42535626888275146, 0.050684668123722076, 0.12358921766281128, -0.0005716868909075856, 0.02452472597360611, -0.10386683791875839, -0.5079129934310913, -0.6436004638671875, -0.28170278668403625, 0.1731942594051361, -0.12609988451004028, 0.12149819731712341, 0.38345634937286377, 0.07965756207704544, 0.20316609740257263, 0.25920239090919495, -0.2712147831916809, -0.06646348536014557, -0.22935263812541962, -0.2069530040025711, -0.5538352727890015, 0.35418397188186646, 0.8261386156082153, -0.006589565891772509, 0.22136519849300385, 0.6399449110031128, 0.7161781191825867, 0.5024839639663696, 0.4284462630748749, 0.32081830501556396, 0.46445104479789734, 0.3024747669696808, 0.1060004010796547, 0.14576609432697296, -0.1588953286409378, -0.20202407240867615, 0.07139626890420914, 0.1503937542438507, 0.46896782517433167, 0.22021813690662384, 0.48989200592041016, 0.6331709027290344, -0.43262842297554016, 0.5368923544883728, -0.1796625256538391, -0.08884567767381668, -0.49292442202568054, -0.18200428783893585, 0.06357356905937195, 0.08436141908168793, 0.3795340955257416, 0.1025565043091774, 0.007816988974809647, 0.42392152547836304, 0.5095788836479187, 0.5773839354515076, 0.06499450653791428, 0.3133802115917206, 0.2658427357673645, 0.08502637594938278, 0.10114968568086624, -0.0472739078104496, -0.08003988862037659, -0.179546058177948, 0.13977552950382233, -0.1278124451637268, 0.07268458604812622, 0.17624399065971375, 0.27863290905952454, 0.1731942743062973, 0.5019278526306152, 0.7525469064712524, -0.1637919545173645, -0.3810637593269348, -0.5329180955886841, -0.2949870824813843, 0.0021964365150779486, 0.039115432649850845, 0.493093341588974, 0.26708871126174927, 0.13055774569511414, 0.460731565952301, 0.3146318197250366, 0.36954179406166077, 0.04298758879303932, 0.5041285753250122, 0.26224082708358765, 0.16722312569618225, -0.060168687254190445, -0.33961349725723267, -0.22656908631324768, 0.23664233088493347, 0.2920302152633667, 0.0320928581058979, 0.06426284462213516, 0.7091810703277588, 0.20513147115707397, 0.07712159305810928, 0.770549476146698, 1.0664557218551636, 0.5079017877578735, 0.02516820654273033, 0.6240426301956177, -0.8721354603767395, -0.6554486751556396, -0.20141543447971344, 0.14557446539402008, 0.25110262632369995, 0.09413094818592072, 0.4141688048839569, 0.22154803574085236, 0.35262972116470337, 0.596325159072876, 0.4317746162414551, 0.538988471031189, 0.30672377347946167, -0.2940347194671631, -0.23451027274131775, 0.001479417085647583, 0.36379924416542053, 0.10288246721029282, 0.09129584580659866, 0.43469610810279846, 0.5058864951133728, 0.7414089441299438, 0.6940997242927551, 1.4196876287460327, 0.9133493304252625, 0.46856704354286194, 0.07139617949724197, 0.4688904285430908, -0.07867269217967987, -0.01692168600857258, 0.06831610202789307, 0.1515677124261856, -0.04886052384972572, 0.2698124945163727, 0.6230989098548889, 0.3236003518104553, 0.48192986845970154, 0.5514246225357056, 0.5660721659660339, 0.2960973083972931, 0.594459593296051, 0.16821536421775818, -0.23040728271007538, -0.2641669809818268, -0.08502687513828278, 0.042071033269166946, -0.02645072340965271, 0.5324395895004272, 0.7058146595954895, 0.719544529914856, 1.4744765758514404, 0.830435574054718, 0.4845989942550659, -0.20858582854270935, 0.010297037661075592, 0.20691487193107605, 0.37395694851875305, -0.09986055642366409, 0.41092807054519653, -0.08429742604494095, 0.22045063972473145, 0.2611951231956482, -0.2890697717666626, 0.03527797758579254, 0.15055237710475922, 0.5058631896972656, 0.507252037525177, 0.4758170247077942, 0.40753281116485596, 0.0368618406355381, -0.21817897260189056, 0.12350144237279892, 0.06594035774469376, -0.2033323496580124, 0.061607323586940765, 0.36790263652801514, 0.8291336894035339, 0.5207671523094177, 1.0880985260009766, 0.23822884261608124, 0.5040329694747925, 0.8520644903182983, -0.0639648586511612, -0.19075459241867065, 0.39161160588264465, -0.4026602804660797, -0.0344884879887104, 0.041085582226514816, 0.5837709903717041, 0.30402079224586487, -0.2912573218345642, -0.42701297998428345, 0.1354699432849884, 0.28598517179489136, 0.3254620134830475, 0.41740894317626953, 0.3169180750846863, 0.454079270362854, 0.20073892176151276, 0.3009604215621948, 0.2687589228153229, 0.33208203315734863, 0.25975361466407776, 0.1843598634004593, 0.40414538979530334, 0.30716851353645325, -0.12149126082658768, 0.13994458317756653, 0.3688414692878723, 0.6166759729385376, -0.032007817178964615, -0.3423652946949005, -0.04311118647456169, -0.09249246120452881, 0.16155888140201569, 0.18897601962089539, -0.08641368895769119, 0.04104209318757057, -0.13626013696193695, -0.2639050781726837, -0.21698471903800964, 0.0568598248064518, 0.31678691506385803, 0.13801588118076324, 0.3421552777290344, 0.5066917538642883, 0.5552547574043274, 0.3033432364463806, 0.1489216834306717, -0.010455263778567314, 0.17907409369945526, 0.35309743881225586, 0.138726606965065, -0.10354121774435043, -0.1849004030227661, 0.0023475110065191984, -0.4027022123336792, -0.5387212038040161, -0.08986207842826843, 0.39627423882484436, 0.7312488555908203, -0.23763717710971832, -0.04715428873896599, -0.39757734537124634, -0.33685624599456787, -0.5901209712028503, -0.5434555411338806, -0.5098575353622437, -0.17402304708957672, -0.19585613906383514, -0.29484355449676514, -0.02271689474582672, 0.3609412908554077, 0.6442447304725647, 0.2383001744747162, 0.19727171957492828, 0.09815904498100281, -0.0649329349398613, -0.12768889963626862, -0.026546357199549675, -0.1890743374824524, 0.1542661190032959, -0.38286569714546204, -0.3715343177318573, -0.009834150783717632, -0.73110431432724, -0.039521537721157074, 0.29909852147102356, -0.36785125732421875, -0.46325522661209106, -0.13106070458889008, -0.849834144115448, -0.17971879243850708, -0.6111059784889221, -0.3106437623500824, -0.4606245160102844, -0.6703129410743713, -0.5411960482597351, -0.4033795893192291, -0.3659423589706421, 0.18892493844032288, 0.555850088596344, 0.004952572286128998, -0.03592570126056671, 0.18231971561908722, -0.09954112023115158, -0.1227283701300621, -0.2337251454591751, -0.3180743455886841, -0.15664339065551758, -0.28509822487831116, 0.03289254009723663, -0.48494407534599304, -0.19359390437602997, -0.10368786007165909, 0.13525894284248352, 0.0713157057762146, 0.43225494027137756, -0.12442747503519058, -0.6615589261054993, 0.15151169896125793, -0.559518039226532, -0.3531510531902313, -0.3656410276889801, -0.4829912483692169, -0.522901713848114, -0.323599636554718, -0.10274121910333633, 0.3906116187572479, 0.18849249184131622, -0.26442551612854004, -0.1774517446756363, -0.11779534071683884, -0.3482307195663452, -0.1604403853416443, -0.26195743680000305, -0.2047605663537979, -0.032620348036289215, 0.02645471692085266, -0.18482930958271027, -1.2229177951812744, 0.10349760204553604, 0.001788221299648285, 0.1979743242263794, -0.43907520174980164, 0.11289745569229126, -0.40849271416664124, -0.21766643226146698, 0.015040090307593346, -0.19386421144008636, -0.40092235803604126, 0.028080297634005547, -0.18731069564819336, -0.4261351525783539, 0.024476174265146255, 0.17005515098571777, 0.21583692729473114, 0.23121431469917297, 0.09798921644687653, 0.018288234248757362, -0.2511397898197174, -0.02798083983361721, -0.10682640969753265, -0.15711697936058044, -0.18517331779003143, 0.009017422795295715, 0.3763905167579651, -0.29136693477630615, -0.0677553191781044, 0.08822915703058243, 0.5370020866394043, -0.13644492626190186, -0.09028516709804535, -0.18612520396709442, -0.27366527915000916, -0.14556436240673065, -0.07774125784635544, -0.20536214113235474, -0.21335656940937042, -0.08448705077171326, 0.025884509086608887, -0.06700562685728073, -0.32435423135757446, -0.23553787171840668, 0.3454185426235199, 0.3932582139968872, -0.10185320675373077, 0.04327762871980667, -0.013548428192734718, 0.2381492704153061, -0.04788985848426819, -0.09102403372526169, -0.47727569937705994, -0.28519248962402344, -0.15539345145225525, -0.3298262059688568, 0.15028949081897736, -1.0890637636184692, 0.10330823808908463, 0.31287646293640137, 0.33948561549186707, -0.2885564863681793, -0.6393772959709167, -0.011233958415687084, 0.08070055395364761, -0.24405375123023987, -0.38004958629608154, -0.5203351378440857, -0.3161894381046295, -0.19823557138442993, 0.19741958379745483, 0.04488559439778328, 0.16633538901805878, -0.019147004932165146, 0.1788196712732315, 0.13834494352340698, 0.23678553104400635, 0.11062831431627274, -0.012172081507742405, -0.2828276455402374, -0.5060436725616455, -0.21375976502895355, 0.19999699294567108, -0.015255088917911053, -0.7389883399009705, -0.581710159778595, 0.0479971244931221, -0.11637480556964874, -0.39855051040649414, -0.7761680483818054, -0.5881302952766418, -0.01816893368959427, -0.31296056509017944, -0.18024016916751862, -0.29158344864845276, -0.17026036977767944, -0.04131820425391197, 0.00092939508613199, 0.0377710796892643, 0.5394741296768188, 0.15904054045677185, 0.021040258929133415, -0.05443457514047623, 0.14841057360172272, -0.10677327960729599, -0.2746448218822479, -0.3012470602989197, -0.08645574003458023, -0.19016453623771667, -0.2731061577796936, 0.01636206917464733, -0.12651704251766205, -0.3616705536842346, -0.04710546135902405, -0.07912627607584, -0.3811631202697754, -0.3629465699195862, -0.586912989616394, -0.322898268699646, 0.035176780074834824, 0.0015247140545397997, -0.24025344848632812, -0.12868566811084747, 0.22846803069114685, 0.16338254511356354, -0.11118732392787933, -0.11455406248569489, 0.21951457858085632, 0.08451138436794281, -0.09440406411886215, -0.0945454090833664, -0.25680163502693176, -0.26671868562698364, -0.4945225119590759, -0.14195136725902557, 0.044204387813806534, -0.40236449241638184, -0.27306342124938965, 0.03001086227595806, -0.07668957114219666, 0.008236123248934746, 0.2575538456439972, -0.11264142394065857, -0.2635309398174286, -0.6399564743041992, -0.4658445715904236, -0.4928131401538849, 0.4331587255001068, -0.06252878159284592, -0.2598938047885895, -0.29955387115478516, 0.08959081768989563, -0.2482534945011139, -0.25877493619918823, -0.20468027889728546, 0.10619518905878067, 0.15009772777557373, -0.11311358958482742, -0.165668323636055, -0.018865104764699936, -0.09755115956068039, -0.006086813285946846, 0.2772272825241089, -0.3342444896697998, -0.09442903846502304, 0.19911839067935944, -0.2214963585138321, 0.12282732129096985, 0.3710576593875885, 0.31592631340026855, 0.07333292812108994, 0.058518148958683014, 0.29077693819999695, -0.07768653333187103, -0.1835474818944931, 0.34139710664749146, -0.07791437953710556, -0.3255248963832855, -0.6799287796020508, -0.2521628141403198, -0.0070415339432656765, -0.16770464181900024, 0.26654571294784546, 0.534083902835846, 0.47167807817459106, 0.5253703594207764, 0.29634395241737366, -0.051314886659383774, -0.4774458110332489, -0.24447524547576904, 0.21057462692260742, 0.08021750301122665, 0.00017505977302789688, 0.13458585739135742, 0.12963758409023285, 0.22440257668495178, 0.24741411209106445, -0.08121450245380402, -0.06132650375366211, -0.07003249228000641, 0.3456384539604187, 0.4472218453884125, 0.525940477848053, 1.092132806777954, 0.6508810520172119, 0.05329221859574318, 0.04915252700448036, 0.048041339963674545, 0.40476348996162415, 0.32346299290657043, 1.0586503744125366, 1.179240107536316, 0.7149171829223633, 0.7926720976829529, 0.6821225881576538, 0.29024624824523926, -0.4804726541042328, 0.19369888305664062, -0.014471990056335926, 0.22259488701820374, 0.29290103912353516, 0.5676939487457275, 0.1509372591972351, -0.051764097064733505, -0.31594547629356384, 0.0576263889670372, -0.0397489108145237, -0.051493510603904724, 0.3045659363269806, 0.17403459548950195, 0.1590348184108734, 0.7031415104866028, 0.8278598785400391, 0.9568620920181274, 1.3159157037734985, 1.8400990962982178, 1.820125699043274, 1.3045384883880615, 1.613602638244629, 1.0175449848175049, 0.6799426078796387, 0.7222954034805298, 1.045433759689331, 0.9587770700454712, 0.6550760269165039, 0.9067899584770203, 0.48994913697242737, 0.454900324344635, 0.5940002799034119, 1.164270281791687, 1.2222354412078857, -0.031374577432870865, -0.24663937091827393, -0.04466201737523079, -0.020115181803703308, -0.01930064707994461, -0.06090870499610901, 0.14133456349372864, 0.525355339050293, 0.5652452707290649, 0.6105920076370239, 0.9464019536972046, 1.1665682792663574, 0.7505008578300476, 1.1159876585006714, 1.3554887771606445, 1.509463906288147, 1.5071297883987427, 1.7211167812347412, 1.025212287902832, 1.3217238187789917, 1.5577709674835205, 1.573575496673584, 1.1251939535140991, 1.4887521266937256, 1.9901108741760254, 1.328562617301941, 0.4307859241962433, -0.16547738015651703, 0.05564543604850769, 0.057334475219249725, 0.06709248572587967, -0.0035137608647346497, 0.05842957645654678, -0.042736612260341644, -0.04311259090900421, -0.07452532649040222, -0.06144909933209419, 0.3106854259967804, 0.40124058723449707, 0.4546850621700287, 0.43267595767974854, 0.5560500025749207, 0.49880966544151306, 0.739660382270813, 0.7315149307250977, 0.9245603084564209, 0.7371907830238342, 0.6462329626083374, 0.8296716809272766, 0.9894008040428162, 0.682235062122345, 0.7022690176963806, 0.7255879044532776, 0.53964763879776, -0.24101030826568604, 0.052065737545490265, -0.046596676111221313, 0.05175147205591202, 0.08261401206254959], [0.06986681371927261, 0.03931824117898941, -0.0012229159474372864, 0.07318820804357529, -0.08081541210412979, 0.07345404475927353, -0.07751867920160294, 0.03118964284658432, 0.054422371089458466, -0.017651841044425964, 0.04063203185796738, 0.06330186873674393, -0.19013835489749908, -0.06793133169412613, 0.12624618411064148, 0.11676164716482162, -0.01652197539806366, 0.06584154814481735, 0.047967441380023956, 0.04196400195360184, 0.04644323140382767, 0.05647554248571396, 0.017888247966766357, -0.020074039697647095, -0.04593373462557793, -0.058675192296504974, -0.07014204561710358, -0.041520919650793076, 0.06364946812391281, 0.06874566525220871, 0.064060740172863, -0.0709405168890953, 0.06203427165746689, 0.14553454518318176, 0.25423723459243774, -0.13867850601673126, -0.5752801299095154, -0.7506970763206482, -0.9988070726394653, -0.562744677066803, -0.6889100670814514, -0.4634881615638733, 0.26398012042045593, 0.369979590177536, 0.37619152665138245, 0.20524492859840393, 0.18356706202030182, -0.019343271851539612, -0.12638384103775024, 0.030345378443598747, 0.11339782923460007, -0.08757958561182022, -0.010277196764945984, 0.023496903479099274, 0.027921900153160095, 0.07885351032018661, 0.08098117262125015, -0.0001729428768157959, -0.34550750255584717, 0.3155437707901001, 0.302681028842926, 0.09923867881298065, -0.24485722184181213, -1.0274955034255981, -0.20744599401950836, -0.11239205300807953, -0.04725871980190277, 0.09376458078622818, 0.1977938860654831, 0.7704264521598816, 0.22086413204669952, 0.16886451840400696, 0.7120586037635803, 0.49549978971481323, 0.357736736536026, -0.1530870497226715, 0.09272608906030655, 0.141001358628273, 0.47809866070747375, -0.31975463032722473, -0.19541765749454498, 0.3576638996601105, -0.05932937562465668, 0.04331918805837631, 0.05973906069993973, -0.029227327555418015, -0.020075723528862, 0.5326665043830872, 0.5186511278152466, 0.47294455766677856, 0.296560674905777, 0.6258878707885742, 0.27531707286834717, 0.009739703498780727, 0.21655824780464172, -0.12613096833229065, -0.039727866649627686, 0.2378985732793808, 0.5106316208839417, 1.0379314422607422, 0.455539345741272, 0.2911529541015625, 0.44031545519828796, 0.2739987373352051, -0.008072944357991219, -0.31137415766716003, -0.23070409893989563, 0.04330610856413841, -0.11039983481168747, 0.1876136213541031, -0.10759828239679337, 0.01830192655324936, -0.06902822852134705, 0.013212019577622414, 0.03184826672077179, 0.1522330939769745, 0.4848007559776306, -0.0622578002512455, 0.12158516049385071, 0.19992630183696747, 0.7794707417488098, 0.574360728263855, 0.7498177886009216, 0.5933623313903809, 0.45898473262786865, 0.2481687068939209, 0.36867374181747437, 0.39291277527809143, 0.5498653054237366, 0.5773146152496338, 0.32544204592704773, -0.19093185663223267, -0.06376108527183533, -0.013192882761359215, 0.17515672743320465, -0.07915662229061127, 0.0055574579164385796, 0.0610976368188858, 0.5888813138008118, -0.2939019203186035, -0.06430892646312714, 0.0030479058623313904, 0.16125038266181946, 0.48584672808647156, 0.037799373269081116, -0.08985353261232376, 0.4405183792114258, 0.3994562327861786, 0.016496483236551285, 0.5590810179710388, 0.3297441005706787, 0.3767654299736023, 0.511851966381073, 0.33537331223487854, 0.3852865397930145, 0.5076602101325989, 0.8492224216461182, 0.723375141620636, 0.5211520195007324, 0.3753677308559418, 0.35763031244277954, 0.20954629778862, 0.4768044948577881, 0.13339129090309143, -0.15365533530712128, 0.0866321250796318, 0.43117448687553406, -0.28429466485977173, 0.056546978652477264, 0.2430579662322998, -0.48020297288894653, -0.07342850416898727, 0.032172925770282745, -0.1422377973794937, 0.26939406991004944, 0.05679843947291374, 0.07673268765211105, 0.00034378923010081053, -0.1515546590089798, -0.07378024607896805, 0.12202740460634232, 0.1300390362739563, 0.12363404035568237, 0.5091375708580017, 0.36969777941703796, 0.23057179152965546, 0.2813313901424408, 0.1493360549211502, 0.47491079568862915, 0.0120290108025074, -0.23154577612876892, -0.03280266374349594, 0.49464279413223267, 0.02786080352962017, 0.5199355483055115, -0.2557280957698822, -0.006581770721822977, 0.0006914394325576723, -0.3559662103652954, -0.3702196478843689, -0.021958358585834503, -0.08024181425571442, 0.1700921654701233, 0.13271169364452362, -0.020827259868383408, -0.0813935175538063, -0.4562913775444031, -0.29001328349113464, -0.20467671751976013, -0.20822104811668396, -0.1347058266401291, -0.08077116310596466, -0.2385970503091812, -0.25494882464408875, -0.2803514003753662, -0.09620485454797745, -0.306741327047348, -0.1286110132932663, 0.07920956611633301, -0.2897241711616516, 0.07471264153718948, 0.42835870385169983, -0.25528717041015625, -0.48026472330093384, -0.5153982639312744, -0.3281475305557251, -0.5350647568702698, -0.4020615220069885, 0.15013496577739716, 0.5431438684463501, 0.053038183599710464, -0.23415952920913696, 0.09882844984531403, -0.1813599318265915, -0.149302676320076, -0.22951771318912506, -0.3227044343948364, 0.01991243287920952, -0.4391600489616394, -0.5528379082679749, -0.5726909041404724, -0.46811598539352417, -0.3997294008731842, 0.030408402904868126, -0.48535746335983276, -0.4286224842071533, -0.07621274888515472, -0.2677728533744812, -0.013240461237728596, 0.2981460392475128, 0.5304929614067078, 0.686842679977417, -0.171963170170784, -0.32258766889572144, -0.15269020199775696, 0.13064244389533997, 0.16559278964996338, 0.23258569836616516, 0.155448317527771, -0.01688019558787346, 0.13638778030872345, -0.1795080006122589, -0.30458295345306396, -0.2380935400724411, -0.3422740399837494, -0.1922975778579712, -0.3049430251121521, -0.2624281346797943, -0.4816858470439911, -0.3879554867744446, -0.48296821117401123, -0.31176379323005676, -0.13370217382907867, -0.14937780797481537, -0.2858777642250061, -0.37248629331588745, -0.9166383147239685, 0.5389106273651123, 0.5651755928993225, -0.5891936421394348, -0.1887119561433792, 0.09319208562374115, -0.1749858856201172, -0.05498668551445007, 0.13274089992046356, 0.0200460534542799, 0.14613915979862213, 0.11017774790525436, 0.12997277081012726, -0.4764578342437744, -0.3142875134944916, -0.3488733172416687, -0.08796854317188263, 0.05892595648765564, 0.1131817102432251, -0.003485575783997774, -0.12867559492588043, -0.09511759877204895, 0.09993616491556168, 0.0011365993414074183, 0.13106395304203033, -0.43160074949264526, -0.5054734349250793, -0.6366958022117615, -1.664197325706482, 0.2834208309650421, -0.29464656114578247, 0.19831909239292145, -0.4033639132976532, -0.23985737562179565, -0.5548439621925354, 0.21909171342849731, 0.06688021868467331, -0.4057477116584778, -0.46065831184387207, -0.437985360622406, -0.25755634903907776, -0.4867713153362274, -0.3613888621330261, -0.11988196521997452, -0.06494468450546265, 0.09383774548768997, 0.44446641206741333, 0.5510317087173462, 0.5207780003547668, 0.4165608882904053, 0.5069429278373718, 0.027003634721040726, -0.44454067945480347, -0.6420997381210327, -0.8383434414863586, -1.5719408988952637, -1.0083528757095337, 0.012040400877594948, 0.1519571840763092, 0.2256898730993271, -0.17602433264255524, -0.8834757208824158, -0.5677827596664429, 0.09392830729484558, -0.057990510016679764, -0.7560526728630066, -0.7327796220779419, -0.012514286674559116, -0.20304998755455017, -0.35995399951934814, 0.2755809724330902, 0.10162485390901566, 0.16965827345848083, 0.3533073663711548, 0.8527493476867676, 0.7248379588127136, 0.6062197089195251, 0.579515278339386, 0.443867027759552, 0.49700844287872314, -0.4434088170528412, -0.7295901775360107, -1.3256131410598755, -1.3940774202346802, -1.573097825050354, -0.7468673586845398, -0.4963366687297821, -0.004858848173171282, 0.1707557886838913, -0.6352757215499878, -0.9602174758911133, 0.2728830575942993, 0.06711306422948837, -0.5089998841285706, -0.5292365550994873, -0.4415372610092163, 0.308181494474411, -0.10443123430013657, -0.2079218626022339, 0.07704968750476837, -0.06708554923534393, 0.4063017964363098, 0.5007104277610779, 0.26203715801239014, 0.4430721402168274, 0.4574066996574402, 0.08156672865152359, -0.162594273686409, -0.586243748664856, -0.6557232141494751, -0.7911235094070435, -1.1207233667373657, -1.3437930345535278, -0.7712990641593933, -0.2371540069580078, -0.5457445979118347, -0.27934974431991577, -0.7091454267501831, -0.24129149317741394, 0.17394649982452393, -0.15229985117912292, -0.18461987376213074, 0.12659423053264618, -0.4733780026435852, 0.30811813473701477, -0.5236369967460632, -0.6316841840744019, -0.2423524111509323, -0.019221365451812744, 0.3730209469795227, 0.5751241445541382, 0.34363287687301636, 0.37126782536506653, 0.054875925183296204, -0.5595948696136475, -0.5661030411720276, -0.6852961778640747, -0.687512218952179, -0.4903641641139984, -0.38570505380630493, -0.2975274622440338, -0.11992782354354858, -0.04233376309275627, -0.560468852519989, -0.3904400169849396, -0.1024116575717926, 0.2814989387989044, 0.671311616897583, 0.07169076800346375, -0.08515907824039459, 0.10475990921258926, -0.07649459689855576, 0.1838655322790146, -0.17018157243728638, -0.7199345231056213, -0.6122532486915588, -0.29423612356185913, 0.49251919984817505, 0.7277410626411438, 0.24772456288337708, 0.13108454644680023, -0.6449922919273376, -0.7744582295417786, -0.4052993059158325, -0.33462902903556824, -0.15226030349731445, -0.21601392328739166, -0.3328733742237091, 0.07246693223714828, 0.00616566464304924, -0.19694142043590546, -0.1533420979976654, -0.23800642788410187, 0.1910676509141922, 0.2978445589542389, 0.9726048111915588, -0.03539205715060234, -0.07874350994825363, -0.21390442550182343, -0.11972865462303162, 0.1032847985625267, -0.27554556727409363, -0.5171086192131042, -0.6703999638557434, -0.2678202986717224, 0.6407862305641174, 0.38975217938423157, -0.10659735649824142, -0.5588501691818237, -0.757775068283081, -0.06797340512275696, -0.011464093811810017, 0.009833217598497868, -0.01687842607498169, 0.12391497194766998, 0.13134507834911346, 0.499578058719635, 0.07349418848752975, 0.20439980924129486, 0.13098961114883423, 0.021944917738437653, -0.38921019434928894, 0.10083480179309845, 0.21783684194087982, 0.6211655139923096, 0.012300839647650719, -0.13973385095596313, -0.09853744506835938, -0.17856204509735107, -0.5949057936668396, -0.8714082837104797, -0.8871451616287231, -0.09763959795236588, 0.16369201242923737, 0.004899799358099699, -0.19626834988594055, -0.2903459668159485, -0.05980994552373886, -0.0630289763212204, 0.27843159437179565, 0.09918384253978729, 0.15550090372562408, -0.04736621677875519, -0.2547321021556854, 0.0519021600484848, -0.6378291249275208, -0.37107202410697937, 0.20788589119911194, 0.03011654131114483, -0.22794203460216522, -0.0880993902683258, 0.39288443326950073, 0.610856831073761, 0.36728543043136597, 0.12147732824087143, -0.03662418574094772, -0.15863460302352905, -0.5047646164894104, -0.5903907418251038, -0.6388425827026367, -0.4198917746543884, -0.11364907771348953, 0.00023249757941812277, 0.10041607916355133, 0.29189789295196533, 0.3669029176235199, 0.16761837899684906, 0.25109991431236267, 0.45635390281677246, 0.189329594373703, 0.14352509379386902, 0.011740821413695812, 0.2219563126564026, 0.2300434112548828, -0.6854987144470215, 0.9159195423126221, 0.04404706880450249, -0.5439756512641907, 0.41936543583869934, -0.35248881578445435, -0.14035847783088684, 0.3383638262748718, -0.13877540826797485, 0.14016969501972198, 0.0028060772456228733, -0.24498353898525238, -0.36782047152519226, -0.5716895461082458, -0.4749085605144501, 0.2325960248708725, 0.14737997949123383, 0.4909825921058655, 0.5752890706062317, 0.49035683274269104, 0.3284282684326172, 0.20609311759471893, 0.15595009922981262, 0.28812697529792786, 0.1861354261636734, -0.15271314978599548, -0.1348090022802353, 0.19631057977676392, 0.2923114001750946, 0.58968186378479, 0.05189882963895798, -0.2928972542285919, -0.09090714901685715, -0.17627784609794617, -0.043106697499752045, 0.09335404634475708, 0.11609499901533127, 0.08852580934762955, 0.3140890300273895, -0.0020966415759176016, -0.22223445773124695, -0.13074132800102234, -0.11652535945177078, -0.021933047100901604, 0.013305090367794037, 0.37742722034454346, 0.20727795362472534, 0.45526567101478577, 0.32480835914611816, 0.0935538187623024, 0.44060757756233215, 0.3769335150718689, 0.42070475220680237, 0.17425735294818878, -0.074422188103199, 0.2462444305419922, 0.30979013442993164, 0.1421581655740738, -0.020543277263641357, -0.022146016359329224, -0.05309591442346573, -0.20949409902095795, 0.22650685906410217, 0.13106459379196167, 0.271806925535202, 0.010333404876291752, -0.10789582878351212, 0.017832132056355476, -0.031004592776298523, 0.004728400614112616, -0.08383975178003311, -0.058940425515174866, 0.08898056298494339, 0.04672158509492874, 0.07038643956184387, 0.028811343014240265, 0.23765648901462555, 0.28197577595710754, 0.3158065378665924, 0.3632734417915344, 0.09461229294538498, 0.8048877716064453, 0.21978811919689178, 0.35346779227256775, 0.09356027841567993, -0.192003071308136, 0.11128626763820648, 0.1761557161808014, 0.05699138715863228, -0.021447602659463882, 0.40059369802474976, 0.06983593851327896, -0.03522790968418121, 0.16800081729888916, -0.129293292760849, 0.05410159379243851, -0.0340869165956974, 0.0417180210351944, -0.08974675089120865, 0.009372399188578129, 0.12433405220508575, 0.07857050746679306, -0.09065816551446915, -0.08947651833295822, 0.19874610006809235, 0.06388949602842331, 0.35567760467529297, 0.18731625378131866, 0.03731134533882141, 0.7210044860839844, 0.41664522886276245, 0.7052292823791504, -0.031716424971818924, -0.2292015552520752, -0.039427049458026886, 0.07301148027181625, 0.18771864473819733, 0.3301602303981781, 0.38129737973213196, 0.4681026041507721, -0.19932548701763153, 0.2765555679798126, 0.33875301480293274, 0.23505567014217377, 0.3089978098869324, -0.013894631527364254, 0.02078508958220482, 0.11574797332286835, 0.05627122148871422, 0.3913381099700928, 0.311678409576416, 0.12463702261447906, 0.38893577456474304, 0.22807225584983826, 0.3850141763687134, 0.23938706517219543, 0.6699454188346863, 0.8835460543632507, 0.42810481786727905, 0.631557047367096, 0.4831174612045288, 0.0330171212553978, 0.029856063425540924, -0.029695790261030197, 0.06705086678266525, 0.5634028911590576, -0.2688307464122772, 0.09272992610931396, 0.2750870883464813, 0.36973342299461365, 0.49719783663749695, 0.40676283836364746, 0.21989226341247559, 0.03286257013678551, 0.04070187360048294, 0.11295018345117569, 0.29672548174858093, 0.05375400930643082, -0.14002911746501923, -0.6290489435195923, -0.11167779564857483, 0.5245582461357117, 0.27598318457603455, 0.23301230370998383, 0.6822054386138916, 0.09017934650182724, -0.3187229335308075, 0.23540450632572174, 0.21461236476898193, -0.032634589821100235, 0.02569694072008133, 0.02371373027563095, 0.6817994117736816, -0.2894885540008545, 0.01905880868434906, -0.02722139284014702, 0.14206868410110474, 0.10242123901844025, 0.11617245525121689, 0.2601639926433563, 0.12616129219532013, -0.14148981869220734, 0.6301730871200562, 0.49265438318252563, 0.48726916313171387, -0.23608523607254028, -0.7498307228088379, -0.2867271602153778, 0.1910565197467804, 0.4646756649017334, 0.4293878376483917, -0.07018817216157913, -0.11224325001239777, -0.6656522750854492, -0.5481506586074829, 0.15924569964408875, 0.4793630540370941, 0.03902128338813782, -0.018594659864902496, 0.00740332156419754, 0.06728670746088028, 0.017750313505530357, 0.46545618772506714, -0.38343366980552673, -0.798305094242096, 0.012931138277053833, 0.06409106403589249, -0.1696295142173767, 0.14709700644016266, -0.5496288537979126, -0.24718230962753296, -0.43511754274368286, -0.7537873983383179, -0.29771295189857483, -0.2944062054157257, -0.4864107668399811, -0.3321588337421417, -0.41258907318115234, -0.3667198717594147, -0.20616711676120758, -0.34815600514411926, 0.09199325740337372, 0.046873219311237335, 0.09327036142349243, 0.025298036634922028, 0.05306624621152878, -0.008557341992855072, -0.08204799145460129, 0.06798911839723587, 0.047651030123233795, 0.00843313243240118, -0.12735065817832947, -0.09336411952972412, -0.18538054823875427, -0.19081245362758636, -0.8924605846405029, -0.6666665077209473, -0.7783714532852173, -1.3588119745254517, -1.3814319372177124, -1.0352559089660645, 0.28898873925209045, 0.20677970349788666, 0.09331630915403366, 0.1103619858622551, -0.85221266746521, -0.6999533176422119, -0.5888068079948425, -0.46498969197273254, -0.15391474962234497, -0.044483400881290436, -0.02458195760846138, -0.03224784508347511, -0.0007992833852767944], [0.03977096825838089, -0.047481585294008255, -0.028089847415685654, 0.016486257314682007, 0.028249263763427734, -0.0645103007555008, 0.0047726258635520935, 0.029225610196590424, -0.06354216486215591, 0.05272793024778366, 0.05379287153482437, -0.02139926701784134, 0.015279386192560196, -0.12733030319213867, -0.13337035477161407, 0.05549298971891403, -0.04096052795648575, -0.08571899682283401, -0.04095690697431564, 0.018126264214515686, 0.08023367077112198, 0.004648089408874512, -0.062371812760829926, -0.0768558606505394, -0.05737017095088959, -0.07002076506614685, 0.00217621773481369, 0.028693079948425293, -0.049875061959028244, -0.02038482576608658, -0.014447905123233795, 0.040168873965740204, -0.014518707059323788, -0.02791190706193447, 0.0526958592236042, -0.17852787673473358, -0.06585142761468887, -0.4130631685256958, -0.41115736961364746, -0.24941390752792358, -0.09738240391016006, -0.03832460194826126, -0.06315144896507263, 0.615235447883606, 0.5351077318191528, 0.3876980245113373, -0.769131600856781, -0.3805944621562958, -0.1231379359960556, -0.12931190431118011, 0.5793350338935852, 0.4171816110610962, -0.018755018711090088, 0.008408166468143463, 0.00758177787065506, 0.08081594854593277, 0.08154108375310898, -0.0834537222981453, -0.0567622184753418, 0.38593369722366333, 0.4834500551223755, -0.2412249743938446, -0.4471937417984009, -0.03598874807357788, -0.7302257418632507, -0.5481315851211548, -0.6548672318458557, -0.5661509037017822, -0.8974449038505554, -0.8769198656082153, -0.6954197287559509, -0.9064672589302063, -0.6756166815757751, -0.5452830791473389, -0.617351770401001, -0.7199134826660156, -0.9642200469970703, -1.0013337135314941, -0.4743407666683197, 0.1338723599910736, -0.28022199869155884, 0.1753881871700287, 0.07445932179689407, 0.03860846161842346, -0.04932073503732681, 0.05870436877012253, -0.0917297974228859, 0.20181730389595032, 0.25530850887298584, -0.33693307638168335, -0.06587271392345428, -0.26086461544036865, -0.8499545454978943, -0.34884676337242126, -0.4723004400730133, -0.7554685473442078, -0.45404914021492004, -0.6319445371627808, -0.22739927470684052, -0.32955697178840637, -0.43752148747444153, -0.4471096396446228, -0.13694770634174347, -0.44388094544410706, -0.1711517721414566, -0.2248643934726715, -0.7235813736915588, -0.4522172510623932, -0.056586913764476776, -0.02276240848004818, 0.2975127100944519, -0.08144586533308029, -0.0009201392531394958, 0.03715188056230545, -0.010552767664194107, -0.17475327849388123, -0.24868762493133545, 0.17668095231056213, 0.030193541198968887, -0.7714909315109253, -0.7196198105812073, -0.6354272961616516, -0.7009131908416748, -0.3765885531902313, -0.20710866153240204, -0.3089296519756317, -0.30933836102485657, -0.13605119287967682, -0.11746775358915329, -0.06955816596746445, -0.03481623902916908, 0.12513166666030884, -0.30171728134155273, -0.3278660178184509, -0.6246419548988342, -0.4227626919746399, -0.17341014742851257, -0.004011820536106825, 0.4012288451194763, -0.07369542121887207, 0.02244320511817932, 0.05166787654161453, -0.05516262352466583, 0.5069018006324768, 0.4910157024860382, 0.16542884707450867, -0.48558077216148376, -0.9527764320373535, -0.7637345790863037, -0.5743008852005005, -0.8979659676551819, -0.4587917923927307, -0.5725728273391724, 0.13286849856376648, -0.11702866107225418, -0.15160731971263885, 0.22874616086483002, 0.04801414906978607, -0.17269091308116913, -0.058653295040130615, -0.04882683977484703, 0.05892693251371384, -0.37514016032218933, 0.2344662994146347, -0.29873618483543396, -0.2985740900039673, 0.3356570303440094, -0.03078731894493103, 0.04850239306688309, -0.1147308498620987, 0.09700006991624832, -0.05566411465406418, 0.485599547624588, -0.7132379412651062, -0.46791550517082214, -0.5669514536857605, -0.9038154482841492, -1.0353564023971558, -0.4819198548793793, -0.45331695675849915, -0.39793962240219116, -0.07810448110103607, -0.21589447557926178, -0.43645888566970825, -0.26061224937438965, -0.30773189663887024, -0.03941531851887703, 0.1738007813692093, 0.10917980968952179, 0.07058895379304886, 0.023683849722146988, 0.21178144216537476, -0.11571124196052551, -0.02530057542026043, 0.2439938336610794, 0.015539753250777721, 0.057115063071250916, -0.47190719842910767, 0.19280339777469635, 0.19935783743858337, -0.06651344895362854, -0.616308331489563, -0.5382735729217529, -1.0034818649291992, -1.0128538608551025, -0.9093076586723328, -0.25695469975471497, -0.16842631995677948, -0.4172818958759308, -0.8839090466499329, -0.6000831723213196, -0.561314582824707, -0.4482192397117615, -0.29166772961616516, 0.17087815701961517, 0.23389820754528046, 0.10107412934303284, 0.14361698925495148, 0.0655338391661644, 0.15989437699317932, -0.05367394536733627, 0.7036933898925781, -0.19443614780902863, 0.1929895579814911, 0.5297873616218567, -0.6845614910125732, 0.18727006018161774, 0.4726145565509796, -0.35182082653045654, -0.2935066819190979, -0.35467156767845154, -0.7784489393234253, -0.4220629334449768, -0.41186803579330444, -0.002186619210988283, -0.3912011981010437, -0.3429042398929596, -0.7944342494010925, -0.5280103087425232, -0.2816334366798401, -0.11604754626750946, 0.01902950555086136, 0.22643180191516876, 0.20596317946910858, 0.26969513297080994, 0.13506357371807098, 0.10712875425815582, -0.029860539361834526, -0.2067195028066635, 0.4678681492805481, -0.1778574138879776, 0.5238097906112671, 0.12327776104211807, -0.004391753114759922, 0.128163143992424, -0.21023447811603546, -0.3508041203022003, -0.523602306842804, -0.3811998665332794, -0.13908694684505463, -0.030749639496207237, -0.06076717749238014, -0.14231690764427185, -0.3097093999385834, -0.01834551803767681, -0.28824949264526367, -0.242937833070755, -0.1273781955242157, 0.09503629058599472, 0.06938498467206955, 0.24703645706176758, 0.18384966254234314, 0.13467249274253845, -0.031500231474637985, -0.06085300073027611, 0.20911872386932373, -0.061032313853502274, -0.13362817466259003, -0.21465568244457245, 0.056702643632888794, 0.12217213958501816, 0.3809422552585602, 0.15964698791503906, -0.49991491436958313, -0.3358727693557739, -0.539145290851593, 0.7077074646949768, 0.5937883257865906, 0.016164153814315796, 0.01802334375679493, 0.11712692677974701, 0.3611454665660858, 0.2309790551662445, 0.042186085134744644, 0.18057070672512054, 0.32123667001724243, 0.4518839716911316, 0.15503478050231934, 0.03862480819225311, 0.10154607146978378, -0.0283837728202343, -0.09473741054534912, 0.07592404633760452, 0.3183742165565491, 0.21264904737472534, 0.17454279959201813, 0.4933345913887024, -0.5300385355949402, -0.2348404973745346, 0.424614280462265, 0.20475338399410248, -0.020975802093744278, -0.34640341997146606, -0.633430004119873, 0.5844920873641968, 0.2350694090127945, 0.001299707917496562, -0.1867087185382843, -0.19355706870555878, 0.3090411424636841, -0.17442139983177185, 0.0973333790898323, 0.18813225626945496, 0.3324693739414215, 0.02119457721710205, 0.16565796732902527, -0.03722287714481354, 0.14795200526714325, 0.1402261108160019, 0.2077280431985855, 0.17426937818527222, 0.29301050305366516, 0.4827392101287842, 0.1716405600309372, 0.2532620429992676, 0.3915454149246216, -0.08441562205553055, 0.355608195066452, 0.08026318997144699, -0.165562704205513, -0.37253060936927795, 0.027222348377108574, 0.24557358026504517, 0.3760417401790619, -0.010397161357104778, 0.18773695826530457, 0.17734380066394806, 0.24764005839824677, -0.017105484381318092, 0.059333767741918564, 0.3641291558742523, 0.07799851894378662, -0.46726730465888977, -0.15671271085739136, -0.004598461091518402, 0.3645550310611725, -0.09474560618400574, -0.121299147605896, 0.20551922917366028, -0.2639928460121155, -0.27456045150756836, -0.2651529014110565, 0.4989684522151947, 0.03363434970378876, 0.15124282240867615, 0.5025625228881836, 0.08204807341098785, -0.16173605620861053, 0.13171795010566711, 0.8430099487304688, 0.05853370204567909, 0.23549211025238037, 0.35456329584121704, -0.0023115617223083973, 0.2925340235233307, 0.021638914942741394, 0.20432038605213165, 0.020704183727502823, -0.20978334546089172, -0.627984881401062, -0.4296168088912964, -0.46670639514923096, -0.08103698492050171, -0.15532656013965607, -0.30239859223365784, -0.3151733875274658, -0.30752572417259216, 0.2684383988380432, -0.07740424573421478, 0.15943986177444458, -0.5770352482795715, -0.3941139578819275, 0.18048080801963806, 0.6042706370353699, 0.014345753937959671, -0.4774863123893738, 0.04326913133263588, 0.5672439932823181, 0.1320166140794754, 0.25095486640930176, 0.23094765841960907, 0.4554991126060486, 0.0032823430374264717, 0.1445440649986267, 0.011376573704183102, 0.0006599245825782418, -0.4741670787334442, -0.44781285524368286, -0.49924618005752563, -0.11050759255886078, -0.3056182861328125, -0.48304641246795654, -0.21869654953479767, 0.06338009983301163, -0.023565499112010002, 0.10972966998815536, 0.08489267528057098, -0.009892274625599384, -0.7183875441551208, -0.26593315601348877, -0.11413001269102097, 0.25198423862457275, 0.0873013585805893, -0.7079960107803345, 0.3162638545036316, 0.33849582076072693, 0.4392162561416626, 0.4097946882247925, 0.08722493052482605, 0.05019485950469971, -0.3012144863605499, -0.2291511446237564, 0.19586701691150665, -0.25341975688934326, -0.43384554982185364, -0.2713877856731415, -0.0816357284784317, -0.20307914912700653, 0.03520764037966728, -0.3585968315601349, -0.2255946695804596, -0.26653313636779785, -0.1876646876335144, 0.47181159257888794, 0.5608764290809631, -0.15349362790584564, 0.2605230510234833, -0.7209991216659546, -0.22015032172203064, 0.38728752732276917, -0.12386564165353775, -0.028311414644122124, 0.10833918303251266, 0.19580985605716705, 0.2714133560657501, -0.0326884426176548, 0.17042016983032227, -0.21675695478916168, -0.6673814058303833, -0.43735358119010925, -0.26469674706459045, -0.07806891202926636, -0.1616903692483902, -0.06142113357782364, -0.09258764982223511, 0.06557571142911911, 0.10004343092441559, -0.14351539313793182, 0.08888666331768036, -0.29699209332466125, -0.5109193921089172, -0.007428491022437811, 0.3089485764503479, -0.7648649215698242, -0.42035937309265137, 0.33553728461265564, 0.010946787893772125, 0.5679760575294495, -0.6408143043518066, 0.2697513699531555, -0.2925129234790802, 0.18114103376865387, 0.05567949637770653, 0.12221236526966095, 0.09557126462459564, -0.0688551515340805, -0.35096311569213867, -0.21984663605690002, -0.3522599935531616, -0.14728017151355743, -0.1913023442029953, -0.04500214755535126, 0.20539824664592743, 0.4742256999015808, -0.024121735244989395, -0.20818403363227844, -0.2533416152000427, -0.48135262727737427, -0.1697956919670105, 0.23084840178489685, -0.23931847512722015, -0.42392823100090027, -0.22244921326637268, 0.573844313621521, -0.18297305703163147, 0.3581847548484802, -0.4325328767299652, 0.3496799170970917, 0.012957893311977386, 0.31890472769737244, -0.08257655799388885, 0.42260387539863586, 0.5152599215507507, 0.24262851476669312, 0.3986107409000397, 0.03887069597840309, -0.39747822284698486, -0.13183721899986267, 0.024839583784341812, 0.3900400400161743, 0.016136446967720985, 0.2394174188375473, 0.1096537709236145, -0.3836025297641754, -0.12237381190061569, -0.0707983747124672, 0.2517872452735901, -0.2216458022594452, -0.46095603704452515, 0.3696260452270508, 0.30382829904556274, -0.18843118846416473, 0.07466721534729004, 0.3342328667640686, -0.24014481902122498, 0.5013976693153381, 0.12133912742137909, 0.36031946539878845, 0.026055345311760902, 0.10862571001052856, 0.34324902296066284, 0.1608106940984726, 0.29937639832496643, -0.12302114069461823, -0.054493796080350876, 0.137884259223938, 0.14335858821868896, 0.16364319622516632, -0.032967858016490936, 0.051602281630039215, 0.1454196721315384, -0.36360323429107666, -0.023673146963119507, -0.5222678780555725, -0.653769314289093, -0.6249952912330627, -0.03094426542520523, 0.5294358730316162, 0.2519707977771759, 0.21702297031879425, -0.07968887686729431, 0.22637757658958435, 0.07679266482591629, -0.053339868783950806, 0.2794732451438904, 0.2799234688282013, -0.15985283255577087, 0.3398393988609314, 0.2655508518218994, 0.20768135786056519, 0.3222813010215759, 0.2876570224761963, 0.2613886296749115, 0.13328319787979126, 0.048671357333660126, -0.14574384689331055, -0.5487617254257202, -0.27821478247642517, -0.2176317721605301, -0.8281445503234863, -0.6816518902778625, -0.4985851049423218, -0.5940449833869934, -0.9831036925315857, -0.39902830123901367, 0.35253673791885376, 0.538021981716156, 0.09748459607362747, -0.07971365004777908, -0.19675546884536743, 0.6002503633499146, -0.17126162350177765, -0.2901199162006378, 0.05906834453344345, -0.04064115881919861, -0.014447328634560108, 0.04800843074917793, 0.09285467118024826, 0.29020920395851135, 0.1885785162448883, 0.1839030683040619, -0.11785871535539627, -0.4340963661670685, -0.36821219325065613, -0.5877144932746887, -0.21687528491020203, -0.408394992351532, -0.9297260642051697, -0.811949610710144, -0.6123602390289307, -1.1728630065917969, -0.2710846960544586, -0.394419401884079, 0.5572282075881958, 0.7279373407363892, 0.22047865390777588, -0.013718300499022007, -0.10967899858951569, 0.5763899087905884, -0.030142253264784813, -0.43928641080856323, -0.2656696140766144, 0.21685875952243805, 0.006405417807400227, 0.1297502964735031, 0.1653987318277359, -0.0798320546746254, 0.022907501086592674, -0.10710625350475311, -0.1207793727517128, -0.3408935070037842, -0.3940465748310089, -0.4914141297340393, -0.25166186690330505, -0.3945634663105011, -1.0576151609420776, -1.1243789196014404, -0.8508349657058716, -0.5461412668228149, -0.5890848636627197, -0.6785020232200623, -0.022113751620054245, 0.5360976457595825, 0.2685888707637787, 0.05768784135580063, 0.07141614705324173, 0.554768443107605, -0.1217242032289505, -0.49222150444984436, -0.18008559942245483, -0.07346785813570023, 0.13325875997543335, 0.11536134034395218, 0.36322781443595886, 0.255500853061676, 0.07638075947761536, -0.24774996936321259, -0.3987899720668793, -0.34810933470726013, -0.33497312664985657, -0.39002683758735657, -0.4828367531299591, -0.8964388966560364, -1.4307106733322144, -1.1311473846435547, -0.6547561883926392, -0.4530608654022217, -0.8103548884391785, -0.5034849047660828, -0.17837445437908173, 0.20755308866500854, -0.07414914667606354, -0.07589034736156464, 0.013276465237140656, 0.039433326572179794, 0.3503493666648865, -0.1469031125307083, -0.2197035402059555, -0.6759008169174194, -0.12436576187610626, 0.31809577345848083, -0.29704442620277405, -0.5672684907913208, -0.6437948942184448, -0.5911077857017517, -0.8142947554588318, -0.5706586837768555, -1.0281884670257568, -1.2716037034988403, -0.629036545753479, -0.40481871366500854, -0.5605026483535767, -0.07100041955709457, -0.23017969727516174, -0.2177363932132721, -0.7196398973464966, -0.3675316274166107, -0.5522852540016174, -0.4541093409061432, -0.07538559287786484, -0.07207582890987396, -0.01563052088022232, 0.01584026776254177, -0.4805009961128235, -0.2595578134059906, -0.44025465846061707, -0.6783473491668701, -0.4473861753940582, -0.8670265078544617, -0.6475252509117126, -1.0139302015304565, -0.9797177910804749, -1.1784093379974365, -1.0779824256896973, -0.9461458325386047, -1.1523324251174927, -0.6942669153213501, -0.6124113202095032, -0.27696582674980164, -0.4675981104373932, -0.436414510011673, -0.954779326915741, -0.09552048146724701, -0.3451019823551178, -0.2879261374473572, 0.06781473010778427, 0.0980437770485878, 0.02589605003595352, -0.06728942692279816, -0.06513406336307526, 0.06637952476739883, 0.034035347402095795, -0.0871860682964325, -0.004199931863695383, -0.9350022673606873, -0.8262149691581726, -0.35620903968811035, -0.47185587882995605, -0.509048581123352, -0.11738451570272446, -0.05314651131629944, 0.11840830743312836, -0.5692742466926575, -0.6928313970565796, 0.04516628757119179, -0.39237767457962036, 0.09740874916315079, -0.14141984283924103, -0.4181267023086548, -0.8040287494659424, -0.3024398684501648, -0.6270564794540405, -0.34412941336631775, 0.002325433772057295, 0.08264660090208054, -0.05621083080768585, 0.0813210979104042, -0.06816252321004868, 0.052548132836818695, -0.012497872114181519, -0.05712240934371948, -0.5447174906730652, 0.31278759241104126, 0.06363776326179504, 0.18974778056144714, 0.2432386577129364, 0.33447542786598206, 0.48992758989334106, 0.36519721150398254, 0.09806447476148605, 0.377515584230423, -0.41394859552383423, -0.5358510613441467, -0.9154165983200073, -0.5588160157203674, -0.5255003571510315, -0.5463723540306091, -0.6654586791992188, -0.29068464040756226, -0.18655337393283844, 0.0724622830748558, -0.008005596697330475, -0.020030729472637177, 0.0030847489833831787], [-0.04848359897732735, -0.029118984937667847, -0.050704192370176315, -0.052664849907159805, 0.05219436436891556, 0.03226511925458908, 0.008938521146774292, -0.024897433817386627, -0.06377527117729187, 0.028797492384910583, -0.036259014159440994, -0.025224141776561737, 0.20217758417129517, 0.2896217703819275, -0.022494452074170113, 0.016106469556689262, -0.08129764348268509, -0.015036113560199738, 0.0021759122610092163, -0.005001962184906006, 0.03293256461620331, -0.013542890548706055, 0.019109606742858887, 0.07941325753927231, 0.07803692668676376, 0.044449590146541595, -0.06631174683570862, 0.06306400150060654, 0.06792791932821274, 0.025782011449337006, 0.04130152612924576, 0.019466184079647064, 0.05989806726574898, 0.17351305484771729, 0.633640706539154, 0.9572687149047852, 0.7752841114997864, 1.0733917951583862, 0.3740956485271454, -0.32560715079307556, -0.20000004768371582, 0.06893306225538254, -0.5241337418556213, 0.28296858072280884, -0.021176176145672798, 0.39354151487350464, 1.1598119735717773, 1.1415085792541504, 0.853159487247467, 0.6275421977043152, 0.31006181240081787, 0.18308253586292267, 0.06334923952817917, -0.010772250592708588, -0.04465515911579132, -0.03565782681107521, 0.07441396266222, -0.01293039321899414, 0.3018959164619446, 0.0573279969394207, 0.4017794132232666, 0.2887257933616638, 0.7944332957267761, 0.8665014505386353, 0.5037826299667358, 0.3936568796634674, 0.2533992528915405, 0.20187050104141235, 0.24154143035411835, 0.00827768910676241, 0.2998134195804596, 0.5783496499061584, -0.06512143462896347, 0.11356368660926819, 0.2534669041633606, 0.7921565771102905, 0.793421745300293, 0.6581997275352478, 1.0942319631576538, 0.4357375204563141, -0.33923864364624023, -0.12631379067897797, 0.00572764128446579, -0.0660150870680809, 0.01986316591501236, 0.03309887647628784, -0.19750788807868958, -0.030043892562389374, 0.6030044555664062, 0.579046905040741, 0.8884468078613281, 0.7944416403770447, -0.0014654550468549132, 0.44352826476097107, 0.736537754535675, 0.3625895082950592, 0.3378103971481323, -0.07594461739063263, -0.17980541288852692, -0.08803952485322952, 0.5766632556915283, 0.4009683430194855, 0.575403094291687, 0.6510289907455444, 0.5255478620529175, 0.3713243305683136, 0.5174511671066284, 0.563769519329071, 0.5493793487548828, -0.23161037266254425, 0.5650226473808289, 0.05350565165281296, -0.0793197751045227, -0.07995342463254929, -0.24193154275417328, -0.168267160654068, -0.258745402097702, 0.04475359618663788, -0.09396100789308548, 0.006204516626894474, 0.01875261776149273, 0.23496262729167938, 0.0003671027079690248, 0.2231633961200714, -0.11948440223932266, -0.31220170855522156, -0.36152973771095276, -0.04314330220222473, 0.48279112577438354, 0.4163445830345154, 0.3178933560848236, 0.5777236223220825, 0.6326033473014832, 0.3514705300331116, 0.15721391141414642, 0.5756550431251526, 0.7432183027267456, 0.2964671552181244, 0.11292529106140137, 0.14596956968307495, -0.055289238691329956, -0.007877185940742493, -0.04387476667761803, 0.06535302847623825, -0.5450926423072815, -0.032997339963912964, 0.0887841209769249, 0.06404538452625275, 0.3176269829273224, 0.42104390263557434, -0.12851737439632416, 0.15848998725414276, 0.2667224109172821, 0.20400722324848175, 0.21500052511692047, -0.05564016103744507, -0.2101270854473114, -0.057197004556655884, 0.16543792188167572, 0.3420208990573883, 0.10087741911411285, 0.11084219068288803, -0.09324430674314499, -0.13903193175792694, 0.0358564592897892, -0.16413161158561707, 0.13703253865242004, 0.22435563802719116, -0.07180589437484741, -0.30657362937927246, 0.29116302728652954, 0.043628767132759094, -0.22628983855247498, 0.6517707109451294, 0.41178780794143677, 0.30853238701820374, 0.48756030201911926, 0.08448129892349243, -0.09407413750886917, 0.421933114528656, 0.3748182952404022, 0.2728673815727234, 0.16281908750534058, 0.14975956082344055, 0.520410418510437, 0.3238922655582428, -0.0659947618842125, -0.353283554315567, -0.6249392628669739, -0.1865302324295044, -0.5939915776252747, -0.7858425974845886, -1.559189796447754, -0.8999950289726257, -0.6820492744445801, 0.03654215484857559, 0.20999541878700256, 0.2943991422653198, 0.5449838042259216, 0.05250328779220581, -0.39321619272232056, -0.2763892412185669, 0.13829387724399567, -0.06302572041749954, 0.07596082985401154, -0.1655733436346054, 0.17349278926849365, 0.12874820828437805, 0.3178180158138275, 0.26392537355422974, -0.14077270030975342, -0.08969582617282867, -0.009949088096618652, -0.11831989139318466, -0.6247277855873108, -0.9800203442573547, -0.7213349342346191, -0.6057048439979553, -1.0367571115493774, -0.8854943513870239, -1.4555283784866333, -1.009442925453186, -0.5115302801132202, 0.15570123493671417, -0.3224755823612213, -0.0404573455452919, 0.32841816544532776, 0.004714915528893471, -0.015633992850780487, 0.205662801861763, -0.05072733014822006, 0.1333412230014801, 0.4110885262489319, 0.28545597195625305, 0.06901189684867859, 0.37325409054756165, 0.19339217245578766, -0.1816362887620926, -0.41215887665748596, -0.6255584955215454, -0.5427312850952148, -0.4187956154346466, -0.7142704725265503, -0.8021221160888672, -0.5727249383926392, -0.48168960213661194, -0.2917541265487671, -0.49387305974960327, -1.2569481134414673, -1.2248882055282593, -0.7029225826263428, 0.07586585730314255, 0.11838258802890778, 0.5824570655822754, 0.07453329861164093, 0.1662287712097168, 0.18865279853343964, -0.005944582633674145, 0.052766554057598114, 0.40454861521720886, 0.3164710998535156, 0.16220484673976898, 0.43733787536621094, 0.34783685207366943, 0.06990841776132584, -0.5680885314941406, -0.459626704454422, -0.4661368727684021, -0.49925753474235535, -0.4200977087020874, -0.33373481035232544, -0.25075769424438477, 0.07494828850030899, 0.25463947653770447, 0.08818583190441132, -0.17063342034816742, -0.4521951377391815, -0.4862729012966156, -0.17478089034557343, 0.056248340755701065, 0.18806810677051544, 0.7732990384101868, -0.3080891966819763, 0.11777777969837189, 0.21376824378967285, -0.057365890592336655, 0.09100344032049179, 0.27614927291870117, -0.017393434420228004, 0.1561124175786972, -0.08163391053676605, -0.2434273511171341, -0.1254025548696518, -0.29171738028526306, 0.24723514914512634, 0.5979048609733582, 0.2769523561000824, 0.24302321672439575, 0.4346770942211151, 0.5780933499336243, 0.4653274714946747, 0.19151975214481354, -0.08482766151428223, -0.14490365982055664, -0.47886207699775696, -0.03348124772310257, -0.09379704296588898, -0.43898287415504456, 0.7116852402687073, 0.13962607085704803, 0.4911671280860901, -0.29018327593803406, 0.43618378043174744, 0.19225278496742249, -0.004689352121204138, 0.3556053042411804, 0.18789063394069672, -0.060833826661109924, -0.014133387245237827, -0.02756953053176403, 0.1624908447265625, 0.6296536326408386, 0.7641115188598633, 0.8241381049156189, 0.7709007263183594, 0.8312485218048096, 0.6715313196182251, 0.42664214968681335, 0.6762300729751587, 0.2637737989425659, 0.26336029171943665, 0.1034805029630661, 0.1246384009718895, -0.5747812986373901, -0.12093951553106308, 0.15457545220851898, 0.485994428396225, 0.11742955446243286, 0.6216694116592407, 0.47373297810554504, 0.08237268775701523, 0.1649523377418518, 0.4861129820346832, 0.30305445194244385, 0.11905031651258469, -0.032939378172159195, -0.3525928258895874, -0.31860780715942383, -0.3454604744911194, 0.07009802013635635, 0.17985376715660095, 0.38466349244117737, 0.3892512023448944, 0.26736336946487427, 0.015285640954971313, -0.11417288333177567, 0.19318819046020508, 0.33706918358802795, 0.4163927137851715, 0.9908377528190613, 0.04287232458591461, -0.43974578380584717, 0.08449619263410568, 0.07397536933422089, -0.2097088247537613, 0.14666713774204254, 0.06575994193553925, 0.42348963022232056, 0.3921673595905304, 0.141605943441391, 0.1266196072101593, 0.48264873027801514, -0.11762268096208572, -0.31692808866500854, -0.0682641789317131, -0.4651600122451782, -0.4391375482082367, -0.19597813487052917, -0.04331329092383385, 0.2516378164291382, 0.3718346953392029, 0.029918896034359932, -0.33509087562561035, -0.09758903831243515, 0.09309634566307068, 0.4039889872074127, 0.3503711223602295, 0.27511903643608093, 0.10723258554935455, 0.1380750834941864, -0.7693527340888977, -0.40731239318847656, -0.06898301094770432, 0.33352673053741455, -0.2978622019290924, 0.6254405379295349, 0.916837751865387, 0.024394525215029716, -0.015354948118329048, 0.12838152050971985, -0.02575049176812172, 0.11158350110054016, -0.12051665782928467, -0.30677345395088196, -0.5984858274459839, -0.3998227119445801, -0.24866540729999542, 0.1905587762594223, -0.13260778784751892, -0.16202762722969055, -0.3163652718067169, -0.18597756326198578, 0.029403362423181534, 0.1977737843990326, 0.254343181848526, -0.3924010396003723, -0.1619310826063156, -0.12160559743642807, -0.46680209040641785, -0.5034560561180115, -0.0073442403227090836, 0.20830754935741425, -0.5273378491401672, 0.13287517428398132, 0.25091296434402466, 0.029785793274641037, 0.5317399501800537, -0.1746417135000229, -0.025744132697582245, -0.30971819162368774, -0.25461503863334656, 0.0778983011841774, -0.2433953881263733, -0.4551510810852051, -0.36916545033454895, 0.15974625945091248, -0.2740519344806671, -0.12887611985206604, -0.19172312319278717, -0.28708475828170776, -0.20415854454040527, 0.09280930459499359, 0.13552774488925934, 0.0388428270816803, -0.19631889462471008, -0.07530658692121506, -0.3637894093990326, -0.06820434331893921, 0.02525528147816658, -0.5357398390769958, -0.5698021650314331, -0.4861706793308258, 0.3944445848464966, -0.14579594135284424, 0.5274960398674011, -0.13503628969192505, -0.3416156768798828, -0.40340349078178406, -0.42508694529533386, -0.04662439227104187, -0.06712128221988678, -0.2167447805404663, -0.06126682832837105, -0.13855530321598053, -0.09870239347219467, -0.11121102422475815, -0.32264435291290283, -0.6948161125183105, -0.30004873871803284, 0.0746697261929512, 0.016804726794362068, -0.015881408005952835, -0.24046243727207184, -0.07686521112918854, -0.8034936785697937, -0.21053017675876617, 0.011939674615859985, 0.25183746218681335, -0.18552739918231964, -0.634324312210083, -0.3262401521205902, 0.05172660946846008, -0.1773097664117813, -0.06838994473218918, 0.07431323081254959, -0.01536176074296236, 0.1425703763961792, 0.10816198587417603, 0.11168577522039413, -0.04115677997469902, 0.059309087693691254, 0.08143758773803711, -0.08010870218276978, -0.08410411328077316, -0.2102174460887909, -0.29587557911872864, -0.5044361352920532, -0.23542088270187378, -0.5322397351264954, -0.07490228116512299, -0.2194385826587677, -0.6467728018760681, -0.63917475938797, -0.2562159597873688, 0.1677197962999344, 0.3878372013568878, -0.06809494644403458, -0.040279727429151535, -0.0045180837623775005, -0.20387305319309235, -0.49550241231918335, -0.30785849690437317, -0.29458191990852356, 0.23717385530471802, 0.506934404373169, 0.5579750537872314, -0.086433045566082, -0.033746570348739624, 0.16347411274909973, -0.1464773267507553, -0.15936727821826935, -0.22537575662136078, -0.0371510349214077, -0.24308007955551147, -0.36146414279937744, -0.05379774421453476, -0.2604420483112335, 0.14244191348552704, -0.31906336545944214, -0.28770020604133606, 0.24395141005516052, -0.6864380240440369, -0.21047188341617584, -0.4213038980960846, -0.047071974724531174, 0.5182334780693054, -0.20809607207775116, -0.40367257595062256, -0.12497296929359436, -0.2741181254386902, -0.4011543393135071, 0.10714979469776154, 0.16949118673801422, 0.1642230749130249, 0.2926159203052521, -0.26210644841194153, 0.02353673242032528, -0.2365519404411316, -0.1586485654115677, -0.2915927469730377, -0.0809665396809578, -0.2503393888473511, -0.15124161541461945, -0.066238172352314, -0.285535603761673, -0.1161029115319252, -0.054415326565504074, 0.0662887841463089, -0.7707053422927856, -0.6603097915649414, -0.011321336030960083, 0.41751736402511597, 0.18044711649417877, 0.34043389558792114, -0.10712291300296783, -0.4231482446193695, -0.4574666917324066, -0.1369134932756424, -0.07706180959939957, -0.17380619049072266, -0.047634195536375046, -0.7096564173698425, -0.29850080609321594, -0.029529541730880737, 0.014439334161579609, 0.16711296141147614, 0.09276273846626282, 0.056928981095552444, -0.10721529275178909, 0.04023768752813339, -0.31259816884994507, -0.1209690123796463, -0.4358828067779541, -0.03596532344818115, -0.15660624206066132, 0.3640129566192627, -0.7211213111877441, -0.28756552934646606, -0.24798336625099182, -0.39414888620376587, -0.6894723773002625, -0.18634966015815735, 0.08368800580501556, -0.3240424692630768, -0.21012388169765472, 0.3303494155406952, -0.010257221758365631, -0.17534643411636353, -0.389985591173172, -0.5406712889671326, -0.27773863077163696, 0.06257079541683197, -0.05774005129933357, 0.11978378146886826, 0.2763079106807709, 0.029961446300148964, 0.007445989642292261, -0.2554629147052765, 0.07160744071006775, -0.03408006578683853, -0.3915054500102997, -0.5201391577720642, 0.016922280192375183, 0.034794386476278305, -0.056508149951696396, -0.19325821101665497, -0.08680454641580582, -0.1465345025062561, -1.1184579133987427, 0.048873551189899445, 0.11616886407136917, 0.15103484690189362, -0.003529634326696396, 0.2739863097667694, -0.02837919443845749, -0.2313220500946045, -0.38166528940200806, -0.6753380298614502, -0.56907057762146, -0.3309946060180664, -0.08850360661745071, -0.13031046092510223, 0.05863361433148384, 0.040066808462142944, 0.13505572080612183, -0.0707596018910408, -0.4368188679218292, -0.35445111989974976, 0.07589258998632431, -0.05342754349112511, 0.19893909990787506, -0.1082298681139946, 0.15401458740234375, -0.37097856402397156, 0.01510842889547348, 0.04709615558385849, -0.9798962473869324, -0.35079246759414673, 0.4971972107887268, 0.19038408994674683, 0.2158118486404419, -0.2933039665222168, -0.02982158400118351, -0.37179818749427795, -0.28961390256881714, -0.6880096793174744, -0.7866637110710144, -0.6847493052482605, -0.5194436311721802, -0.8449021577835083, -0.7379589080810547, -0.12794485688209534, -0.022091994062066078, -0.11391962319612503, -0.3481263220310211, 0.026155343279242516, 0.12979702651500702, -0.08773311227560043, -0.11906664073467255, -0.355622261762619, -0.09854406863451004, -0.055685222148895264, -0.07657748460769653, 0.011648111045360565, -0.10675223171710968, -0.7666460871696472, 0.4910750687122345, 0.648887574672699, 0.17257867753505707, 0.5038867592811584, 0.01993338204920292, -0.16119295358657837, 0.16091354191303253, -0.394792765378952, -0.5380563139915466, -0.47537869215011597, -0.5449802875518799, -0.07017191499471664, -0.11929383128881454, -0.04823921620845795, -0.23087328672409058, -0.36401787400245667, -0.2593238055706024, -0.14501501619815826, -0.35070276260375977, 0.7403976321220398, -0.3487689793109894, -0.7628089189529419, -0.5066607594490051, 0.05702579766511917, 0.03434709459543228, 0.02101518213748932, 0.5112835168838501, 0.6826263070106506, 0.024200592190027237, 0.3819717466831207, 0.13594475388526917, 0.5056195259094238, 0.08403877168893814, 0.4306991994380951, 0.6303030848503113, 0.4528360962867737, 0.15613453090190887, 0.24513208866119385, 0.5158367156982422, 0.3961012363433838, 0.23613373935222626, 0.23435959219932556, -0.008318217471241951, 0.4506511390209198, 0.13834598660469055, 0.575541079044342, 0.4741409122943878, -0.05626287683844566, 0.9362611174583435, 0.1448875516653061, -0.25800564885139465, -0.031038086861371994, 0.04415344446897507, 0.0039057955145835876, -0.04527859389781952, 0.516812801361084, 0.43915241956710815, 0.6186949610710144, 0.690748929977417, 0.3510570526123047, 0.06830711662769318, 0.8150578737258911, 0.9217151999473572, 1.1997456550598145, 1.1680690050125122, 0.8577473163604736, 1.257022500038147, 1.148127555847168, 0.71722811460495, 0.5790063738822937, 0.737920343875885, 0.5534063577651978, 0.5240222811698914, 1.1614699363708496, 0.8181462287902832, 0.5526942610740662, -0.23028376698493958, 0.13847702741622925, -0.0059948936104774475, -0.05389896407723427, 0.04214828461408615, -0.05752504616975784, -0.06803421676158905, -0.05781206488609314, -0.14608986675739288, -0.1536339670419693, 0.16281935572624207, -0.4146706163883209, -0.5711821913719177, -0.27123382687568665, 0.19554999470710754, 0.7603681087493896, 0.44193342328071594, 0.05256808176636696, 0.7259408831596375, 0.19217325747013092, -0.28833797574043274, 0.13124246895313263, 0.5048970580101013, 0.4481070935726166, 0.6671416759490967, 0.9501797556877136, 0.5051326155662537, -0.42367544770240784, -0.08108961582183838, 0.028430908918380737, -0.06555984914302826, 0.006656542420387268], [0.05156805366277695, 0.04369109123945236, -0.07328756898641586, 0.05103466659784317, 0.06630311161279678, -0.07372076064348221, -0.081253781914711, -0.046655114740133286, -0.0824853777885437, -0.028758950531482697, -0.06184808164834976, 0.007198832929134369, 0.20466768741607666, 0.0763135775923729, -0.2599378228187561, -0.00858528632670641, -0.009854830801486969, 0.0467161163687706, -0.022722668945789337, 0.026541590690612793, 0.02197343111038208, -0.08456223458051682, -0.07634951174259186, 0.031423233449459076, -0.06016010046005249, 0.07122283428907394, -0.009214140474796295, -0.003877870738506317, -0.017886973917484283, 0.00560750812292099, 0.04154308885335922, 0.025733545422554016, 0.0034215215127915144, 0.06710539013147354, 0.8110082745552063, 0.9653006196022034, 0.6830083727836609, 0.6245518922805786, 0.7943375706672668, 0.48564884066581726, 0.9846045970916748, 1.4994654655456543, 0.6552296280860901, 0.9324957728385925, 0.4773411154747009, 0.908411979675293, 1.2126775979995728, 0.49174755811691284, 0.040870774537324905, 0.48676690459251404, 0.5785852074623108, 0.2873731255531311, 0.02756126970052719, -0.0018407627940177917, -0.05329417809844017, -0.03682678937911987, 0.07487686723470688, 0.011995106935501099, 0.26011207699775696, -0.26370158791542053, 0.1141934022307396, 0.37838903069496155, 0.30798256397247314, 1.0567480325698853, 0.5585429668426514, -0.17016106843948364, 0.3893369734287262, 0.5161317586898804, 0.3106690049171448, 0.21218343079090118, 0.6002985239028931, 0.5751117467880249, 0.530799925327301, 0.6090392470359802, 0.4345308542251587, 0.9475283026695251, 0.7090282440185547, 0.10244312882423401, 0.5300132632255554, 0.5435607433319092, -0.3476773202419281, -0.3855992257595062, -0.005851931869983673, -0.04638512432575226, -0.02724917232990265, 0.012477673590183258, 0.06357265263795853, -0.3969588875770569, -0.2250119149684906, -0.14991635084152222, -0.1777503937482834, 0.07191643118858337, -0.0011992305517196655, -0.09149260073900223, -0.18148568272590637, -0.1526680737733841, -0.0551619715988636, 0.09815800935029984, -0.1607266217470169, -0.03750137612223625, 0.0947851911187172, 0.2109125554561615, 0.4150155186653137, 0.3370767831802368, 0.32819664478302, 0.41716912388801575, 0.8476778268814087, 0.8774216175079346, 0.5895410180091858, 0.09650306403636932, 0.4278014600276947, -0.016657836735248566, -0.05526907742023468, 0.28282853960990906, 0.07314401865005493, -0.29981082677841187, -0.7275097370147705, -0.28272712230682373, -0.4601059854030609, -0.3210364580154419, -0.4942900538444519, -0.14924605190753937, 0.29570940136909485, 0.13681504130363464, -0.07802552729845047, -0.07292097061872482, 0.08161871880292892, 0.3142818510532379, 0.3059707581996918, 0.35513514280319214, 0.25835302472114563, 0.1514752209186554, 0.22636105120182037, 0.29924315214157104, 0.6273061633110046, 0.6049113273620605, 0.10327429324388504, -0.026447350159287453, 0.3428018093109131, 0.2714847922325134, 0.0724308118224144, 0.062404997646808624, 0.3714618384838104, -0.05888096243143082, -0.7497501373291016, -0.09554864466190338, -0.4627612233161926, -0.5454778671264648, -0.42387327551841736, -0.15063579380512238, 0.27865833044052124, 0.22095374763011932, -0.003955127205699682, 0.09374646097421646, -0.11450403183698654, -0.07659538090229034, 0.14796146750450134, 0.18441340327262878, 0.25709789991378784, 0.18723754584789276, 0.23796948790550232, 0.2350984513759613, 0.4331648647785187, 0.4295797646045685, -0.054665762931108475, -0.06742296367883682, 0.39096108078956604, 0.25806376338005066, -0.07932284474372864, -0.13687007129192352, 0.4472014904022217, -0.43432655930519104, 0.22292682528495789, -0.24887949228286743, -0.18313594162464142, -0.09679831564426422, -0.2283306121826172, -0.10311581194400787, -0.04242534190416336, 0.1817234754562378, -0.02989089861512184, -0.2605890929698944, -0.020516183227300644, -0.08403019607067108, 0.02320614643394947, 0.13895785808563232, 0.4234495162963867, 0.7148199677467346, 0.10435318201780319, 0.5927138924598694, 0.25891420245170593, -0.07268111407756805, 0.3379562795162201, 0.8944646716117859, 0.6329198479652405, 0.49628913402557373, 0.01529419794678688, -0.4602363705635071, 0.175930455327034, -0.47000762820243835, -0.5063903331756592, -0.23298998177051544, -0.2932034134864807, 0.2427336573600769, -0.008351162075996399, 0.06658025085926056, 0.46200764179229736, 0.5377103686332703, 0.2281327098608017, -0.16091780364513397, 0.09159855544567108, 0.00039860224933363497, 0.26784566044807434, 0.5034090280532837, 0.5543333888053894, 0.5941728353500366, 0.35788604617118835, 0.6554017663002014, 0.6066839098930359, -0.02376285195350647, 0.23038679361343384, 0.17686638236045837, 1.6612355709075928, 0.3715183436870575, 0.08537105470895767, 0.2252146452665329, -0.4199153184890747, -0.8889205455780029, -0.48873400688171387, 0.0597502738237381, 0.030326759442687035, 0.10315124690532684, -0.12785063683986664, 0.1358371376991272, 0.34320688247680664, 0.46151062846183777, 0.26364442706108093, -0.2607140839099884, -0.3147127032279968, -0.5838989615440369, -0.36023080348968506, -0.13695578277111053, 0.15128369629383087, -0.28282609581947327, -0.2260826826095581, 0.3464111387729645, 0.026992574334144592, -0.22216026484966278, 0.009955167770385742, -0.13822171092033386, 0.9749226570129395, 0.3325330317020416, -0.07422702759504318, 0.10318729281425476, -0.529410183429718, -0.8741157650947571, -0.5174813866615295, -0.195545494556427, -0.37746527791023254, 0.06175379082560539, -0.130886048078537, -0.06936194747686386, 0.30452224612236023, 0.3061184585094452, 0.004079073201864958, -0.683221161365509, -1.221889615058899, -1.5245627164840698, -1.6120076179504395, -2.303767204284668, -2.474006414413452, -2.715583086013794, -2.319101095199585, -1.828040599822998, -1.5151304006576538, -1.2389568090438843, -0.43488672375679016, -0.22190551459789276, 0.442415714263916, 0.3685970902442932, -0.09951246529817581, -0.0928422212600708, -0.13910724222660065, -0.22568625211715698, -0.14008891582489014, 0.11834108829498291, -0.30889564752578735, 0.026730893179774284, 0.14641854166984558, 0.39976686239242554, 0.055665891617536545, 0.055686965584754944, -0.2173941284418106, -0.8854401707649231, -1.018392562866211, -0.7930665016174316, -0.48966068029403687, -0.7855240702629089, -1.5520724058151245, -1.957627296447754, -2.3463544845581055, -2.5093345642089844, -2.2921364307403564, -1.8661777973175049, -0.993825376033783, -0.6977366209030151, 0.07045519351959229, 0.2594034671783447, -0.059742432087659836, -0.3726420998573303, -0.48407766222953796, -1.1372803449630737, 0.05474501848220825, -0.11639625579118729, -0.03427846357226372, 0.07983364164829254, -0.12872032821178436, 0.22976133227348328, 0.42104223370552063, -0.13923601806163788, -0.27833011746406555, -0.45092499256134033, -0.6093409657478333, -0.5173846483230591, -0.08812620490789413, 0.19622007012367249, 0.24527323246002197, 0.02295796200633049, -0.3036246597766876, -0.7989089488983154, -1.3704915046691895, -0.8998175263404846, -0.2917095124721527, -1.2300347089767456, -0.297934353351593, 0.11369791626930237, 0.017404640093445778, -0.30722615122795105, -0.7097828984260559, -0.6570836901664734, -0.1067577451467514, 0.2089099884033203, 0.11440970003604889, -0.32970309257507324, -0.07293825596570969, -0.017474092543125153, 0.12721364200115204, 0.01590147614479065, -0.2600611746311188, -0.5058387517929077, -0.8446100950241089, -0.6289889812469482, -0.1550443321466446, -0.05367284268140793, 0.14943984150886536, 0.02648240514099598, 0.32840678095817566, -0.5496859550476074, -0.29928433895111084, -0.09300688654184341, 0.23410378396511078, -1.0112946033477783, -0.5962041020393372, -0.10837230086326599, -0.04620492830872536, 0.1275789439678192, -0.49310487508773804, -0.5489134788513184, -0.16615739464759827, 0.20325098931789398, 0.1597224920988083, -0.14095020294189453, -0.10568814724683762, 0.04621879383921623, 0.09577219188213348, 0.03850245475769043, 0.16834281384944916, -0.42594578862190247, -0.6655654311180115, -0.47082629799842834, -0.3373669981956482, -0.3348139822483063, -0.24591270089149475, 0.07462052255868912, 0.0734526515007019, -0.11243453621864319, -0.37295615673065186, 0.0925871729850769, 0.2448844611644745, -0.7491702437400818, -0.9860594272613525, -0.25113508105278015, 0.49490296840667725, 0.09357863664627075, -0.497846394777298, -0.7406032085418701, -0.05503961071372032, 0.05894369259476662, 0.04618236795067787, -0.015665657818317413, 0.21256482601165771, 0.12438887357711792, 0.4670206904411316, 0.25542131066322327, 0.04087965190410614, -0.37024396657943726, -0.390982061624527, -0.3729132115840912, -0.27935099601745605, -0.21061940491199493, -0.02318238839507103, 0.10518915206193924, 0.27508702874183655, -0.04779481142759323, -0.008815302513539791, 0.4181556701660156, 0.46124178171157837, 0.09549334645271301, -0.786434531211853, -0.4326294958591461, 0.26135244965553284, 0.052354346960783005, 0.045447349548339844, -0.5615058541297913, -0.6541241407394409, -0.1309618055820465, 0.03402232378721237, -0.16112031042575836, 0.06622577458620071, 0.2946111559867859, 0.20718717575073242, 0.09020867198705673, 0.11903923004865646, -0.28627923130989075, -0.40396636724472046, -0.4322390556335449, -0.41427096724510193, -0.19968760013580322, 0.18421322107315063, 0.29764705896377563, 0.08510927855968475, 0.09495890885591507, -0.35854294896125793, 0.42980191111564636, 0.23419559001922607, 0.502180814743042, -0.6290363073348999, -0.8278178572654724, -0.1380099058151245, -0.11958973109722137, -0.06045246124267578, 0.02311813086271286, -0.33310410380363464, -0.3977476954460144, -0.2840011715888977, -0.0539013110101223, 0.06501497328281403, 0.0228041410446167, -0.07184413075447083, -0.1272742599248886, -0.23828285932540894, -0.45866283774375916, -0.21936780214309692, -0.5487044453620911, -0.6500948667526245, -0.12304680049419403, 0.11636371165513992, 0.28940433263778687, -0.11245181411504745, -0.13164785504341125, 0.06404315680265427, 0.2637946307659149, -0.04644288122653961, 0.36251595616340637, -1.1172292232513428, -0.641248881816864, -0.07601113617420197, 0.005471773911267519, -0.8827028274536133, 0.14913852512836456, -0.6004060506820679, -0.12398499995470047, 0.12900231778621674, 0.019474739208817482, -0.24550892412662506, -0.09199017286300659, -0.07028214633464813, 0.1784018874168396, -0.003836380084976554, 0.11082303524017334, -0.2923910617828369, -0.8042188882827759, -0.6157630681991577, -0.2241448014974594, 0.2310023158788681, 0.2526841461658478, 0.1455671787261963, 0.31533077359199524, 0.09633439779281616, 0.27722519636154175, 0.4552159011363983, 0.13450613617897034, -1.1745023727416992, -0.6874971985816956, -0.04847739636898041, -0.10478860139846802, -0.5465483069419861, 0.3316102921962738, -0.07857584208250046, 0.1711478978395462, -0.03543628007173538, 0.05021262913942337, -0.11167687177658081, 0.250162273645401, -0.05205294489860535, 0.12811216711997986, -0.10317737609148026, -0.3177768886089325, -0.5452280640602112, -0.5570127964019775, -0.2362341731786728, 0.21063831448554993, 0.28712207078933716, 0.048794183880090714, 0.34358450770378113, 0.005751746241003275, -0.026940781623125076, 0.14401991665363312, 0.21150748431682587, -0.0852632001042366, -1.1326236724853516, -0.9079689383506775, -0.06162088364362717, -0.36847198009490967, 0.32392483949661255, 0.30456963181495667, -0.12151642143726349, -0.32852548360824585, -0.07991629093885422, 0.08836591243743896, -0.11097942292690277, -0.0434100478887558, -0.2392582893371582, 0.15737572312355042, 0.011307325214147568, -0.4674406349658966, -0.21131469309329987, -0.03993114084005356, 0.15110856294631958, 0.23009438812732697, 0.10103985667228699, 0.005770867224782705, 0.29828423261642456, -0.002093497896566987, -0.00910721905529499, 0.5430628061294556, 0.2698044180870056, 0.2317684441804886, -1.3699464797973633, -0.6205950379371643, 0.05246631056070328, 0.08039113879203796, 0.25236383080482483, 0.03176499530673027, 0.49648988246917725, 0.24291068315505981, -0.04643179476261139, -0.18617603182792664, 0.028730224817991257, -0.06175154820084572, 0.06630071252584457, 0.2940092384815216, 0.1817782074213028, 0.2794220447540283, 0.20010368525981903, 0.2002861350774765, 0.1691732406616211, 0.07306190580129623, 0.09528184682130814, 0.10953685641288757, 0.014836438000202179, 0.2749907374382019, 0.438123881816864, 0.1153862476348877, 0.06372744590044022, 0.07882151007652283, -0.726906955242157, 0.21439696848392487, -0.0189543217420578, 0.049497634172439575, -1.2198386192321777, 0.20820949971675873, 0.5986723303794861, 0.23467865586280823, 0.0670115277171135, 0.13605868816375732, 0.01580457016825676, 0.046988289803266525, 0.0768754631280899, 0.18182870745658875, 0.23684050142765045, 0.2771748900413513, 0.21946850419044495, 0.2875171899795532, 0.08993253111839294, 0.06530444324016571, 0.21527612209320068, -0.08375542610883713, 0.4537856876850128, 0.06120680272579193, 0.2064971923828125, -0.046647436916828156, 0.5050770044326782, 0.46856844425201416, -0.0887727364897728, 0.17368970811367035, -0.03332669660449028, -0.14168062806129456, -0.8065395355224609, -0.20393674075603485, 0.2163044959306717, -0.22468259930610657, -0.3292948603630066, -0.0752691850066185, -0.04539146274328232, 0.022164801135659218, 0.14172635972499847, 0.22925561666488647, 0.011413125321269035, 0.17294760048389435, 0.0335235670208931, 0.06744060665369034, 0.21080829203128815, 0.2401839792728424, 0.14792348444461823, 0.16871103644371033, -0.04933914542198181, -0.23576800525188446, 0.12172649055719376, 0.7199152112007141, 0.01871192455291748, 0.02628226764500141, 0.4756940007209778, 0.04266396537423134, -0.06250175088644028, 0.04155195504426956, 0.37753382325172424, 0.06017870828509331, -0.006665709428489208, -0.1526896357536316, -0.02973424270749092, -0.11206939071416855, 0.2474510371685028, -0.018153829500079155, 0.1849566549062729, -0.0347442701458931, 0.029615061357617378, 0.03626737371087074, -0.05974823981523514, -0.0852760374546051, -0.12728583812713623, -0.009217137470841408, -0.01578264869749546, 0.07196764647960663, 0.18221578001976013, 0.1596221774816513, -0.027149762958288193, 0.31345731019973755, -0.2441079467535019, -0.05385968089103699, 0.2754667401313782, 0.06506440788507462, 0.052075229585170746, 0.06198973208665848, -0.12501156330108643, -0.5696279406547546, 0.09402956068515778, 0.4766910970211029, -0.2565189003944397, 0.046521369367837906, -0.11211133748292923, 0.07757556438446045, -0.22850696742534637, -0.1366451382637024, 0.13016946613788605, 0.17189379036426544, -0.08579463511705399, 0.10031084716320038, -0.20292384922504425, 0.27333563566207886, 0.4764765501022339, 0.1289365440607071, 0.26246848702430725, 0.4108826518058777, 0.2082625776529312, 0.1742558479309082, 0.020841822028160095, -0.6467816829681396, -0.3498747646808624, -0.06544560939073563, 0.006397053599357605, -0.01071978360414505, 0.1685643494129181, 0.10456689447164536, -0.5020100474357605, 0.1644674688577652, 0.3714127242565155, 0.040453340858221054, 0.22950218617916107, 0.42584702372550964, -0.14884211122989655, -0.1503627747297287, 0.099397212266922, 0.38634440302848816, 0.18860264122486115, 0.6139294505119324, 0.2731478810310364, 0.6225090026855469, 0.580973207950592, 0.30519023537635803, -0.21150994300842285, -0.1049431711435318, 0.9219992756843567, 0.7332529425621033, 0.8212822079658508, -0.06873004138469696, -0.24027113616466522, 0.0478566512465477, 0.07748236507177353, 0.039041534066200256, -0.03500013053417206, 0.02380359172821045, 0.20601008832454681, 0.0669008120894432, -0.3740490972995758, -0.25596344470977783, -0.2703511714935303, 0.30696433782577515, 0.3359585106372833, 0.24626277387142181, -0.4472484588623047, -0.3551742434501648, -0.5508956909179688, -0.5276769995689392, -1.8184778690338135, -0.5888383388519287, 0.008957871235907078, 0.1813911646604538, 0.3626345992088318, 0.7187990546226501, 0.2521470785140991, 0.6803242564201355, 0.09875738620758057, 0.03996366634964943, 0.059209369122982025, -0.02884146198630333, -0.01545879989862442, -0.05084758251905441, 0.07558848708868027, 0.022287122905254364, -0.1045219749212265, -0.0470576286315918, -0.10871751606464386, -0.20677989721298218, -0.3300958573818207, -0.37722083926200867, -0.44709280133247375, -0.3606642782688141, -0.2661164700984955, -0.574332058429718, -0.8335468769073486, -0.25737133622169495, -0.21904365718364716, -0.20855920016765594, -0.09385586529970169, 0.07392683625221252, -0.5507456064224243, -0.5527985095977783, -0.5462542772293091, -0.11388369649648666, -0.03965337947010994, -0.06587217003107071, 0.0485164150595665, -0.06366131454706192], [-0.006767243146896362, -0.07865112274885178, 0.013655826449394226, 0.02178362011909485, -0.023748591542243958, -0.0715145543217659, 0.05706503242254257, 0.04657239466905594, -0.0841718465089798, -0.03888174891471863, -0.030603624880313873, 0.014372698962688446, -0.05155454948544502, -0.12386893481016159, -0.09461859613656998, -0.0959790050983429, -0.06802669167518616, -0.02919279783964157, -0.06838680803775787, -0.06301242113113403, 0.06178375333547592, -0.06992906332015991, -0.04238470271229744, -0.03281228616833687, -0.006001465022563934, -0.061801739037036896, -0.06668504327535629, -0.007058419287204742, -0.04876108095049858, 