{"weights": [[[-0.7737734, -0.77213615, -0.8457171, -0.71009445, 0.66363835, 1.8239709, 1.0273676, 0.43861815, -0.4829209, -1.1449095, -0.9869149, -0.49859256, -0.6961708, -0.7233147, -0.6740387, -0.6902022, -1.1000518, -1.0506355, -1.7561164, -0.25169873, -0.31454924, -0.10340911, -0.19688743, -0.06358785, 0.31489855, -1.6465836, -0.65811455, -0.84043473, -0.33972663, -0.2265719, 0.24297547, -0.053662546, -1.1245311, -1.965285, 0.29888362, 0.015990863, -0.87603414, 0.2192759, -2.0938897, -0.9026213, -0.7344906, -0.36765325, 0.6453055, -0.11975092, -0.1061076, 0.1102175, 0.32264405, 1.4252324, -0.1415053, -1.463642, -0.7439216, -1.1039485, -0.21626237, 0.7407228, 1.0300412, -0.67185235, -0.42445517, 0.16752636, -0.3199638, 0.7510276, 1.4410632, -0.43347594, -0.31091768, -0.028289039, -0.41290572, 0.0165415, 1.4292709, 0.45512328, -0.77986246, -0.7708502, 0.12657951, -2.836023, -2.7266197, -1.5596627, -0.36471048, 0.9492704, 1.447135, 0.8082174, -0.59241027, 1.5267287, 2.6695342, 1.3997179, 0.8929456, -0.55534667, -3.2720866, -1.8337721, -0.13620552, 1.0491261, 3.0396824, 1.3433481, 0.84079736, -0.64408493, 0.24922486, 1.5366228, 2.816837, 3.184661, 1.0023825, 0.7571655, -0.045141973, 0.62860525, -0.322295, 0.59684503, 0.31099597, 0.3507723, -0.6762256, -0.82050353, -1.25766, -0.44641367, 0.6206383, 2.323632, 2.4670987, 1.0317801, -0.06670746, -0.47549522, -0.994241, 0.75790447, 0.43088344, 0.24250272, -0.72990274, -1.5226142, -0.32227582, -0.17986926, 1.9447646, 1.1658808, 0.41985807, -0.29744107, -0.6932206, -0.989889, -0.7869747, 0.09614611, -0.34245193, -0.91864645, -1.2037499, 0.5713242, -0.043988757, -0.49185234, 0.111561455, -0.58495814, -0.55879676, -0.17997923, -0.17702317, 0.86632717, 0.6130989, -1.0107262, -1.4495391, -0.37954557, 0.66295826, 0.58022803, 0.7866622, 0.9969761, 0.6239256, 0.41776344, 0.787479, 0.7590511, 0.7201648, -0.22800094, -0.76086533, -0.8594891, -0.8538707, -0.021600517, -2.192707, -0.4644646, -0.8218289, 0.9710305, 0.25725728, 1.3150548, 0.7972068, -0.5407559, -0.9115924], [0.20493896, 0.047309194, 0.13775676, 0.05056721, -0.19069427, -0.15747441, -0.4092178, -0.76611084, -0.41011593, 0.86706567, 0.9624733, 0.46746907, 0.020714784, 0.19919592, 0.60312986, 0.45839056, -0.14387487, -0.9883667, -0.086120024, -0.2723489, 0.12653814, -0.13185318, 0.16705847, -0.07922464, 1.3674345, 2.0870945, -0.028799964, 0.55220616, 0.5098158, -0.14050345, 0.3965885, 0.33037752, 0.66170794, 0.8692149, 0.5812059, 0.3922475, 1.004353, -0.656352, 2.1115744, 0.08199597, 0.5617467, 0.4418427, -0.057227995, 0.31332743, 0.16209514, 0.31635073, -0.04906496, 0.5074981, -0.07812427, 0.1421024, 0.11455526, -0.65465957, 0.22008121, 1.2479577, 0.10540561, 0.7200366, 0.5864461, -1.1751252, -0.43667313, -1.7236831, -1.8378904, -0.66831815, 0.12383558, 0.5083978, -1.0404553, -0.1295039, 0.86512345, -1.4299114, -1.0471566, -1.410056, -0.7164492, 0.2637567, 0.27374, -0.44280955, -0.6269638, -0.5436261, -0.87185997, -1.345423, 0.0079599, -0.06654678, 0.04310696, -0.32864916, 0.4811661, 0.84089494, 1.1017032, -0.29751208, 0.12101129, -0.03872507, -0.52949065, -0.475329, 0.13709584, 0.28287846, -0.9730684, -1.7769828, -0.7581619, 1.6357629, 1.922362, 0.9192076, -0.45249906, 0.1240654, 0.12443528, 0.14084001, 1.5352348, 0.35914734, 0.7327391, -0.0707879, -3.6835773, -4.835086, -5.7708516, -3.9896617, -2.4363005, -0.3956905, 0.43508753, 0.55887264, 0.17943421, 0.1777778, 0.318001, 0.20214017, 1.0204086, -0.04595492, -0.2514715, -1.7092319, -1.1015075, -0.1705232, 0.21821584, -0.10393192, 1.3640819, 0.8059261, -0.35561597, 1.708637, -0.265385, 1.4901017, 0.9223904, 1.483988, 1.9269, 2.3639011, 1.0392319, 0.62762547, -0.3173777, 0.28184572, 0.14700902, -1.3500042, 0.032832157, 0.112297505, 0.98877805, 2.5213516, 0.78611445, 1.0881953, 0.93989724, -0.024024965, 0.49148402, -0.48763764, -0.5347127, -0.6482741, -0.74552345, 0.6132794, 0.09281211, 0.39294082, 1.1320217, 1.6085515, 0.7382793, 1.1903238, -0.6332949, -0.34407577, 0.85078204, -0.10110391, 1.4229134, 1.3143791, 0.22480084], [0.7594823, 0.774658, 1.0216289, 1.162561, 1.3007989, 0.03484016, -2.7772124, -4.468716, -3.259789, -1.0179213, 0.5039791, 1.1586397, 1.0035644, 0.86026645, 1.1161807, 0.5219967, 0.06420494, -0.10094451, -2.1830957, -2.6983438, 0.20376272, 0.13533778, 0.15943687, 0.34300902, 0.27595103, 1.0982513, 0.9745269, 1.7869741, 1.263313, 2.1842437, 1.9253224, -3.4685023, -2.2224329, -0.98948604, -0.21115555, -0.5142497, 0.28539777, 1.4475013, 0.48654625, 0.90461636, 2.0591881, 1.3755533, 2.8232846, 2.2607944, -5.22589, -1.8345473, -0.49931684, 1.3616685, 0.009322029, -0.20802465, 0.74654263, -0.74362063, 0.6160417, 1.9533744, 1.3103466, 0.4488478, -1.7897068, -4.962406, -1.142003, 1.8043098, 1.5562247, 0.07084401, -1.5265213, 0.45909584, -0.49679288, 0.39654028, 1.5085056, 1.026434, -1.7531836, -2.3688898, -1.5688574, -0.11246385, 0.8086595, -0.57758236, -0.28075218, -2.2151043, 0.66519976, 1.7180849, 0.68011063, 1.1529175, 0.018397775, 1.5108668, 0.65713805, 0.37320644, 0.5977758, -0.31569073, 0.8202925, -0.3468555, -2.0779994, 0.5696015, 1.2304956, 0.4867396, -0.025719935, -0.23354349, 0.29696006, 0.33259425, -0.16386063, -0.027586745, -0.2591452, 0.48540187, -1.860903, -0.52910274, 0.022683432, 1.0247644, 0.5554717, 0.055856615, 0.23431377, -0.08401418, 0.81352943, 1.0830319, 0.21329898, 0.62492794, -1.1841235, -0.40331733, -0.6486801, -0.4051301, 0.05564936, 1.2725232, -0.15438752, -1.0925839, -0.21572356, 0.058544964, 0.6507068, 0.66592664, -0.7930946, -0.15866542, 0.36214566, -0.97181123, -1.1355777, 0.50310934, 0.78013414, -1.0763106, 0.09701057, -0.2559991, -0.6912566, -0.9348319, -0.55229163, -0.42330876, -1.0202029, -0.7477462, -0.70528185, 0.12277424, 0.91025287, 0.7863172, 0.47048622, 0.5010471, -0.6425796, 0.8708229, 0.18981107, 0.34000218, -0.5292251, 0.26871052, 0.09818775, 0.24666882, 0.9466635, 1.1594923, 0.6709706, 0.8939748, 0.31793314, -1.2488697, 0.57376564, 0.52735686, -1.6596769, -1.069365, 1.097999, 0.46350634, 0.67979807, 1.4331772, 0.8139513], [-0.20852046, -0.38247043, 0.013714446, 0.38508904, 0.5871277, 1.7156078, 2.765109, 0.9699609, -1.204487, -1.561761, -1.0011458, -0.36203712, -0.32272115, -0.3074115, -0.285201, 0.61286545, 1.0237495, 0.8143558, -0.19354968, -0.5253529, 0.36077222, 0.14009558, -1.1159955, -0.8607722, -0.010928594, -0.65241575, -0.1880121, -0.79126966, 0.7411392, 1.4767791, 0.53872645, -0.5416659, -0.63858545, -0.681882, -0.5035782, -1.413013, -0.842818, 0.6005723, -0.4631332, 0.13230336, -1.2730078, -0.4940474, 0.71346134, 1.777047, -0.5541033, -0.615987, -0.50483984, -0.50161326, -0.06364974, 0.35889834, -0.99762046, 0.13450627, 0.049622033, -0.59915364, 0.0894568, 2.8034885, 3.4723115, -1.1217085, -2.9461534, 0.58116347, 0.4416981, 0.57132167, 1.4566177, -0.30507314, 1.875042, 0.25944963, 1.2762176, 0.14140213, 1.698886, 2.3576996, -1.3789527, -2.022481, 0.114462204, -0.24376447, 0.03301967, 0.7149284, 0.9218788, 2.2793324, -0.08216561, 1.3054867, 1.4560611, 2.382397, 2.1716018, -0.7069873, -2.7784824, -1.5174373, -0.909696, -0.5813144, -1.2915158, 0.5039859, 0.48421642, -0.33233708, -0.6491135, 0.8769888, 1.09051, 0.9310415, 0.51134014, -1.1358005, -2.066378, -0.8971367, -0.27563113, 0.24615176, -0.0016354822, -0.5444731, -0.20337774, -0.8577371, 0.8720643, -0.6760603, -0.87966925, -0.010407293, -1.1337218, -1.5500615, 0.03871214, 1.4172316, 0.36566153, -1.0098531, 0.85363847, -0.60085994, 0.41003016, 0.21640137, 0.61728495, -0.64605194, -0.44783756, -0.72604626, -0.32373494, 0.7431672, 0.28682595, -0.22890647, -1.1308264, 1.404951, -0.31081152, -1.2455479, -0.8972454, -0.0818602, -0.55397266, -0.6838729, -0.9483673, 1.6146104, 0.33836076, -0.33654177, 0.11025165, -0.64557725, 0.076794215, -0.42988464, -1.0245035, -1.7112578, -1.0404334, 0.67201596, -0.3173918, 0.763333, 1.1749496, 0.16585134, -0.1984274, 0.6806322, 0.8663336, 0.65049535, -0.35425577, -0.25644612, -0.68437564, -0.69029224, 0.13001858, -1.2919823, 0.56492126, -0.24586046, 0.8406443, 0.44109276, 1.7101592, 1.186145, -0.28399774], [0.6623288, 0.6194786, 0.2971254, -0.07586846, -0.6895891, -0.95516, -0.89291394, 0.82443327, 1.1897209, 0.8369042, 0.42965096, 0.3774279, 0.7451778, 0.69116306, 0.8149869, 0.23739314, -0.46791866, -1.174935, -0.9385764, -0.7707138, 0.63458604, 0.11277228, -0.2063579, 1.0851749, 0.5472381, 0.61914045, 1.0494536, 1.1610616, 1.1114329, -0.35510746, 1.1313426, 2.1732807, -0.8860668, 0.53769267, 0.44872603, -0.3716801, -0.37019435, -0.56624293, 0.11034341, 0.4265007, 0.20446531, 1.4990258, 0.84045386, -0.1459673, -1.4579734, -1.2788823, 0.83687085, -0.230006, -0.5738489, 0.7408453, 1.0887212, 0.6420133, 0.6998603, 0.049533747, 1.575715, 0.3509363, 1.1734915, 0.003154023, 1.2303032, 0.7669178, -0.6896788, -0.76059717, 0.011330472, 0.6325833, -0.5623569, 0.99022114, 0.47305256, 1.6728997, 1.0976571, 2.0499167, 0.7692636, -1.6853051, -0.72872597, -0.44759524, -0.7074924, 0.072689354, -1.9946941, -0.80954695, 0.9625875, 1.092323, 0.13686767, 0.17388369, -0.007822528, -2.8401773, -3.5928166, 0.752362, -0.07031407, -1.2779151, -1.8189063, -1.6412858, -0.7129372, 0.71754426, 0.48348364, -0.9348872, -0.88484514, -2.075184, -3.112339, 1.1064644, 0.69029415, 0.20471516, -0.064600065, 0.553622, 0.46500626, 0.68687046, 0.71716666, -0.813566, -2.4389129, -3.6985378, -1.7251555, -0.30206606, 1.1502913, 0.60576564, 0.79431653, 1.9121943, 1.1003573, -0.24245091, 0.9589886, 0.94042104, -0.24492605, -1.0009181, -0.53908825, 0.5931361, 0.4319601, 0.7496815, 0.21372867, -0.53430676, -0.7451755, -0.6475365, 0.7196158, 0.96899414, 0.43112522, 0.06825131, 1.4202101, -0.1299067, 0.3910538, -0.39354584, 0.6060692, -0.122986086, -0.42914763, 0.73141235, -1.6323261, -1.1364976, 0.041104022, 0.27429456, -0.038592324, 0.7551392, 0.89626247, 0.14263205, -0.5106814, 0.58837044, 1.3954917, 0.36099806, 0.35989788, -1.861612, -0.53388304, 0.40023297, 0.48388878, 0.5908782, -0.06559722, 0.28955537, -0.24514842, -1.407013, -0.89415985, -0.4719311, -0.9632325, 1.7501065, -0.6483615, 0.030487714, 0.62319124], [0.8266875, 0.5740572, 0.50963247, 0.20586564, -0.8430331, 0.24933021, 1.615181, -0.39322647, -2.1020567, -0.25976294, 0.7307462, 0.614788, 0.73326606, 0.5081379, 1.1518046, 1.0333617, -1.5748951, -0.8433719, 0.52527106, 0.22380787, 0.09081925, -0.5838312, -0.2259109, -0.43109712, 0.8576582, -0.027139671, 1.4982555, 1.0545634, 1.224876, 0.73347956, 1.0498034, 0.004418683, -0.8184261, -1.3370702, -0.86109734, 0.17803587, -0.10381193, 0.38024276, 0.83568364, 1.1051176, -0.75538546, -1.1225398, -0.4948513, -0.777827, 0.3680092, 0.40028086, -0.08185858, 1.5794744, 1.7196592, 1.3404989, 2.274854, 2.6798215, 0.5270339, -0.28300452, -0.88139576, 0.3276289, 0.036515288, 0.9337683, 0.22090784, -3.4986665, -2.9440289, -1.4971943, -0.0845069, 1.8178127, 1.1581843, 0.6722443, 0.5402104, -0.32763115, 0.55985254, 0.92465144, 0.41618785, 0.06780116, -0.814153, -3.1914697, -4.949616, -7.0692296, -6.279109, -1.2873683, 0.54398316, 0.7875551, 1.7761117, -0.14094186, 0.3130647, -0.014075329, -0.47780445, 0.3779275, 0.47618857, 0.2894044, -0.004440317, -3.8139338, -2.8488898, 0.65578157, 0.22726028, 0.4412465, 0.5375228, 0.037708864, 0.04669065, -0.57075137, -0.56393826, 0.96325606, 1.2032849, 0.50114137, -0.88755333, -2.2733974, 0.5299099, -0.118982986, 0.10669868, 0.98619527, -0.13456187, -0.6021734, -0.5650074, -0.2805486, 0.54107064, 0.30578467, 0.15780233, 0.22374216, -1.1011307, 0.4753088, 0.33580866, -0.6097906, -0.22348237, 0.4572812, 0.9085945, -0.22835842, 0.37612113, 0.12149114, -0.031146996, -0.27935067, 1.0767369, 0.222955, 0.4311103, 0.94525605, 0.43546414, 0.38060397, 0.36056206, 0.29817453, -0.7236619, -0.35729653, 0.5737636, 0.23535658, 0.041305736, 0.33618414, 1.4269077, 0.6690429, 0.020258075, 1.3973812, -0.52748334, -0.49981594, 0.98924905, 0.45420566, 0.16898467, -0.21233073, -0.07801908, 0.36009854, -0.3013523, 1.3441025, 0.52986676, 0.6587554, 0.19017437, -0.41912678, -0.5640601, 0.79190004, 0.26245445, 0.72852683, 2.4298706, 2.2738862, 2.0705416, 1.8665764, 0.80448675], [0.042012468, 0.09684325, 0.06134254, 0.53651065, 0.48296022, 0.6754348, 1.2130619, 0.39026347, -1.3033346, -0.103201844, -0.13828006, -0.33322698, 0.20270768, 0.24235165, 0.17483297, 0.42713782, 0.53246963, 0.83038044, 0.20662773, -0.16038455, 0.27903795, -0.25009257, 0.20177172, -0.46903235, 0.62233865, 1.6466672, -0.04281032, 0.44525853, 0.39994255, -0.8582074, 0.07433539, 0.80064845, 0.07922286, 0.15775932, 0.31220815, 0.39001772, 0.5287978, -0.18779008, 1.6029884, -0.35281658, -1.020869, -0.5894466, -0.21311788, -0.007556205, 0.10624031, 0.054216225, -0.71588707, -0.63843524, -1.0540906, 0.3284533, -0.3259854, -1.356128, -0.10069159, -0.3180868, -0.06559979, 0.120732315, -0.15308481, -1.3463644, -0.40480462, -0.13183042, 0.40696213, -1.0530263, -1.4051317, -0.18931313, -1.3114111, -0.24967648, 1.8812973, 0.30597758, 0.5791255, -0.033050515, 0.28295442, 0.40634415, 0.07654768, -0.20619106, 0.21382932, 0.15731278, -2.375779, -1.788503, -0.021218201, 1.2406375, -1.4151, 0.10079606, -0.7466132, 0.5031983, 0.22064175, -0.7739414, -0.38900506, 0.1564984, 0.48117054, -0.14768724, -1.2267593, 0.098137, 2.0164135, -2.7054691, -5.6709833, -4.8187923, -2.9748912, -1.614523, -0.7154086, 0.6504202, 0.50868475, 0.8269974, 0.49829677, 0.29427937, 0.23277615, 3.251395, 1.1724777, 0.6197174, -1.1826566, -2.880142, -3.4775002, -0.08052281, 1.3111684, 0.8812059, 0.7478242, -0.37683278, -0.062326603, 0.120468535, 2.296301, 1.2216958, 2.3180735, 2.859196, 2.9465377, 1.8424087, 0.40084147, -0.44851494, -0.6312081, -0.024757557, -0.18954204, 0.7757633, 0.092991, 1.493292, -0.45624492, 0.35393798, 0.10521864, 0.4814081, 0.2010623, 0.3041887, 0.59266794, -0.055998556, -0.09220282, 0.12924531, -0.38630506, 0.23452471, 0.8811465, 0.38046464, -1.8610754, 0.85892504, 0.2409527, 0.15052293, 1.0548927, 0.6152408, 0.84746134, -0.9132901, 0.6210681, -0.43407246, 0.08652822, 0.095959716, 1.1856565, 0.5598638, 0.47589052, 0.60307324, -0.07534612, -0.84094036, -0.30858794, -1.8877345, -0.36455795, 0.0928444, 0.007725762], [-0.40679702, -0.5569224, -0.453314, -0.7298167, -1.113854, -0.5310165, -0.65135354, 0.72378695, 1.1607649, 0.29883575, -0.88403666, -0.9022049, -0.5177435, -0.24516472, -0.42956394, -0.8730854, -1.1481812, -0.0636981, 0.4438373, -0.06972767, 0.31532052, 0.80280566, 0.06329312, 0.27981767, -0.32522187, 1.1398251, -0.2701617, -0.70327306, -1.624099, 0.15534812, 0.84741855, 1.6216898, 1.8981924, 2.5356553, 1.4408258, 0.8182873, 2.1391084, 0.22811568, 2.200622, -0.41878474, -0.58866286, 1.1246276, 1.8413198, 1.1626687, 1.6904907, 0.84688276, 0.014082908, 0.30161026, -0.6896295, 0.7351977, -0.023095723, -0.11601483, -0.78372425, -0.37152508, 0.92474896, 1.1673064, -0.22728908, 0.4034677, -1.6665415, -3.2866895, -1.542642, -1.1249659, -0.83173835, -0.8803653, 0.10450722, -0.6327609, -1.168347, -0.13809557, -1.1455926, -0.681651, -2.0323331, -2.33361, -0.2765793, 1.1102821, -0.12023312, -1.1914552, 0.042380355, -0.18897918, -0.3587391, -1.9382561, -1.5471601, -1.7107472, -1.1041261, -1.8853452, -0.49160784, 1.056755, 0.5163287, -0.09102331, -0.08645067, -0.22987175, -0.38940802, -0.4758217, 0.9102764, 0.59808517, -0.4572441, -0.36630884, -1.6784469, -0.19613948, 0.69889516, -1.2928377, -0.4165579, -1.1525141, -0.69322497, -0.9543809, -0.65232533, 1.6153427, 2.511527, 1.585179, -0.80581725, -1.6731507, 0.23356299, 0.048049413, -0.8651908, -1.9040028, -0.61060447, 0.4909946, 0.9309165, -0.32847872, -0.77498317, 2.578706, 2.1932604, 0.83852506, -1.0522904, -1.0131414, -0.51987714, 0.32250524, -0.18981841, 0.97333795, 2.35856, 1.1620139, -0.31121206, 0.22928682, 1.8661942, 1.0013279, 1.5838283, 1.4065547, 0.7336515, 0.91814744, 0.377072, 0.9411521, 1.1771672, 1.0541067, 0.20980549, -0.51053506, -0.38822013, -0.3045848, -0.9893965, -0.21035816, 0.8288814, 0.2693381, -0.11442109, 0.90298676, 1.2277924, 0.66591495, -1.1440613, -0.51757365, -0.38055313, -0.86299044, -0.96754533, -0.18526599, -0.07443643, -0.23269032, 0.61962414, -1.185446, -0.20630093, 0.6545393, -0.47556832, -1.110685, -0.46260273], [-0.022331905, -0.16314459, -0.004671638, 0.091604196, -0.05513541, 0.24660991, 1.114372, 1.9270346, 2.3349664, 2.8893292, 1.671636, 0.4168652, -0.062360972, -0.2668472, 0.010718806, 0.027601562, -0.7348214, 0.91720396, 0.08427209, -1.314821, -0.19152983, -0.5379559, 0.45941484, 0.25703403, -0.44501567, -0.8040326, -0.06794433, 0.7675641, 0.7615332, 0.6691507, 1.7030051, -0.31403896, -0.95856744, 0.8857075, 0.884446, 1.5546533, 0.18891236, 0.18506294, 0.99290216, -0.024499148, -1.6969734, -0.8162578, 0.4521879, -0.21433948, -0.4967983, 1.1794505, 1.8717972, 0.6039245, 0.4945249, -0.04103131, 0.8511926, 3.0580573, -0.22479877, -1.3386879, -1.6605396, -0.17209388, -0.0045163543, 0.87696135, 2.353676, 0.33002573, -2.5737305, -3.177396, -4.23602, -1.7050369, 0.8360122, -0.2639701, 0.09264123, -0.702379, -0.92890537, 0.89390737, 0.60446274, 0.17304024, -1.2383159, -1.760164, -1.3747563, -1.8627754, -2.2512121, -1.7094265, -0.3031378, -0.2192355, 1.3132293, 0.25315952, 0.70286673, 0.0827701, -1.4881532, -1.1728723, 0.4150769, 0.4067511, 1.9740157, 2.0712166, -0.8718888, 0.14321202, 0.006460019, -0.9156368, -1.2526621, 0.6362615, -0.34077588, -1.7784067, -1.4711758, -0.91594, -0.3293723, -0.28203547, 0.58935314, -0.19791754, -0.067950904, 1.4140427, -0.13390501, 0.14577253, 0.86273974, -1.0456142, -1.7559823, -1.4917804, -1.4636928, -0.073843256, 0.5470022, 0.44489408, -0.95705, -0.4636134, -0.49136674, 0.21186431, 0.111223, 1.193001, 1.1697838, 0.97265697, 0.0684012, 0.46969238, 0.93443286, 1.3646556, 0.58702976, -0.7345838, -0.8480876, -1.5813539, -0.002394869, 0.12598853, -0.12023238, 0.31918806, -0.07087944, 0.58709174, 0.009830329, -0.23678969, 0.010741994, 0.07338112, -0.3042687, 0.034460984, -0.11769326, 2.0040584, 0.483963, -0.46506608, 0.2577478, 0.7170936, 0.3258959, -0.5805483, 0.02367875, -1.098947, -0.11462427, -0.20350985, -0.16012965, -0.12961109, -0.3510553, 0.60785574, -1.1111652, 1.2432823, 1.8953204, 0.6139189, 0.15617922, 1.1847594, 1.3948066, 0.988482, 0.13630284], [1.1482819, 1.3254254, 0.80677557, 1.2403977, 1.7463056, 0.3902838, -0.58211994, -1.0864848, -0.29655933, 0.09111375, 0.77277267, 0.7042439, 1.3539696, 1.5478305, 1.3756902, 0.87434024, 0.4093823, -0.9641033, 0.1362878, 1.328453, 0.08649921, -0.26386288, 0.18891948, -1.0257541, -0.71266735, 0.28647992, 1.5108116, 0.9734693, 0.3281621, -0.26617146, 0.54235613, 0.7053944, -0.07917401, -1.450445, -0.2596025, 0.7153142, -1.0401933, -0.8104702, -0.42738172, 1.2662301, 0.8135348, 0.36128768, 0.38819394, 2.2612197, 0.90795004, 1.3333004, 1.6829314, 0.36762822, 0.37028903, 0.018551594, 0.42781234, -0.04786225, 1.0908352, -0.34984645, 1.1759592, 1.2285298, 0.84940934, -2.4582968, -0.8331408, 1.4303992, 0.22627679, -0.89613944, -0.8030477, 0.8251502, 0.05474425, 1.2027568, -1.3844554, -1.2854974, -2.4951205, -5.2131104, -1.9402134, -1.0805207, 0.71903163, -0.16167335, -0.41883746, 0.17570472, -1.164782, -0.03630992, 1.2863243, 0.23462807, -3.0481756, -2.794466, -1.0645189, 1.7347066, 0.8002299, -0.61263156, 0.026484706, 0.7096903, 0.06845255, -0.10517639, 1.8584961, 1.21872, -0.30819792, -0.3279971, 1.1703957, 0.88674515, 1.0901529, 0.4127251, -0.5461135, -0.022453725, -0.40797442, 0.6283158, 0.21703202, 0.8086406, 0.83454764, 0.02198338, -0.19192198, -1.1078029, -0.16385426, -0.42274484, 1.3845383, -0.40385538, -0.18976745, 0.1955955, 0.45557272, 1.5111488, 1.1136875, 0.3565677, -0.31095415, -1.7714744, -1.5378819, -1.0291451, -0.014968406, 1.6706893, -0.19151078, -0.30331442, -0.75596297, -0.11322114, 0.4282116, 0.26884416, 0.97370315, -0.026558112, -1.3872106, -1.0066837, 0.15148893, -0.25234014, -0.2887958, 0.36158672, -1.2107885, -0.86277664, 0.14819683, 0.43981588, -0.43132856, 0.7543101, -0.47821233, -1.6347787, -2.130391, 0.17130753, 0.5075263, -0.55106896, 0.29070666, 0.3024593, -1.5323821, -1.0658697, -0.8800093, 0.44857356, 1.2631824, 0.9310282, -0.28880346, 1.3684403, 1.1092609, 0.3083804, -0.8730829, -0.89824784, 0.7358189, -0.8626668, -0.2075339, 0.7225038, 1.2641125], [0.6343292, 0.82369363, 0.8804747, 0.82893765, 0.8219282, 0.6112626, 0.15346935, 0.43090126, 0.23591092, 1.5971828, 1.2834704, 0.7852533, 0.5656846, 0.5797137, 0.39098206, 0.34232002, -0.54548144, -0.9515704, -1.0867058, -0.9680299, -0.96033096, -1.4142327, -0.18078588, 0.9972145, 1.6196133, 0.37974057, 0.76732737, 0.8092293, 0.8295178, -0.16212599, 0.14995155, -0.31430393, 0.58804786, -0.71798843, -2.127881, -2.0301256, -1.3269564, 2.1436102, 1.0704181, 0.76892, 0.94620115, 1.110389, 0.6951564, -0.062142387, -0.41912767, -1.7082009, -2.7955477, -3.4236019, -1.849512, -1.0205235, -0.45263776, 0.8815205, 0.4679388, 0.9809071, 0.48492908, -0.64268273, -0.35515374, 0.39378142, 1.0234879, 0.8469283, -0.08668175, -0.51984, 0.06353533, -1.9443364, 0.825286, 0.3985027, -0.342168, -0.0705385, -0.24809156, 1.1167151, 1.0851791, 1.0977126, 1.4346684, 0.7011175, -0.5857023, -0.14844736, -0.80811375, 0.9225129, 0.6211234, -0.37459067, 1.0036749, 0.7524894, 0.41686943, 0.81626797, -0.6138221, 0.7261523, 0.42395025, 0.15060149, 1.3900429, 1.7551415, 1.8270023, 0.8086184, -1.9285059, -0.48647243, 0.20335606, -0.9773552, -0.85847485, 1.5367862, 1.6213226, 0.09721249, 0.4842336, 0.7089649, 1.7511154, 0.77806014, 0.3737677, 0.47818086, -0.064275436, 0.08338504, -0.12346435, -0.036058098, 2.368262, 0.6291387, -0.11016576, 0.09710717, 0.31263083, 0.6765263, -0.8797192, 0.4069268, 0.21858221, -0.3137929, 0.32904556, -0.5707877, 1.073183, 1.1698838, 0.4701291, -0.20221348, -0.52991086, -1.3564944, -1.1731727, -2.2476697, 0.52177846, -1.0561824, -1.4719659, -1.1119751, 0.15371186, 0.3156239, 0.8733369, 0.73415405, 0.05075682, -0.87980187, -1.6559733, -1.7979003, -0.7031248, 0.6363544, -0.14373733, -0.4746761, -1.9083022, -0.80098015, -1.1265134, -0.23699431, 0.45726717, -0.88879025, -1.1225554, -1.4052576, -0.32124645, -0.7008917, 0.65706223, 0.5665791, -0.27019194, -1.0034027, -2.171713, -2.1432295, 0.14406328, -1.0353504, -1.325243, 0.6421094, -0.09738482, 0.83324564, 0.587999], [0.7921116, 0.95174855, 1.250195, 2.576127, 2.3024907, 3.1505709, 2.7924654, 1.4292356, 0.8376133, 1.207303, 0.19179513, 0.832103, 0.84948295, 0.5084957, 1.2792697, 2.2418182, 1.7865713, 1.3016218, 1.283659, -0.2752385, -1.3065826, -0.35081685, -0.01334046, -0.436193, -1.1694928, 0.16719456, 1.0760885, 2.5600588, 1.3327917, 0.020766417, 0.26717746, -0.031629287, -0.6454537, -0.54816186, -1.2021146, -2.3495688, -1.7528374, -3.9732325, 0.2025287, 0.40087703, 1.8033906, -1.5496542, -0.30806738, -0.27421474, -0.89820486, -0.1190843, 0.29294482, -1.3369545, -0.9157928, 0.13590895, -2.666907, -0.944921, 0.331688, 1.0161371, -0.7001614, 0.47296748, -0.27488202, -0.5377255, -0.55364084, -0.00020896725, -0.2515424, -0.4779087, 1.2507789, 0.83081126, -0.09015834, 0.46686697, 1.4718268, -0.06609112, -0.15222327, -0.32110715, 0.0411464, 0.80427855, 0.1673849, 0.18341362, 0.6416544, 0.50031203, 0.37369284, 1.4822599, 0.5603573, 1.1719277, -0.48777416, -0.41629723, -0.4528399, 1.069672, 1.5250967, 1.0446184, -0.7219337, 0.1086716, -0.9618292, 0.9323868, -0.09346475, 0.5935254, 1.0483886, 0.5670814, -0.91011643, -0.11278197, 0.9105354, 0.6975972, 0.2876209, -0.1595264, 1.2205656, 0.4204706, -0.42269388, 1.1503906, 0.8126732, 0.5006995, 0.93423945, 0.549277, -0.94357806, 0.562214, -0.37532586, 0.61119235, 1.8297638, 0.31181124, -0.3332018, -0.14107765, 1.7545584, 0.26304153, 0.37954074, 0.7059879, 0.088145636, 0.8146595, 1.4796929, 0.07139382, 0.67373073, 0.55428016, 0.049896184, 0.36316228, 0.4336913, -0.32923776, 0.69940716, 0.21118931, -0.93224806, -0.8470174, 0.6814011, -0.1329137, -1.3165308, -1.8693004, -3.742158, -2.259698, -3.044095, -2.5997105, -0.91666937, 0.625507, -0.24080642, -1.8197945, -4.587617, -4.097582, -4.596632, -3.9254308, -4.9909472, -3.184282, -1.635406, -1.4640516, -1.7895103, -0.25917828, 0.6404914, 0.29458395, 0.1099975, -0.5842768, -1.0125748, 0.5091737, -0.05566237, -0.37427625, 0.65360326, 1.5888143, 0.52906704, 0.2760429, 0.5208083], [0.59576, 0.50521576, 0.37561932, 0.04250777, 0.88581616, 1.855685, 0.021583183, -1.0589093, -1.5447927, -2.5151408, -0.53924406, 0.2952682, 0.70596606, 0.69665, 0.88550735, 0.75162214, 0.92563355, -0.25694892, 0.81673265, 0.48997054, -1.0663167, -1.5133638, -1.7144015, -3.8867266, -0.90111065, 0.48183486, 0.49842137, 2.2315252, 1.3950908, 0.22128391, 0.15510902, -0.53568417, -0.004982238, -1.2223055, -0.9258777, -1.4920331, -3.6768467, -1.7633832, -0.13751131, 0.7065484, 4.15796, 1.2021083, -0.4800549, -1.0958514, -1.6396382, 1.0046465, 2.3136795, 2.6032982, -0.8852611, -7.81511, -2.5983372, -0.5859667, 0.8284971, 3.3622897, 0.7517597, -1.3052142, -1.019146, -0.19027396, 0.7897355, 0.8772083, 2.6704268, -0.22765908, -6.856935, -2.952056, -0.8821297, 0.67123395, -0.12931974, 0.566206, 0.7403607, 0.57883114, 0.8430219, -0.25755927, -1.2802144, 0.28211606, -2.2307267, -2.2811103, -0.1080694, 0.31210735, 0.6202423, 0.12779419, -1.561213, -1.1453335, -1.2017595, -0.2041373, -0.14615259, -0.16844122, 1.1278409, -0.74088, -0.80242324, 0.70455575, 0.32800868, 0.48510182, 1.897055, -0.43798202, -0.16172615, -1.1698719, -0.010856269, -0.6045469, -0.44963098, 0.41543964, 0.28538784, 0.9205173, 1.3102372, -0.0047445167, 0.7143761, 3.077146, 0.9772834, -0.22823377, 0.5900231, 0.9366436, -1.3531997, -0.68800527, 0.3218193, -0.09115722, -0.08969054, 0.109722935, -0.25402257, 0.38376015, 2.0778549, 1.3219687, -0.20930062, 0.48025075, -0.36497656, -1.1761018, -0.6509409, 0.24735476, -0.54519546, -0.10092014, -0.20393482, -0.98502254, 0.60329074, 1.4335309, 1.1112739, 0.93758786, 0.5214359, -0.89937055, -0.19356202, -0.031844437, 0.56704026, 0.25811523, -1.2409583, 0.54402757, -0.48251513, 0.38060275, 0.7638433, 0.60404485, -0.01390489, 0.26886654, -0.22674543, 0.2972068, 0.4161985, 0.16411453, 1.5261786, -0.6030953, -1.5397189, -0.5008198, 0.5468934, 0.38625574, 0.84603417, 1.779272, 1.131831, -0.8056318, 0.3824854, -1.8948665, 0.54549754, 0.5101444, -0.6017631, -1.3446516, -0.04716537], [0.10076061, 0.0009670176, 0.1556238, -0.31831935, -1.311418, -1.4504043, -1.1680441, -0.4467075, 0.4753399, 1.6284796, 1.0186508, 0.02236051, 0.059596065, 0.009656048, -0.57632476, 0.10478109, 1.3312818, 0.33354837, 0.5329736, -0.75718427, -0.9291407, 0.14851345, 1.1840237, 1.1369722, 0.8922213, 0.64559203, 0.20001908, -0.10242342, 0.87504125, 0.36260158, -0.34816837, 0.0584473, 0.045317434, -0.19429995, 1.1062334, 0.75790983, 0.42622378, 0.91572106, 0.9824888, 0.3243635, -0.5262108, 0.21469302, -0.49340725, 0.065091416, 1.377416, -0.55087113, -0.17764667, -1.1048281, -2.1069946, -0.027050897, -0.9103066, 0.07839723, 0.20292759, -0.34267867, 0.2781789, -0.8309697, 0.9544974, 0.7702303, -2.7913215, -1.2464708, -0.7070103, -3.2484982, -3.8742473, -2.4177136, -1.4800755, 0.5244417, 1.377935, 2.0670307, -0.1100512, -0.287256, 0.043115173, -1.7994156, -0.49852973, 1.7310897, 1.1852739, -0.29493716, 0.13099988, -0.7589619, 0.091880605, 1.6091278, 0.8312467, -0.22015035, 0.29963812, -0.73551947, -2.299405, -1.1670275, 0.50734204, 0.33133164, 1.2901819, 1.6257867, 1.3957326, 0.029389419, -0.45092642, -0.3214749, -0.24150516, -0.38275057, -0.2400188, -1.5865412, -1.9585004, 0.779867, 0.77962536, 1.1690009, 1.6658874, -0.70536715, 0.23245876, 0.2948516, -0.3052157, 0.12173966, 1.1924865, 1.1368623, -2.4975226, -0.57912487, 1.8444617, 1.1986053, 0.7278975, 0.32776472, 1.2008886, 0.119442426, 1.9395337, -0.2443032, -0.44102192, 0.07411933, -0.8648593, -1.0854073, 1.0502064, 1.2441102, -0.5465462, 0.0007689905, 0.06788056, 1.0596386, -0.009079409, -0.017357448, 1.1743907, -0.65164614, -1.2805476, -1.0344989, -0.6118949, 1.3374693, 0.6947122, 0.21548276, 0.16624856, -0.3098088, -0.18304774, -0.08982895, 0.24692123, 1.8832171, -1.3787366, -1.1788441, -0.9704905, -0.25362843, 1.1344237, 1.0270075, -0.4638778, 1.64035, 0.7277017, -0.03430187, 0.19610947, -0.042846482, -0.16965723, -0.28449193, -0.767132, 0.3500018, -0.3275944, 0.6404934, 0.11165754, 1.392994, 2.1228006, 0.8203553, 0.046825614], [1.0487952, 1.0668089, 0.8681412, 0.85637784, -0.12432981, -1.6580328, -1.8255595, -0.58579004, 0.6146264, 1.7476484, 1.9223113, 1.9250606, 1.1973809, 0.8528068, 1.0783293, 1.0298645, 0.436585, -2.7227802, -4.2499027, -1.3218452, -0.67104656, -0.0073616975, 0.023733212, -0.28890172, 1.1634173, 1.4931035, 0.71388125, 0.6440578, 0.39465562, -1.3261611, -5.555888, -3.0164402, 0.14718297, -0.5138473, 0.0400296, 0.42538297, 0.38236773, 0.44850796, -0.12047652, 0.52623105, 0.4757106, 0.34029362, -0.9538446, -6.2282257, -2.0424168, 1.5855747, 0.058099248, 0.12780976, -0.55991495, 1.6615269, 2.5540884, 0.36415687, 0.812871, 0.3683971, -0.6186364, -2.0279212, -3.3211894, -0.97713226, 0.99236774, 0.32748935, -1.7504147, -3.7187667, -2.095344, 0.70017093, 1.2787594, 0.8897043, 0.6514162, -0.6178208, -1.8296378, 0.24142611, -0.44112927, 0.1689751, -0.036608007, -0.97707164, -2.1961658, -5.118136, -3.2249055, 0.08856181, 1.0318251, 0.3282178, -0.6816888, -0.42530215, 0.76918143, 0.91658676, -0.8732878, 0.6265743, 0.5238972, 0.056959163, -0.47291914, -3.8361595, -0.6729311, 0.5400504, 0.7505766, -0.39523843, -1.0060945, 0.04007542, -0.15523343, 0.36359608, 0.36758038, -0.2754341, 0.88991344, 0.39866617, -0.97741544, -0.4939538, 0.8222745, 0.75228393, 0.22750598, -0.5422194, -0.16722298, -0.08996104, 0.72638047, 0.33400297, -0.9054732, 0.3777908, 1.1015605, -1.0411028, -0.75478905, 1.726889, 0.55840623, 0.1764371, 0.24888752, -0.28415895, 0.04666921, 0.60745484, 0.085821114, 0.0572705, 0.39631024, 0.26626697, -1.191303, 0.649476, 0.96671766, -1.144375, -1.0081038, -0.24069132, 0.20388782, -0.020190738, 0.3165961, 0.3195003, 1.0287176, -1.167313, 0.7427355, 0.5023598, 1.0629126, 0.99603575, -0.25501558, -0.5331862, -0.8385854, 0.40735802, -0.6150574, 0.68227464, 0.78412247, 0.24514364, 0.22095694, 0.77147055, 0.81086487, 1.0399516, 1.0272006, 0.95195156, 1.0066154, 0.087737866, -0.530007, -0.6825655, 0.75442356, 1.9824135, 1.058117, 0.41574317, 1.2186619, 1.11013, 0.8531959], [-0.16677341, -0.08099996, -0.23150064, 0.07069564, -0.09678494, 0.76249015, 1.473581, -0.1989413, -1.2641907, -0.7354196, -0.5988098, -0.5430099, -0.24218486, -0.13975601, 0.07821368, 0.39340845, 0.4893755, -0.5550784, -0.19129044, -0.24069819, 0.21958011, -0.39227775, -0.8616643, -0.39344352, 0.31531024, 0.8828263, -0.24264608, 0.56541175, 1.1886215, 0.5143314, -0.32755318, -1.2058225, 0.1211302, 0.52155757, 0.15160841, -0.41908613, -0.36444438, -0.6311616, 1.0362695, 0.3522797, 0.045573004, -0.25162077, 0.6552787, -0.1339458, -0.66760975, -1.8685222, -1.4822093, -0.8740128, -0.8656367, -0.4964533, -0.705025, 0.7868206, -0.423222, -0.6832237, -2.3884165, 0.2810496, -1.1664, -0.47917506, -0.08238302, 0.29133052, -0.64999443, -0.0690421, 0.21682844, 0.2998954, 1.1866826, -0.33489555, -0.46300656, -0.31544176, 0.72773814, 0.2958986, 1.2203182, 3.537529, 2.8120036, 1.1809243, 1.1651932, 1.0608423, 1.9955819, 0.7497824, -0.2838592, -0.19402722, 0.74483013, 1.9106334, 0.61209524, 2.6389453, 2.7031338, 1.8326582, 1.1715598, 1.9536375, 0.77511215, 1.4739144, 0.53321713, -0.34473142, 3.4900136, 0.7847951, 0.3961518, 0.505509, -0.28582668, -0.41219568, 0.708995, 1.8235966, 2.9544077, 0.40417972, -0.123069786, 0.5529053, -0.32443863, 1.9589695, -1.5020837, -0.76861954, 0.29819918, 0.32884985, 0.25704727, 1.322045, 1.2617674, 0.3842833, -0.8095342, -1.4493762, -0.7831199, -0.40380123, 0.9293789, -2.5878758, -1.1216863, -0.968167, -0.897517, -1.5742944, -1.3045843, -0.7064991, -0.9378205, -1.0139153, 0.21851547, 0.12737113, -0.54476386, -0.7014399, -0.9263017, -0.3907839, -0.9479999, -0.29398617, -0.7482518, -2.0322711, -1.6376278, -0.04396436, -0.6919958, -1.0356826, -1.073176, -0.17210618, -0.063737094, 0.026449963, 0.29994234, 0.407818, -0.008887335, 0.1946103, -0.17179295, -0.6742745, -0.6469017, 0.70551676, -0.72171724, -0.14481336, -0.2322652, 0.15033865, 1.4852314, -0.5938784, 0.18029647, 0.6811844, -2.4667127, -0.9823147, -1.4355491, -1.9929316, -0.24441049, 0.0039845426, -0.19828615], [-0.28693196, -0.21386738, -0.091193125, 0.5708335, 0.7312486, 0.64199686, 1.0125461, 2.0061216, 3.0994248, 2.056522, 0.13852008, 0.6576075, 0.32645324, -0.29653764, 0.07575432, 1.4491304, 1.5449197, 0.48542106, 0.50556827, 0.5319737, 0.7836572, 0.81288785, 0.78943443, 2.3555827, -0.6383939, 0.5802007, -0.29144776, 0.7061373, 2.19792, -0.57567304, -0.72021514, 0.19869576, 0.34585854, 0.59115237, 0.29120582, -0.065510795, 0.5411723, -1.386621, -0.9719316, -0.43448845, 0.38198584, 0.5444448, -0.24750578, -1.6660024, -1.0218775, -1.3159692, -1.0264953, -0.60374796, -1.0997585, -1.2889429, -3.104146, -2.2861073, -0.7392733, -1.6143265, -0.64748377, -0.40979838, -2.4277537, -2.234012, 0.16494551, -0.096712835, -1.6276723, -1.7037562, -2.1538806, -2.072344, -0.84367496, -0.57175213, -0.45026934, -1.761797, -0.6607816, -1.1549101, -0.14480156, 1.9510891, 2.6982267, 0.0040875883, 0.16828841, -0.9267438, 0.95184433, 0.8305646, -0.18025482, -0.19811088, -0.15878719, -0.010020442, 0.8967452, 1.1936067, 2.0513809, 1.9673824, 0.29960057, 1.421984, 0.16687335, 0.8717798, 0.0017656327, 0.19741088, -1.0960615, 0.251991, 1.3973261, 0.06834095, -0.934366, 0.90501565, -0.6929087, -1.0299224, 1.424464, 1.3341802, 1.4582577, 1.1019313, 0.21120079, 1.7799338, -0.025549782, 1.6929704, -0.64991474, -1.6194621, -1.2379353, -0.63610923, -0.12783484, 0.0016152388, 1.4849156, 1.7512054, 0.35188705, 0.23287694, 2.7223148, 1.2286345, 0.13424417, 0.5003984, 0.026824988, -0.5695812, -0.4318978, 1.5832683, 0.37250084, 0.7164623, 1.5904467, -1.3455402, 0.24518628, 0.35467458, -0.47794318, 0.52299416, -0.08038264, -0.2614118, -1.263107, -1.1027478, 0.08618173, 0.0591983, -0.0023288957, -0.8255133, -1.9524751, 0.046496492, -0.17481342, -0.4670434, -0.49335042, 0.11767145, -0.41216776, -0.46849033, -0.9654186, -1.676189, -0.81167436, -1.5903744, -2.4687083, -1.6885712, -0.25995162, -0.24363054, -0.090287864, -0.66229916, 0.265549, -0.19047847, -1.9042846, -0.13994735, -0.6205582, -0.93047446, -0.807293, -0.32210505, -0.17835349], [0.14989308, 0.23646823, -0.054147895, -1.2101637, -2.3690047, -2.85047, -0.75082976, 0.25437847, 0.81425405, -0.81157064, -2.479607, -1.8269827, 0.16091284, 0.27143097, 0.27522272, -0.38797793, -1.2408905, -1.0416542, 0.21513821, -0.22349703, 0.6914902, -0.28004113, -0.9140737, 0.040966608, 0.15960614, 2.0181208, 0.13790047, -1.0466123, -0.8924033, 1.4576802, 1.0808254, 0.39765248, -0.07054754, 1.6681584, 1.7728368, 0.24146928, -0.45827892, 0.9008475, 2.1396334, 0.1176215, -1.2025881, 0.36785564, 2.863354, 1.5047231, -0.46437514, 0.16042532, 0.7664687, 1.1052731, -0.10233563, -0.8731304, 0.62891835, -0.3571127, -0.24609572, 0.3138233, 0.3164858, 0.986181, -0.19435997, -0.049276106, 0.8712484, 0.8167536, 0.50795186, -0.73521954, -1.0952653, 0.36544833, 1.1280547, -0.06978427, 0.1744259, -0.71085566, 0.20015058, -0.92573094, 0.31336772, 1.5174067, 0.5406723, 0.4077338, 1.860053, -0.67017925, -0.5681893, -0.31858572, 0.24923973, -1.492459, -1.1653827, -0.8160027, -0.63369215, 0.43566266, 0.88156205, 1.2867657, 2.5173962, 1.6632768, -1.5291848, -2.2255633, -1.6973441, 0.14093281, -0.13514736, -0.8281328, -1.1210294, 0.47310123, 0.95144415, -0.122525096, 1.133264, 2.50405, -1.3333304, -1.5284327, -0.5906535, 0.9152809, -0.10036105, -0.4197646, -0.2940014, -0.7077895, -1.0802907, -0.7301961, -0.2254368, 1.7678757, -0.48864582, -3.114507, -1.5666409, -1.1332209, 1.4122347, -0.16134618, -0.7682784, -0.272171, -0.45397782, -1.526493, -1.1779958, -0.52867264, -0.37929326, -0.6446435, -1.1150063, -0.07280415, 0.069484435, 0.8065742, 0.39022976, 1.8701878, 0.8369348, 0.69422626, 0.29456666, 0.32015723, -0.18818161, -1.2152238, -0.77531135, 1.0205106, 0.12130255, -0.2990491, 0.6485038, 0.22839294, 0.6654311, -0.38079533, 0.563443, 0.9253013, -0.65036, -0.8112954, -0.96426356, -0.813516, 0.27560115, -0.7632527, 0.34577164, 0.085323766, 0.38168028, 0.13438554, 0.1772389, -0.05888631, -1.583386, -1.5411758, 0.48957604, 0.52994275, 1.1847252, -0.2512907, -0.3666098, -0.44414788, 0.18140209], [0.38405877, 0.5624112, 0.76229286, 0.6022029, 1.2307185, 1.4778548, 1.2480706, 0.59705526, -0.7936013, -0.00668587, 0.4022945, 0.59068954, 0.4571587, 0.36227074, -0.10513469, -0.49442074, 0.12271382, -0.023803135, 0.51057255, 0.5650921, -1.5750185, -2.3683794, -1.8715763, -2.7578278, -1.048151, -0.019749982, 0.60667783, 0.2645026, -0.5831648, 1.2548075, 0.75426817, -0.21446815, 0.15912172, -0.5242532, 0.11667227, 0.22924064, -0.12863894, 0.21964397, -0.97694653, 1.1114824, 1.61261, 1.0267938, 1.5087134, 0.38624898, -1.2179941, -1.5576965, -1.0548078, -0.5422359, -0.30851975, 0.30002767, 0.97809297, 0.057748977, 0.4540693, -0.8436186, 1.6189708, 1.4397393, 0.09530504, 0.049735483, -0.67404073, -1.3643429, -0.4403819, -0.9258234, -1.2331369, 0.5857015, 0.74763954, -0.035668314, -1.1527222, 0.6901352, 0.023979807, 0.066947594, -0.07871222, -2.679049, -1.5109141, 1.1832895, 0.07885149, -1.2463771, 2.6628551, -0.53347164, 0.36026928, 0.3744656, 0.86436236, 0.089220084, 0.730648, -0.31183925, -2.679377, 0.3308503, 1.492197, 1.4664488, 0.71347386, 3.060699, -0.48188093, 0.7428262, 0.73947036, -0.39880607, -0.010663159, -1.7181461, -0.8004829, 1.2504822, 2.05624, 1.9018408, 0.1770379, -0.029122507, 0.52001077, 1.1884028, 0.35690573, -0.2046703, -1.3252935, -1.2403264, -2.7749693, 0.6512158, 1.7195833, 0.44948068, 0.11847158, -0.28744832, -1.6220316, -1.1237768, 0.40713778, 0.27884963, -1.3046212, -1.3234749, -0.5451125, -0.9490836, 1.2462834, 1.3914422, -0.37011123, -1.2481688, -1.4953729, -3.501998, -2.6822586, -0.82717013, 0.34379095, -0.23822702, -2.376318, -0.9183465, -0.1506615, 0.2557752, -0.42159587, -0.17985715, -0.22447142, -1.2504942, -1.609764, -0.5104657, -1.0909812, 0.29331386, -0.026382107, -0.26509696, -1.7084447, 0.14707728, 0.25450227, -0.118347265, -0.40846458, 0.455647, 0.96638966, 1.5615176, -0.20704283, 0.13771096, 0.50343394, 0.6918899, 1.619625, 1.5489888, -0.6256569, 0.5201777, 1.4947789, 1.5985974, -0.42571512, 2.3829618, 0.84961396, 0.3915033, 0.6541219], [0.6561439, 0.51987404, 0.783795, 0.75434625, 0.8643305, 1.1431339, 1.067688, -0.691146, -0.2972717, 0.21846582, 0.71182746, 0.47874996, 0.49684617, 0.8608257, 1.2306048, 1.3277615, 1.7705219, -0.92942804, -1.3507588, 1.0708743, 0.5528286, -0.45267785, -1.7318612, -2.1184738, -1.7941896, -0.010176443, 0.8687564, 1.5215745, 0.92866004, -0.20557801, -1.0165117, -1.774531, 0.5096757, 1.2905765, 0.5421133, -0.49853304, -1.4440515, -1.8775393, -0.70111066, 0.6057888, -0.19901802, -1.032919, -0.40804133, -0.34775564, -0.15831025, 1.7285887, 1.6804235, -1.4175736, -1.9277366, 0.024119066, -1.5513085, 0.60406554, 1.045265, -0.14258194, -1.360207, -0.74441314, 0.03557084, 0.9539828, 2.2261994, 0.80678374, -1.8678464, -0.40691733, 0.89924616, 0.045962326, -1.4551014, 1.3510596, 0.5946068, -0.5064282, 0.98103964, 1.1355447, 0.87581533, 0.8426772, -0.0062749973, -0.21659975, 1.0284835, 0.90043706, 0.97061336, -1.3080131, 0.7847564, 0.11738211, -1.414122, -0.21624264, 0.048528317, -0.48936582, -1.8955009, -0.6859571, 1.1763036, 1.6015617, 1.7890493, 1.0802597, 1.1843196, 0.6660828, -0.34989825, -0.8525251, 0.93926406, -0.32296145, -0.592456, -1.5766615, -0.27777472, 2.074211, 0.24914864, 1.2327534, 0.07344777, 1.4023994, 0.31147417, -0.38979876, -1.5894173, 0.19513647, 0.56653965, -0.0586998, 0.7686996, 1.1500024, -0.23722385, 0.036554396, -0.8928162, -1.2537503, -0.69755536, 0.29631338, -0.657154, -1.9132881, -1.7812868, -1.6412393, -0.7798993, 1.0573448, 0.87759805, -2.3559844, -1.2390728, -0.8113721, -1.7574382, 0.58172524, 0.34485713, 0.037777107, -1.9989909, -1.6246041, -0.5627785, -1.233009, 0.11550434, -0.029331844, -1.8798153, -0.522868, -1.1733326, -0.2781139, 0.40015492, 0.522035, 0.75199044, -0.2198237, -0.041319784, 0.5190641, 0.1192057, -0.56631166, -0.93170035, -0.20336924, -0.26462337, -1.3758518, 0.4000669, 0.17765436, 0.71211153, 0.56706613, 0.8644125, 0.44502378, 1.2339658, 0.3775845, 0.10168378, 1.126945, 3.1345327, 2.101783, 1.9944195, 0.5879078, 0.18234259], [-0.5488676, -0.5581787, -0.5319825, -0.2910034, 0.6854279, 1.9201244, 1.5919063, -1.5552851, -4.3534684, -3.6563566, -1.2299062, -0.2038639, -0.64502424, -0.36933422, -0.39544958, 0.5049818, -0.076465525, 0.036835726, 0.9669879, 1.1472262, -0.31810394, 0.21073085, 0.7105027, 1.221274, -0.8721347, -0.57927126, -0.56421447, -0.68833584, -0.81313044, -0.4244678, -0.23052648, 2.9242368, 2.4050126, -0.14247502, -1.6388074, -1.0378672, 0.016945627, 0.9563274, -0.08034509, -0.31291828, -0.62126684, -0.58552283, 0.4319188, -0.0018766986, 0.016230252, 0.45286703, -1.2780472, -2.1185396, -0.26957142, -0.65051866, -0.31076336, -0.7526813, -0.18118094, 0.5738116, 0.84094775, -0.68389904, -1.6463586, 0.60123456, 0.8119528, -0.65643376, -0.041216917, 0.6341394, -0.4476384, -2.253778, -2.9719007, -0.43774936, 0.20709704, 2.0467544, 0.83222336, -0.26968613, 1.1121399, 2.154374, -0.64205045, 0.3428361, 0.68556994, 0.79675454, 0.564572, -1.5618255, -0.40568638, 0.8343359, 1.2418963, 2.098572, 0.39990965, 1.3634391, -0.04622911, -1.4477392, 0.51101863, 1.9041792, 2.5154243, 2.8444853, 0.65241957, -0.47387108, 0.45702058, -0.89592326, 0.69298875, -0.10405297, 0.4603355, 0.5665262, -0.34999922, -0.29099992, 1.0635028, 3.064155, 0.009656522, -0.052984092, -0.79827994, 1.995457, 0.38419014, -0.8024371, 0.4351621, -0.17334647, 0.66223186, -1.5962496, -1.0925262, 3.932391, 1.0669333, -0.8282243, -0.7693037, -1.072549, 2.8402941, 1.286105, -0.99277544, 0.01949663, 0.17588729, 0.011049936, -1.1465966, 0.8987797, 2.8390908, -0.32859147, -1.0683324, -0.5953856, -0.3133648, 1.2421068, -0.33147508, -0.8853706, -0.8356377, 0.36635348, 0.010786944, -0.3340665, 1.5664315, 4.3867383, -0.58950484, 0.10250208, 0.2288657, -0.7888193, -1.7112205, -0.36975726, -0.6760123, -0.21802534, -0.3333564, -0.15767324, 1.1492435, 3.3139806, 6.348503, 1.2135388, 0.27209482, -0.53776824, -0.58952314, -0.5800198, -1.050921, -0.18273543, -0.025444731, -0.5401621, -0.5594913, -3.10597, -1.3119439, 2.2923403, -0.21731257, -0.578244, -0.3404417], [-0.4015217, -0.52545357, -0.44386247, -0.69951427, -1.3572731, -1.3677926, -0.85120314, -0.88797724, -1.8519769, -0.678328, 0.07056138, -0.82317734, -0.32126063, -0.28036648, -0.069086425, -1.0926691, -1.5795757, -1.7225535, -0.39927974, 1.4022766, -0.525135, -2.2861562, -1.3317305, -0.96676093, -1.4852525, -0.1109925, -0.35620853, -0.041793976, 0.42700377, 0.80461735, -0.24102749, -0.045110505, 3.0614634, 0.9423296, -1.2476469, -1.0970209, -0.87647444, 1.3419677, 2.2050543, -0.28629586, -0.7462607, 0.80017054, 1.9586289, -0.21492118, 0.8136952, 3.5817037, 0.53980464, -1.131065, 0.3948487, 0.9285691, 3.471917, 2.2141805, 0.14326559, 0.03857878, 1.1063322, 0.56835455, -0.17893502, 0.46399456, 2.1367967, -0.0018579785, 0.4868266, 2.6253088, 1.5580214, 3.6709974, 1.4002727, 0.27943578, 0.57498586, -0.19025056, -0.432326, -1.6103292, -1.3910698, -0.55819315, 0.41181883, 1.6530392, 1.5044632, 0.6472709, 0.7241435, -0.93585056, -0.36433, -1.7022243, -1.7573235, -0.94140697, -0.8355326, -0.46693698, -0.033951856, 0.23025605, 0.58055615, 0.23340037, 0.300871, -2.0844002, -1.5702004, -0.3869071, -0.72963077, -0.73743093, -0.9482245, -0.13225223, 0.5084358, -0.8897524, -0.8608519, 0.56341904, 0.45352897, -0.71053296, -1.8559909, 0.97760946, -0.39898056, -0.63010347, 0.7333667, -0.7392688, 0.1601467, 0.47282898, -0.3192969, -0.0434565, 0.47620282, -0.12408127, -1.2733663, 0.14902714, 1.5511521, -0.06717247, -0.44318986, 0.4767459, 0.50688916, 0.7237198, -0.61456645, -1.3833085, 0.6146148, -0.23252225, -0.61709136, -0.4624577, 0.7797528, 1.1791818, -0.5026137, -0.040928025, 1.932729, 2.2993443, 3.154522, 0.34046787, -1.6408095, -0.08554363, -1.700257, -1.7891595, -0.82899, -0.40521112, 0.7447164, -0.36936888, -0.3311013, -0.035444435, 0.8691468, 1.9225374, 2.247803, -1.1140885, -0.5899318, -0.5333741, -0.6980593, 0.29604003, 0.932047, 0.713892, -0.2712759, -0.3826733, -0.16678098, 0.13014394, 0.42777988, 0.77076876, 0.7646997, 0.060499832, 0.287727, -0.005420094, 2.424917, 0.19434676, -0.3076129], [-0.9328719, -0.9732071, -1.3707802, -2.6347814, -2.5734606, -2.1830413, -2.5709946, -0.8578547, 0.8636366, 0.9718455, -0.57070214, -1.6797842, -0.973351, -1.0859675, -0.8103234, 0.068956584, 1.1206449, -1.6993786, -0.74884564, -0.67307955, -0.35899088, 1.2394748, 0.44757286, -0.35946444, 0.74596137, -0.10592197, -1.0577708, -1.2562807, 0.57383776, 0.9187072, 0.251116, 1.3135965, 0.1867036, 0.36716798, -0.18868417, 0.38746792, -0.17282073, 1.3276589, -0.016502293, -1.0308945, -1.223635, 1.7949516, 0.6409835, 0.73863614, 0.8248493, -0.4591748, 0.33433092, 0.70165646, 0.49161085, 0.36688197, 2.0354087, -0.14523101, -0.83177423, -0.89269125, 0.024178732, -0.28499904, 0.67881584, -0.03954477, 0.014906142, 0.012092951, 0.2186759, 0.18633434, 0.33576357, 0.75047463, -2.1030762, -0.729915, 1.831656, -0.20508495, 0.15015578, 0.8212991, -0.204691, -0.019305496, 0.8351418, 0.5898475, 0.19518827, 0.32129288, 0.38437873, -2.7950053, -0.84025425, 1.2002687, -0.41817838, 0.8143204, 0.10187343, -0.6272533, -0.37840807, 0.25427946, 1.1074297, 0.6475477, 1.3731619, -0.9790986, -0.8495145, -0.8251499, 0.08633483, -0.1979738, 1.0473958, 0.1163719, 0.11641222, 0.4993318, 0.24319501, 0.32879287, -0.31556886, 0.79485667, 0.82238054, -1.3181769, -0.7922053, -2.5089447, -0.2364881, -0.44510376, -0.8019991, -0.997802, 0.3809847, -1.4702661, -2.083628, -0.30138782, -0.72735506, -1.0134684, -0.8562323, -0.86016077, -0.9375067, -1.7350628, -2.3131897, -0.7457901, -1.3063347, -0.82718045, -2.649765, -2.4307027, -0.95605147, -1.3527409, -1.2773793, 1.1307191, -1.0555356, 0.15884322, -0.31884456, -0.68081623, -0.34768608, -0.36880568, 0.09648637, -0.09840715, -0.15101762, 1.2543236, 1.4203646, -0.4000163, -0.098257035, -0.7139368, 0.7417788, 2.0743492, 2.0036345, 0.636009, 1.890968, 3.8864033, 4.6759706, 6.6899695, 3.671554, 1.4479355, -0.27186477, -0.49361745, -0.8073044, -0.7404275, 0.65856075, 2.813689, 3.0647345, 1.7639623, 1.514544, 3.2772672, 0.5690722, 1.616758, 0.6537551, -0.95604944, -1.276329], [0.07087252, -0.10437965, 0.4467001, 0.782033, 1.8238002, 3.872209, 1.5033896, -0.3037627, 1.3786263, 1.5827597, 0.42918003, 0.02061164, -0.13829926, 0.1394116, 0.68795586, 1.0404918, -0.4782084, 1.3713316, 3.2291036, 0.9646143, 0.6776242, -0.4979396, 1.1972532, 0.9659002, -0.62648463, -0.41761723, -0.27453598, -0.5945818, -0.5467833, -1.3399421, -0.19243525, 1.0430691, 0.84584177, -0.058870662, -2.6357977, -2.0029774, -2.008684, -0.7313363, -0.46765453, -0.7910622, -1.7472208, 0.01946202, 0.58342195, -0.09803601, 0.98608863, 0.6435899, 0.95874614, -1.8616396, -2.4035213, -2.843488, -0.9778378, -0.7148341, -0.49262917, -1.9875745, 0.6817876, 2.3325794, -0.1660338, -1.8140454, -0.5335682, -0.66723126, -0.6863386, -0.82801646, -1.1017656, -1.3131447, 0.45348927, -0.17119509, -2.0675042, -1.0375988, 1.5378101, 0.11397008, -0.7457264, 0.22879042, -1.0189688, 0.03144956, -0.22381285, -0.888994, -1.177098, 1.5329927, -0.085088305, -1.6876589, -1.2239083, 0.7395599, -0.47070378, 0.10353891, -0.860338, -0.39385575, -0.24300386, -1.4552858, -0.88945585, 0.54543114, 1.1467286, -0.08382722, -1.4391851, -2.6192446, -0.5157946, -1.1398028, -0.24219464, 1.1948416, -0.5528091, -1.3442091, -0.80072093, -0.92713505, -0.1135476, 1.6745613, -0.26980135, -1.0325248, -2.1047535, -1.4296535, -1.1075838, -0.6342028, 0.6660593, -0.043211408, -1.135624, -0.94400376, -0.4997414, 1.7453936, 2.606875, 0.05851068, -0.26634744, -2.0461178, -0.20382755, 0.06015412, 0.80420077, 0.8039617, -0.033497095, 1.1876065, 0.37722367, 1.7810044, 3.3312883, 0.2736504, -0.025855254, 1.0235226, 0.09600325, 1.1673641, 2.0203748, 1.3412188, 0.23352686, 1.1414381, 1.9499631, 1.997514, 1.5777481, 2.134976, 1.8868829, -0.1264518, -0.104378834, -0.01690298, 0.2908143, 0.7000326, -0.3785694, 0.12058825, 0.5824218, 0.7885914, 2.168133, 1.960159, 0.8528801, 0.9259278, -0.1107769, -0.23325922, -0.4832069, -0.63889545, -0.39519775, -0.7970993, 0.6344105, 0.85785407, 0.580835, 1.4613107, 0.9594353, 0.2539869, 0.27077395], [-0.59178805, -0.6488306, -0.47958186, -0.14300597, -0.05607445, -0.8118349, -1.4853057, -1.4339554, -0.96124184, 0.037250128, -0.41152686, -0.90912074, -0.8397635, -0.78978163, -0.5320829, 0.36316636, 0.90421844, 1.5622147, 1.4295526, -0.3107933, -1.8738916, -1.3901422, -0.10624194, 0.1351031, -0.68895817, 0.3357981, -0.4838764, -0.35505694, 0.97224534, 0.9684715, 0.884787, 1.89955, 1.7998302, -0.36275852, -1.0609134, -1.274939, -0.9885416, 0.855698, 1.7463988, -0.6380211, -0.30829367, -0.15053694, -0.29453674, -1.5606693, 1.2808698, 1.9485672, -0.73268515, -1.492246, -0.6770357, -0.9647689, 0.7188612, 2.6725118, -0.9503908, 0.14605197, -1.0259068, -2.1950207, -1.8843921, 1.4694809, 1.7624416, -1.1670876, -1.8599905, 0.13500503, 0.48207888, -0.0041898675, 1.9474773, -0.6653066, 1.353542, 1.0164495, 0.49969864, 1.8446453, 3.7166865, 2.33762, -0.61322266, -0.3681964, 1.0499021, 1.0129765, 1.8498542, 0.08441095, -0.75478756, 1.822842, 3.2316806, 3.299813, 1.4565371, 2.4237833, -0.7731454, -0.3253042, -0.45900068, 1.1371295, 0.542415, -1.7344608, -0.4977724, -0.75984615, 1.8554015, 1.9161103, 0.021572167, -0.3245826, -0.6011398, -0.7563661, -0.35873774, -0.24847466, -0.23389739, -0.99043113, -1.5627104, -0.8416939, -0.6112934, 0.70230424, 0.409535, -1.0638589, -0.2697198, 0.62772965, 0.4266177, -0.54219526, -0.5236315, -0.93099433, -0.28535953, 0.84735066, -0.96477926, -0.33653116, -1.3497802, -0.27770498, -1.5087559, -0.12736192, 0.67916286, -0.21647403, -0.8992418, -0.0035471953, 0.70028186, 0.7440491, -0.16392042, -1.5052983, -0.610318, -2.5321424, -0.01607417, -0.5920802, 0.24312496, 0.27888098, -0.21409711, 0.41611773, 0.8464894, 0.42446074, -0.8317441, -0.9391142, -1.123099, -0.7462147, -1.2933974, -1.0907469, 0.01995829, 0.5449423, -0.53969884, 0.41447815, 0.1163758, 0.33244506, -1.1960034, 0.5621054, 0.62951356, -0.404517, -0.5657247, -0.3465829, 1.8232992, 1.3462876, 0.015167184, 0.15159242, -0.16506475, -0.5091201, -0.5050818, -0.33620793, 1.7543702, 0.035829112, -0.59100336], [0.10496859, 0.21543512, -0.0076454496, 0.25686774, 0.31034917, -0.3060681, -0.15774167, -0.30198222, -1.2935094, 0.20016369, 0.78156036, 0.19201492, 0.038181257, 0.036778513, -0.024384035, 0.29703355, 0.5936925, 0.9173018, 0.4404493, 0.018641734, -0.28395426, -1.1638578, -0.7120837, -0.66536313, 0.21278358, -1.5413524, 0.5321518, -0.18223728, 0.39059305, 0.31040308, -0.5443997, 0.9882217, 1.2256925, -1.1180818, -0.80062973, 0.2490763, -0.6976197, -1.0065256, -3.0742455, 0.72427297, 0.16865149, 0.25758576, -0.32136655, -0.6436941, 2.09541, 0.5946039, -0.6403997, -0.7507396, 0.7075535, 0.61987144, -0.54068, -1.2460957, -0.039555177, 0.1368972, 1.3988401, 0.2703741, 1.8956615, 2.4426308, -1.3470104, -1.0690286, -0.32524294, -0.33321625, -1.3972558, -0.51376307, 1.8418752, 0.49670058, 0.18989748, 1.6686535, 1.0282079, 2.6742811, 1.9555641, -1.3659465, -1.5937123, 1.5553391, 0.6968788, 0.14402106, 1.8468924, 0.5373896, -0.02058538, 1.3446419, 2.1442451, 1.3223239, 1.6802869, 0.55985475, -1.8857046, -2.0395215, 0.4949723, 1.4865528, 1.8646295, 1.7090443, 1.1199989, 0.049384706, 0.23749687, 1.2263914, 1.2873982, 0.85392785, -0.82917076, -2.319396, -0.5371721, 1.1653268, 0.25993013, 0.41162315, 1.7327101, 1.4748424, -0.06860318, -1.0636778, 0.38702372, -0.50764483, -0.5250505, -0.9505852, -0.8985754, 0.2592281, 0.032164957, -1.4395322, -1.7759929, 0.9463635, 0.050786197, -0.38617378, -1.0156901, -0.27542275, -0.7943683, -1.1315877, 0.30458102, -0.05134102, -0.33634755, -0.45793605, -0.34159935, -2.6007557, -2.1941187, -0.7706577, -0.12473972, -1.2356007, -0.8654224, -0.6855553, -0.1066504, 0.57289886, 1.0044311, 0.28129256, 0.058502298, 0.54230297, -1.4601705, -1.0668591, -0.34742743, 0.010272345, -0.74982643, -2.1319938, -1.9827099, -0.5364471, 0.65037405, 0.78874934, -0.23299775, 0.9273901, -0.12389798, 1.1306082, 1.4340118, 0.2412121, 0.123832226, -0.10623964, 0.33261532, -1.2937526, -0.95384175, 0.8086749, -1.7517171, -1.0939956, 0.8352813, 2.1768224, 2.324503, 0.6806466, -0.09118931], [-0.014134743, -0.016985983, -0.124280386, -0.047878664, -0.40906134, 0.21799496, 0.9743343, 1.5777234, 2.245646, 0.4112896, 0.34852952, -0.5143308, -0.26139557, 0.032309882, -0.04137941, 0.9189019, 1.657711, -0.3066378, -0.3149939, 0.41403714, 0.75512165, 0.03451329, -0.54994655, -0.52604467, -0.77989984, -0.36883357, -0.16464154, -0.8872273, -1.0918635, -0.17345685, 0.7961422, 1.0512356, 1.1786201, 1.975826, 1.6133984, 0.7784521, -0.21728003, -0.18302822, 0.36869702, -0.23217194, -1.5143555, -1.7842396, 0.32676312, -0.96036255, -0.6753067, -1.0886265, 1.5560172, 2.4063592, 1.4294906, 0.98889774, 0.43349615, 0.49088866, -0.10128818, -1.7011807, -1.1535285, 0.3597378, -1.1370766, -1.8846625, -3.5221748, -1.0890223, 0.43131426, 1.1210742, 0.37882543, 0.9072355, 0.34519118, -0.3038461, -1.1294147, -1.2347399, -0.36409208, -1.0165348, -0.62303305, -1.9537104, -2.7826285, -1.3937564, 0.7739768, -0.38599437, -0.8737128, 0.39197305, -0.31029052, -0.57794523, -0.63123786, -0.6725058, -0.61194575, 0.067968644, 0.52677023, -0.6957017, -0.040475678, 1.1579062, -0.7591235, -0.486261, 1.0562651, -0.006308797, 0.7773976, 0.17439069, -0.9552837, -0.97434056, -0.48851782, -0.5055742, -0.97655356, 0.40023032, 0.27376682, 0.038447704, -1.6847024, -0.47810182, 0.20555514, 2.0878181, 0.39084205, 0.034198426, -1.0027735, -0.39264685, -1.9308847, -0.72059166, 0.3613785, -0.7921325, -1.2219359, -1.5223228, -0.39930573, 0.23996128, 0.918749, 0.22868352, -0.15518212, -0.04440872, 0.618865, 0.45557797, 1.9237341, 0.45588806, -0.18031059, -0.5956378, -1.0159252, 0.25832942, 0.08396747, 0.83678305, 0.88140637, -0.10194527, -0.0738077, 0.6424148, -0.359234, 0.15179719, 0.8314012, -0.082686216, -0.012765537, 0.62926906, 1.4905802, 0.03732701, -0.22983399, 2.3976495, 0.372783, 0.22054106, 0.818875, -0.9333077, 0.9657016, 0.10717421, 1.0557415, 1.08707, 0.5463286, 0.587362, -0.021648124, 0.019965734, -0.5124514, -1.0048219, 0.93220454, 0.56500274, -1.6095065, -1.5064813, -0.6421463, -0.91986126, -0.34210852, 0.054570857, 0.14974374], [0.095234826, 0.12190633, 0.41004652, 0.49457628, 0.35994077, 0.12728466, 0.40549812, -1.3187562, -1.7986059, -0.057500664, 0.97311234, 0.71548665, 0.35813537, 0.30765733, 0.38058114, 0.550104, -0.60865074, -0.043921757, -1.3215073, -0.40752876, -0.33180776, -1.8206818, -0.6353911, 0.5337149, 0.51443547, 1.2705956, 0.15358208, -0.062705435, 0.38391864, -0.612388, 0.083766624, 0.59766, -0.3007177, -0.64608616, -0.5860797, 0.07046077, 0.27932298, 0.24694286, 1.3969271, 0.064179234, 0.036982782, -0.7363988, -1.808362, -1.326732, -0.1989627, -0.0664124, -0.59793615, -2.183812, -0.8925578, 0.48456335, -1.4035708, 0.32854065, 0.2625842, -0.013099321, -0.7851159, -1.2671498, -1.0290111, -0.188668, 0.49194753, -0.90536565, -0.48486254, -0.2580639, -0.4499938, -1.8001376, -1.7484316, -0.015814781, 0.62023336, -0.2724984, -0.57478946, -1.0419097, -0.8572789, -2.3862078, -2.505682, -1.8301098, -0.13265137, -1.417894, -2.3533404, 0.05044416, -0.12349981, 0.84385455, -0.13385622, -0.92580056, -1.8014162, -1.5619867, -1.5969596, 0.67294455, 0.17047015, -0.34377232, -0.5848214, -1.9257215, 0.16963369, -0.01703345, 0.9341366, 1.2093307, 2.015147, 1.3953631, 0.83017945, 1.0623938, 1.0365962, 1.356249, 0.78421134, 0.25933993, -1.1746289, -0.17078276, -0.110817246, 0.6646948, 2.2497864, 2.5872705, 2.1156685, 1.7893957, 1.6513267, 1.1031784, 0.7455434, 0.52606595, 0.98523575, 0.64855146, 0.18578148, -0.12436623, 1.2253792, 1.5994308, 0.7507015, 0.033866987, -1.3283271, -0.59920603, 1.2493436, 1.1356949, 1.2529255, 0.03473255, 1.0054613, 1.112289, -0.036822427, -1.3155143, 0.33604026, 0.21737812, -0.8877695, -0.939595, -0.23570485, 0.08861897, 1.8418407, 0.37769717, 1.0814219, 1.6150771, 0.49317044, 0.3734405, -0.4410591, -1.6867009, -1.8754576, -0.9639902, 2.072072, 0.79737127, 0.8227698, 0.77831656, 0.7729409, 2.149123, 1.7547091, 0.76741904, 0.1875625, 0.31545293, 0.6699249, 0.013825294, -0.46567732, 1.7654767, -0.5481693, -0.84972084, -0.5657458, 0.20383675, 2.5754817, 1.2134101, 0.30473742], [0.54982686, 0.5297087, 0.6715805, 0.48746905, 0.59262246, 0.30836123, -1.4423848, -2.031369, -0.3753586, 1.6500236, 1.8429452, 1.2326117, 0.7001277, 0.2898777, -0.263508, 1.0430752, 1.1595461, 2.0919704, -0.13308477, -1.275719, -0.14139079, 0.6926552, 0.43978563, -0.2829932, 0.28845385, 0.9610975, 0.5965882, 0.5284933, 2.1683679, 1.9177542, 0.87877697, -4.093197, -1.6795193, 1.1185206, -0.07390015, -1.5554723, -0.72391176, -0.4589377, 0.18592681, 0.99732083, 0.1774129, 0.41307798, 1.0698614, 1.2982943, -3.33229, -1.119625, 1.6309066, -0.21300527, -1.481953, -0.81500876, -1.8115193, 0.21294656, 0.6976571, -0.62987876, -1.4189557, -0.18765414, -0.328882, -2.3847136, -0.8239978, 2.1514032, -0.038155336, -0.22122823, 0.546945, -1.6942668, -0.035752676, 0.32613447, -1.6311941, -1.5106269, -0.3565616, 0.06090948, 1.3516915, -0.4330684, -1.4633182, -1.2235649, -0.5844142, 1.35405, 1.0371233, -1.1254792, 0.88911086, -1.084067, -0.19507693, 0.79391336, 0.5818213, 1.8211702, 0.43866593, -1.0408344, 0.77118206, -0.7918126, 1.030187, 1.1959124, 0.71719295, 0.6329923, 0.013527775, 0.4072497, 1.670303, 0.6973777, -0.0004287667, -1.3979824, 1.3339448, 1.2073659, 0.40870035, 0.31754982, 0.45889503, 1.607471, 0.47436374, 0.10639884, -0.56877565, 0.13902278, 0.76585025, -0.2669986, -1.3622558, 0.9173424, 0.6455067, -0.37355924, -0.022842634, -0.02630489, 1.4080396, 1.0032238, 0.08296827, -0.8705658, -0.18812904, -0.12943193, -0.9135504, -1.9565492, 1.0048431, -0.88948584, -1.6649891, -0.89322484, -0.762199, 1.2230574, 0.7513186, 0.9317095, 0.5452207, 0.32343686, 0.09148609, -0.07074155, -1.5554346, -1.3874484, -0.56244725, -1.5477414, 0.29901412, 0.521848, 2.3728368, 0.76171386, 0.2731177, -1.8292357, -0.49034712, 0.120330974, 0.3672078, -0.28320238, -0.9183942, -1.1595603, 0.05730292, 0.6775417, -0.6987937, 1.3177664, 0.8442295, 0.6280186, -0.0946088, -1.0726836, -2.4111266, -2.6181133, -2.705854, 0.62348497, -0.97275347, -0.562585, 0.43831, 0.77233684, 0.7827943], [0.77565277, 0.874485, 0.6106547, 0.43476304, 0.6105756, 0.03906248, 0.21822609, 0.11792399, -2.0344205, -1.2588383, 0.04647103, -0.3108756, 1.0261452, 0.55143195, 0.53817034, 1.0852768, 0.40456825, 0.36378694, 0.028487017, 0.2994637, -0.14047486, -0.4915736, -0.24483077, -0.27232277, 0.7411129, 0.81273615, 0.78253305, 0.6300403, 1.1410419, 0.6384685, 0.5908078, -0.678091, -0.18434519, 0.2717136, 0.85816485, 0.52323407, -0.12517747, 0.7220194, 1.0594014, 0.9451485, 1.1866876, 0.4065363, -0.6999688, 0.0736607, -0.22175682, 0.17170523, 0.9082433, 1.037759, 0.90050393, 0.474241, 1.5427395, 1.8299263, 0.79433763, 0.6465531, -0.4470222, -1.48953, -1.3057384, 0.77967584, 1.1631067, 0.061806183, -0.5343708, 0.95746845, 0.8696247, 2.2858524, 1.1278697, 0.85463834, 0.28435212, -1.2535709, -2.0179574, -2.781993, 1.3167819, 2.25112, -0.19661507, 0.09651913, -0.29498446, -0.11660727, -0.7056912, 0.2643302, 0.8596593, 1.0522822, 1.0531139, -0.101962104, -2.4118629, -0.20946357, 0.37735572, -1.6528525, -1.4828339, -0.8613488, -0.6636762, 1.6681204, 0.5736392, 0.8864949, 1.9075059, 2.1000009, 1.0527331, -1.4910487, -3.0022202, -2.8307486, -1.0492336, 0.2503678, -0.9787257, -1.0048761, 0.633077, 0.07185047, 1.1090264, 1.6033863, 1.7367697, 1.3381135, 0.7341907, -1.3547481, -1.4961944, 0.82403743, 1.8961343, -2.0858088, -1.5727109, -1.5422474, -0.48660564, 1.2381744, -0.5369576, 0.8722137, 0.7262428, 0.34060773, 0.06841352, 0.46015194, -0.047697596, -0.30795106, -2.2643769, -0.9337983, -0.5019273, -0.5649504, 0.83885676, -1.2917013, -0.55463624, 0.7655409, 0.20205432, 0.65746194, 0.9366937, -1.3789281, -2.1394174, -3.279606, -1.4677866, -0.7795108, -0.08417105, 1.0081285, 0.9500332, -0.84426135, -0.11383688, -0.28283188, -0.12723581, -0.063010246, -1.34448, -1.136445, -1.4349577, -0.88043636, -0.24402644, 0.16859916, 0.7936369, 1.0563672, -0.038343657, -0.76338995, -0.87412256, -0.9778509, -0.42718616, 1.6061743, 0.046792764, 0.3508333, 0.4789482, 0.56270176, 0.7603815], [0.3593745, 0.25578323, 0.38406318, 0.23558296, -0.13254403, 0.07472626, -0.47427934, -1.7831839, -1.9471364, -0.54401964, 0.03481885, -0.23255022, -0.08530105, 0.070755325, 0.08494861, 0.4895099, 0.006894234, 0.71943355, 0.9572275, -1.391696, -1.1694729, -1.8567793, -1.0844673, 0.2951944, 0.052793674, -0.9221946, 0.41701, 0.41585898, 0.9307713, -0.07595, 1.5874939, 1.1675208, -0.09931478, -0.6359119, -1.1809565, 0.6168698, 1.2870736, 0.41897663, -0.3543833, 0.34017485, -0.16410945, -0.5492082, -0.97501034, 1.4716375, 0.62186116, -0.7375094, -1.2025926, -0.33506754, 0.40664208, -0.19561541, 0.42421776, 1.2702761, -0.41260934, -1.1341605, -0.7763564, 0.010141177, 1.5500004, 2.128572, 0.040107235, -1.6026793, -1.086072, -1.5173366, -1.2793313, -0.0909495, 4.2082157, -0.08289234, -1.3758581, 1.0896643, 0.61664367, 1.9267235, 2.564847, 1.2230074, -1.6751528, -1.3018532, -0.3049278, 0.3474485, -1.2469258, 1.7047988, 0.16523832, -1.2662516, -0.35255092, 0.057894535, 1.0145195, 2.647679, 0.5781961, -0.6491968, -0.604176, -0.080772206, -0.22540185, 0.10740645, 1.9747605, 0.21690722, -0.12986007, -0.75895685, -1.73872, -0.9946335, 0.7804959, -0.27679896, -0.022546526, -0.24024558, -1.3433856, -0.52073365, 1.5480914, 2.8045382, -0.25764146, -0.159741, 0.5028834, -1.5378888, -1.3397228, -0.3699047, -0.13932395, -0.08316058, -0.8360996, -0.6396479, -0.06475287, 0.43886197, 1.2199548, -0.1534249, -0.39021373, 0.066474326, 0.44165522, -0.12983833, -0.5301174, -0.7365713, -0.63820523, -1.3648028, -0.009279972, 0.30647296, 2.2902462, -0.465042, 0.11310705, -0.10443313, -1.1640282, 1.0259056, 0.72616345, -0.15034604, -1.2737805, -1.0024806, -0.42868993, 0.11544794, 1.2261239, 0.20323583, -0.94780254, 0.2819792, 0.12234912, 0.27516967, -1.1744329, 1.0347819, 1.3105108, 0.7076619, 0.9629075, 0.23829494, -0.6186896, 0.81723905, -0.37084594, 0.15381896, 0.049190905, 0.06216556, -1.056961, -1.8854598, -3.1201422, -2.671942, -0.53642386, 0.42595258, -0.10559295, 0.36622396, 0.5096643, 0.6174913, 0.49736804], [-0.38859835, -0.22354679, -0.28895918, -0.15501234, -0.04271111, 0.9122188, 1.5465084, 0.32489967, 0.4043179, 0.14403439, -0.6312302, -0.36045212, -0.36269963, -0.12759008, -0.33072007, -0.9189347, -1.4010328, -0.10747866, 1.1996225, 0.6309658, 1.5279605, 1.1549197, 0.3093089, 0.8820806, -0.29915547, 0.42582878, -0.31013182, -0.19851439, -1.34714, -1.2383384, -0.4964292, 0.024641419, 0.04116937, 0.41452447, -0.13093802, 1.0046946, 1.0314008, 0.01925582, 0.9776476, -0.5967034, -0.41293788, 0.34151033, -0.80022955, -0.22944754, 0.82178, -0.108270556, -0.08736097, -0.26566496, 0.16231297, 0.020820078, 0.23451224, 0.4013625, -0.589388, 0.08676921, 0.2644747, -0.9397113, 0.4601951, -0.47359258, -0.52297676, -0.21494247, -0.123507366, -0.37613466, 0.31512356, 1.2973901, 2.8998811, -0.5098418, -0.13043986, -0.7345086, -0.85228175, 0.079903446, -1.6858393, 0.48677203, -0.45924768, -0.33910063, -0.77671975, -0.09061634, 1.0514697, 1.8591197, -0.50958234, -0.87973946, -1.2283258, -0.46385932, -0.5507468, -0.8305773, 0.8256061, -0.9681337, 0.05416235, -1.121153, -2.974917, -1.4163501, 0.6455168, -0.081542045, 1.2690393, -0.9979253, 0.15598017, 0.03036109, 0.47249234, 1.3424438, -1.7486717, -1.635306, -1.0163715, -2.2572887, 0.44621515, 0.5360892, 0.10422309, -0.53029764, -1.2376184, -0.86601526, 0.11563876, 0.321229, -0.22243465, -2.6998024, -1.7024422, -0.64866567, -0.29126272, 0.26427665, -1.6962427, -0.24754278, -1.0672376, -1.3610375, -0.57462037, -0.76057255, -0.020198835, -0.35768408, -0.6114121, 0.17747688, 1.2916205, 2.6335847, 1.8308767, -1.9008769, -0.46137223, 0.32375014, -0.13825156, 0.24366812, 0.66875833, 1.2480224, 2.1700451, 3.288711, 3.012028, 2.083565, 3.2674088, 2.4938614, -0.89646876, -0.23122111, 0.0114783365, -0.3614966, 0.8595073, 2.3252432, 1.8597617, 2.4110878, 2.0675669, 1.1818453, 1.1629463, 1.3250498, 1.7402476, -0.22933114, -0.45393458, -0.56293833, 0.20302036, -0.099706456, 0.21106668, -0.5588593, -1.3154551, -1.1236784, 0.4295715, -1.3725427, -0.47845024, 0.1907982, -0.2518865], [-0.12646206, 0.044756126, -0.14282714, 0.0047035934, -0.010540661, -0.5960413, -0.8624345, 0.7781212, 0.7740901, 0.22008811, -0.08970977, -0.64075804, 0.16379365, 0.046683718, -0.052719735, 0.48626515, 0.7711155, 0.49598986, -0.94602394, -1.3404826, -1.7215679, 0.7337563, -0.31108543, 0.61457074, -0.16692424, -0.74429286, 0.20130496, 0.9509969, 1.4280314, 1.3104761, 1.6525018, 1.4282198, 0.028968066, -1.1777656, 0.029747158, 0.33379912, -0.076047815, -0.15302397, 0.07839641, 0.6838793, 0.36065897, -0.1448037, 2.3355255, 1.5682538, 0.8159635, 1.2905194, 0.4188258, 0.40370685, 0.69855046, 0.484601, 1.6106573, 0.385834, 0.72923344, -0.07853264, -2.2231238, -0.2774354, -0.15650383, 1.7124016, 3.3210542, 2.4084618, 0.7751874, 0.84437287, -0.23457555, 0.80068564, 0.8579119, 0.078393355, -1.3589842, -2.126312, -1.6958865, -1.2875676, -0.0035296364, -0.48997727, -1.6030385, -0.28329313, -0.49481463, -0.7406943, -1.7487223, -0.22095677, 0.09158407, -2.1171129, -0.11661919, 0.4775681, -0.066523105, -0.6998512, -4.237876, -1.5992036, -0.7278128, -0.7381309, -0.47170952, 0.09375873, 0.35890993, 0.06716733, -1.392675, 0.049668476, 0.15566891, 0.18272664, -1.0053908, -2.6720164, -1.3101397, -1.6405891, -0.9938821, 0.70257366, 0.9600499, 1.643605, 0.17062974, -0.7120097, -1.0711929, -0.4126435, -0.31751063, -0.8092934, -0.0694222, -0.98813075, -1.4127492, -0.99446785, 1.0122112, 0.119065195, 0.5115139, 0.6868404, -0.43246007, -1.7132502, -0.6276654, -0.13624232, 1.0440735, 0.9944749, 0.31250829, 0.31409666, -0.6779808, -0.334123, -1.0822334, -0.6970034, 0.38779065, 1.6038936, 0.35130593, 1.550253, 1.2154919, 0.15828799, 0.5523842, 0.5961172, 0.7184517, -0.16130695, -1.2181605, 0.83524704, 0.8559244, 0.16517349, 0.9677174, 1.930064, 0.72831994, 0.46687195, 1.2473243, 0.9114224, 0.68927175, 0.1608466, -0.68404174, -1.4600663, -0.07737674, 0.3099238, -0.022322185, 0.08957821, -1.3147613, -0.90987223, -0.99872696, -0.34253973, -0.71919525, -0.033411108, 0.45945242, 1.554799, 0.7010557, 0.5138171, 0.04156683], [-0.47391322, -0.6582221, -0.68775165, -0.7184794, -0.9179592, -0.050529473, 0.61234695, -0.42071554, -0.5402829, -0.23155352, -0.88106644, -1.3356539, -0.7510812, -0.28713995, -0.08263049, 0.3660418, 0.82132334, 0.5924932, 0.9765464, -0.73478657, -0.8874198, -0.7644089, -3.1810544, -2.005459, -0.42702392, -0.5544705, -0.3447565, -0.18294856, 0.5500399, -0.12871225, 1.3314117, 0.86223674, 1.2137836, 0.049695536, -0.7151748, -1.1153034, -0.08704705, -0.53992945, -0.39843553, -0.70781815, -0.10428341, 1.3436162, 0.7921644, 2.1956918, 1.1698004, 1.5515139, 1.4258764, 2.1525502, 1.6180192, 0.98559463, 0.3511555, -0.57205355, -0.32670155, 1.167454, 0.6821177, 1.1172742, 0.5249403, 0.4757957, 1.8365371, 2.513295, 1.1350156, 0.44859847, 0.19874589, 1.236179, 3.212049, 0.033950493, 0.96780384, -0.73088884, -1.2075293, -1.371461, -1.7535406, 1.2741925, -0.8647015, -1.740773, -1.9172246, 0.5581621, 0.6449388, 2.6290083, -0.2098596, 0.8915048, -1.3594911, -1.306112, -1.2608261, -1.3898757, -0.8492274, -0.09032043, -1.8789868, -0.51800674, 0.59682196, 0.6529197, -0.085605666, -0.30984333, 2.2257736, 0.068072475, -1.0548155, 0.19888243, -0.4584119, -0.5756854, -0.8879002, -1.7049133, -0.2097347, -0.051057037, -0.43875763, -0.12852423, -0.2595278, 0.20505074, 1.5688317, 0.14915101, -1.788415, -1.7932799, -0.040970795, -1.5233918, -0.68528515, 0.4130093, -1.0609308, -1.8543112, 1.3688061, -0.28530872, -1.5515674, 0.024740525, 1.1305727, 0.36185268, 0.16383591, 0.08683861, -0.59598106, 0.5560967, 1.0063971, 0.48361176, -0.40090352, 0.72810864, -0.5372419, -0.6293221, 0.43692648, 0.10498253, 1.0827575, 1.2336422, 1.1721716, 0.88272065, 1.1908538, 0.73059493, -0.8740928, -0.478623, -0.24692982, -0.71541005, -0.48195317, 0.07909032, 1.4081923, 0.3331327, 1.3546722, 1.2458869, 1.6901056, 1.1429129, -1.3070529, -0.5498234, 0.12665877, -0.446668, -0.5901238, -0.8856872, -2.490564, -0.14228971, 0.6042886, -0.072873786, -0.81511956, 1.4247923, 1.3135716, -1.6397517, 0.16915058, 0.63879454, -0.4155969], [0.02274122, -0.011862761, 0.2113255, 0.13353062, -0.64854825, -1.4344435, -0.98464024, -0.30019182, 0.49366173, 1.9723165, 0.54940903, -0.42753735, -0.40929687, -0.050549448, -0.13023679, -0.4758415, -3.17238, -2.1234405, -2.2640972, -0.47487086, -0.2368956, -1.490525, 0.7415146, 3.2355237, 0.36524707, -0.29900295, 0.46468812, -0.45660228, -1.5021776, -2.4717472, -0.5928009, 0.3985041, 0.30579868, 0.49428514, -0.25382745, 0.20323513, 2.6008472, 3.3779814, 0.84839, 0.13543372, -0.60329556, -2.9087853, -3.1967912, 0.18501437, 1.7721412, 0.6096548, -1.1121103, -1.871965, -0.24286795, 2.4926612, 5.8932934, 2.1419914, -0.073181294, 0.31115115, -1.0498296, -2.5409365, -0.3294122, 0.24202923, -0.6849982, -2.4908638, -2.2300797, -0.13351063, 2.1449788, 2.4810593, 2.0937774, -0.00761055, 0.38532716, 0.12043265, -0.9776558, -0.7039911, -0.40689808, 0.43917617, -0.18172108, 0.17539974, 0.918432, 1.1887898, 0.8970886, 2.3032243, 0.04847001, 0.06244988, -0.41389692, -1.1499227, 0.50222856, 1.0278827, 0.08738405, 0.44995221, -0.470058, -0.8621705, -0.12820792, -0.84753215, 1.3963627, -0.22757158, -0.3250953, 0.5852614, 0.24306485, 0.9762696, 0.21475154, -2.110025, -0.29987308, 1.1300374, -0.80905294, -0.7678256, 0.72674507, 1.1913664, -0.49346483, -0.30375624, -0.4215363, 1.9218864, 1.9042064, 0.48349068, -2.049839, -1.236778, 0.854251, -0.29840478, -0.36344504, 0.43400118, 1.4165254, -0.4240679, 0.5468671, -0.8773002, 0.08975311, 2.2035441, 0.7395767, -0.3958191, 0.31156543, -0.13175507, -0.35617837, 0.06505899, 0.38647902, 0.49903667, -0.25833175, 0.08611779, -0.21139655, 0.124599375, 1.7458862, 1.5837775, 0.2679308, 0.49745846, -0.729528, 0.9181293, 0.87214464, 0.26847893, 0.08158752, -0.28213388, -0.14649431, -0.11349652, -0.5213611, 0.95553017, 0.97322106, 0.39991036, 0.025340782, -0.39749148, 0.30768895, -0.23843671, 0.24801205, 0.0060046287, -0.16599458, -0.12441461, -0.695682, -1.6784691, -2.314648, 0.20119298, -1.0278814, -1.5699704, 0.08411577, -0.020520125, -0.07364777, 0.5269212, 0.16558608], [0.3923958, 0.37012544, 0.5449376, 0.6046532, 1.3256795, 1.8411169, 1.6358311, 0.75762665, -0.7653257, -0.37045592, 0.87589467, 1.0089363, 0.79722494, 0.563363, 0.75875616, 1.3589916, 0.06431058, 0.6256592, 0.65640175, -0.6789576, -0.484706, -0.90728784, -1.2105075, -1.2378128, 0.13609616, 0.8700261, 0.43978325, 1.5795778, 2.0781908, -1.2439625, 0.6514065, 0.8299894, -1.1109089, -4.3477225, -1.0263431, 1.2466031, 0.17871499, -1.4397793, 0.83038354, 0.40576273, 0.1394635, -0.7477126, -1.8425426, 0.053121943, 1.6219155, -1.2289054, -3.5377998, 0.049228486, 0.8321703, -1.4174161, -1.2848237, 0.71786374, 0.43763578, -0.54546875, -1.3941224, -1.1924745, -1.522226, 0.03433921, -1.1194937, -1.8365229, 1.5456893, -0.2615766, -0.22747703, 0.18189359, -0.57685953, 0.68636495, -0.41776553, -0.7232831, -0.1427664, -0.13057293, 1.3449022, -0.55888814, -0.26136407, 0.7530611, -1.0605696, -0.6333487, -2.2477818, 0.26191688, 0.87454265, 1.088223, 1.4379917, 1.0118425, 0.598314, 1.558436, -0.5775654, -0.06252087, 0.33001572, -0.047952164, 0.09897685, -0.20539333, 2.3153193, 0.4608264, 0.3356804, 0.97611016, 0.92560166, 0.7127022, 0.33368686, 1.0582573, 1.2239103, 0.7376277, 1.8358572, 2.140318, 0.84008837, 1.41296, 0.09489912, 1.4925447, 1.150015, 0.8127608, 0.7121687, -0.43358517, 0.3828644, 0.89778894, 0.53320813, 0.88576597, 1.9306042, 1.5954262, 0.50154686, 0.169553, 0.07622376, 0.30973035, 0.2457009, -0.432227, -0.6849044, -0.12083408, 0.276935, -0.46552587, -0.6700789, 1.3326102, 1.8840343, 0.25200325, 0.33316973, -0.5351665, -1.960796, -0.43378934, -0.07425578, -0.04340654, -0.0011855795, -0.7930426, -0.8183753, -1.1658036, -1.5397816, 0.027753603, 0.79538697, 0.6032757, 0.14434338, -1.130478, -3.0330536, -0.9852296, -0.10393647, -0.27196282, 0.09943147, -0.49562994, -1.3700004, -3.0251055, -1.7231888, -0.08213069, 0.46648026, 0.40724063, -0.2815685, -0.6426137, -2.6315644, -1.0164933, -1.057524, -0.52986246, 0.060990166, -1.1249514, -1.5187906, -0.52491844, 0.25878075], [0.6534111, 0.75469404, 1.2940172, 3.0245893, 2.7314775, 2.6534052, 1.1255919, 0.6575316, 0.45253354, 1.0923377, 1.5060445, 0.9414522, 0.666642, 0.11163909, -0.0632342, 0.6296645, 0.5409517, -0.063448496, -1.2216465, 0.4769519, 0.60863173, -0.027077544, -0.12300142, 0.0057683634, -1.3317939, 0.7235907, 0.6241783, 0.5378994, 0.65953153, 0.92832565, -0.17047583, 0.28804642, 0.40469667, 0.39131477, -0.010036166, -0.19846356, 0.5890059, -0.4291741, 0.6303967, 0.2849903, -1.1248175, -1.4280725, 0.434163, -1.1453755, -0.27979687, -0.4933876, -1.5812718, -2.9588866, -2.237937, -0.25650018, -1.7432712, -2.126613, 0.23764604, -1.1227587, -0.19428381, 1.5721177, 0.18744254, 0.41140613, 0.70585173, 1.0502732, -0.2765841, -1.894462, -1.5126047, -0.57229567, -0.25140244, 0.43730423, -0.67240304, 0.11452289, 0.6600142, -1.3875551, -1.4350349, -1.4275466, 1.0601685, 2.7920723, 2.162859, -0.6053732, -0.76878244, 0.509519, 0.59292156, -0.060913377, -0.5571955, -0.6546902, -0.42374882, -0.6525335, -0.97981775, 0.5263972, 0.9715745, 1.5373213, 0.74166834, 0.0651929, -0.43530014, 0.5979794, -0.3992815, 1.207573, 0.023889922, -0.6663767, -2.3125155, -0.4924167, -0.3917067, -1.1455263, 1.1536894, 1.2876544, -0.50403666, 0.44682544, 0.26170674, 0.4931587, 1.7424425, 1.0969182, -0.3843723, 0.15888034, 1.0683745, 0.2282875, 0.18307577, -0.67976224, -0.8837231, -1.245525, 2.0883515, -0.36226502, -1.1026608, 0.70801264, 0.7911353, 1.7838, 0.39069077, 1.1972227, 0.6011297, -0.029460415, -0.7098655, -1.9713981, -0.41178408, 2.2886252, -0.27877298, -1.7928882, -0.8238314, -0.6656349, 1.4974786, 0.0811862, 0.05759543, 0.2588194, 0.18555123, -0.7859868, -0.95424795, -0.116706446, 1.0468557, 0.76754016, 1.0136691, 0.53485525, -1.7081838, -0.31628197, -1.5207921, -1.8960981, -3.8506227, -2.6289485, 0.25589055, -0.7807031, -0.53550035, 0.29861882, 0.536393, 0.5422945, 0.5081808, 0.011866691, -0.030536445, 0.4071032, 0.081671864, -1.724171, -0.18461324, 0.15440784, -0.4528481, 0.3176428, 0.5455955], [0.40822756, 0.3570069, -0.0011864812, 0.14969733, 1.0789617, 1.2438104, 1.3098668, 0.41309592, 0.9013488, 0.64992476, -0.4641744, -0.7425158, 0.07585584, 0.73985124, 0.983166, -0.03811462, 1.6538934, 1.3359506, 0.18610828, -0.49668136, -0.22693712, 1.0042397, 0.9787744, 0.41471878, -1.3619895, -1.103025, 0.5675154, 0.7127128, 1.1013063, 1.2811933, 1.8645884, 2.1610606, 1.1951807, 1.1497988, 0.03141603, 0.07989121, 0.38823766, 0.9269356, 0.25930837, 0.36381438, -0.46152815, 1.2276242, 1.7229774, -0.5924924, 0.25996462, -0.10886038, -0.20624678, 0.1272708, -0.14556275, -0.6358114, -0.13570231, 0.07018442, 0.08926882, -2.7481136, -3.1529224, -5.437562, -5.2004743, -5.034804, -3.0316644, -1.0556505, 0.48183796, -0.18200733, 0.17010732, 1.0901203, -0.55610025, 0.091483265, -2.3233907, -3.9004807, -2.9549768, -0.07165044, 1.0158211, 0.39682642, 0.3679914, 0.55526805, -0.21597843, -0.24293734, -1.4316751, 1.0489165, 0.050786294, 0.731684, 2.2434566, 2.448481, 2.2427385, 0.9861564, 0.5493548, 0.4393482, -0.59006035, -0.52046806, -0.44707623, 0.83794796, 0.7716049, 0.07942672, 0.4356551, 1.0959741, -0.3520383, -0.31163147, -1.9185966, -0.73555416, -0.024823003, -0.40923283, -0.87069434, -0.5389438, -0.1289893, 0.029934222, 0.19098994, -1.2674332, 0.54128176, -0.39751548, -0.4426212, -0.21478325, -0.20988952, 0.13661438, 0.4725049, 0.20999905, -0.53712577, 0.12586156, 0.8788571, 0.31501627, -0.7474825, 0.6793499, -0.24296637, -0.16612236, 0.07665681, 0.17465472, -0.10195448, -0.0038723974, -0.8875838, 0.6121388, -0.7858078, -0.05382971, 0.61405015, 0.6712076, -0.45152217, -0.45165232, -0.62299037, -0.57551825, -0.23572844, -0.10603906, 0.06002445, 0.88868946, -0.98564684, -0.97602725, 0.045283157, 0.6004764, 0.85001254, 1.0287447, 0.6037204, 0.92712927, -0.5439687, -0.06479389, 0.47969243, -1.1692723, -0.54103094, -0.27512413, 0.3152314, 0.22889124, 0.3566208, 0.48312357, 1.1121358, 1.5663512, 2.2233028, 1.339399, 0.78716695, -0.35717574, -0.49625814, -0.11384336, -1.143541, -0.097096354, 0.35246184], [-0.8558853, -1.0328916, -0.8759762, -0.6255652, 0.5780869, 2.2924666, 1.4960345, 0.1574156, -0.040678706, -1.2096888, -1.1466855, -0.8725264, -0.6634331, -0.9522072, -0.7728933, 0.16887064, 3.4429991, 1.2856923, -0.7483954, -0.5537408, 0.1566263, 0.6176267, -0.52314883, -0.81084305, -0.999818, -1.0580243, -0.77101153, -0.1024715, 1.5968856, 3.3568425, -0.38849205, -0.9466669, -0.55996615, 0.1907331, 0.22237636, -0.2919529, -0.07420049, 0.073580295, -2.392761, -0.89384747, -0.056412283, 0.47527197, 3.138715, 0.7626668, 0.7342723, 0.9039418, -0.47128817, 0.11086507, 0.16047572, -0.11201986, 0.071718805, -2.487246, -0.38750654, 0.9371389, 2.739535, 1.7284411, -0.5132134, 0.7327059, 0.06291679, -1.2464242, 0.56496567, 0.24602866, 0.34545672, -0.53691965, -0.29610568, -0.52015215, 2.0723543, 5.324063, 0.26742887, -2.9622846, -2.6194842, -1.4575937, 0.02413695, -0.53975403, -0.12898567, -0.09854916, -1.3417565, 0.0027218144, -0.7927824, 0.981406, 4.658612, 0.34955025, -1.134404, -0.44916037, 1.1347023, -0.016512578, -0.1772192, 0.0099790245, -0.4176826, 1.38067, 1.0753609, -0.8588841, -0.028511675, 1.0029126, -0.20904809, 2.1343813, 2.0758903, 0.9426699, -0.08053996, -0.36027974, 1.475571, 1.015929, 0.31128567, 0.964679, -0.6678601, 0.507537, -0.28748274, 0.5356418, 1.6225429, -0.3316558, -1.605508, -1.1160368, 0.030296763, 0.68116266, 1.9400908, 1.3517443, 1.4158925, -1.3252579, 0.50873476, -0.3861147, 0.09022476, 0.5628505, -1.2139624, -1.7826744, -0.12306841, -0.5862761, 0.09272774, 2.619114, 1.4476877, 0.2727821, -0.74367714, -0.66759837, -0.4004818, -0.042406667, 0.04521161, -0.02425557, -0.040355213, -0.49090555, -1.4234191, 0.010284444, 0.8882394, 1.6291288, -0.21444069, -0.751829, -0.71569496, 1.1431565, 2.1885326, 0.45374164, 0.69577175, 0.032071874, 0.78842515, 0.6908656, 0.92319316, 0.66115975, 0.45079085, -0.70264477, -1.0068467, -0.83360124, -0.7421897, 1.3327671, 0.47029623, -0.18880695, 0.116686486, 1.1806408, 0.36126927, -0.2482606, -0.48808712, -0.62539184, -0.8362661], [0.37625024, 0.4572143, 0.43257627, 0.2915907, -0.1529742, 0.43684867, 0.8028565, -1.5106512, -1.506431, -0.66494656, 0.6584793, 1.1550322, 0.85925287, 0.24896301, 0.25497776, -0.591237, -1.6096587, -2.1523554, -0.44467872, 0.25172713, 0.06537475, 0.9447704, -0.7193863, 0.3310951, -1.1952775, -1.4025717, 0.52684814, 0.29329774, -1.2974508, -1.8070598, -0.55307704, -0.43570605, -0.89712745, -0.46336186, 1.7941916, 1.4665772, 0.409544, -0.03883501, -2.9446533, 0.85638666, 0.63773894, -0.21296535, -0.66450924, -0.4177383, -0.41236675, -1.5155715, -0.13792588, 1.3451902, 1.6553655, -0.54225177, -0.6533993, -1.2492464, 0.46672148, 0.8224688, 0.04128902, -0.70466816, -0.13815904, -0.72352165, -0.19632328, 0.05135511, -1.0967655, -0.14945611, 0.4813403, -0.87359565, -0.88035643, 0.5319959, 0.66826, 0.868834, -0.09549575, 0.22983962, -0.5939297, -0.67555785, -1.2884219, -2.5366364, -0.49123058, 1.1585866, 1.3014808, 0.24447963, 0.05434182, 1.2748398, 1.4914984, 0.87569386, 0.62996984, 0.98182136, 0.20704637, -0.6817491, 0.17386164, 1.4571393, 1.1262046, 0.7001211, 1.2394865, 0.17413849, 0.20143199, -0.35593745, 0.6192529, 1.2744783, 0.6464718, -0.55892724, -0.49559936, 0.12463935, 0.2349882, 0.17475134, 0.4189425, 1.0465676, 0.13843001, -0.9803688, -1.360265, 1.1660511, 1.690419, -0.267069, -1.3889377, -0.21767487, -0.25252193, -1.1470585, 0.61701804, 2.4171169, 1.9809059, 1.1593566, -0.8180422, -0.065983914, 0.92363536, 1.6725632, -1.0844209, -1.4234813, -0.76494014, -1.0868213, -0.0989564, 2.041978, 2.6515393, 0.3684478, 1.2128224, 2.4303546, 1.5936779, 1.2121075, 0.85392463, -0.8966583, -1.5671333, -1.4044877, -1.2676805, -1.1520573, -1.2558736, 0.34137675, 1.378463, 0.16869028, 0.40640053, 0.091021486, 0.6601437, 0.48471975, 0.31548128, 0.6087392, -0.100511335, -1.3657285, -4.0422864, -2.7735972, 0.21249874, 0.94983137, 0.26177168, 0.051600553, -1.2729926, 1.0992137, 0.51038307, 0.4051685, -1.0617368, -2.369037, -2.061539, -1.4722435, -2.0993667, -0.309117, 0.46741277], [-0.005778009, -0.2540215, -0.26628444, -1.3506283, -1.2860205, -1.042224, 0.17243622, 0.27218086, -0.45574516, -0.109592564, 0.35275972, -0.023956709, 0.3133553, 0.0017425739, 0.09751783, 1.4537672, 1.3074491, -0.15048988, -0.9030466, -0.36224648, -0.26871744, -0.6142827, 1.0236883, 0.15327257, 1.0797021, 1.6461655, -0.048794195, -0.25214735, 1.7163458, -0.2746676, -0.5813978, 0.616012, 0.12901649, -2.2411296, -1.2293109, 1.6217788, 0.15339158, 1.0991967, 0.0788893, 0.82521063, 1.9724458, 0.8952033, -0.38000798, 0.046520703, -0.076244615, -0.26378766, -3.3005226, -0.27973476, 2.1550167, 0.89024043, 0.09670636, -0.92266977, 0.7744345, 0.5598737, -1.0350718, 0.09058894, -0.64998156, 0.6056652, -0.51300234, -3.636561, 1.1304944, 2.2303157, 1.17587, 0.17750406, -1.4002659, 0.24599977, 0.5465056, -0.68637013, -0.49900103, -0.29404634, 1.204009, 0.1694185, -3.167453, 0.31832397, 0.67104155, 0.6214103, -0.022738764, -0.47205314, 0.5615527, 2.5202055, 0.12756446, 0.20227489, 0.13134454, 0.56125337, -1.8244791, -1.8263526, 0.95384264, 0.026280578, -0.8481485, -1.5192709, -0.7880553, 0.16312672, 1.155305, -1.0046598, 0.33839715, -0.1358538, -2.011251, -1.9870577, -0.15909638, 0.7789079, 1.2831995, -0.17794088, -0.093853, -0.40267462, -0.0111237485, 1.4055107, -0.23634326, 0.9779406, -0.57140726, -2.3075435, -0.16772081, 0.6787761, 0.35766146, 0.5056291, 0.90074784, -0.13762091, -0.3103981, 0.14214295, 1.0439049, -0.3038876, 0.79843247, -0.29078788, -0.4665894, 0.10577325, 0.512159, 0.55696356, 0.3700793, 0.8471954, -0.47783405, 0.45650536, 0.19283862, 1.476759, -1.2448881, -0.9184327, -1.046788, -0.19604813, 0.833855, -1.3541511, 0.1976323, 0.6791878, 1.7757173, 1.3174658, 0.8835794, 0.16430615, 0.36561775, -0.86876184, -0.2603553, 0.04002978, 0.5607988, -0.23624575, -0.41995153, -1.3898102, 0.013157721, 0.6050832, 0.8916693, -0.21079132, -0.094702974, 0.11723739, -0.73733175, -1.0625684, 1.8353305, 0.6751513, 1.6491755, 1.2861855, 0.6211502, -1.0487683, -1.2601687, -0.447462, -0.22296892], [0.101890534, -0.07735836, 0.49191797, 1.0541928, 1.2084951, 0.9780034, 1.7807862, 1.1047595, -1.0704272, -1.3273693, -0.4224641, 0.50414634, 0.049802274, -0.28995594, -0.8500294, -0.31788304, -0.26859123, 2.0747473, 1.6502565, 1.45628, 1.2096376, -0.40426615, 0.29453257, 0.82136554, -0.7152776, -0.35474908, 0.07834155, 0.01770775, 0.23909992, 0.6726376, 0.15852104, 0.056479517, -0.22994514, 0.31509662, 0.09721496, -0.21502618, 0.84203887, 1.2637267, 0.06908546, 0.1297878, 0.43317255, 0.70107853, -1.274459, -0.4442605, -0.46329114, -0.5649263, -0.38333654, -1.1760328, -0.20066676, -0.16316858, 0.4396424, -0.86362374, 0.49954802, -0.37982714, -1.0249481, -1.5258467, -0.06614923, -0.50905555, 1.0456659, -0.39661035, -1.3646346, 0.28610876, -0.10407041, -0.8932508, -1.3278034, 0.19682044, -1.2023569, -2.4049287, -1.9944872, -1.0433196, -0.44219363, 0.8140164, -0.09714296, 0.052459173, -0.35298437, -1.2572871, -0.50612515, 0.37127832, 0.0078751305, 1.045993, -0.5883976, -2.0781012, -2.067837, -1.5043124, -1.6009827, -1.4978606, -1.0878829, 0.12711348, -0.48774832, -0.21323249, 1.4213403, -0.13042332, 0.85410863, 2.054185, 1.3056298, -0.19652604, -1.2863327, -2.300139, -2.0998678, -0.3697209, 1.3028213, 0.8179838, -1.0450724, 1.2218528, -0.38230017, 1.2221481, 2.2575903, 2.6718557, 3.5555446, 2.806462, 0.7577388, 1.1005815, 2.2438035, 1.558175, 0.4442563, -0.13789526, 1.1859398, -0.45435357, -0.2960342, 0.6662124, 0.44306776, 0.4340756, 2.1756694, 1.1520686, 0.42388353, -0.7923644, 0.97312313, -0.06313091, -0.22431839, 0.43821436, -0.19419417, -0.88804233, 0.34564757, 0.3331334, -0.25123113, -0.34132883, 0.77196145, -0.36917654, -0.19614035, 1.5389097, -0.5344071, 0.83331853, 0.84477437, -0.093440674, -0.7366354, -2.0003262, -0.24601375, 0.028375925, 0.5277467, 0.5135719, 1.6546482, 1.7511511, -0.78025997, -0.9565698, -0.23078573, 0.0870272, -0.13303015, 0.06022258, -0.92301434, -1.5482126, -1.1849145, 0.43441013, -0.6893897, 0.6102758, -2.422392, -2.599591, -0.8498761, -0.50028056, 0.050580323], [0.0991016, 0.28950492, 0.28042865, 0.676499, 1.0218809, 1.2530754, 0.7000077, 0.33919162, 0.6466319, -0.2584831, -1.071525, 0.122998446, 0.17387943, 0.10971626, 0.4174945, 1.0098829, 2.1374323, -0.08280255, -1.7811651, -1.1934298, -1.1586419, 0.22617184, 0.34789142, -0.2760713, -2.091268, 0.115638256, 0.0728599, 0.71626425, 0.60669154, 0.55663615, -1.1029567, -1.057125, 0.07036402, -1.3539205, -0.994726, -0.39892206, 1.1576836, -0.6418321, -0.27156737, 0.30501476, 2.4349005, 0.77668935, -0.5361609, 1.1223264, 1.7883564, 0.06062281, -1.0336246, -0.31669134, 0.13367328, 2.076787, 0.6355042, -0.7744118, 0.42858985, 3.4934728, 0.60603327, 1.8079455, 0.7291783, 0.63745457, -1.3997798, -1.4189926, 0.17990063, -0.31949046, 1.5087273, 0.5526568, -0.9000725, -0.033967637, 1.54967, 0.26264912, 0.79103255, -0.9841096, -1.8933465, -0.12682725, 0.90079004, 0.8757668, 1.1310747, 0.61031026, -0.16914538, 1.0575223, 0.4942097, 0.6138053, -2.9519234, -3.2971592, -3.8703504, -1.1251361, 1.4420816, 0.5359713, 0.2131656, 1.0370816, -1.6655589, 0.6595001, 1.3613162, 0.5077589, 1.4738407, -0.5037501, -2.4166582, -0.96362054, 1.6807847, 2.5298994, 0.10965336, -0.036947984, 0.28970817, 0.013537366, -0.44587144, -0.5243396, 0.67066765, 2.096587, -0.28688067, 0.21781594, 0.65492517, 3.075467, -0.08591704, -0.028014818, -0.2794906, -1.2544885, -0.91593736, -1.0799882, -0.9413966, 0.11885389, 1.9518893, 0.71768045, -0.33093438, 0.92720103, 1.4344305, -0.8767352, -0.7550551, -0.5632638, -0.41207528, -2.196593, -0.43393886, -1.004526, 0.5290115, 0.30169797, -1.3300146, 0.40475842, 0.3200305, 0.46440583, 0.05183604, -0.026492432, -0.3480045, 0.57037044, -0.35436606, -0.93016016, -0.794375, 0.4915023, -0.68278044, -1.114455, -0.109023936, -0.8483606, 0.018174417, 0.45793402, 0.43726775, 0.9498269, 1.2448695, -0.21367824, -1.2691742, -0.02337844, 0.29342937, 0.29739735, -0.77773815, 0.79610634, 0.7473581, -0.45897684, -0.8606113, 0.14454462, 0.4762739, -0.19300474, -1.4292251, -0.93106616, 0.17165127], [0.50963944, 0.5009899, 0.16178541, 0.017470201, -0.19712168, -0.88588065, -1.417647, -0.7305418, -0.01346855, 0.975407, -0.09492527, -0.37749156, -0.0009133769, 1.6698515, 1.9124472, 0.2085594, 1.2943549, 2.6761177, 1.6815053, 0.9314459, 0.82382315, 1.4074874, 0.6967647, 1.5819292, 0.15486424, 0.75035256, 0.79434, 0.56298697, 0.04419078, 0.056414265, 0.7981381, 1.484778, 0.9932453, 1.5284383, 1.2989476, 0.47462532, 0.36730856, 0.6415216, 0.5825943, 0.09233742, 1.2476505, 1.2569441, 0.5601178, 0.36621356, 0.72968304, -0.6540933, -0.959376, -0.42719293, -0.41886148, -0.23002304, 1.1705253, 0.6743436, 0.06365036, 1.3598847, -0.16253203, 0.063264236, -0.29787144, 1.0776775, 0.51323164, 0.79935914, 0.41836584, 0.14675708, -0.7701832, 1.0126984, 0.99097776, 0.2081221, 0.351218, -2.6227703, -2.9897718, -1.4625856, 0.95185417, 2.1494558, 1.9216257, 1.0454804, 0.04636168, 0.2613962, -0.0036966996, -0.47429326, 0.2383023, -1.0383545, -5.732073, -4.1348133, -4.558955, -2.1930208, -0.41344488, 1.7109379, -0.6947506, -0.5104507, -0.093932085, -1.024541, -0.4101369, 0.29060262, -0.075878315, -0.7897713, -0.36056232, -1.5148141, -2.1987977, -1.3711638, 0.10971586, -1.8161058, -0.9754294, 0.25035504, -0.7957825, 0.15797302, 0.27143216, 0.5387569, 2.400367, 0.701839, 0.8125096, -0.5488978, -0.64290905, -0.32978168, -0.289368, -0.7843178, -0.77678275, -0.22874682, 1.3390597, 0.36012885, 0.4791545, 1.6259239, 1.456535, 1.1817449, -0.52668214, -0.72738355, -1.0608863, 0.6445371, -0.30162612, -1.2310172, 0.06436987, 1.4068437, 0.21330765, 1.0783869, 0.6935437, -0.062811226, 0.36717558, -0.12859656, -0.8499063, -0.1501196, 0.10529946, 0.97318745, -0.044604212, 0.71932757, 0.68777925, 0.37091348, 0.4722633, -1.1913706, -1.9218532, -0.04720546, 0.895344, 0.1805092, -1.3869637, 0.2605537, 0.14569649, -1.3778142, 1.3820022, 0.7455316, 0.3387448, 0.29055166, -0.7681503, -0.9987587, 0.13965707, 0.07440147, 0.44971076, -0.73340905, -0.75601834, -1.6883289, -1.1128361, 0.34487292, 0.23261346], [-0.98707837, -1.1809214, -0.9242354, -1.0367669, 0.2196458, 1.8904461, 0.5177788, -0.20910545, -0.4503766, -1.5435781, -1.0973958, -0.285046, -1.1482518, -1.1673348, -0.9806249, -0.26625437, 2.1138961, 2.3812714, 0.37307233, -0.7644706, 0.41876087, 2.1821916, 1.8161547, -0.044426903, -1.6975186, -1.7472379, -1.1513231, -0.7622278, 1.118185, 2.205246, -0.6625997, -0.6218123, -0.8056937, 0.46440265, 1.454097, 1.0998316, 0.13555175, -1.0378466, -1.555524, -1.060417, -0.79496336, 1.4278604, 1.8317755, -1.6415999, 0.39939144, -0.34597808, -1.0802763, -0.23753388, -0.34968597, -0.88735217, -1.3272309, -2.2667856, -0.97400457, -0.81279486, 0.92653203, 1.1471839, 1.4474221, 1.0700017, -1.2299025, -2.2636456, -1.2527235, -1.2271963, -0.5855195, -0.1435717, -3.2429147, -1.0040594, -2.2911606, 0.50349784, 2.4888093, 1.2513261, 0.2196411, -2.7342992, -1.6039376, -0.57901514, -0.5083015, 0.35133466, 2.8317294, 1.420008, -1.2008383, -2.2948406, -0.7398283, 0.66313654, 1.2556952, -0.83002436, -2.6284122, -0.1553028, 0.23783499, 0.8800475, -0.28131795, 5.2823954, 1.8627971, -1.2950673, -1.7691479, 0.27393973, 1.9503868, 1.7653296, 1.7609204, 0.64024377, 0.6107556, -0.97351104, -0.060253527, 0.26556718, 2.105589, -0.45927525, -0.9776963, -0.2610548, 0.0136433495, 1.0885631, 0.383496, 1.7960905, 0.33832756, -0.20901558, -0.74678034, -0.5791605, 2.287279, 2.054177, -1.5472839, -0.70145863, 0.64024866, -0.478126, -0.7582179, -0.6753841, 0.30487457, -0.5749805, 0.52734244, -0.24735534, 1.1489338, 4.7822843, 2.6265874, -1.5298699, -0.09799876, 0.87486124, -0.55729795, 0.31842038, 0.069506794, 0.25927824, -0.11211648, -0.22722168, 0.70497084, 1.679528, 3.5118318, 0.52968717, -0.40622425, -1.2984859, -0.9599417, -1.499172, 1.039023, 1.6076385, 1.0858388, -0.151507, 1.1271038, 1.4991527, 1.560494, 1.3908254, -0.023646114, -0.83455044, -1.1467026, -1.0760144, -1.6346755, -1.0629519, -0.56836, 2.5863087, 1.1011618, -0.5092083, -0.602522, -0.17690377, -0.7436481, -0.87819993, -0.9096536], [-1.1693338, -1.220178, -1.0109143, -0.8470492, -0.82624084, -1.679689, -2.8670378, -1.0796862, -2.543165, -1.9058479, -0.69251776, -0.9212599, -1.2325039, -1.0509192, -1.0208523, 0.010887786, 0.61842215, 1.7100179, 0.52986324, -0.76607, 0.25471312, 0.39892477, -1.9903936, -1.2300318, 2.5069013, 1.5460227, -1.1386412, -0.4746362, 2.503343, 3.763891, 1.0820769, 0.012851023, -1.1539707, -0.21503481, 0.45469216, 0.6457642, 0.9839537, 1.9461981, 1.5303706, -1.1220676, -0.032725632, 2.358448, 1.416064, -0.50572, -0.22398573, -0.41366845, -0.75922334, 0.93802315, 0.7460053, 1.0431428, 2.2990246, 1.5537287, -0.8856192, 1.1490061, 1.3742108, 0.9666271, 0.016009457, 0.6506431, -0.47050005, -0.8375505, -0.95489764, 0.16464569, 2.9381943, 2.5614, 0.3252205, -1.0010192, 0.95573306, 1.6619039, -0.4191372, -0.67275757, 0.3074633, -0.3581244, -2.029424, -2.3457305, -0.6880761, 5.449591, 2.0656962, -0.07205852, -0.98305994, -0.3104927, 2.155103, 0.2017755, -1.1434525, 0.19025569, 0.5259861, -0.24137326, -1.0979707, 3.198978, 4.4909244, -0.025226843, -0.5071589, -0.9520999, -0.60226977, 0.93328553, 0.19738206, -0.034213502, -0.60528594, -0.10323569, 0.10856207, 0.5524432, 4.198111, -0.9796943, -2.1709657, -1.8322814, -0.9945767, 0.44467202, 0.5525188, 1.4259874, 0.7867245, -0.24108487, -0.23279464, -0.38884816, 2.172073, 1.0577289, -0.84564406, -2.1466117, -1.790766, -0.79943824, 0.20296147, 0.23641701, 0.2703965, -0.8500218, -1.4430598, -0.105861895, 0.06278522, 1.3794914, -0.2808494, -0.85396653, -0.6856366, -1.3183883, -1.0110403, -1.3507268, 0.4645551, -0.608676, -0.8983644, 0.71767646, 0.62642545, 0.8039715, -0.21612182, -1.3329108, -0.07144441, 0.76443434, -0.1486214, -1.075297, -1.0360523, 1.7443062, 2.0571616, 0.5379077, 1.179945, 0.17376254, 0.6967719, -1.1346536, -1.0024686, -0.23079078, 0.8202987, -0.19304118, -1.0541234, -1.1090857, -0.6234477, -1.5100123, -0.64758253, 1.1129344, -1.5695136, -0.88437235, -2.2251735, 0.7569542, 0.2601308, -0.8523852, -1.2363776], [0.7202852, 0.678143, 0.7874843, 0.6327509, 0.8677036, 1.2148818, 0.061605874, -0.43411762, 0.6098728, 0.22815873, 0.06150244, 0.6738312, 0.6108239, 1.2800199, 0.98801345, 0.21252702, 0.07918285, -0.41892356, 0.48952505, 1.1219468, 0.20974384, -0.77427727, -0.9906301, -0.7694502, -0.11022334, 0.71045935, 1.0274531, 0.9273481, -0.75601995, -1.7028359, -3.6175153, -2.8432, -2.132297, -0.9716198, 0.40106684, -0.055454545, 0.59630644, -1.5817062, -1.7903636, 0.7068959, -0.33367962, -2.1204154, -1.170351, -2.03952, -1.4200115, 1.2397062, 0.927227, 2.0448449, 0.15950954, 0.7528985, -0.41759562, -1.5089642, 0.45577207, -0.15130717, -0.12006369, -0.03830684, 0.29660362, -0.1510757, 1.3668536, 1.3119024, -0.06540419, 0.96974856, 0.8773737, 0.75570077, 1.0469341, 0.8420753, 0.6972693, 0.18466409, 0.71576864, -0.030397095, -0.6178126, -0.34017766, 1.3333943, -0.101074025, 1.0759609, 1.8988458, 2.256516, 1.1718761, 0.25376582, -0.14705652, -1.0564568, -0.048193045, -0.13861685, -1.7178184, 0.2285192, 0.38432178, -0.5936416, -0.7752388, 0.40422583, -0.16465059, 0.67339146, 0.4613997, -0.35157284, 0.4604046, 0.535166, 0.4001916, -0.031390227, -0.5150246, -1.6356322, -1.0984211, -0.0111107305, -0.80893475, -2.2288275, -1.1971608, 0.86992437, -1.2454323, 1.1206484, 1.3310789, -0.18452238, -0.089661606, -0.23049095, -1.0094199, -0.89005125, 0.85259604, -1.2798592, -2.073939, -0.24336165, 0.2002298, -1.681397, -4.0857573, -2.98678, -2.3638117, -0.56353736, 1.0541748, -1.736658, -0.71570474, -1.7620003, -1.2932137, 1.0322179, 1.7121328, 0.5873854, -1.06379, -2.3695035, -2.4300191, -2.1077938, -0.080637366, 0.8122521, 0.14397667, -1.2736903, 0.078654245, -0.8494326, 0.8143913, 1.4817746, 0.7298631, 0.2995293, -0.36695215, -0.53898454, -1.1112504, -1.2314881, -0.1203283, 0.033758108, 0.60834086, 0.7304169, 0.760139, 0.9142308, 0.91537416, 0.8652658, 0.92029583, 1.715763, 1.3257676, 1.7444669, 1.3241999, 1.802672, 2.2143624, 1.8290733, 1.6710285, 2.652398, 1.0733678, 0.57698137], [0.41567978, 0.31649724, 0.38006908, -0.80672234, -1.2787431, -0.9007958, -0.12676865, -1.3059992, -0.524046, -0.6777803, -1.0795975, -1.3889557, -0.24205272, 0.49839777, 0.19728741, -0.60602546, -1.2270864, -1.9842789, -1.0326627, -1.3572457, -1.9027311, -2.114601, -1.7516395, -1.1194857, 0.8001663, 0.261297, 0.35751462, -0.26380423, -0.34835052, -1.3161497, -1.1031288, -1.4511071, -1.4246818, -1.7937533, -1.2573998, -0.6272433, 0.4352655, 0.79427797, 0.60032, 0.83382964, -0.48352733, -0.30472687, -0.43858227, 0.57082886, -0.38591057, 0.22331233, 1.1528944, 1.771746, -0.33312267, -0.32718414, 1.4850556, 2.6693335, 0.60302097, 0.22016706, -0.48836675, 0.86044925, 1.7845615, 2.1147106, 0.870659, 0.5733042, 1.7593869, 0.11653214, -0.237174, 1.233803, 3.260088, 0.5043225, 0.8841547, 0.4420264, 0.23082314, 1.5167596, 1.5245781, -0.5444579, -1.5823181, -0.9418521, -0.2114015, -2.0947425, -1.1833792, -0.055286612, 0.5558673, 0.25871816, 0.30820674, -0.20612514, 0.19787095, 0.9561319, 1.009478, -0.5242784, 0.30023038, -0.29973182, -0.47610092, -0.9585357, -0.23534468, 0.24090938, 0.825191, 0.54858774, 0.75005865, 0.45439482, 1.0074211, 0.16208854, 1.4606116, 2.1998801, -0.12175417, -0.49674368, 0.012651157, -0.61660594, 0.41999674, 1.1375622, 0.6039595, 0.34713906, 0.24985087, -0.073905595, 0.55442035, -0.07880158, 0.9818243, 0.72944427, 0.3341947, -1.3990124, -0.25853178, 0.004480263, -0.879929, -0.836253, 0.0343973, -1.3982898, -2.0917997, -0.82363653, -1.0711837, -0.097422786, -0.040767286, 0.90021676, 1.9811876, 1.4211287, 0.5962971, -1.0765039, -2.5011563, -2.8549964, -1.3101764, -0.078214854, -0.6918074, -1.5587703, -0.18562908, -0.6471148, 1.2036881, 4.2764635, 1.1936245, 0.6181852, -0.029702773, -1.021276, 0.36416546, -0.5412171, 0.9946947, -0.9853996, -1.2596644, -1.421622, -0.059127938, 1.5121802, 2.5018408, 0.81832147, 0.4446189, 0.34604743, -0.60868716, 0.7573074, 1.9956565, 1.4810091, 1.2801455, 1.618637, 0.85792094, 0.07670307, 1.2127788, 0.89171314, 0.44757164], [-0.83408874, -0.6637105, -0.724123, -0.4899423, 0.67614627, 1.1922134, 0.6353708, -0.5803873, -0.7911467, -0.00010477938, -0.01401609, -0.12518144, -0.5485269, -0.7651425, -0.64856386, -0.42117897, 0.7272006, 2.4219253, 1.854676, 0.7104556, -0.42860815, 0.23641948, 3.9979773, 2.5798566, 0.53202575, 0.2567025, -1.3166062, -1.3552136, -1.8953025, 0.9534961, 2.6140976, 0.7193724, 0.41171268, 1.2349879, 1.4502139, 2.051501, 0.6635266, 1.1731544, 1.4779282, -1.2918296, -0.8535834, -0.9515207, -1.0147314, 0.37943453, -0.7662835, 0.7160486, 1.0248682, -0.0620833, 0.16713132, -0.7363115, 0.8938661, 0.67482626, -1.3572993, -1.45832, 0.39196926, -0.68567497, -0.5048391, -1.87814, -1.5672975, -1.394044, -2.4392557, -2.8062856, -0.30319434, -0.93750316, -1.7953279, -1.555049, -0.15640377, 0.86930084, -0.9004787, -0.3324633, -1.952554, -0.6734358, 1.5817208, 0.599437, 0.6719966, 1.1232332, -0.39195094, -1.1950223, -1.3485653, 1.6562127, 0.17913541, -0.32261273, -1.6675463, -1.5788759, 2.3888335, 1.811959, 1.3132597, 1.8156277, 0.9680169, 0.33804476, -1.7314328, -0.6212333, 0.2769632, -2.029742, 0.8581384, 0.23241171, 0.56403416, 2.5784118, 0.54953843, 0.4206824, -0.17405221, 1.1403041, -0.02039857, -0.7019452, -0.7407726, -0.39725503, -2.0808282, 0.43279308, 1.0309383, 2.5630817, 0.16351062, 0.059368975, 0.14824022, 0.18805695, 1.1122801, 0.3487458, -0.6145567, -0.7693724, -0.20462574, -0.71843284, 0.438647, 1.1854274, -0.49007222, -0.14328246, 0.7158792, -0.06666479, 0.26222906, 0.684904, -0.90639085, -1.1783069, -0.70496535, 1.5835851, -0.82800204, 0.6042007, -0.54017764, -0.05674095, -0.089858145, 0.61246175, 0.031868607, -0.44328898, 0.23575965, -2.3135931, -1.2797009, -0.7840783, 0.3234891, -0.10598878, 0.40380403, -0.83314914, -0.505851, -0.06046629, -0.28740075, -0.47843853, 0.66153365, 0.45598343, -0.60250175, -1.0477583, -0.7978561, -0.43504947, 1.3451039, 0.1002612, 0.9806457, 0.41031334, 1.0241084, 0.9789674, -1.0595266, -0.77762467, -1.7617346, -1.1311307, -0.98709357], [0.26498103, 0.086181924, 0.119859055, 0.0415266, -0.068143494, -0.42981547, -1.3137424, -1.6247603, -2.0368745, 0.8035066, 2.0738192, 0.8155131, 0.14327495, 0.27778146, -0.7538556, -1.7322136, -0.47714075, -1.122801, 0.083717, -0.5195001, -0.46646988, -1.3502095, -1.0606724, 0.16356331, 0.43180987, 0.2886542, 0.22066483, -1.0938449, -3.1142755, -0.36172003, -0.61957383, -0.14063926, -1.2560797, -1.6866452, -0.5970011, 0.032234125, -1.4280933, -0.09901691, 1.4895883, 0.30302855, -1.240194, -0.29772282, 1.4465346, 0.953921, -0.44061628, -1.0185589, -0.22862162, -0.33793142, 0.2845442, -0.4677028, 0.8377088, 2.8081434, 0.2877284, 0.041363534, 1.9961685, 2.36047, 2.4057486, 1.0870695, -1.9544814, -0.14928667, -0.9975605, -0.8542138, -0.09316681, 0.73921615, 2.2630258, 0.8866089, 1.8625609, 2.2998054, 0.10344671, 2.7432804, 1.6705827, -2.059783, 0.35078853, 0.67908955, -0.3389757, 1.005738, 1.6187114, 1.200949, 0.53291357, 2.0424345, 1.587533, -1.4738692, 2.4767485, 2.6047704, -0.69537586, -0.3443384, -0.16172093, 0.7664761, 0.25488362, 1.0231673, 0.85383815, 0.24513069, 1.1926023, 0.27313924, 0.42256966, 0.649823, 1.8825371, -0.5560703, -1.279714, -0.18531173, 1.6863549, 0.86572963, 1.914655, 1.2275589, 0.07561781, -0.42326197, -1.2228682, -1.223408, -0.21742797, 0.83852094, -0.19366792, -1.4346513, -1.075771, 0.85776854, 1.0078613, 1.2475669, -1.0326629, 0.9197645, 0.27967298, -1.2445471, -2.0302215, -2.21981, 1.3599291, 0.4795472, -0.9445126, 