6.481861323118209839e-02
1.434451248496770859e-02
-6.651835888624191284e-02
-1.643071882426738739e-02
2.965052612125873566e-03
-5.925615504384040833e-02
3.537801653146743774e-02
-3.892770782113075256e-02
3.525110706686973572e-02
1.546516921371221542e-02
-4.053557058796286583e-04
-2.237260714173316956e-02
9.455632418394088745e-03
8.233208209276199341e-02
-1.179579198360443115e-01
3.342375159263610840e-02
5.154212191700935364e-02
8.286718279123306274e-02
-5.675451457500457764e-02
2.227696962654590607e-02
6.739165983162820339e-04
1.215730234980583191e-01
5.132960900664329529e-02
1.143301464617252350e-02
5.674971733242273331e-03
-1.623860187828540802e-02
-4.071898385882377625e-02
7.486215792596340179e-03
1.782440021634101868e-02
-1.053258497267961502e-02
-3.195783495903015137e-02
7.774858921766281128e-02
-8.450837805867195129e-03
5.724406987428665161e-02
-1.399072632193565369e-02
4.407233372330665588e-02
7.945850491523742676e-02
-6.553101353347301483e-03
6.824713200330734253e-02
-3.822621703147888184e-02
-6.416925042867660522e-02
4.603622108697891235e-02
1.221226248890161514e-02
-3.852140530943870544e-02
2.628687210381031036e-02
-1.074389368295669556e-01
-7.192533463239669800e-02
4.830745607614517212e-02
9.700993448495864868e-02
5.751070380210876465e-02
-3.254165872931480408e-02
1.143142506480216980e-01
6.072190403938293457e-02
-2.104428783059120178e-02
-4.361948464065790176e-03
-7.886265218257904053e-02
-3.583530336618423462e-02
8.722550235688686371e-03
-2.656127139925956726e-02
-1.467558555305004120e-02
-7.007694989442825317e-02
5.562499538064002991e-02
-1.602860167622566223e-02
-5.527079571038484573e-03
