-0.030406206846237183,0.020876258611679077,0.181840181350708,-0.1025257259607315,-0.08235713094472885,-0.08615925163030624,0.006261618807911873,0.1939702033996582,0.16147588193416595,-0.05542668700218201,-0.12837941944599152,0.10644710063934326,0.16877365112304688,-0.12034961581230164,0.20853620767593384,-0.14683225750923157,-0.19465157389640808,-0.18724896013736725,0.1433359831571579,-0.11345290392637253,-0.04538176953792572,0.08256644755601883,0.0647408589720726,-0.02100214920938015,-0.1348656415939331,-0.021828381344676018,0.07936987280845642,-0.03136298432946205,0.06638234853744507,-0.014432788826525211,0.13367590308189392,-0.0549900196492672,0.08519944548606873,0.02653972990810871,0.045240677893161774,0.0324653685092926,-0.11834895610809326,-0.015367947518825531,0.1602804958820343,0.00026784182409755886,0.11595619469881058,0.06412550061941147,0.024005139246582985,0.012356169521808624,0.0653594583272934,0.138564795255661,0.17440904676914215,0.021862640976905823,-0.024061232805252075,-0.1188371479511261,0.19702814519405365,0.14470474421977997,-0.09240099787712097,-0.12220633029937744,0.017579391598701477,-0.16639935970306396,0.11983361840248108,0.04017950966954231,-0.06953318417072296,-0.010669576935470104,-0.049567341804504395,-0.012040728703141212,0.22265863418579102,0.20703533291816711
-0.05640922486782074,0.0669785737991333,0.10445500910282135,0.007028549909591675,1.008593201637268,-0.009324148297309875,0.11182725429534912,0.2303471565246582,0.10364039987325668,0.013688698410987854,0.09538920223712921,-0.10282665491104126,0.06773111969232559,0.023603122681379318,-0.011672602035105228,0.11607739329338074,-0.09579342603683472,0.2890058159828186,-0.38694411516189575,0.7419895529747009,-0.08896729350090027,0.5670377612113953,0.05845543369650841,0.02216346561908722,-0.09654456377029419,0.03887343406677246,-0.6993744969367981,-0.18511314690113068,-0.0814414992928505,0.04769332706928253,0.03951434791088104,0.007694890722632408,-0.09197811037302017,-0.7095937728881836,-0.0006754251080565155,-0.6410667300224304,-0.17566917836666107,0.4286569356918335,0.0462004616856575,-0.6314538717269897,-0.09939832240343094,0.12519721686840057,0.012835054658353329,0.12848691642284393,-0.015807872638106346,-0.03867042809724808,0.16905902326107025,0.6923115849494934,0.04972964525222778,-0.1480552852153778,0.02471410296857357,0.12362827360630035,0.05128993093967438,0.05470483377575874,-0.31352829933166504,-0.17299722135066986,-0.03695162385702133,-0.0058313049376010895,-0.1705949455499649,-0.5653919577598572,0.05407886579632759,0.33719581365585327,0.1577717810869217,-0.062297068536281586
-0.1088356152176857,0.08225381374359131,0.07433914393186569,0.03023962676525116,0.9815412163734436,-0.14509883522987366,-0.07136016339063644,0.061352621763944626,0.12965771555900574,-0.1506507247686386,-0.5322924256324768,-0.18303760886192322,-0.092203289270401,-0.6065496206283569,0.09097428619861603,0.005082830786705017,-0.3669449985027313,-0.08475794643163681,0.18645186722278595,0.37264859676361084,0.05243973433971405,1.2766060829162598,0.2766745090484619,-0.09182220697402954,0.08778385072946548,-0.010827763006091118,-0.13995592296123505,-0.5892915725708008,-0.270692378282547,-0.5461421012878418,0.00443674623966217,-0.060900021344423294,-0.1756572127342224,-0.7761226296424866,0.14501450955867767,-1.2194383144378662,0.1474122405052185,-0.49933165311813354,0.14756612479686737,0.6134289503097534,-0.16384564340114594,0.005374462343752384,-0.1710975617170334,0.13002990186214447,0.6454136371612549,0.28799042105674744,-0.11727247387170792,1.0170965194702148,0.11900970339775085,-0.09187852591276169,-0.20533543825149536,-0.007331493776291609,-0.15178443491458893,0.08035781234502792,-0.7749112248420715,0.35798901319503784,0.02153829112648964,0.027744663879275322,0.08815544843673706,0.35940301418304443,-0.2913312613964081,-0.4278743863105774,0.16977202892303467,-0.03405315801501274
0.113980233669281,-0.06114715337753296,1.1060608625411987,-0.03888942301273346,-0.18890245258808136,0.09571394324302673,-0.3372657299041748,-0.14682258665561676,-1.9084004163742065,-0.06511468440294266,-0.8954450488090515,-0.11624006181955338,0.030863329768180847,-1.217813491821289,0.22826656699180603,-0.13031449913978577,0.5672813057899475,1.8100494146347046,0.15825633704662323,-0.09872494637966156,0.018110260367393494,1.932798981666565,0.42159542441368103,-0.19795405864715576,-0.14150360226631165,-0.4699070155620575,-0.04000947251915932,-0.21088345348834991,-0.1265152543783188,0.9646857976913452,-0.017315953969955444,-0.1423339992761612,-0.9808095097541809,-1.0496294498443604,0.015740199014544487,-0.58006751537323,-0.287013977766037,-1.6835747957229614,-0.3948473334312439,0.7459401488304138,0.08047793060541153,-0.1604926586151123,-0.15061382949352264,-0.31999391317367554,0.8727414608001709,-0.9756255745887756,-0.021468929946422577,-0.2569901943206787,0.04095979034900665,0.10032236576080322,1.8178784847259521,0.7120612263679504,-0.00015613436698913574,0.4676940441131592,-1.3024418354034424,1.8518786430358887,-1.1356749534606934,-1.8497191667556763,-0.2718137204647064,0.923812210559845,0.6767633557319641,1.0602445602416992,-0.1853180229663849,0.5375784039497375
-0.14436830580234528,0.10469576716423035,1.572174310684204,0.03259257972240448,-0.6124457716941833,0.08431002497673035,1.0316132307052612,-1.562544822692871,-2.1630287170410156,-0.09993350505828857,-1.6079453229904175,-0.9154890775680542,-1.5566462278366089,-2.2117624282836914,1.5894049406051636,0.05571000277996063,0.5627694725990295,1.8857455253601074,-1.1194612979888916,-0.26018908619880676,-0.004877075552940369,3.494953155517578,1.2018969058990479,-1.4945956468582153,-0.08197523653507233,1.8107829093933105,0.9904184937477112,-2.047121047973633,0.1488320231437683,0.5359541177749634,0.051604390144348145,-0.7045355439186096,-1.586582899093628,-2.2871625423431396,-0.12114900350570679,-0.94140625,2.2813847064971924,-2.2033438682556152,-0.305490642786026,1.3279645442962646,-0.07052119076251984,-1.1234097480773926,-0.9380323886871338,2.1849968433380127,0.3423851728439331,0.002690184861421585,1.088466763496399,0.4173502027988434,0.017920836806297302,0.1312558650970459,1.1895546913146973,-1.0681225061416626,0.1554815173149109,2.7752153873443604,-2.6403908729553223,1.3254101276397705,-1.2013686895370483,-1.9843721389770508,1.0692166090011597,1.813862919807434,-0.15682215988636017,0.8410184383392334,0.6097458600997925,0.7875012159347534
0.00982239842414856,0.09503358602523804,-0.9171764850616455,-0.014607921242713928,0.8145169615745544,0.07309041917324066,0.2684130370616913,-0.37247735261917114,-0.3300504982471466,0.015359684824943542,-2.7275612354278564,-1.8446033000946045,1.674295425415039,-1.738804578781128,0.4984019994735718,-0.11700145900249481,0.16361577808856964,1.7321817874908447,-1.4001270532608032,0.14440008997917175,0.06869781762361526,2.371150255203247,1.0094382762908936,-2.015072822570801,0.290635347366333,0.2881532311439514,0.08908407390117645,-0.144434854388237,0.9255942106246948,-0.8365944623947144,0.12474808096885681,-0.6958414912223816,1.378710150718689,-2.308295965194702,0.7658563852310181,-2.008624792098999,2.382666826248169,1.2692217826843262,0.7376344799995422,-1.0515350103378296,-0.2733459770679474,-1.1975781917572021,1.549310326576233,1.0807098150253296,-0.10326056182384491,-1.1009081602096558,-0.17234447598457336,0.3330989480018616,-0.15685494244098663,0.1187434196472168,-1.8441731929779053,-1.4551185369491577,-0.12561626732349396,2.8989694118499756,-2.3357114791870117,0.7610247731208801,-0.22787345945835114,0.06666688621044159,1.27605402469635,-1.2760766744613647,0.5186389088630676,2.164444923400879,-0.3148457705974579,-0.14176668226718903
0.11507490277290344,-0.048114560544490814,0.9057601094245911,0.13885849714279175,0.15951043367385864,0.123451828956604,-1.4647685289382935,0.009369702078402042,-0.948599100112915,0.12122371792793274,-1.8538998365402222,-2.629870891571045,0.6407468318939209,-2.436702251434326,0.7561891674995422,-0.03468139469623566,-0.6237902045249939,2.035701036453247,-2.104207992553711,-0.9315159320831299,0.1570042371749878,0.3630596101284027,2.2588951587677,-1.6173676252365112,-0.12051659822463989,-1.8770556449890137,0.96165531873703,-1.0937434434890747,-0.2800648510456085,-0.6494354009628296,-0.05586445331573486,0.8467218279838562,0.3175221383571625,-3.0808937549591064,0.09918928891420364,-1.067030906677246,1.450507640838623,0.3625657558441162,1.2865667343139648,0.4759882986545563,-0.1012326031923294,1.2532316446304321,1.370484709739685,-2.210310697555542,-0.0021174317225813866,-1.5443060398101807,-1.8934617042541504,-1.5537068843841553,-0.20750711858272552,-0.12681430578231812,-0.528762936592102,-2.770569086074829,-0.005049829836934805,1.674058437347412,-0.9001246094703674,1.318488597869873,-0.4825851023197174,1.6078071594238281,0.6963327527046204,-0.7955409288406372,-1.2366780042648315,2.390040636062622,-0.9684416055679321,0.4337221384048462
0.0027738064527511597,0.014897093176841736,1.5385057926177979,0.09126114845275879,-0.1796623319387436,-0.0012516820570454001,-1.3051854372024536,-1.5071617364883423,1.1315609216690063,0.022166207432746887,-1.3993875980377197,-2.248725414276123,0.3481104373931885,-1.1960973739624023,0.688991904258728,0.07418874651193619,-0.8321154117584229,1.5463979244232178,-2.4237852096557617,-1.4342888593673706,-0.09632039815187454,2.5566771030426025,1.022376298904419,-0.7360748648643494,-0.0468551404774189,-0.5600199699401855,-0.9623435139656067,-2.205584764480591,-3.9096224308013916,-1.2322028875350952,-0.15781617164611816,-0.5222755670547485,-0.6438111066818237,-2.8348917961120605,-0.18665684759616852,-2.3417482376098633,1.2107447385787964,0.34789690375328064,0.06460028141736984,1.0892540216445923,0.05033186450600624,2.247750997543335,1.1180070638656616,-2.914104461669922,1.2719740867614746,0.19773198664188385,-3.11676025390625,1.194769263267517,0.09665964543819427,-0.04026809707283974,-0.27815869450569153,-2.5527772903442383,-0.09456884115934372,-0.2747320532798767,1.6418378353118896,2.806222915649414,0.2991843819618225,0.9315202236175537,-0.7622784376144409,-1.3492107391357422,-2.865020275115967,1.2124015092849731,-0.17414821684360504,-0.3096145987510681
-0.07555195689201355,0.09873097389936447,-0.33206620812416077,0.10827386379241943,1.6116251945495605,0.13363128900527954,-0.5080459713935852,-1.392177939414978,1.1688491106033325,-0.09797075390815735,0.9958388209342957,0.5749055743217468,0.7048881649971008,0.13019905984401703,-0.601564884185791,0.04196187108755112,-0.06147146224975586,-0.16523714363574982,-2.0261688232421875,-0.956027090549469,0.07371069490909576,2.241018772125244,0.39582639932632446,1.0653831958770752,-0.26455554366111755,0.16326209902763367,-1.9451223611831665,-2.0278029441833496,-2.8991379737854004,-2.6953699588775635,-0.11034215241670609,1.0117416381835938,-1.6826260089874268,-0.7631627321243286,1.870383858680725,-2.278306722640991,0.7300982475280762,-0.06690382212400436,0.07812969386577606,0.7910325527191162,-0.07271476835012436,1.6160298585891724,0.2853895425796509,-2.1923253536224365,2.244513511657715,0.40505579113960266,-0.5046281218528748,2.0087015628814697,-0.10571743547916412,-0.11081033945083618,-1.534305453300476,1.4663527011871338,0.028615480288863182,-1.3235126733779907,2.4567363262176514,0.3196351230144501,1.8167988061904907,1.564573884010315,-0.6983892917633057,-1.6063886880874634,-3.578645944595337,1.87900972366333,-0.8330529928207397,-0.6821796298027039
0.01541060209274292,-0.04612382873892784,-0.5190695524215698,0.14059391617774963,5.050702095031738,0.10851427167654037,-0.2513139843940735,-1.6424891948699951,1.4547039270401,0.012139588594436646,-1.2347426414489746,0.7171569466590881,0.17191872000694275,2.013712167739868,0.3866610527038574,-0.20908239483833313,0.05970300734043121,-0.6117362380027771,-2.7888119220733643,0.0017980142729356885,-0.14134274423122406,1.2185004949569702,0.4341302216053009,2.3342604637145996,0.017757080495357513,0.45730826258659363,-0.39183831214904785,-0.38759538531303406,-0.7007236480712891,-1.5182771682739258,-0.07205379009246826,1.0869992971420288,-1.5025020837783813,0.08555382490158081,3.153911590576172,-0.16673173010349274,1.597163200378418,-1.0657463073730469,0.6232680678367615,-1.7047407627105713,-0.30476856231689453,-0.9140291213989258,-0.2657398581504822,-0.5542349815368652,1.0349667072296143,0.3405853807926178,1.2690081596374512,1.783799409866333,-0.005998083855956793,-0.17111432552337646,-0.37957391142845154,-0.43604519963264465,0.09269189834594727,-0.7306717038154602,-0.855334460735321,-2.6795740127563477,2.754171133041382,1.7649836540222168,-0.6157155632972717,-1.0123876333236694,-1.7763276100158691,0.6587351560592651,-0.6338855624198914,-0.02258630096912384
0.10428884625434875,-0.08623967319726944,-0.7094306945800781,-0.1353818029165268,3.5580668449401855,0.009328517131507397,-0.36242055892944336,-0.7422373294830322,-0.33879733085632324,0.07929866015911102,-1.3907586336135864,-0.4154111444950104,-1.5369457006454468,-0.6913422346115112,-1.4140677452087402,-0.0026225969195365906,0.05266794189810753,3.767220973968506,-1.1185846328735352,0.7410081028938293,0.14641126990318298,1.7259749174118042,-0.31112897396087646,0.6918754577636719,-0.18710988759994507,0.606695294380188,-1.01432466506958,1.6062442064285278,-0.16851796209812164,-0.5899102687835693,-0.002670466899871826,-2.0060439109802246,0.5078334212303162,-2.0394527912139893,0.31284621357917786,-0.44112393260002136,-0.07755095511674881,0.9393802881240845,-0.1007113829255104,0.22351735830307007,-0.42391929030418396,-0.6927310228347778,-1.7893446683883667,0.5715904831886292,0.8509061932563782,-0.5636992454528809,3.38120436668396,1.6328054666519165,-0.014213621616363525,-0.004548385739326477,-0.43091854453086853,-1.2883936166763306,0.04466693103313446,0.894784152507782,-1.8574026823043823,-2.012554407119751,0.7136874198913574,0.29452386498451233,-0.0824124738574028,0.41943517327308655,-0.6032183766365051,3.2903876304626465,-0.4081825911998749,-0.501801609992981
-0.020038068294525146,-0.020538389682769775,-0.1553899347782135,-0.024400100111961365,1.5572506189346313,0.0879451259970665,0.07579029351472855,-0.35132837295532227,0.03298725187778473,0.018299028277397156,-0.21864014863967896,-0.36415907740592957,-1.6154756546020508,-0.6071195006370544,-0.2519729435443878,0.03402554988861084,-0.24547560513019562,1.2741849422454834,0.0511055551469326,-1.299286127090454,0.09981060028076172,0.6207496523857117,0.06569850444793701,0.05281002074480057,0.04328283295035362,0.27037227153778076,0.26969844102859497,2.2623708248138428,0.06436022371053696,0.08961634337902069,-0.14556452631950378,-0.6013841032981873,-0.5383073687553406,0.0680970549583435,0.009595421142876148,-0.40553656220436096,0.507753849029541,0.00566944619640708,-0.1129465252161026,1.2865209579467773,0.15536047518253326,-0.6219955682754517,-0.4890047311782837,0.5224520564079285,1.051016092300415,0.17558808624744415,2.9232633113861084,0.20748209953308105,-0.12815816700458527,0.01254524290561676,0.7033022046089172,-0.6179696917533875,0.03636220097541809,0.4593718349933624,-0.9012890458106995,-1.076797366142273,1.1048887968063354,-0.3701989948749542,0.011937852948904037,0.727648913860321,-0.48789554834365845,1.403891921043396,0.14256882667541504,-0.05248038098216057
0.1262383759021759,-0.005402609705924988,-0.06512586772441864,0.13271886110305786,1.1488693952560425,0.09783035516738892,-0.15102805197238922,-0.3654665946960449,-0.4848352074623108,-0.10962635278701782,-0.04586265608668327,-0.04031139984726906,-0.4909614622592926,-0.2992122769355774,-0.040264979004859924,0.09728652238845825,-0.05685533955693245,0.3885846734046936,-0.4116172194480896,-0.2602523863315582,0.07654474675655365,0.12127117812633514,0.11451835930347443,-0.32092487812042236,0.03485589846968651,0.1320507675409317,0.3051566183567047,0.7409693598747253,0.04978327080607414,0.4277898073196411,-0.07407721132040024,0.3517763316631317,-0.16753818094730377,0.08193718641996384,-0.028513005003333092,0.19937407970428467,0.03334185108542442,-0.0337614007294178,0.0017878891667351127,0.6622545719146729,0.09337687492370605,0.3322799801826477,-0.26658084988594055,-0.47512727975845337,0.11007950454950333,0.1214739978313446,0.8899644017219543,0.23722797632217407,0.08752506971359253,0.14927029609680176,0.7655699849128723,-0.0871400311589241,0.07247820496559143,0.16758352518081665,-0.24952344596385956,-0.013967981562018394,0.2594030499458313,-0.418254554271698,0.10914333164691925,0.5738179683685303,0.06889164447784424,0.08300919830799103,0.12143620103597641,0.1136263981461525
0.14167091250419617,0.1358409821987152,0.030977653339505196,0.09634971618652344,-2.4055399894714355,-0.03677570819854736,0.08600487560033798,-0.06710518896579742,-0.5994351506233215,0.042107418179512024,-0.029872043058276176,-0.07686307281255722,-1.0494030714035034,-0.056629665195941925,0.6179537177085876,0.032275259494781494,0.054309580475091934,0.01672835275530815,1.7125822305679321,0.08711528033018112,-0.15090985596179962,-2.4488208293914795,0.11773214489221573,0.7649528384208679,-0.06368904560804367,0.42719143629074097,0.9305800199508667,-0.7689559459686279,0.8267136216163635,2.5425679683685303,0.12780636548995972,0.5097364187240601,-1.2110403776168823,0.2040543258190155,0.027956299483776093,0.03481593355536461,2.179927110671997,0.08365530520677567,0.4039832353591919,-1.0865834951400757,-0.147763192653656,-0.0013945947866886854,1.1970036029815674,-0.04927067831158638,0.4361717104911804,-0.23850591480731964,-1.2667326927185059,-2.3147997856140137,-0.14478281140327454,0.05816815793514252,-0.2277948260307312,1.131005048751831,-0.1545284241437912,0.9481247663497925,-0.07393267005681992,1.2002956867218018,-1.163918137550354,2.165254831314087,-0.010997732169926167,-2.3418502807617188,0.8954434394836426,-2.3267040252685547,2.4106898307800293,0.5112205743789673
0.0649869441986084,-0.036043308675289154,-0.13482211530208588,-0.05551835894584656,-2.1833035945892334,0.1579659879207611,-0.029462380334734917,-0.41178372502326965,-1.6750121116638184,0.11019784212112427,-0.6189446449279785,0.10839196294546127,-0.5662196278572083,1.599847674369812,1.3469487428665161,0.1501307189464569,1.3119946718215942,-0.6504873633384705,0.22455202043056488,-0.27075448632240295,0.08870923519134521,0.6987281441688538,-0.7640036344528198,0.34463149309158325,-0.0686691552400589,2.6529321670532227,-1.1426260471343994,-0.464316725730896,0.23475542664527893,-1.8440253734588623,0.08586093783378601,-1.3701661825180054,1.1919291019439697,0.28485506772994995,1.2441000938415527,-2.157353639602661,2.5964884757995605,-0.7542214393615723,-0.3433791697025299,1.1168781518936157,0.6946682333946228,-1.9797711372375488,0.49136441946029663,0.9932011365890503,-0.01866200938820839,-0.7103679180145264,-0.5666912794113159,-0.6545736789703369,-0.059131644666194916,0.030704215168952942,1.5042870044708252,-0.7929213643074036,0.12860044836997986,0.058804117143154144,0.9635800719261169,-0.5024729371070862,-0.394777774810791,0.8609070777893066,0.7982781529426575,-1.918756127357483,1.2406789064407349,0.39668041467666626,1.3147884607315063,-0.23465600609779358
-0.022017836570739746,0.003973960876464844,0.08255600184202194,0.06287471950054169,-0.38882872462272644,0.08182878792285919,-0.8702343106269836,-1.0714792013168335,-0.9749616980552673,0.0019037127494812012,-1.8168270587921143,-1.405255675315857,-0.28803470730781555,-0.6087101101875305,0.009058831259608269,-0.06427749246358871,1.088430404663086,-0.9179117679595947,-0.6479334235191345,-0.11818290501832962,-0.10630813241004944,1.742920994758606,0.7254182696342468,0.02161543257534504,-0.10141443461179733,1.2315369844436646,-0.7361369729042053,0.0862349420785904,-0.6735124588012695,1.1059973239898682,-0.11340966820716858,-0.4104183316230774,0.274362713098526,-0.1786673367023468,1.2367595434188843,-1.061830759048462,-0.48414427042007446,0.37946268916130066,-0.40089112520217896,2.6837847232818604,-0.4222448170185089,-1.3818864822387695,-0.9438460469245911,1.5236154794692993,0.6653620004653931,-0.2448553591966629,-0.3792315125465393,0.44773542881011963,-0.031685829162597656,0.051005467772483826,1.3087364435195923,0.6044989824295044,-0.15971609950065613,1.1628191471099854,-1.4245620965957642,0.9126869440078735,-0.12419700622558594,-0.24433884024620056,0.37511610984802246,1.034688949584961,0.5538616180419922,0.12324019521474838,-0.15780901908874512,-1.6697754859924316
0.11452442407608032,-0.08930034190416336,-0.02999812737107277,-0.06458360701799393,-0.7029901146888733,0.05051711946725845,-0.24640369415283203,-2.74471378326416,-2.254081964492798,-0.1577792912721634,-2.3050341606140137,-2.1277425289154053,-0.7025257349014282,-2.9828460216522217,0.14828957617282867,0.10754033178091049,0.029027314856648445,0.25274214148521423,-0.07284092158079147,-0.1115211620926857,-0.32058870792388916,3.3079710006713867,2.1863698959350586,-0.434308797121048,0.056757550686597824,0.14082957804203033,-0.2993414103984833,-1.6740154027938843,1.6828526258468628,-0.09108427911996841,0.12741389870643616,-0.6199957132339478,-1.1413919925689697,-2.0203261375427246,0.15647876262664795,-1.1286334991455078,-0.8179104328155518,0.9224282503128052,-2.3481736183166504,2.114802837371826,-0.4992223083972931,0.8346076011657715,0.09902020543813705,0.029979094862937927,2.0459697246551514,-1.2784408330917358,-0.23839405179023743,2.9836180210113525,-0.037357550114393234,0.1025262176990509,1.1510025262832642,-0.9597364664077759,-0.11585943400859833,0.9206029176712036,-1.6551793813705444,0.9194784760475159,-1.0245789289474487,1.883863091468811,0.1776677966117859,1.2990695238113403,1.287435531616211,-0.2518065273761749,-0.7744876146316528,-0.9495612382888794
-0.02852204442024231,-0.0912843570113182,-0.08640804141759872,0.09317082166671753,-0.7776357531547546,0.10688140988349915,-1.4526991844177246,-4.014896392822266,-1.7861716747283936,-0.057691603899002075,-1.1417347192764282,-3.3807754516601562,-2.870971202850342,-2.1849350929260254,-0.17566317319869995,-0.10199537873268127,0.13138170540332794,1.1485615968704224,-1.8008432388305664,-2.135380268096924,-0.10848800092935562,0.745184600353241,0.8225128054618835,0.3782694339752197,0.10638562589883804,1.9918278455734253,1.824265718460083,-0.7024605870246887,0.3884689211845398,0.1666930764913559,-0.14576637744903564,0.13894715905189514,-1.38106369972229,-1.4612231254577637,0.10470914840698242,-1.0009832382202148,0.4976043999195099,1.2184110879898071,-1.0076276063919067,2.63539719581604,-0.33384114503860474,-0.5169622898101807,0.9913097620010376,1.028488278388977,0.5255545973777771,-0.5947343111038208,-1.7765151262283325,1.3942205905914307,0.0230892151594162,-0.1646517515182495,1.6492289304733276,-1.6918578147888184,-0.04295292869210243,-0.5574594736099243,-0.2565053701400757,0.8037109375,-1.1127454042434692,0.10063270479440689,-4.148250579833984,1.7376340627670288,1.344277262687683,0.8966724872589111,-1.636365294456482,0.06935330480337143
-0.13363017141819,-0.15813258290290833,-0.018773941323161125,0.05447831749916077,-0.6529838442802429,-0.16153883934020996,-0.7382882237434387,-3.767533779144287,-0.3055427074432373,-0.05102415010333061,-1.1962112188339233,-2.562671422958374,0.7202160358428955,-1.5802068710327148,-0.3649630546569824,-0.05410325527191162,-1.9208215475082397,0.2285011112689972,-0.851542592048645,-2.364696741104126,-0.107179194688797,-0.22586983442306519,0.5265345573425293,-0.019995324313640594,0.25004899501800537,1.448319435119629,0.8323471546173096,-0.8864443302154541,0.7398442029953003,0.3297990560531616,-0.09180629253387451,0.26654013991355896,0.7136233448982239,-0.08159492164850235,1.0960257053375244,-1.5669618844985962,1.1116032600402832,0.20292729139328003,1.2388453483581543,1.224513292312622,-0.21501246094703674,-0.43851420283317566,0.11957398802042007,1.486903429031372,-1.8841608762741089,-1.2135463953018188,-1.3971002101898193,0.15500116348266602,-0.04979220777750015,-0.20523081719875336,1.867773175239563,-2.130415678024292,-0.14803668856620789,-0.2018173336982727,-1.04213285446167,1.1032321453094482,-2.636000871658325,-0.47948896884918213,-1.8170086145401,0.8759890198707581,0.7156317234039307,0.8356414437294006,-1.9672597646713257,-0.2904071807861328
-0.0580223947763443,-0.13628514111042023,0.4270879328250885,0.001552686095237732,-0.9008601307868958,0.21434125304222107,-2.4724628925323486,-2.9975481033325195,-0.1817830204963684,-0.17281369864940643,-2.7792320251464844,-1.6594605445861816,0.7612192034721375,-2.2831928730010986,-0.8314518332481384,-0.16791032254695892,-2.0334019660949707,-0.1845681071281433,0.5608004331588745,-1.0033578872680664,-0.04400739073753357,0.44822442531585693,0.42797785997390747,-0.4878978431224823,-0.1500902771949768,-0.07301908731460571,-0.2088022232055664,-0.42039769887924194,2.4329962730407715,0.22162891924381256,-0.06809283047914505,-2.3064639568328857,0.8016908168792725,-1.3388805389404297,0.6293842196464539,-0.0449381060898304,1.101852536201477,-1.0146410465240479,0.2154243439435959,1.2659071683883667,-0.16904667019844055,0.29773175716400146,0.8525957465171814,0.0035138942766934633,0.8256680369377136,-1.309051513671875,-3.0907366275787354,-0.4375084340572357,-0.05189806595444679,0.02333705499768257,-0.26129600405693054,-0.7303436994552612,0.12718132138252258,0.01962532103061676,-0.8743634819984436,0.6132204532623291,-0.4000356197357178,2.192232131958008,-3.418699264526367,0.6537390947341919,-0.58970046043396,0.43395116925239563,-0.16250333189964294,-1.292983055114746
0.14078408479690552,-0.1984865367412567,1.0630377531051636,-0.08084850758314133,0.3653987944126129,0.1381109356880188,-2.793619155883789,0.09990156441926956,0.46003150939941406,0.014840934425592422,-1.8017425537109375,0.13116633892059326,0.3554563820362091,0.11019197106361389,0.6881059408187866,-0.04160638153553009,-1.9671084880828857,-0.11909016966819763,0.03451700508594513,1.381262183189392,-0.11983148008584976,-0.031620562076568604,0.1951698362827301,-0.07070095092058182,-0.3011222779750824,0.7450574040412903,-0.8478416204452515,-0.9714379906654358,1.2230371236801147,0.12717407941818237,-0.1570819765329361,-0.9494625926017761,0.8605780601501465,-1.8776299953460693,-0.6224094033241272,0.30856287479400635,1.6754480600357056,-0.18987035751342773,0.9059336185455322,1.193748950958252,-0.3660137951374054,1.8432648181915283,1.4085898399353027,-0.9906232953071594,1.001762866973877,-2.125509738922119,0.47674107551574707,0.5452815890312195,0.05024981126189232,-0.08314540982246399,-2.0323712825775146,-0.0807790532708168,0.04734228178858757,-0.7388486862182617,0.04555223137140274,0.3817969560623169,-0.41617551445961,-0.45103979110717773,-2.2882468700408936,0.1785087287425995,-0.48091140389442444,-0.3196515142917633,1.1847970485687256,-0.26055803894996643
-0.049477167427539825,-0.11336232721805573,1.2682573795318604,-0.023835808038711548,0.20406918227672577,0.009053653106093407,-2.185485601425171,0.02968883514404297,-0.7924202680587769,-0.1757243126630783,-1.2733129262924194,-0.2571907639503479,-1.2709952592849731,-0.016802586615085602,0.22142314910888672,-0.13040205836296082,-1.5701059103012085,1.273037075996399,0.38721054792404175,-0.06038302555680275,-0.32026469707489014,0.1720104068517685,0.8365459442138672,0.3806573450565338,-0.08713941276073456,-0.5747043490409851,1.1563308238983154,-1.0760258436203003,-0.32517367601394653,-0.6775122284889221,0.016967540606856346,-1.012235164642334,-0.38317474722862244,-0.8571863174438477,0.589989960193634,-0.16191114485263824,0.2900504469871521,0.2050253450870514,0.7174972891807556,-0.4800039827823639,-0.7662254571914673,1.5615723133087158,0.42922770977020264,-0.865993320941925,0.7441079020500183,-2.1901636123657227,1.7905404567718506,0.8542048335075378,-0.020991433411836624,0.032650865614414215,-2.4703521728515625,0.8838115930557251,-0.018176313489675522,0.16774040460586548,0.3999749720096588,0.20627404749393463,-0.4951972961425781,1.0972752571105957,-3.882101535797119,-0.9021341800689697,0.33267372846603394,0.08566354215145111,0.35940590500831604,-0.5752560496330261
-0.17120982706546783,-0.09307026863098145,0.20974142849445343,-0.11928653717041016,0.8586705327033997,-0.02542049065232277,0.05914030224084854,-0.9331481456756592,0.08421529829502106,-0.04020990431308746,-0.4807974696159363,-0.00028909899992868304,-0.3330641984939575,0.19833926856517792,-0.8191090822219849,0.08773134648799896,-1.397958517074585,0.4695908725261688,-0.3457053303718567,-1.0563156604766846,-0.25259479880332947,-0.5083221197128296,-0.40314173698425293,0.6721600294113159,-0.11068380624055862,0.5190709233283997,0.15460285544395447,0.48937782645225525,-2.342777729034424,-2.5842509269714355,-0.05205989629030228,-2.567258834838867,-0.6349152326583862,0.750760555267334,0.24530449509620667,-1.255425214767456,0.3049258887767792,1.1343567371368408,1.806393027305603,-0.06367248296737671,-0.5536414384841919,0.21905404329299927,0.10289516299962997,1.6298563480377197,-0.18864688277244568,-1.0126129388809204,0.33685946464538574,0.7206311821937561,0.017918558791279793,0.07419491559267044,-4.2357635498046875,0.4178787171840668,-0.03668512403964996,-1.6673659086227417,-0.3414137661457062,0.9225650429725647,-1.090311050415039,2.13881516456604,-0.5073797702789307,-0.7147512435913086,1.087347388267517,0.04988495260477066,-1.3662787675857544,-0.3938157856464386
0.07783525437116623,-0.06171803176403046,0.02517836168408394,-0.128043994307518,1.2727996110916138,-0.08994588255882263,-1.0309416055679321,-0.8282005190849304,0.35381007194519043,-0.025262117385864258,-0.39218011498451233,0.01066482812166214,-0.2986641228199005,0.611573338508606,-1.623679757118225,-0.11782869696617126,-0.39440980553627014,1.8122061491012573,0.14301592111587524,0.15094897150993347,-0.1547844111919403,0.09069753438234329,1.2993427515029907,1.6122187376022339,-0.19094118475914001,-0.26954248547554016,-0.11973952502012253,0.6995709538459778,-3.016101121902466,-2.9117867946624756,0.07438424229621887,-2.931741237640381,1.404159665107727,1.2161592245101929,-0.17607241868972778,0.17937111854553223,-0.36159154772758484,1.0015889406204224,1.9455125331878662,0.3816889822483063,-0.3891899287700653,1.7397884130477905,0.09786435961723328,0.17990730702877045,0.1001351922750473,-0.9934207797050476,0.2479805201292038,-0.7548286318778992,-0.02912209741771221,-0.10706286132335663,-2.810760498046875,2.5898261070251465,-0.1445571482181549,-0.17499029636383057,-0.21182207763195038,-0.6652373671531677,-0.6253525018692017,0.3439333140850067,0.8489660620689392,-0.6817684769630432,0.106003537774086,0.6745122075080872,-1.4043712615966797,1.1579926013946533
-0.14331290125846863,0.006855461280792952,0.07856911420822144,0.0026893317699432373,2.37538743019104,-0.11687789857387543,1.1874879598617554,-0.4881022274494171,-0.5696883797645569,0.11779215931892395,0.0021662425715476274,1.8673572540283203,-1.0279690027236938,0.3799351751804352,-0.9482179880142212,0.008773457258939743,-0.35029134154319763,-0.638191282749176,-0.4840735197067261,0.3624962568283081,-0.14783233404159546,-3.2785794734954834,-0.8403698205947876,2.0798070430755615,0.038908619433641434,-0.35825303196907043,-2.3358418941497803,1.3879554271697998,-2.214916944503784,-1.160628080368042,0.1516209840774536,-0.7556714415550232,1.928875207901001,0.2031303495168686,0.8614612817764282,-2.4800164699554443,0.06567858159542084,1.354947566986084,0.28877732157707214,0.9102952480316162,0.08307765424251556,-0.020349999889731407,-3.2187044620513916,0.18064545094966888,-2.8730363845825195,0.5901275277137756,2.8758370876312256,0.4473223388195038,0.08800157904624939,-0.07574174553155899,0.6141165494918823,1.9212464094161987,-0.07742228358983994,-1.9263365268707275,-1.4797072410583496,-1.089835524559021,1.0557140111923218,0.2376667857170105,-0.5866559147834778,-0.5007695555686951,0.7792128324508667,0.16412031650543213,-0.3941879868507385,0.019491182640194893
0.098786860704422,-0.11884511262178421,-0.2790142893791199,-0.023573055863380432,-0.30292367935180664,0.10710081458091736,0.7587469816207886,-0.6208563446998596,0.5750389099121094,0.07450459897518158,0.016317961737513542,-0.23715080320835114,-0.4992837607860565,0.9269144535064697,-0.38564595580101013,-0.0952722504734993,-0.05676204338669777,-2.077604293823242,1.7384597063064575,-0.03808100149035454,-0.05729106813669205,-1.4224766492843628,-0.9557048678398132,1.0682858228683472,-0.13779598474502563,0.6263066530227661,-1.2609624862670898,-0.5620951652526855,-0.7709373235702515,-0.3453240394592285,-0.15634165704250336,2.0858027935028076,0.3535434901714325,2.8648476600646973,-0.19499005377292633,-0.4118630290031433,0.5766273736953735,-0.10024700313806534,-0.10182161629199982,-0.597058892250061,-0.03549262881278992,0.2502678334712982,-1.7337254285812378,-0.17531348764896393,-1.499481439590454,0.5234649181365967,-0.14064644277095795,-0.7968432903289795,0.048993151634931564,-0.06518695503473282,0.757101833820343,-0.36553868651390076,0.0787973552942276,-1.224453091621399,-0.2571493685245514,-1.8349850177764893,1.8787518739700317,0.37306705117225647,-0.18519845604896545,1.7218515872955322,-2.195722818374634,0.0076424493454396725,0.18709127604961395,-0.5909886360168457
0.1004883348941803,-0.1224217414855957,-0.18950949609279633,-0.10868758708238602,-1.6982790231704712,0.06066174805164337,0.06494873017072678,0.8748427629470825,0.3368067443370819,-0.06558661162853241,1.27118718624115,0.49086248874664307,-0.7761907577514648,-2.176731586456299,0.7621233463287354,0.1475633978843689,-0.07569584250450134,0.6093873977661133,1.2784714698791504,0.6314145922660828,-0.15285450220108032,0.06424879282712936,-1.2996573448181152,-0.23224537074565887,-0.03936910256743431,-0.0574951134622097,0.9159507751464844,0.494202584028244,0.5388422012329102,2.2413558959960938,0.1341802179813385,-0.2792525887489319,-0.5141147375106812,0.01469228882342577,-1.2298294305801392,0.786516010761261,1.0815318822860718,1.6128302812576294,1.845271110534668,-1.254828929901123,1.0217729806900024,1.4697009325027466,1.1510728597640991,0.7630956768989563,0.362540066242218,0.9454299211502075,-1.2321380376815796,-0.19298352301120758,-0.011156126856803894,-0.0628611296415329,0.6276613473892212,1.465761423110962,0.13398104906082153,0.9147161245346069,-2.4116146564483643,0.5817895531654358,-0.7911239266395569,2.2294602394104004,0.6714635491371155,-2.212249994277954,-0.933070719242096,-2.7558629512786865,2.0471346378326416,0.643261730670929
0.12960752844810486,-0.07988394796848297,-2.433135509490967,-0.015370622277259827,-0.43862655758857727,0.09520211815834045,0.9750723838806152,1.2969658374786377,-2.567660331726074,0.03394627571105957,-1.1931495666503906,2.513442277908325,0.05750858783721924,-0.432439923286438,-0.0831623449921608,-0.05152515321969986,1.6959716081619263,-2.560697078704834,-0.08660672605037689,-2.04186749458313,0.11754833161830902,1.7803512811660767,0.04734928905963898,-1.0131820440292358,-0.31930461525917053,0.7039250731468201,-2.2641124725341797,1.3408303260803223,-0.8090234994888306,0.8663297295570374,-0.09351323544979095,-0.7811707258224487,0.6476218700408936,0.9063352346420288,-0.8972162008285522,-1.0314240455627441,-0.46895959973335266,1.0351898670196533,1.3706809282302856,-0.6209148168563843,0.6524421572685242,0.6081552505493164,-1.3666423559188843,1.5370694398880005,-0.44478026032447815,0.23719164729118347,-0.668465793132782,1.438586950302124,0.10319545865058899,-0.12704530358314514,2.8824031352996826,-0.22015631198883057,-0.08012119680643082,-1.3831270933151245,-1.5974968671798706,0.15739211440086365,-0.17954860627651215,-0.4915383458137512,0.6056692004203796,0.4708336293697357,-2.1221933364868164,-1.0200332403182983,-0.4348955452442169,1.1527498960494995
0.1273721158504486,-0.13622580468654633,-0.45296356081962585,-0.13321053981781006,0.5018576383590698,-0.08442934602499008,1.5001686811447144,-1.5241440534591675,-4.073069095611572,0.05829958617687225,0.5958350300788879,0.8870454430580139,-0.2782336473464966,-0.4259184002876282,0.16083522140979767,-0.06663285940885544,0.6019684076309204,-1.4471832513809204,-1.870678186416626,-0.8324949145317078,-0.20358909666538239,0.05591271072626114,2.185889959335327,-0.6766639947891235,-0.16647177934646606,0.8046291470527649,0.045599229633808136,-0.7263913154602051,0.16335804760456085,1.2607437372207642,0.03573596477508545,-1.140918254852295,0.05489318445324898,0.5198898315429688,0.24733410775661469,-0.0009530814131721854,-1.3197996616363525,-0.2336842566728592,0.45077237486839294,0.36809784173965454,-1.432660698890686,0.7340948581695557,1.738952398300171,0.5916165709495544,0.10373987257480621,-1.104742407798767,0.2678476572036743,-0.08203158527612686,0.05571281537413597,0.14218924939632416,2.674536943435669,-0.8439480066299438,-0.010930045507848263,-0.6948087811470032,0.6710288524627686,0.17937147617340088,-0.9290083646774292,-3.0053975582122803,0.9466367363929749,0.7006439566612244,-0.46233931183815,-0.9052868485450745,-1.5426521301269531,-0.4451530873775482
0.09758895635604858,0.14296293258666992,-0.7502650618553162,-0.025384977459907532,0.02039070427417755,-0.17215877771377563,2.427366018295288,-2.8826608657836914,0.32438722252845764,-0.002860531210899353,0.8706529140472412,0.09389345347881317,-2.144571542739868,-0.983225405216217,-1.5667104721069336,0.051862433552742004,-0.36227256059646606,-1.243322730064392,-0.5925912261009216,-1.2361928224563599,-0.259010374546051,-1.3753244876861572,0.49807843565940857,-0.5939146280288696,0.06952796876430511,1.4877231121063232,-0.19433929026126862,-2.2529056072235107,-0.4038025736808777,0.5840370059013367,-0.1143580824136734,0.12543810904026031,-1.0678989887237549,0.456362783908844,0.28776299953460693,-0.23871959745883942,-1.2308939695358276,0.061241358518600464,0.37663763761520386,-0.1780148148536682,-2.0929410457611084,1.5817804336547852,2.2881393432617188,-0.6923545598983765,-0.3266976773738861,-0.0905284732580185,0.21261930465698242,-0.7647020220756531,0.029886655509471893,0.04163835570216179,1.947667121887207,-0.8205573558807373,0.06734447181224823,-0.6947107911109924,0.3770114481449127,-0.20892208814620972,-1.464099407196045,-2.4293372631073,-0.3409019708633423,0.12626895308494568,0.85786372423172,0.319281667470932,1.0447688102722168,-0.5416896939277649
0.005287975072860718,0.004556149244308472,0.11981827765703201,-0.1547657549381256,0.7448049187660217,-0.21721379458904266,-0.3831421434879303,-0.7198222875595093,0.6739930510520935,-0.0731431096792221,-0.0488407276570797,-0.5756458640098572,-0.8815954327583313,-0.7158634662628174,-0.930504322052002,0.06585893779993057,-1.0218168497085571,-0.15027309954166412,-3.3414230346679688,-0.7304357886314392,-0.3063264787197113,-0.9520220756530762,0.25645628571510315,-0.6313050389289856,-0.031214583665132523,0.9789276123046875,-0.9136171936988831,-0.3041512370109558,-0.6448957920074463,0.48894408345222473,0.14694732427597046,-0.7484966516494751,-1.1840038299560547,0.15344290435314178,1.0591777563095093,0.24393856525421143,-0.41607555747032166,-1.3216593265533447,0.4968017637729645,0.36084744334220886,-2.006722927093506,-0.07325304299592972,1.629288673400879,-1.097126841545105,-1.1699638366699219,-0.3322705626487732,-3.808513641357422,0.09263403713703156,-0.06276923418045044,-0.1678043007850647,1.7720705270767212,-1.0500469207763672,-0.16977627575397491,-0.26410093903541565,-0.0979776531457901,0.6041983962059021,-1.5374236106872559,-1.6040711402893066,-0.7501442432403564,-0.5693840384483337,0.6516819000244141,0.08555467426776886,-1.116178274154663,-0.280117392539978
-0.10502956807613373,-0.05383417755365372,0.5023730993270874,-0.08285275846719742,0.09997212141752243,-0.2025911808013916,0.6900537014007568,-0.3466356098651886,-0.10087606310844421,-0.10129624605178833,0.2452457696199417,1.3360973596572876,0.09944652020931244,-0.03558788448572159,0.3900047540664673,-0.09449338912963867,-1.668898105621338,0.023976776748895645,-0.39445263147354126,0.005015515722334385,-0.09120862931013107,-0.8750672936439514,-0.9248529672622681,0.39745840430259705,-0.03147699683904648,0.2548532485961914,-0.12915945053100586,-0.26960253715515137,-1.1214834451675415,-0.9383584856987,-0.10975135117769241,-1.6990524530410767,0.030858924612402916,-0.5925477147102356,0.7457243800163269,-0.3127248287200928,-0.5689212679862976,-0.5434644222259521,-0.04383926838636398,0.2341991811990738,-3.068305730819702,0.29474031925201416,1.56063973903656,-2.9338676929473877,-0.8342503309249878,-1.5079612731933594,-2.5973260402679443,0.01335475780069828,-0.03522888943552971,-0.07211639732122421,1.6673229932785034,0.6316138505935669,-0.09910121560096741,-1.0623587369918823,-1.704816460609436,0.5984014272689819,-0.4627876579761505,0.22666947543621063,-0.7565715909004211,0.02253088913857937,1.8164068460464478,-0.06878497451543808,-3.3270792961120605,-0.5002632141113281
-0.09408226609230042,-0.08733083307743073,0.8311144709587097,-0.10416120290756226,-0.5385220050811768,-0.20265723764896393,0.8668196797370911,-1.2738025188446045,-0.2448805868625641,-0.0660049170255661,-0.9312723875045776,0.5340511798858643,0.35621339082717896,-0.5493435859680176,0.41284504532814026,-0.11064720898866653,-1.21519935131073,0.08389787375926971,-0.4574034512042999,-1.1959894895553589,-0.07391499727964401,-1.186326503753662,-0.837509036064148,-0.4353092908859253,0.060415077954530716,-0.22695565223693848,0.34313464164733887,0.6564443707466125,0.27207857370376587,-0.1057254746556282,-0.13855452835559845,-1.7367942333221436,0.32778722047805786,-0.15716218948364258,0.40406250953674316,0.15075789391994476,-1.0918622016906738,-0.5237982869148254,-0.596199095249176,-0.7238379120826721,-2.3851301670074463,0.5802887678146362,1.2118064165115356,-2.5319485664367676,0.8689940571784973,-0.2155044674873352,-1.3082637786865234,-0.1773143708705902,-0.16920460760593414,-0.1606321930885315,0.369323194026947,-0.38322028517723083,-0.18692120909690857,-0.5313675999641418,-0.1511552929878235,-0.06080743297934532,0.3211016058921814,0.30897602438926697,-0.04162240028381348,-0.707421064376831,1.1772055625915527,-0.2462439388036728,-0.09178941696882248,-0.46431857347488403
-0.010978895239531994,-0.18979795277118683,0.33049070835113525,0.01418653130531311,0.9520951509475708,-0.027991656213998795,-0.11994390934705734,-1.5616458654403687,-0.26868683099746704,-0.005246254149824381,-0.26034459471702576,-0.29962536692619324,0.4358598589897156,-0.6337618231773376,0.2500676214694977,-0.08679000288248062,-0.9256357550621033,-0.1436219960451126,0.20203621685504913,-1.026143193244934,-0.21666498482227325,-0.9136508703231812,-0.4819040298461914,0.15184783935546875,-0.020361561328172684,0.7307748198509216,0.32299429178237915,-0.8581019043922424,1.3466298580169678,-0.2701205313205719,-0.12379046529531479,-1.4537774324417114,0.08491101861000061,-0.3167424499988556,-0.16481366753578186,0.6227606534957886,0.9064737558364868,0.04983522742986679,-0.40392887592315674,-0.30125004053115845,-2.5233657360076904,-0.6645165681838989,0.8985658288002014,-1.7925876379013062,0.5053088665008545,0.89009028673172,0.4077489972114563,-0.016983244568109512,-0.014143260195851326,-0.09089101105928421,-1.29092538356781,-0.7105058431625366,-0.010003597475588322,0.5303769707679749,0.4003565311431885,0.20310930907726288,-0.9112690091133118,0.4751471281051636,-0.14328616857528687,-0.15045645833015442,2.232206106185913,-0.5245674848556519,2.0162503719329834,0.2893442213535309
-0.06591250747442245,0.07529225945472717,0.1935199648141861,-0.12776462733745575,2.119312047958374,0.05835934355854988,-0.01319069042801857,-2.6476364135742188,-0.04863085225224495,-0.05051949620246887,-0.45592570304870605,0.6794725656509399,-0.29594096541404724,-0.5546549558639526,0.5053479671478271,-0.006042973138391972,-0.1280844807624817,-0.16334454715251923,0.37946754693984985,0.06970252841711044,-0.1260279417037964,0.19270725548267365,0.544166088104248,0.3953186571598053,-0.062201619148254395,-0.732291042804718,0.11955533921718597,-0.6596481204032898,1.6116504669189453,-1.0699548721313477,-0.12672020494937897,-0.17992520332336426,0.483747273683548,0.5213556289672852,0.36268723011016846,1.2099542617797852,0.5913766622543335,-0.10519989579916,-0.44617989659309387,0.5482761859893799,-1.3606841564178467,0.07588296383619308,0.18239440023899078,-0.8304394483566284,-0.572670578956604,0.10488174855709076,-0.19531367719173431,0.3108613193035126,-0.06075889989733696,0.07388345897197723,-2.2653794288635254,-0.3580751419067383,-0.01429075375199318,0.6852014064788818,0.47393298149108887,0.5589280128479004,-1.156436800956726,-0.33631575107574463,-2.1964328289031982,-0.751895546913147,1.625131368637085,0.21880613267421722,0.851675808429718,-0.3050772249698639
0.040159016847610474,0.1078229621052742,0.3133545219898224,-0.014364093542098999,1.9467929601669312,-0.15406204760074615,-1.0216903686523438,-1.6634857654571533,0.3592373728752136,-0.18538452684879303,-0.09021039307117462,-0.3036407232284546,0.3638344407081604,-1.2972943782806396,1.0411977767944336,-0.048286356031894684,-0.08231750130653381,-0.46800094842910767,-0.6319850087165833,0.3989778757095337,-0.43075740337371826,-1.794633150100708,-0.5241202116012573,-0.27681782841682434,-0.18642351031303406,-0.9545800089836121,0.20834046602249146,0.21639598906040192,-0.5705012083053589,-0.33785900473594666,-0.16479474306106567,0.5323580503463745,0.4314807951450348,-0.051057275384664536,-0.1966523826122284,0.24690280854701996,0.011383689939975739,-0.07076384872198105,0.5486546754837036,1.2125439643859863,-1.884158730506897,0.26807084679603577,0.4799993932247162,0.5048707723617554,-0.8620604872703552,-0.6191970109939575,0.11974271386861801,0.4721928834915161,0.038400907069444656,0.07965454459190369,-1.7131701707839966,0.4231387674808502,-0.08398769050836563,-0.5932413935661316,0.15218140184879303,0.0021036285907030106,0.01039883028715849,0.4344605505466461,-3.285055160522461,-0.8362579941749573,-0.1844891607761383,0.5667286515235901,-1.6653788089752197,-0.04920037463307381
0.029422692954540253,0.12346198409795761,0.17333638668060303,0.0407896488904953,1.3509517908096313,-0.10514982789754868,-0.3710280954837799,-1.9615848064422607,-0.14411674439907074,-0.0332767516374588,0.9533622860908508,0.25351661443710327,1.083430290222168,-2.032580852508545,-1.241276741027832,0.058595117181539536,0.7400320172309875,-0.921853244304657,1.5482313632965088,0.8004503846168518,-0.20630206167697906,-2.4665956497192383,-0.042707622051239014,0.2998873293399811,-0.17901910841464996,-0.18807987868785858,0.2999059557914734,0.20241226255893707,-0.22443987429141998,-1.1942652463912964,0.0821353942155838,-0.5663414001464844,0.8329431414604187,1.0143309831619263,0.039271969348192215,-0.5677807927131653,-0.36063939332962036,-0.34867119789123535,0.37958645820617676,0.42767125368118286,-0.2326689511537552,1.0557961463928223,0.5533848404884338,-0.2546199560165405,-1.163698673248291,-0.09408819675445557,-1.1301138401031494,0.1917349249124527,0.025709178298711777,-0.2046465277671814,-3.42676043510437,0.9271996021270752,0.00395572604611516,0.4096274971961975,-1.0142823457717896,-0.10412748903036118,0.06808602064847946,-1.5251191854476929,-2.300811767578125,-0.47844284772872925,-0.6013628244400024,0.2527063488960266,-1.8915746212005615,-0.00667110551148653
0.008054486475884914,-0.19168061017990112,-0.3069734275341034,-0.15268421173095703,2.5838205814361572,-0.04559807479381561,-1.0900846719741821,-1.6319698095321655,-0.11467455327510834,-0.0737597718834877,-0.2697637975215912,0.8600813746452332,0.19401787221431732,1.3338607549667358,-0.42147594690322876,-0.14712484180927277,-0.7649444937705994,-0.6819875240325928,0.4908686876296997,-0.5338090658187866,-0.13918444514274597,-4.82692289352417,1.849631905555725,0.5596567392349243,0.06840528547763824,0.15594065189361572,-1.264957308769226,1.0918192863464355,-2.759003162384033,-1.4505854845046997,-0.08978845924139023,0.7395097613334656,1.1430647373199463,0.3444017171859741,-0.49633386731147766,-2.138679265975952,0.0862942561507225,0.5736818909645081,1.2552015781402588,-0.38759365677833557,-1.167642593383789,0.5323511362075806,-1.5609331130981445,0.3371043801307678,-0.09853696078062057,0.17021681368350983,0.5808537602424622,1.242355227470398,0.017601098865270615,0.0447503924369812,-1.7797194719314575,0.32940515875816345,-0.14152714610099792,-1.4039487838745117,-0.4399365186691284,-1.5603693723678589,0.3621218502521515,0.17420172691345215,-1.9353253841400146,0.25855782628059387,0.48483413457870483,1.1396996974945068,-1.973631739616394,0.04868745058774948
-0.04437963664531708,0.035291966050863266,-0.8559858202934265,0.025781527161598206,-0.6085696220397949,-0.056360065937042236,-1.9832441806793213,-1.4438523054122925,2.279212236404419,-0.10767467319965363,-1.3015942573547363,-0.8800365924835205,2.202847957611084,2.6806681156158447,-0.1085410937666893,-0.14426618814468384,-1.14889395236969,-0.28656530380249023,2.047020196914673,1.0003268718719482,-0.05043553560972214,-2.5869996547698975,0.9238483309745789,0.23303160071372986,-0.04328608140349388,0.9970588088035583,-2.4282076358795166,0.32979410886764526,0.12020126730203629,-1.325177550315857,0.05592110753059387,1.7661935091018677,-0.5299199223518372,-0.46736785769462585,-2.312262535095215,-3.9060349464416504,-0.144860178232193,0.1430390477180481,0.477181077003479,-0.9459677338600159,-0.32223668694496155,0.32803022861480713,-2.521975040435791,-1.4328912496566772,-0.5474547147750854,-1.6001957654953003,0.9629108309745789,1.0604159832000732,0.05223582684993744,-0.15526480972766876,0.15838676691055298,0.9053871631622314,0.13190393149852753,-2.7225215435028076,-2.4549741744995117,-3.8733367919921875,2.5957188606262207,0.09478868544101715,-0.6095647215843201,1.860767126083374,1.8678820133209229,0.5486347675323486,-0.8204348683357239,-1.0484604835510254
0.08190193772315979,-0.15734638273715973,-2.8273508548736572,0.07500220835208893,-1.9925624132156372,-0.0344432108104229,0.0644301325082779,2.031794786453247,1.6837414503097534,-0.08973148465156555,3.831169843673706,0.8594713807106018,0.5749946236610413,-0.5194655060768127,-2.635096788406372,0.05132210999727249,0.7815924882888794,-0.301910936832428,1.6738442182540894,0.9579882025718689,-0.12566275894641876,-1.1363015174865723,-0.3737991750240326,-0.19602511823177338,-0.15558652579784393,1.2096291780471802,-0.7493060231208801,-0.8556574583053589,-2.0259225368499756,0.0015515408013015985,0.001927196979522705,-0.09528347104787827,1.040890097618103,2.6085128784179688,-1.1037030220031738,0.4125247299671173,-2.787708282470703,1.575869083404541,1.9986121654510498,-0.4089649021625519,0.15059317648410797,1.8670494556427002,1.2521748542785645,0.48605385422706604,-0.5119866728782654,-2.261241912841797,-1.7665318250656128,-2.068218469619751,-0.13946425914764404,0.04338225722312927,2.2057535648345947,0.2672171890735626,-0.003450542688369751,-0.5454784631729126,0.9185564517974854,-0.9079475402832031,0.33826398849487305,-0.5547557473182678,0.32620006799697876,-0.3363378643989563,-1.8581699132919312,-0.8024167418479919,0.044650908559560776,-0.11556325852870941
0.06899285316467285,0.11005908250808716,-1.2624388933181763,0.010194674134254456,-1.5585768222808838,0.06980669498443604,-2.3868861198425293,2.860755681991577,-4.1711745262146,0.08362740278244019,-0.052058957517147064,-0.81351238489151,0.6188201308250427,-0.024074433371424675,1.511074185371399,-0.02867598831653595,1.9416251182556152,-1.4799219369888306,0.19626525044441223,1.121186375617981,-0.041216712445020676,-0.6050801873207092,-0.27437320351600647,-1.2833683490753174,-0.23638641834259033,-1.2254226207733154,-1.7031660079956055,-0.05627812445163727,1.4620672464370728,0.3028438985347748,0.08865682780742645,-1.7124199867248535,-1.0475184917449951,0.937016487121582,-0.9935756921768188,-0.963357150554657,-1.2050179243087769,0.0018754624761641026,1.4539121389389038,0.3680829107761383,-1.151168704032898,0.7084469795227051,-2.886704683303833,2.5607004165649414,-2.3960161209106445,-0.03449210897088051,1.4524462223052979,0.4173787236213684,-0.013461092486977577,-0.043301407247781754,1.7653924226760864,2.1242945194244385,0.11826217919588089,-0.2173876017332077,0.409219890832901,-0.3524765372276306,-0.39374682307243347,-0.17315340042114258,-0.08805770426988602,0.06748074293136597,0.4153410494327545,-1.3191059827804565,0.5142224431037903,2.04455828666687
-0.1007407009601593,0.15012389421463013,0.36511629819869995,-0.09900808334350586,-0.8664478659629822,-0.09597548097372055,-1.0907131433486938,-1.2275290489196777,-1.153807520866394,0.06890951097011566,0.15258820354938507,-0.7847988605499268,0.4171062111854553,-0.6502259969711304,0.4932717978954315,0.05283372476696968,0.462496280670166,-1.1083272695541382,-2.209254264831543,0.7132546305656433,-0.2248486876487732,-0.6859641075134277,-0.6545512676239014,-1.5187877416610718,0.08658095449209213,-0.8018328547477722,-0.6104069948196411,-1.618584394454956,-1.2505351305007935,0.6318652629852295,-0.10163320600986481,0.8657203316688538,-2.559281349182129,0.793036162853241,-0.5489917397499084,-0.3076081871986389,-0.8633898496627808,0.562249481678009,-0.23528890311717987,0.3084137737751007,-0.20275361835956573,-0.228184312582016,0.17608392238616943,1.5902495384216309,-1.1599175930023193,-0.8299198746681213,1.934611439704895,-0.7150430083274841,0.09095479547977448,-0.023986132815480232,1.8312337398529053,-0.9416506290435791,0.07701101154088974,-1.2047194242477417,0.3788195550441742,-0.828091025352478,-0.5644453763961792,-1.5613538026809692,-2.597642660140991,-0.6648887395858765,0.46861809492111206,-1.7196671962738037,0.21812140941619873,0.4188362956047058
-0.12213843315839767,-0.09357088059186935,-0.6216906309127808,-0.13689756393432617,-0.6583650708198547,0.08259151875972748,0.9151321053504944,-2.102698802947998,-0.0018569666426628828,-0.15488497912883759,0.8423566222190857,-0.40600496530532837,-0.2099466174840927,-0.13414834439754486,1.0552054643630981,-0.02986440248787403,0.04149426519870758,-1.8168317079544067,-1.978649616241455,-1.848433017730713,-0.036747630685567856,0.8526929616928101,-0.3436356782913208,-0.43170252442359924,0.19603686034679413,0.3189340829849243,-0.11265316605567932,-1.7141467332839966,-1.9885735511779785,0.8180751800537109,-0.14769315719604492,-0.185479998588562,-2.0506250858306885,0.056514546275138855,-0.36153414845466614,-0.9167087078094482,-0.4860639274120331,0.23365181684494019,0.2536466121673584,0.3973313868045807,-0.326668381690979,0.31526705622673035,0.08169257640838623,0.681988537311554,-1.6954963207244873,-0.7800617218017578,1.12216317653656,-0.834477424621582,-0.037927281111478806,-0.09444011747837067,-0.359916627407074,1.3470488786697388,-0.05777159705758095,-1.1448924541473389,0.29469892382621765,-1.039799451828003,-2.702515125274658,-2.196449041366577,0.008076484315097332,-0.8207259178161621,0.41428279876708984,-0.33542221784591675,0.9311295747756958,1.321700930595398
0.14108797907829285,-0.09711991250514984,0.06979595869779587,-0.07942326366901398,0.0267178975045681,-0.043323270976543427,-0.06998329609632492,-0.025181518867611885,-0.22726282477378845,-0.0512692928314209,0.5533707141876221,0.5788403749465942,-0.3984381854534149,-0.7495319843292236,1.4011996984481812,-0.10740261524915695,-0.8764247894287109,0.36575958132743835,-2.39581561088562,-0.7770859003067017,-0.12009108811616898,-0.10796255618333817,0.40594860911369324,0.38131144642829895,0.01894969493150711,0.6688612699508667,0.904163122177124,-0.6958237886428833,-1.6442211866378784,0.5638456344604492,-0.009747341275215149,0.20418691635131836,0.054012782871723175,-0.2346208691596985,-0.5105097889900208,-0.4963417053222656,-1.1582796573638916,0.7607661485671997,-0.08323831111192703,1.1206934452056885,-1.4899063110351562,-0.10327218472957611,0.16242729127407074,-0.7886936664581299,-0.7728890776634216,-1.0777361392974854,-4.986176490783691,-0.1426445096731186,-0.17083528637886047,-0.049060359597206116,-0.9892026782035828,-0.38608816266059875,-0.20019662380218506,-1.6124778985977173,0.2033970057964325,0.6180410981178284,-0.12295349687337875,0.19637943804264069,0.37387439608573914,-1.2069084644317627,0.6816685795783997,-0.7259193658828735,-0.21863581240177155,1.1256402730941772
0.02822098881006241,0.042957380414009094,0.027998585253953934,-0.24701374769210815,-0.017034171149134636,-0.1725720465183258,1.3500012159347534,-1.5333939790725708,-0.14867372810840607,-0.060757748782634735,0.6133634448051453,-0.6268392205238342,0.32316380739212036,-0.12620516121387482,0.25030580163002014,-0.2069736123085022,-0.40449753403663635,0.16679614782333374,-0.854500949382782,-1.1317033767700195,-0.09483736008405685,-0.12925958633422852,0.2743551433086395,0.45228251814842224,-0.25421449542045593,0.5620264410972595,1.0023150444030762,0.2807766795158386,-1.7449129819869995,-0.07978633791208267,-0.10340967029333115,0.734397828578949,1.0238558053970337,-0.5174869894981384,0.31147193908691406,0.44593390822410583,-0.5120550990104675,0.32442325353622437,0.3453211188316345,0.5155133008956909,-2.5066134929656982,0.8066714406013489,0.45940449833869934,-3.6960363388061523,-0.6241647005081177,-0.4765870273113251,-1.826663613319397,-1.0880731344223022,-0.13256467878818512,-0.14240002632141113,-1.4386324882507324,-0.5038473606109619,-0.004425357561558485,-0.6575403213500977,-1.0349063873291016,0.7818211913108826,0.861397922039032,1.8734381198883057,1.5952303409576416,-0.251549631357193,0.9932075142860413,-0.5869847536087036,-3.690554618835449,1.4378912448883057
-0.09086518734693527,-0.11339788138866425,0.8776406049728394,-0.1398608535528183,0.8235290050506592,-0.17394012212753296,-0.05173441767692566,-1.889983057975769,-0.19481688737869263,0.07426577061414719,-0.31382331252098083,-0.28126752376556396,0.6720641255378723,0.04909439757466316,-0.07434184849262238,-0.0668935477733612,-0.057863909751176834,-0.21094584465026855,0.53886878490448,-1.387644648551941,-0.3250260055065155,-0.6821600794792175,-0.7022098898887634,-0.3311825394630432,-0.23483684659004211,0.6692144870758057,0.8913048505783081,0.06749346107244492,-0.5131738185882568,0.8897365927696228,0.12270811200141907,2.620845317840576,1.010779857635498,-1.5496703386306763,0.38070568442344666,0.23803888261318207,1.105515718460083,-0.3224521279335022,0.9630116820335388,-2.2131247520446777,-2.986584186553955,0.8998088836669922,0.2914567291736603,-3.133511543273926,1.3333998918533325,-0.6723427176475525,0.40089151263237,-1.1799955368041992,-0.10766690224409103,0.03691399097442627,1.1141681671142578,-0.936480700969696,0.06233469024300575,0.864212691783905,-0.7239099144935608,0.5004650354385376,0.3459911644458771,1.1758227348327637,1.5025184154510498,-0.38495302200317383,1.7204396724700928,-0.6867888569831848,0.16821664571762085,1.1709392070770264
-0.1867649257183075,-0.002680448815226555,0.520935595035553,-0.18814300000667572,0.7449648976325989,-0.21091945469379425,-1.3189996480941772,-1.03622567653656,0.13481082022190094,0.01778087206184864,-0.20355896651744843,-0.43329209089279175,1.1758655309677124,0.7087674140930176,0.5321170687675476,-0.025793157517910004,0.1313515603542328,0.5334068536758423,0.7556456923484802,0.06294821202754974,-0.18162572383880615,-1.9362828731536865,-1.1988790035247803,-0.4391852617263794,-0.09523461759090424,1.0208908319473267,-0.4395464062690735,-1.128913402557373,1.1438745260238647,1.0622663497924805,-0.06967104971408844,3.5816776752471924,-0.04272548854351044,-0.041757918894290924,0.3350573480129242,-0.3088988661766052,1.9314767122268677,-0.05763384699821472,0.8992213010787964,-1.5358983278274536,-1.389826774597168,0.41779232025146484,0.8701307773590088,-0.7435026168823242,0.5843099355697632,-0.2652471363544464,0.4165317416191101,-0.5657428503036499,0.034104663878679276,-0.03268934041261673,0.08571726083755493,-0.7384351491928101,-0.12477075308561325,1.6444990634918213,-0.3822137713432312,0.8937708139419556,-1.1591768264770508,-0.9527813196182251,0.3391377627849579,-0.2476516216993332,1.2177186012268066,-0.3279438018798828,2.2100162506103516,-0.006043993402272463
-0.21849514544010162,0.04795169085264206,-0.17694346606731415,-0.22026146948337555,0.17519457638263702,0.01754319667816162,0.14395226538181305,-0.9470666646957397,0.5759832859039307,0.043434444814920425,1.1065418720245361,-0.14726121723651886,1.0464164018630981,0.48665961623191833,0.772362232208252,0.009262819774448872,-0.15367545187473297,1.0917649269104004,-0.3851150870323181,2.738095998764038,-0.17653439939022064,-3.241811752319336,-0.9561244249343872,-0.06762201339006424,-0.23367169499397278,0.3509104251861572,-0.5305959582328796,-0.6607610583305359,2.4984583854675293,0.7947296500205994,-0.0831570029258728,2.7060961723327637,-0.6571721434593201,1.0745936632156372,0.6611543297767639,0.6813724040985107,-0.22462069988250732,-0.06302476674318314,0.3264729976654053,-0.013621530495584011,-0.22526612877845764,0.7686971426010132,1.0643744468688965,0.13907963037490845,-0.7085524201393127,-0.002422276884317398,0.7107018828392029,0.6002204418182373,0.06719750165939331,-0.08872777223587036,-1.0825022459030151,-0.7802929282188416,-0.029519224539399147,0.014247555285692215,0.6567664742469788,0.8458777666091919,0.5381513237953186,-1.8400144577026367,-0.9487316608428955,-0.34036901593208313,0.44581839442253113,0.1954868882894516,0.6700080633163452,-0.3912646174430847
0.014180481433868408,-0.17043593525886536,0.24845236539840698,-0.17239771783351898,0.898286759853363,-0.11373741179704666,-0.11439070105552673,-0.2010856419801712,2.383129596710205,-0.002505703130736947,0.6473662853240967,-0.5541934370994568,-0.0362725630402565,0.30980920791625977,-0.3886224627494812,-0.16827818751335144,-0.15187077224254608,-0.12437524646520615,-0.642391562461853,2.3871896266937256,-0.11213448643684387,-2.1127805709838867,-0.9325470924377441,0.04576187953352928,0.04341159015893936,0.03254151716828346,-0.1553647816181183,-1.1406038999557495,0.5137914419174194,-1.2219668626785278,-0.07135321199893951,1.6254709959030151,0.1507803499698639,-0.564020037651062,0.9895763993263245,0.026651771739125252,-1.2169989347457886,-0.6601917743682861,0.9873731732368469,0.46377164125442505,-1.327054738998413,1.060872197151184,0.42092272639274597,0.3627725839614868,-1.6942087411880493,0.49580690264701843,0.08135936409235,0.0948786586523056,-0.1434801071882248,-0.2261047065258026,-1.8511626720428467,0.4080338478088379,-0.22879241406917572,0.012247694656252861,0.8538111448287964,0.42725053429603577,1.9955309629440308,-2.095299243927002,-2.3480477333068848,-0.9740588068962097,-0.2651554346084595,0.5796152949333191,-0.46909186244010925,-0.3146241009235382
-0.11069922894239426,0.030647093430161476,-0.45510709285736084,-0.1992923617362976,-0.5988869071006775,0.08050583302974701,-0.1669461578130722,-0.0954202339053154,2.2640700340270996,-0.11679297685623169,0.6532222032546997,0.2608732283115387,0.34698015451431274,-0.30151522159576416,-1.4451266527175903,-0.06911803036928177,-0.1210569217801094,-0.7250641584396362,0.8191692233085632,1.0976383686065674,-0.151411235332489,-2.4302971363067627,-0.622917652130127,-0.281357079744339,0.030597031116485596,0.5748160481452942,0.1033845841884613,0.3416849374771118,-1.0365456342697144,-0.4594634771347046,-0.13843221962451935,1.1629881858825684,-0.569666862487793,-0.28392264246940613,0.7520925998687744,-1.118334412574768,-2.6880362033843994,-0.9456809163093567,0.6431555151939392,-0.5035463571548462,-0.7291343808174133,0.9269541501998901,0.7902969121932983,0.23499229550361633,0.4870433509349823,-0.12379942089319229,0.2790738344192505,-0.12965090572834015,0.0865626335144043,-0.08502241224050522,-4.1424641609191895,1.0815931558609009,-0.13359305262565613,0.6939699649810791,-0.4756939709186554,-0.24459756910800934,1.8032255172729492,-1.728103756904602,-1.3389718532562256,-0.738009512424469,-0.4653015732765198,0.9751534461975098,-1.8812358379364014,-0.4744734466075897
-0.21204140782356262,-0.06974999606609344,-0.5925354361534119,-0.025877833366394043,-2.2504279613494873,0.08972584456205368,0.363246351480484,-0.1300055980682373,2.2707905769348145,-0.06886877119541168,0.2764277458190918,0.5743660926818848,1.4391822814941406,-0.6362331509590149,-1.0629209280014038,-0.08929910510778427,0.8143895268440247,0.37332162261009216,0.1921059787273407,-0.07803406566381454,-0.21693205833435059,-4.020701885223389,0.19713883101940155,-0.33738189935684204,-0.07942429184913635,-0.29895898699760437,0.8200122117996216,0.18975330889225006,-1.306954264640808,-4.746033191680908,-0.11918370425701141,0.7709702253341675,0.316099613904953,1.2150299549102783,-0.1318090856075287,0.546035647392273,-2.70184063911438,0.356235146522522,-0.6694215536117554,-0.5924602150917053,0.5815625786781311,-1.036813735961914,0.4436023235321045,0.4281129837036133,0.14296993613243103,-0.764691174030304,-0.29429495334625244,-1.0170557498931885,-0.17144711315631866,-0.15207348763942719,-2.542515516281128,1.581836223602295,0.03074818290770054,-1.5734254121780396,-1.0529611110687256,-0.978820264339447,1.8711379766464233,-1.1970735788345337,-4.976937294006348,-0.822964072227478,-0.9767767786979675,0.8080531358718872,0.9870394468307495,-1.5867295265197754
-0.15698881447315216,-0.18951810896396637,0.19372542202472687,0.12160143256187439,-1.6936246156692505,-0.09802141785621643,-0.8978652954101562,-0.1594935804605484,1.887413501739502,-0.04563404619693756,-1.7937959432601929,0.16417436301708221,0.12907817959785461,0.47912880778312683,-1.6476837396621704,-0.0156448632478714,-0.3465128242969513,-0.07068611681461334,1.2833222150802612,-1.3800476789474487,0.03571181371808052,-0.3254706859588623,-0.6935369372367859,0.34598708152770996,0.07610507309436798,-0.6474167704582214,0.5655790567398071,0.44542232155799866,-0.6463817954063416,-2.582977533340454,0.0658651739358902,0.5036843419075012,0.4343430995941162,-0.41471344232559204,0.7128605246543884,0.6970884203910828,-1.591353416442871,-1.2173877954483032,0.21148745715618134,0.9010457992553711,0.5676634311676025,-0.11607442051172256,-0.055989909917116165,-0.6091557741165161,-1.7283207178115845,-4.4459452629089355,-1.2301454544067383,0.42509764432907104,-0.06692157685756683,-0.14480912685394287,-0.8482962846755981,-1.0911977291107178,-0.11503596603870392,-2.5093536376953125,-2.877005100250244,-2.8822031021118164,-0.16039057075977325,-0.2290913313627243,-1.4270392656326294,1.8902571201324463,-0.4588662087917328,0.23202919960021973,0.2701600193977356,-0.2725752592086792
-0.15167531371116638,-0.10219171643257141,-1.7329987287521362,-0.08751064538955688,-1.8384145498275757,-0.040469665080308914,0.9038735032081604,2.524851083755493,-2.1053898334503174,-0.13267233967781067,2.5432353019714355,-0.2905192971229553,1.5449979305267334,-0.25773248076438904,-0.3462805151939392,0.09997742623090744,-0.2699088454246521,0.1124662384390831,0.30569222569465637,-0.9030063152313232,-0.12469788640737534,-3.09507155418396,1.564234733581543,-0.2681630551815033,-0.012356995604932308,0.8635392189025879,-0.3585447669029236,0.4109063148498535,0.9581735134124756,-1.0448451042175293,0.13014531135559082,-0.6556346416473389,0.15481363236904144,-0.07312412559986115,0.6557526588439941,-1.1636532545089722,-1.4363731145858765,0.6089745759963989,-0.7957707047462463,1.7193095684051514,0.2113153338432312,-2.07132887840271,-0.435566246509552,0.41089579463005066,-0.45004892349243164,-0.42512986063957214,-0.0694609135389328,-2.965998411178589,0.09076058864593506,0.033061251044273376,0.20628072321414948,0.022837821394205093,-0.07559342682361603,1.915716290473938,2.4192020893096924,2.187763214111328,-0.010461496189236641,-1.3979073762893677,0.7168001532554626,0.08256306499242783,1.0896590948104858,0.1325671225786209,0.22838836908340454,-0.09750016033649445
0.06969141960144043,-0.15254972875118256,-0.12754681706428528,-0.14928314089775085,-1.7752341032028198,0.1385468989610672,-1.5043047666549683,1.273924469947815,-1.8831572532653809,0.10147738456726074,-0.08471813052892685,-1.215450406074524,0.8809905052185059,-0.9511286020278931,1.9478588104248047,-0.04830753430724144,2.547614574432373,0.08160015195608139,1.7357585430145264,-0.01632016710937023,-0.17561544477939606,-0.9338763952255249,-0.791668176651001,-1.283446192741394,0.28263792395591736,-0.2051893174648285,-0.5201177597045898,-0.9026059508323669,-0.22055457532405853,-0.37695586681365967,-0.08005117624998093,-1.8368266820907593,-0.6297685503959656,1.4915034770965576,0.8392259478569031,-0.5220254063606262,-0.862119197845459,2.561288356781006,0.6885972023010254,0.4615846574306488,-0.08284784853458405,1.2512673139572144,-4.81934118270874,1.1533681154251099,-0.36569997668266296,0.48744603991508484,1.6006505489349365,-0.7569316625595093,-0.15906400978565216,0.16950665414333344,0.23876488208770752,1.4666638374328613,0.01608021929860115,-1.277192234992981,0.5272222757339478,-0.06606557220220566,-1.137533187866211,-0.8581344485282898,0.32735127210617065,0.032819319516420364,0.7066361308097839,-1.2844274044036865,0.6237436532974243,1.8200770616531372
0.04716186225414276,0.10332798957824707,0.18801365792751312,-0.18889670073986053,-1.1871062517166138,0.050817593932151794,0.0038755605928599834,0.0550302192568779,0.16184110939502716,-0.0505341961979866,0.27976876497268677,-0.8580785989761353,0.3896295428276062,0.09339530020952225,0.8598787784576416,0.014132073149085045,0.2916525602340698,-0.7369052767753601,-2.672917366027832,-1.034949541091919,-0.08892036974430084,0.8196948766708374,-1.5085140466690063,-0.6580451130867004,0.05315282940864563,-0.39400824904441833,-1.3737187385559082,-3.6783080101013184,-1.635848879814148,-0.017197253182530403,0.1187790036201477,0.47790253162384033,0.9497412443161011,0.7286589741706848,0.7922676205635071,-0.4566246569156647,1.1385622024536133,0.2833355963230133,-0.9008576273918152,-0.47276419401168823,0.055156368762254715,0.5142150521278381,-4.299285411834717,0.5277893543243408,-0.48477476835250854,1.085099220275879,0.9007384181022644,0.7085884809494019,-0.06488269567489624,-0.08304763585329056,-3.817265272140503,0.7409703135490417,-0.17706046998500824,-0.796566903591156,-1.0033819675445557,-0.9087000489234924,-1.5246514081954956,0.20909403264522552,1.0785995721817017,-2.042757749557495,-0.2823994755744934,-0.5024722814559937,0.35239869356155396,0.9887975454330444
-0.012765929102897644,0.036143697798252106,-0.22655965387821198,-0.2808990478515625,-0.4046027958393097,0.09363366663455963,-1.3644344806671143,-0.9631726145744324,-0.12643960118293762,-0.19781138002872467,1.096176266670227,-0.5499134659767151,1.34538733959198,0.02763775922358036,-0.04409890994429588,-0.06719322502613068,-0.28569963574409485,-0.4231770634651184,-1.9787968397140503,-0.6272629499435425,-0.24331916868686676,0.1780916303396225,0.33225134015083313,-0.29742562770843506,-0.07345439493656158,0.41336217522621155,-0.14055807888507843,-0.5970715880393982,-0.7977412343025208,0.18215389549732208,-0.0192812979221344,1.1157606840133667,0.5440794825553894,0.17159438133239746,-0.10524073243141174,0.11636727303266525,0.9347415566444397,0.10072814673185349,-0.04028860852122307,-1.4054876565933228,-0.2716839909553528,0.3825454115867615,-5.577714920043945,-1.0520873069763184,-0.5555464029312134,1.1420196294784546,0.6264021992683411,-0.265487939119339,-0.13499586284160614,-0.11504160612821579,-3.5003433227539062,0.6219809651374817,-0.15712639689445496,-1.823765754699707,-0.5336654782295227,-0.04523240029811859,-3.056473731994629,-0.9031453132629395,1.1733661890029907,-1.512839674949646,0.756253182888031,-1.0497599840164185,0.8166270852088928,1.5544365644454956
-0.13191276788711548,0.14995478093624115,0.08443211019039154,-0.3248571455478668,-0.31856149435043335,-0.11535193026065826,-0.2752067744731903,0.44781211018562317,-0.2903992235660553,-0.10303988307714462,0.005288858897984028,-0.44241636991500854,-0.7271649241447449,-0.4231020212173462,-1.4245809316635132,-0.1810496598482132,-0.6451206803321838,0.7553927302360535,-1.2103047370910645,-0.21806375682353973,-0.3667077124118805,-0.4168080985546112,1.9751688241958618,0.5192538499832153,-0.3290020823478699,1.0337698459625244,0.015553632751107216,-2.689105987548828,0.178481325507164,1.350365400314331,-0.00043864548206329346,0.40152037143707275,-0.27278992533683777,0.6093438863754272,0.3182556927204132,0.0447523333132267,0.6140532493591309,0.7445464730262756,0.047093503177165985,-0.5188829898834229,0.07477200776338577,0.3483126163482666,-5.12340784072876,-0.7072722315788269,-0.15272149443626404,1.6659966707229614,-4.007633209228516,-1.3937240839004517,-0.12436320632696152,0.06073678284883499,-1.4834810495376587,0.23638056218624115,-0.13120923936367035,-0.7194966077804565,0.6472432613372803,1.0461225509643555,-0.9427995681762695,1.0595474243164062,1.15825617313385,-1.7717130184173584,-0.3853403329849243,0.12466616928577423,-0.9845589399337769,0.7958712577819824
-0.17652627825737,0.09240822494029999,-0.8062315583229065,-0.27976149320602417,-0.4569401741027832,-0.12916287779808044,0.40795230865478516,0.5375664830207825,0.20771536231040955,-0.159718319773674,0.007524099200963974,-0.05794167146086693,0.21164746582508087,-1.6671862602233887,-2.152353525161743,0.06329407542943954,0.15607477724552155,0.7666937708854675,1.067217230796814,-0.3975818157196045,-0.13395564258098602,0.019764337688684464,-0.96297687292099,0.5819052457809448,-0.34494009613990784,-0.32471227645874023,0.48138660192489624,-0.7159138321876526,0.011638862080872059,-1.1132501363754272,0.1000443696975708,0.7331904768943787,0.07091017067432404,0.20464111864566803,0.10925815999507904,-0.07222519814968109,0.0702294260263443,1.664784550666809,1.0948731899261475,-0.9908437132835388,-0.6939412951469421,1.5592023134231567,-4.589869976043701,-3.151883840560913,-0.3059644401073456,2.0400466918945312,-1.8008949756622314,0.08885733783245087,-0.039905745536088943,-0.1539812833070755,0.16263991594314575,0.33946144580841064,0.027053996920585632,0.46754753589630127,0.5181065797805786,0.2805025577545166,0.6629176139831543,0.5932753086090088,0.22889064252376556,-1.5158474445343018,-1.089949607849121,0.4472150504589081,-2.6988775730133057,-1.3429138660430908
0.05077366158366203,-0.1943037211894989,-0.6377973556518555,-0.29371899366378784,-2.0901923179626465,0.03148387745022774,0.09681997448205948,1.417334794998169,-0.22320881485939026,-0.13619305193424225,0.06981316208839417,-0.26261910796165466,0.2714749276638031,-0.9209069013595581,0.7489984035491943,0.013062020763754845,0.46242618560791016,-0.36793816089630127,0.8300449252128601,0.35464897751808167,-0.10061204433441162,0.23548917472362518,-1.8367695808410645,-0.885703444480896,-0.45089513063430786,-1.7640669345855713,1.2866042852401733,-0.4730670154094696,0.841815710067749,0.9327496290206909,-0.11393938958644867,0.9039258360862732,-0.08728469908237457,-1.7444605827331543,0.18526172637939453,-0.47446784377098083,0.8502978682518005,1.2566161155700684,-0.7790185809135437,-2.400054693222046,-1.2724995613098145,1.3159500360488892,-2.9820754528045654,-3.051617383956909,0.9631014466285706,1.0419491529464722,0.6069064736366272,0.3716818392276764,0.07011986523866653,-0.19164560735225677,2.944000005722046,-1.0038883686065674,-0.1989412009716034,0.04117588326334953,-0.9219504594802856,-0.8283191919326782,0.8047142624855042,1.172598958015442,1.495598554611206,-0.8669135570526123,-1.4209860563278198,-0.7195900082588196,0.5232293605804443,-0.4488387107849121
0.04788647219538689,-0.1406199187040329,-0.23820383846759796,-0.08839297294616699,-2.786360025405884,-0.14662805199623108,0.12197569012641907,2.6048920154571533,-0.9123125076293945,0.04485983029007912,-0.009941548109054565,1.1180720329284668,0.9116967916488647,0.7712171077728271,1.2363301515579224,-0.00015621725469827652,0.4019671082496643,-0.9014250040054321,-1.1647255420684814,1.1878936290740967,-0.19255216419696808,-1.2175235748291016,-0.8547026515007019,-0.484992116689682,-0.3817431926727295,-0.7241517305374146,-0.23644424974918365,-0.7852151393890381,0.7394503355026245,1.7757269144058228,-0.0342540480196476,-0.44609567523002625,0.0415022037923336,-0.24242429435253143,-0.8999951481819153,-1.5898133516311646,0.406586229801178,1.199696660041809,-1.8216066360473633,-1.2405439615249634,-1.3811315298080444,0.7349336743354797,-0.7161957621574402,1.4500900506973267,-0.6270378828048706,0.3582880198955536,1.8035509586334229,0.6105701923370361,-0.2155357152223587,-0.1461441069841385,0.3894209861755371,-0.32419922947883606,-0.2242588996887207,-0.3862759470939636,-1.4571130275726318,0.4703923761844635,-1.6045005321502686,-1.220945954322815,1.1496162414550781,-0.16358999907970428,-1.9115008115768433,-1.2967840433120728,1.240820050239563,-0.12752686440944672
-0.21473392844200134,-0.07914391905069351,0.5713615417480469,-0.24766866862773895,-5.487573146820068,-0.1617065966129303,0.6063900589942932,1.9290939569473267,-0.5059201121330261,-0.014686771668493748,-0.5243471264839172,1.0276449918746948,0.7968403100967407,0.40704280138015747,0.6903314590454102,0.045783042907714844,0.5178806185722351,-0.720645010471344,-1.2790616750717163,0.43761327862739563,-0.095168337225914,-1.9461324214935303,-0.48320290446281433,-0.6465984582901001,-0.30125313997268677,-0.40775877237319946,-0.4838142693042755,-0.08543018996715546,1.1038799285888672,0.14146406948566437,-0.046541258692741394,-0.5534698367118835,-0.48682790994644165,-0.06247016787528992,-0.4877878427505493,0.7683388590812683,-0.9296454191207886,0.6330758929252625,0.05984064191579819,1.5913490056991577,0.5524776577949524,0.0514032356441021,0.8694606423377991,0.7207550406455994,-1.601556420326233,0.8329030275344849,0.3266744613647461,-0.14644686877727509,-0.1596187800168991,0.07442713528871536,-2.070254325866699,0.19264043867588043,-0.19516712427139282,-1.1714646816253662,-0.14134778082370758,0.8060744404792786,-1.9191882610321045,-2.158515214920044,1.2517409324645996,-0.3053635358810425,-0.017647797241806984,-0.8100932836532593,-0.424947053194046,0.31851378083229065
-0.028948195278644562,0.1474742442369461,-0.06093476340174675,-0.2031981647014618,-7.88397216796875,-0.03908590227365494,0.881385087966919,2.3217318058013916,-0.047526150941848755,-0.05726024881005287,0.4372239112854004,-0.02865665778517723,0.6193696856498718,-0.6911723613739014,-0.9015931487083435,-0.09565447270870209,0.0026935110799968243,0.3207821846008301,-0.4209122955799103,0.8714863061904907,0.04865244776010513,-0.7609818577766418,-0.4032132923603058,0.17269553244113922,-0.09800965338945389,-0.24995194375514984,-0.062118589878082275,0.45636099576950073,1.8015003204345703,-1.7730892896652222,0.023004010319709778,0.22254732251167297,0.4519617259502411,-1.2449084520339966,-0.5291983485221863,1.9979979991912842,-0.698939323425293,-0.01889471895992756,0.8013206124305725,1.24006187915802,0.41499772667884827,0.5393895506858826,-0.1464684158563614,-0.6551864743232727,0.8323286771774292,-0.03762427717447281,-0.5493329167366028,-0.7739437222480774,0.09080594778060913,-0.03234926983714104,-2.207852840423584,0.3592228889465332,-0.23393438756465912,-0.28088030219078064,-0.37217772006988525,-0.7880670428276062,-0.5198172926902771,-1.2483583688735962,-0.5831624269485474,-0.3689615726470947,-0.08321098238229752,-0.29852524399757385,-2.586245536804199,0.45771902799606323
0.07675786316394806,-0.0655350312590599,0.6074418425559998,-0.1459382176399231,-8.88918399810791,0.08928313851356506,-0.047305431216955185,1.15989351272583,1.061383605003357,-0.05608062818646431,0.28674596548080444,0.9905370473861694,0.12828505039215088,0.18677057325839996,-1.4986876249313354,-0.009991563856601715,1.3519102334976196,0.13499294221401215,-0.5941684246063232,1.0467073917388916,0.049146685749292374,-0.4917941391468048,1.1742054224014282,0.7821750640869141,0.026254918426275253,-0.3509311079978943,0.8411363959312439,-0.8327336311340332,1.2336293458938599,-2.071061372756958,-0.004973456263542175,-0.6579670906066895,1.0958060026168823,-0.02474157325923443,0.23946253955364227,-1.1531704664230347,-1.6021736860275269,-0.7751164436340332,-0.09809286892414093,-0.48334065079689026,0.40028491616249084,-0.061722639948129654,0.43616679310798645,-0.09789174795150757,1.8935291767120361,0.3430997431278229,0.14767056703567505,0.13427938520908356,-0.006658445578068495,0.06676537543535233,-2.433701276779175,0.6063119769096375,-0.04092073440551758,0.40090450644493103,0.08943827450275421,-1.4464179277420044,-0.43057969212532043,-0.05895574018359184,-1.5764009952545166,0.23998939990997314,0.20362909138202667,-0.12885470688343048,0.47206807136535645,0.02529982104897499
-0.15606623888015747,0.10571043938398361,-1.0882478952407837,0.028856277465820312,-4.567680358886719,-0.05785633996129036,-0.3461194634437561,1.6537216901779175,2.1369051933288574,-0.10026873648166656,-0.9023463726043701,0.11354265362024307,1.8700282573699951,-1.1418559551239014,-1.3556795120239258,0.010620985180139542,1.5473681688308716,-0.423036128282547,-0.32020407915115356,0.5710383653640747,-0.05785999819636345,-0.7535701394081116,-2.154721736907959,1.420271635055542,0.07046618312597275,-1.5119895935058594,1.3864003419876099,-0.29541313648223877,-1.0183202028274536,-0.6093472838401794,-0.14551398158073425,0.7141551971435547,2.3118345737457275,0.3558647632598877,0.27790796756744385,-0.9118809700012207,-2.3858797550201416,0.016707507893443108,-0.8606399297714233,0.21777787804603577,1.174249529838562,0.2719179093837738,0.3906252384185791,-0.2296881228685379,0.8128636479377747,0.9699404835700989,1.3762098550796509,-0.36066508293151855,0.0804218277335167,-0.20099417865276337,-0.0230941791087389,1.4094065427780151,-0.20243068039417267,0.8682075142860413,-2.0297398567199707,-0.9600682258605957,0.550529420375824,0.878861129283905,-4.033264636993408,-0.3027324080467224,-1.6532282829284668,-0.7755065560340881,1.8745710849761963,0.4394147992134094
0.08008962869644165,-0.04253092035651207,-0.5565975904464722,-0.10845106840133667,-1.4344574213027954,-0.0735606700181961,0.2887272238731384,2.9428305625915527,2.3490307331085205,0.04723222553730011,-1.475164771080017,1.5763659477233887,2.446406602859497,2.0868678092956543,-0.8093400001525879,0.05085153877735138,-0.08999528735876083,-0.10699627548456192,-0.842832088470459,-1.1701796054840088,0.14656952023506165,-3.6264703273773193,0.9934874773025513,2.139526844024658,0.034581784158945084,-0.5770686268806458,1.1893271207809448,-0.18660981953144073,-2.6477954387664795,-1.8624573945999146,0.0022495687007904053,1.0192985534667969,-0.3304175138473511,-2.3819117546081543,2.393829584121704,-1.5659561157226562,-0.970771849155426,-0.17087440192699432,1.0086150169372559,-1.6728326082229614,-0.05190829560160637,-1.0508712530136108,-0.2424059957265854,-0.5612789392471313,-3.3791866302490234,-4.739675045013428,1.4422693252563477,0.5610173344612122,-0.08006671071052551,0.09351438283920288,-0.08745446801185608,0.9695332050323486,0.042607229202985764,-1.2384274005889893,-0.97959965467453,-3.4428281784057617,-0.4485745131969452,0.21368451416492462,-2.4697659015655518,-1.9804470539093018,0.035637017339468,-0.002636383753269911,1.3450623750686646,-3.2912182807922363
-0.06264274567365646,0.04418912157416344,-0.39634406566619873,-0.14128132164478302,-0.6436144113540649,0.08728863298892975,-0.8305961489677429,1.9426183700561523,-0.12447144091129303,-0.07280737906694412,1.388129711151123,0.6133732199668884,1.8186094760894775,-1.9329239130020142,1.072383999824524,-0.041995733976364136,-0.3948252201080322,0.5148030519485474,0.8208463788032532,0.1144721657037735,-0.09263177961111069,1.1835672855377197,2.073202610015869,-0.5192099809646606,0.08604477345943451,-2.5322821140289307,-1.2407289743423462,-0.14730949699878693,-0.06491079926490784,-1.1859757900238037,-0.10781550407409668,0.8018676042556763,0.3523564636707306,1.693608283996582,-0.6550580263137817,0.3930759131908417,-1.1603245735168457,1.1434358358383179,0.08128928393125534,-1.4839253425598145,1.1133822202682495,-1.6042828559875488,0.8628807067871094,0.9016401171684265,-1.0389435291290283,-0.5806304216384888,0.7506828308105469,0.018347779288887978,-0.14123575389385223,0.08784361183643341,-0.49994105100631714,-0.9768183827400208,0.03500032424926758,-0.008431701920926571,1.3429430723190308,2.281973361968994,0.043516017496585846,-0.8290607929229736,2.4813730716705322,-0.950694739818573,-1.625195026397705,-1.111472487449646,-0.4595780670642853,1.250524878501892
-0.12540467083454132,-0.10636962950229645,0.2339024394750595,-0.07743514329195023,-0.674210250377655,-0.06334751099348068,-0.7699398398399353,-1.2977471351623535,-1.3231874704360962,-0.030775487422943115,0.6775710582733154,0.5906392931938171,1.2068291902542114,-0.8218575119972229,1.185799241065979,-0.0058042434975504875,0.7257235050201416,-0.6993593573570251,-0.13790461421012878,-2.67262864112854,-0.2659483850002289,0.8418710231781006,-0.005512821953743696,-1.9832535982131958,0.19220735132694244,0.30125561356544495,0.14870096743106842,-1.175026297569275,-0.9805514812469482,-1.1509435176849365,-0.0715491846203804,0.6015209555625916,1.3611820936203003,0.3027189373970032,-0.1251412034034729,-0.6190469264984131,0.9934151768684387,2.1345715522766113,-0.5674216747283936,-0.05850070342421532,1.3132318258285522,0.6175583600997925,-1.8664789199829102,1.603380799293518,-0.6210833787918091,0.5584293007850647,1.9795410633087158,0.5603613257408142,0.017398586496710777,0.05642280727624893,-0.5104319453239441,0.7497010827064514,0.1470017284154892,0.10711006820201874,0.2652047276496887,1.7430280447006226,-0.6644505858421326,0.30192044377326965,0.7485594749450684,-1.868869423866272,-1.0658419132232666,-0.17525342106819153,0.20864741504192352,-0.5896957516670227
-0.16962862014770508,0.16618381440639496,0.4225265681743622,-0.04475622624158859,0.43908998370170593,-0.17215946316719055,-2.4025251865386963,-0.31497722864151,-1.4903440475463867,-0.10589882731437683,-1.6260651350021362,0.7764093279838562,0.8800458908081055,2.108407974243164,-1.0703176259994507,-0.0062477062456309795,-0.8406510353088379,-0.4774419367313385,-2.792219638824463,-0.09095682948827744,-0.1693088710308075,0.9285939335823059,0.17707176506519318,-1.2028499841690063,-0.11840622872114182,0.5188009142875671,-1.4132007360458374,-2.2489852905273438,-0.4926069974899292,0.21888872981071472,0.12181156873703003,0.05610062927007675,-0.14461635053157806,0.5301840305328369,0.7942139506340027,0.16257181763648987,0.9790269732475281,0.40115708112716675,-0.9241929650306702,-0.9415390491485596,1.8543264865875244,-0.3394690752029419,-2.7745723724365234,0.5265966057777405,-1.2512809038162231,1.9326510429382324,-0.6210428476333618,-0.5946808457374573,-0.07039852440357208,-0.1487216204404831,-1.6945900917053223,0.8088897466659546,-0.0025772785302251577,1.7962487936019897,-1.8642048835754395,1.1829320192337036,-0.34827089309692383,-2.1972410678863525,1.7658995389938354,-0.9806941747665405,0.3708442449569702,0.030024176463484764,0.18673628568649292,-2.1456871032714844
-0.08305823057889938,-0.1229199692606926,-0.7809385061264038,-0.14904482662677765,0.1934390515089035,0.11788403987884521,1.1140472888946533,0.5208735466003418,-0.11401387304067612,-0.062455352395772934,0.908363401889801,0.7750942707061768,0.6030359864234924,1.2487627267837524,-1.5729353427886963,-0.09079105406999588,-1.0317103862762451,1.3033032417297363,0.07456950098276138,0.6886164546012878,-0.0012023869203403592,1.0067943334579468,1.5251702070236206,-0.25567588210105896,-0.2606818974018097,1.1175479888916016,-0.533568799495697,-1.7543261051177979,0.6975461840629578,-2.1690518856048584,0.05394008755683899,-0.330221563577652,-1.0207314491271973,0.6656498908996582,0.585357129573822,-0.006473667919635773,0.3397517800331116,-0.3165656626224518,0.1656002551317215,-0.8653469085693359,0.525221586227417,0.01589627005159855,-2.522038459777832,-2.3876895904541016,-1.404848575592041,2.5973987579345703,-2.421412706375122,-1.194983959197998,-0.06187112629413605,-0.14203786849975586,0.7609136700630188,1.0742636919021606,0.07573127001523972,-0.6839413642883301,-1.6714904308319092,1.210545301437378,-1.6267528533935547,-1.143627405166626,0.5236185789108276,-0.5587130188941956,0.19527404010295868,0.45089900493621826,1.3316946029663086,-3.8445186614990234
0.010225934907793999,-0.04581446200609207,-0.19729307293891907,-0.172360360622406,-0.06638109683990479,0.025688882917165756,0.6088520288467407,0.09622352570295334,0.7234352827072144,0.019369933754205704,0.11629278212785721,0.4342717230319977,-0.11650260537862778,0.8519817590713501,-0.914984941482544,-0.007712260354310274,-0.38571393489837646,0.854246973991394,0.11814336478710175,0.7218471169471741,-0.3450334370136261,0.40211138129234314,1.6614965200424194,1.666296362876892,-0.15338675677776337,1.1746898889541626,-2.647570848464966,-0.9427768588066101,0.9781838059425354,-1.2094988822937012,-0.0791635662317276,-0.8596218824386597,-1.5250808000564575,1.5799371004104614,-0.7241613864898682,0.24700476229190826,-0.3417668342590332,0.08001959323883057,1.218502402305603,-0.3968561887741089,1.2335631847381592,0.5461425185203552,-0.9367672204971313,-1.1790715456008911,0.21425850689411163,1.1609615087509155,-0.2692830562591553,-0.12009452283382416,-0.1912384182214737,0.04259691387414932,1.3735934495925903,1.0116404294967651,-0.19997155666351318,0.35755911469459534,-2.7284531593322754,-0.603740930557251,-1.2215125560760498,0.8370155096054077,-0.36822229623794556,-0.6548311114311218,-0.5989121198654175,0.9935512542724609,1.1282415390014648,-4.404306888580322
-0.1889168620109558,-0.08520328253507614,-1.6383947134017944,-0.30804774165153503,0.022479578852653503,0.03240630030632019,1.0173853635787964,1.0353134870529175,0.35338300466537476,0.08399370312690735,-0.12945570051670074,-0.12672871351242065,0.855800449848175,-2.889583110809326,0.594771683216095,-0.20716552436351776,0.01738446019589901,-0.5746380090713501,1.338437557220459,0.3388337790966034,-0.23082326352596283,0.2145260125398636,-2.392359733581543,0.937853991985321,-0.18647000193595886,1.6626231670379639,-1.9131126403808594,2.1695284843444824,-0.3787473142147064,-1.9702554941177368,-0.021547183394432068,-0.9323009252548218,-0.9861776232719421,0.14971281588077545,-0.45975470542907715,-0.4987533688545227,-0.861230731010437,1.9048391580581665,0.3272477090358734,-0.39985090494155884,1.0037816762924194,0.7802010178565979,-1.1040053367614746,-1.6517800092697144,-0.22035402059555054,-1.37320077419281,-0.20621484518051147,0.7533009648323059,-0.017041200771927834,-0.072318434715271,1.5102565288543701,0.7757033705711365,-0.013169802725315094,-1.020895004272461,-1.7246938943862915,-2.0374443531036377,0.12790821492671967,-0.3377230763435364,-0.7112156748771667,-0.7022110223770142,-0.8699926733970642,-0.21201562881469727,-1.057437777519226,-2.2813947200775146
-0.04690539836883545,-0.15346460044384003,-1.8632469177246094,-0.05441216379404068,-0.03820451721549034,-0.24325470626354218,-0.1113467738032341,0.5262667536735535,-0.14757931232452393,-0.05457519739866257,-0.8882850408554077,-2.29256272315979,0.3604375123977661,-2.3539247512817383,1.4716434478759766,-0.1644190102815628,0.14963077008724213,0.7425504922866821,-0.4755881428718567,0.5971572399139404,-0.13978919386863708,0.8455165028572083,-1.127740502357483,-0.23345321416854858,-0.2930087447166443,2.022329807281494,-0.018369747325778008,0.8222625255584717,0.8830830454826355,-0.49217578768730164,0.06772405654191971,-1.9420397281646729,1.86270272731781,-0.8434992432594299,-0.3382592797279358,-1.4379297494888306,0.233154296875,2.124398946762085,-2.090477228164673,-0.720912516117096,0.21859946846961975,-0.9821727275848389,-0.19477657973766327,0.02285059355199337,0.2232404351234436,-0.8768089413642883,0.7228469252586365,1.1936497688293457,-0.015186780132353306,-0.17974844574928284,1.1786338090896606,-0.857533872127533,-0.0333990678191185,-0.7547749280929565,-0.8803947567939758,-2.461649179458618,0.2552246153354645,1.662696361541748,0.4799005091190338,-1.7720922231674194,-1.5068118572235107,-1.4403133392333984,0.29869550466537476,0.1956709623336792
0.03576445206999779,0.07253003120422363,-0.6552799940109253,0.11628711223602295,0.366278737783432,0.03975242003798485,0.5966811776161194,-0.297356516122818,-2.054112195968628,-0.18432879447937012,0.8323666453361511,-1.286874532699585,-0.043796829879283905,-1.0600574016571045,0.09648970514535904,0.044099777936935425,0.15344010293483734,-0.4560122787952423,-0.3180898427963257,-1.5911239385604858,-0.0045153857208788395,0.7428441643714905,0.6837761402130127,-0.5111552476882935,-0.2673802375793457,1.3090673685073853,-0.28312018513679504,-0.9356072545051575,0.32692140340805054,0.6183079481124878,-0.21658073365688324,-1.7588149309158325,1.1691499948501587,0.47199493646621704,0.2741270363330841,-2.365924596786499,0.6337637305259705,1.635209083557129,-3.610091209411621,-0.14141714572906494,-0.18818476796150208,-1.75600004196167,-0.1605837494134903,2.630375862121582,-1.5262235403060913,0.17585952579975128,-0.35739585757255554,0.9247202277183533,-0.07807189971208572,-0.0842687338590622,-1.3020879030227661,-0.7336510419845581,0.04087512567639351,-1.85651695728302,-0.9434978365898132,0.25989460945129395,-2.2675018310546875,0.5443323254585266,1.1998920440673828,-1.6167893409729004,-0.11242169141769409,-1.559385895729065,1.6515555381774902,0.11034934222698212
-0.08021249622106552,-0.19627100229263306,-0.49698665738105774,-0.2297954559326172,0.49909865856170654,-0.23658797144889832,0.9878777861595154,-0.2937871813774109,-4.051149368286133,-0.13417653739452362,-0.8044353127479553,-0.8022879362106323,0.873841404914856,-1.203906774520874,-0.6523409485816956,-0.21017107367515564,-2.4183807373046875,-1.0894447565078735,1.3228782415390015,-1.7058253288269043,-0.17862330377101898,1.3212106227874756,1.1327844858169556,0.32654356956481934,-0.28858256340026855,0.7207184433937073,-1.451859951019287,0.5992361903190613,-0.507946252822876,0.7245445251464844,-0.1571158617734909,-0.5112319588661194,1.6380037069320679,1.4051604270935059,0.2691229283809662,-1.3985785245895386,-0.2818857729434967,2.112368583679199,-4.716612815856934,0.08726070821285248,0.2899189591407776,0.43213537335395813,0.5961307883262634,0.501768171787262,0.22804710268974304,0.2916114032268524,-1.6218390464782715,-0.46501022577285767,0.0453479066491127,-0.01927228830754757,-1.2463995218276978,-0.10880950838327408,-0.06448623538017273,-0.18398937582969666,0.1031063050031662,-0.7469406723976135,-5.547423362731934,-0.3772333264350891,1.39146888256073,-0.25029677152633667,0.35353323817253113,-1.284779667854309,-1.560288667678833,-0.30164623260498047
-0.010908330790698528,-0.13509483635425568,-0.10496868938207626,-0.04179665073752403,-0.9179232716560364,0.12870094180107117,0.6358662843704224,0.6425299644470215,-5.047037124633789,0.07741028815507889,0.3682743012905121,-0.012410932220518589,1.0075335502624512,-0.40283501148223877,-2.3277812004089355,-0.0514821819961071,-1.824999213218689,-0.38561299443244934,0.849940836429596,0.0641368106007576,-0.27189332246780396,1.315717101097107,0.480808287858963,1.4337013959884644,-0.4216430187225342,0.03426697477698326,-0.49972325563430786,0.2624001204967499,1.9100251197814941,-0.21262682974338531,-0.036607444286346436,0.4528968930244446,1.1403136253356934,-0.05830521881580353,0.27094903588294983,0.8054693937301636,-0.013718639500439167,1.1090208292007446,-5.083069801330566,-0.20220643281936646,0.21780259907245636,0.046523697674274445,0.07827932387590408,-0.10454113036394119,0.6474263072013855,0.3527006506919861,-2.0833165645599365,-0.18739180266857147,0.018849894404411316,-0.04106022045016289,-1.2307757139205933,0.022320657968521118,0.004404278006404638,0.7123066782951355,-0.06949726492166519,-0.33083575963974,-2.999116897583008,-2.397735595703125,1.1765004396438599,0.5098198652267456,-0.22093245387077332,-0.16615137457847595,-2.5550193786621094,0.4767921566963196
-0.06748376041650772,-0.018902691081166267,0.5404214262962341,-0.04932304844260216,-1.485404133796692,0.03837519884109497,0.47388336062431335,0.3715498745441437,-4.505106449127197,-0.0070474278181791306,0.5379065871238708,-0.8124441504478455,-0.5115278959274292,0.31917116045951843,-2.414043426513672,-0.03923122584819794,0.6829500198364258,1.364651083946228,-1.7921849489212036,1.1063640117645264,-0.0505530871450901,1.329301118850708,1.01969313621521,0.9373094439506531,-0.06913404911756516,0.20881636440753937,0.15850487351417542,-0.8089413046836853,1.1217836141586304,-1.3137621879577637,-0.014535501599311829,0.304329514503479,0.2465006411075592,-0.15209335088729858,0.3669434189796448,0.44800010323524475,0.13443176448345184,0.25235575437545776,-2.580193281173706,-1.3417632579803467,0.6803179979324341,-1.172409176826477,0.8332539796829224,-0.8341440558433533,1.9614298343658447,-0.261220782995224,-1.3491679430007935,-1.048208475112915,-0.11214629560709,-0.050566259771585464,-1.0271379947662354,0.868220865726471,-0.04656083509325981,0.6421259045600891,-1.5552958250045776,-0.2297794669866562,-1.5941803455352783,-0.455888569355011,0.12584008276462555,-0.03094714879989624,-0.03137882053852081,-0.5033704042434692,-0.7599873542785645,-1.1060328483581543
-0.1139727383852005,-0.036129556596279144,-0.4701785743236542,0.12848368287086487,-1.875392198562622,-0.06540343910455704,0.6461064219474792,3.421251058578491,-5.286385536193848,-0.01596449501812458,-1.8990343809127808,1.2302651405334473,-0.05422424152493477,0.8093906044960022,-1.08663010597229,0.055159833282232285,2.193697690963745,0.22613802552223206,-1.7061183452606201,2.2047853469848633,0.1898423284292221,0.34678390622138977,0.4679262340068817,0.9442241191864014,0.16448669135570526,-2.5702106952667236,-0.2986077070236206,-0.7875082492828369,-0.7779649496078491,-1.7579387426376343,-0.03235365450382233,0.5143856406211853,1.1181915998458862,-1.897438883781433,1.285955786705017,0.02893807180225849,0.011848105117678642,-0.17030635476112366,-2.0230553150177,-0.8233969807624817,0.6118860244750977,-1.0436255931854248,-0.5207559466362,2.0618913173675537,-0.6609187126159668,-1.77060866355896,3.1745495796203613,-0.8905479907989502,-0.1812906116247177,-0.0809444785118103,-0.9096740484237671,0.22476108372211456,0.0599265955388546,-1.1960835456848145,-1.833577036857605,-1.101845145225525,-2.103241205215454,0.4664742350578308,-0.3407408595085144,-0.8475571274757385,-1.0203946828842163,0.6495943665504456,-0.07700295001268387,-1.4880257844924927
0.017990514636039734,0.015430266968905926,-1.5914512872695923,-0.14472484588623047,-0.0943012461066246,0.03495822846889496,0.5496178269386292,1.9954010248184204,0.40862494707107544,-0.05518569052219391,-3.567857503890991,1.2573213577270508,1.2678779363632202,0.027858281508088112,0.3770483136177063,0.06307672709226608,0.8956148624420166,-0.5028473138809204,-0.6768927574157715,-0.20517387986183167,0.35176873207092285,0.8514531254768372,-1.2494689226150513,0.8636208772659302,0.1544024497270584,-1.2371058464050293,1.2481648921966553,-2.3047144412994385,-2.9072091579437256,-1.849825143814087,-0.029603227972984314,2.321939468383789,-0.7603448033332825,-3.278825521469116,3.2387351989746094,-1.1728004217147827,0.5747391581535339,-1.7875242233276367,1.6740634441375732,-0.6580551862716675,-1.5831573009490967,0.06225406378507614,2.2507565021514893,2.161465644836426,-4.702663898468018,-0.2800912857055664,1.356500267982483,-0.13032348453998566,-0.04095500707626343,-0.00807629432529211,1.3368291854858398,0.0024242247454822063,0.03321449086070061,-1.7991042137145996,1.9180312156677246,-0.5962413549423218,-0.47101685404777527,-0.7433919310569763,-2.670552968978882,-0.5115587711334229,0.5726707577705383,-2.0324416160583496,0.08288678526878357,-1.5943095684051514
