{"weights": [[[-0.28848737478256226, -0.06266641616821289, -0.32186469435691833, -0.056239429861307144, 0.17239151895046234, 0.02066618949174881, -0.19451181590557098, -1.3839812278747559, 0.2746307849884033, -0.09853392839431763, -0.2968357801437378, -0.15536263585090637, -0.01715654321014881, -0.11822423338890076, -0.15829940140247345, -0.8499258160591125, -0.11339038610458374, -0.046014513820409775, 0.16344787180423737, 0.04408218711614609, -2.132511854171753, -1.5801458358764648, -0.3692539930343628, -0.7500783205032349, 0.5720392465591431, 1.2064282894134521, -0.19512945413589478, -0.18629471957683563, 0.4807979464530945, 0.22714653611183167, 0.4769817888736725, -0.032421763986349106, -0.5181760191917419, -0.4224203824996948, -0.9793691635131836, -1.8010309934616089, -1.5834853649139404, 0.8977581858634949, 2.3407790660858154, -0.49062013626098633, -0.8165894150733948, 0.14527815580368042, -0.26938632130622864, -0.2958453893661499, 0.043124862015247345, 1.6671628952026367, 0.4530617892742157, -1.3098316192626953, -1.5842041969299316, -0.5211275815963745, -1.1647125482559204, 1.5035805702209473, -0.01947937346994877, -0.8006979823112488, -0.05327838286757469, -0.3497143089771271, 0.5401520133018494, 0.9786167740821838, 0.03957372531294823, 1.1643863916397095, 1.6248598098754883, -2.4069316387176514, -1.1557624340057373, -1.8983333110809326, 0.23807388544082642, -0.06027405336499214, 0.35809171199798584, 1.2968618869781494, 0.03140616789460182, -0.26758965849876404, 0.16436633467674255, -0.13069187104701996, 3.687734365463257, 2.4937350749969482, -0.19656139612197876, -1.1090590953826904, -1.2929718494415283, 0.4761643707752228, 0.00032261270098388195, 0.05120930075645447, 0.45724213123321533, -0.39261266589164734, -0.3214808702468872, 0.34572261571884155, 1.06396484375, 2.553417444229126, 0.5500032901763916, 0.0267996434122324, -0.9496647715568542, -0.2510666251182556, -0.4109981060028076, 0.3314450979232788, -0.4275497794151306, -1.1112279891967773, -0.5201641917228699, 0.3486960828304291, 1.983300805091858, 1.0444282293319702, 0.6761086583137512, 0.1317078322172165, -0.9921432137489319, -0.36544564366340637, -0.3535694479942322, -0.508722186088562, 0.32478082180023193, 0.5950382351875305, -0.26464512944221497, -0.24317951500415802, 0.10267604887485504, 2.7092344760894775, 0.05904916673898697, -0.3725818693637848, -0.16069339215755463, -0.31049230694770813, 0.18222244083881378, 0.22335505485534668, -0.038892704993486404, 0.04484035074710846, -0.09275377541780472, -0.006364875938743353, -0.8026443123817444, -1.5371195077896118, -0.16051410138607025, 0.5058258175849915, 0.0682050809264183, 0.1602485328912735, 0.41711416840553284, -0.07358458638191223, 0.6571983695030212, 0.055447403341531754, -1.717761516571045, -1.453056812286377, -0.5008227825164795, -1.3750982284545898, -0.5221397876739502, 0.009514400735497475, 0.7243632674217224, 0.43368932604789734, 0.15735085308551788, 0.5217289328575134, 0.5872544646263123, -1.192403793334961, 0.001902023795992136, -0.018905671313405037, -1.1831555366516113, -1.9694713354110718, -1.003950595855713, -0.7443802952766418, -0.4543013572692871, 0.5731776356697083, 1.7024736404418945, 0.7798449397087097, 1.2512179613113403, 1.3444042205810547, -0.11817417293787003, -0.018343443050980568, -0.11811670660972595, 0.09723193198442459, 1.873705506324768, -0.31290403008461, -0.8426814079284668, -1.4751299619674683, 0.5068857073783875, 1.0067839622497559, 1.4946645498275757, 0.07464706897735596, -0.19396573305130005, -0.0941261276602745, -0.2634330987930298], [0.46265438199043274, 0.5609700083732605, 0.512273371219635, -0.31789085268974304, -0.8882549405097961, -0.8983691930770874, -0.44369950890541077, 0.3195316195487976, -0.2403915673494339, 0.16887909173965454, -0.12465490400791168, -0.039464183151721954, 0.35535576939582825, 0.5944604873657227, 0.45952093601226807, 0.3841914236545563, -1.5901532173156738, -1.7790391445159912, -2.0232365131378174, -1.151129126548767, -1.3707823753356934, 0.1028679832816124, -0.7838892340660095, -2.011998414993286, -0.01001924928277731, 0.3329203128814697, 0.5109197497367859, -1.0714927911758423, 0.04028451442718506, 1.5455290079116821, 1.1678522825241089, 0.4803706109523773, 0.34606727957725525, -0.46938031911849976, -0.4971570670604706, -1.3703536987304688, -0.9826544523239136, 0.09739818423986435, -0.3785383701324463, 0.5803388953208923, -1.6040441989898682, -0.1404271125793457, -0.2533344030380249, -0.516055703163147, -0.5496052503585815, 1.1727970838546753, 0.8465763330459595, 1.0356582403182983, 1.8970011472702026, 0.7894458770751953, 1.2261555194854736, 0.1324576437473297, 0.588083803653717, -0.8161399960517883, -1.0276694297790527, -0.03812401741743088, -0.5323371291160583, -0.07898277789354324, 0.9267598390579224, 1.2182923555374146, 0.6262570023536682, -0.8760069608688354, 1.0399296283721924, 1.7977160215377808, 0.860866367816925, 0.7638480067253113, -1.1475225687026978, 0.2120620310306549, -0.10420114547014236, -0.3532378077507019, -0.08142156153917313, -1.3789818286895752, 0.32229819893836975, 1.2432997226715088, 0.47636890411376953, 0.7699077129364014, 2.4595673084259033, -0.7929452061653137, 0.5824877023696899, 0.45427125692367554, 1.406888723373413, 0.573046088218689, 0.5207400918006897, 0.10605119168758392, -1.558598518371582, -0.5323192477226257, -0.1008889377117157, 0.1529805064201355, -0.08575917780399323, 1.8935582637786865, -1.8992949724197388, 0.22307129204273224, 0.03995617851614952, 1.3551678657531738, 0.7872975468635559, -0.3668210804462433, -1.3509416580200195, -0.4545574486255646, 0.34429895877838135, 0.11724285781383514, -0.77530837059021, -0.12391399592161179, -0.1470051258802414, -1.5328673124313354, 0.5075077414512634, -2.2534193992614746, 0.5334591865539551, -0.943120002746582, -0.8148905634880066, -0.7560220956802368, 2.378084897994995, 1.0721802711486816, -0.5003177523612976, -0.5915570259094238, -1.8153587579727173, -1.8336735963821411, 0.4884992837905884, 0.47737905383110046, -1.9586491584777832, 0.1313537061214447, 0.17844483256340027, -0.5637595653533936, 0.19387592375278473, 1.1170116662979126, 0.5511957406997681, -0.9329193234443665, -0.5608116388320923, -2.4813175201416016, -0.713735044002533, -0.1539285033941269, 0.5003297328948975, -0.4433673918247223, 0.011673050001263618, -0.37602698802948, -0.00530922319740057, -0.6767305731773376, -1.2183690071105957, 0.15598051249980927, 0.3402199149131775, -0.15433788299560547, -0.6096099019050598, 3.4814531803131104, 1.082880973815918, 0.4900636672973633, -0.6304928064346313, 0.39658063650131226, 0.3301313817501068, 0.4087158739566803, -0.3451748788356781, 0.4230975806713104, -0.3323154151439667, -0.42525768280029297, 1.4891512393951416, 0.9475176930427551, 1.5019910335540771, 0.6100434064865112, 0.5421262979507446, 0.8536099195480347, 1.0018019676208496, 0.7511646151542664, 0.6296850442886353, 0.6172431111335754, -0.901039719581604, -1.438001275062561, 0.001389515120536089, 0.6724971532821655, 0.5150934457778931, 0.4993341863155365, 0.4161587357521057], [-0.46900588274002075, -0.43870487809181213, -0.5780822038650513, 0.07096213102340698, -0.3647846579551697, -0.06101514771580696, -1.8327821493148804, -1.0772309303283691, -1.3016854524612427, 0.23513856530189514, 0.0466974638402462, -0.14092446863651276, -0.3944453001022339, -0.42614465951919556, -0.48839014768600464, -0.38355201482772827, 0.9408875107765198, 0.9524574279785156, 0.16796788573265076, -0.6468845009803772, -0.005454033147543669, 0.6003149151802063, 0.5783299803733826, 0.24136720597743988, 0.4644373655319214, -0.7134013772010803, -0.313886821269989, -1.137870192527771, -1.2276709079742432, 2.056744337081909, 1.9072461128234863, 0.6355062127113342, -0.10051131248474121, 0.4697306454181671, -1.0687223672866821, -0.7181209921836853, 0.06966106593608856, 1.5428510904312134, 0.554540753364563, -0.4854079484939575, -1.581915259361267, -0.18343359231948853, 3.4070725440979004, 2.256603717803955, 0.18873466551303864, -0.277381032705307, 1.6128828525543213, 0.9053104519844055, -1.083188772201538, -0.6716370582580566, 2.6832945346832275, 0.42079976201057434, -0.3474983870983124, -0.9814328551292419, 1.4560167789459229, 1.3607714176177979, 1.0560063123703003, -0.30305013060569763, -0.45868587493896484, 2.2178890705108643, 0.011567039415240288, -0.6736907958984375, 0.9313544631004333, 3.564270257949829, 0.865710973739624, 0.21635447442531586, 0.18409408628940582, 0.7372803688049316, -0.05680374428629875, -0.05420837551355362, 0.08195830881595612, 1.1055904626846313, 1.3728262186050415, 0.2869783341884613, 0.2395046055316925, 0.3737473487854004, 0.3509202301502228, -2.5239648818969727, 0.09621162712574005, -0.2907753884792328, -0.14478199183940887, 0.08917689323425293, 0.9990379810333252, 0.16719147562980652, 0.6471899151802063, -0.661257266998291, -0.35857462882995605, 0.4071674942970276, 0.13600532710552216, -0.008421491831541061, -1.9604997634887695, 0.3665517270565033, -1.1215147972106934, -0.9528612494468689, -0.8098061680793762, -0.913470447063446, -0.6197406053543091, -0.05444713681936264, -0.8735853433609009, -0.38773277401924133, -0.0428149588406086, 1.6054197549819946, 3.8159124851226807, 0.5579433441162109, 0.3004390299320221, -0.8844598531723022, -1.8078514337539673, -1.1090822219848633, -1.2435686588287354, -1.0286568403244019, -0.6469783782958984, -0.6490851044654846, -0.7477190494537354, -0.5116761326789856, -1.9874236583709717, -0.4744879901409149, -0.6228690147399902, -0.4047349989414215, -1.1081522703170776, -1.1254558563232422, -0.10821213573217392, 1.0181881189346313, 1.4232133626937866, 0.7532544136047363, -0.8730518221855164, -1.1332557201385498, -0.7149519920349121, -2.032205104827881, -3.049150228500366, -0.2223363220691681, -0.3022003173828125, -0.6888968348503113, -1.1435399055480957, 0.0017878320068120956, 1.8509018421173096, 1.6345362663269043, 0.8594688177108765, -0.8573132157325745, 0.054757699370384216, -1.0711032152175903, -1.441861629486084, 0.6835947632789612, 0.7335197925567627, -0.5118951797485352, 0.3223208487033844, 2.370677947998047, 1.7660831212997437, 3.545717716217041, 0.2877025306224823, 2.5433948040008545, 0.13697218894958496, -0.3853779137134552, 0.056098438799381256, -0.6241276860237122, 1.1660822629928589, 0.25266292691230774, -0.3071705400943756, -0.45874160528182983, -0.4837692975997925, 0.3698473572731018, 1.7920303344726562, 0.5361021161079407, -0.2859137952327728, 0.2885362505912781, -0.04795569181442261, -0.44302061200141907, -1.1826996803283691, -0.21090321242809296, -0.505855917930603], [-0.4385129511356354, -0.5264050364494324, -0.5518044233322144, -0.5422308444976807, -0.8970445394515991, -1.0312687158584595, -0.5387592315673828, -1.0496255159378052, -0.43514543771743774, -0.43966373801231384, -0.620304524898529, -0.4875604808330536, -0.3800620138645172, -0.47965165972709656, -0.6679331660270691, -1.3456320762634277, -0.7063810229301453, -0.2724063992500305, -2.055551528930664, 0.30403655767440796, 1.9698141813278198, 1.043499231338501, -0.7107238173484802, 0.5871680974960327, -1.1205376386642456, -0.6337676048278809, -0.5492586493492126, -0.7835349440574646, -0.6709226965904236, 1.142404317855835, 0.4594166576862335, -0.3451443612575531, 0.8260294198989868, 2.883312225341797, 2.110417604446411, 0.1616034209728241, 0.19795635342597961, -1.503142237663269, -0.591712236404419, -0.6173531413078308, 0.01732274703681469, -0.01641039177775383, 0.1279199868440628, 0.23134170472621918, 0.25038260221481323, 1.296351432800293, 2.3912556171417236, 0.3041943311691284, 0.8019309043884277, -1.1077933311462402, -1.219606876373291, -1.4353481531143188, -0.4022681713104248, -1.2754101753234863, -0.475635826587677, 0.16794079542160034, -0.1360199749469757, -0.5217043161392212, 1.7472460269927979, -0.2173643559217453, -1.5224155187606812, -1.1993227005004883, -1.510456919670105, -2.3005053997039795, -1.8055469989776611, -0.1670389324426651, -1.0950013399124146, -0.5173289179801941, 0.2200743407011032, -0.35787054896354675, -0.10427436977624893, 1.3504703044891357, 1.3831661939620972, 0.8316554427146912, 1.6561343669891357, 0.5141239166259766, 0.6356974840164185, -0.29788175225257874, -0.46323835849761963, 0.02726711891591549, -1.066994547843933, -0.3914044499397278, -0.7986382246017456, -1.6631083488464355, -0.5299835801124573, 0.6878652572631836, 0.6079100370407104, 1.5565584897994995, 0.990463376045227, 0.27209195494651794, 1.0741353034973145, -0.5456368327140808, 1.1555536985397339, 0.12040666490793228, 0.3035416305065155, 0.028547240421175957, -1.1517366170883179, -1.0345593690872192, -0.9236329197883606, -0.18442018330097198, 0.47680890560150146, 0.6008604764938354, 2.49953031539917, 1.1382650136947632, -0.49332571029663086, 0.5475738048553467, 1.7372647523880005, 0.8520050644874573, 0.7551987767219543, 1.0575240850448608, -0.3338279128074646, -0.1264461725950241, -1.1089661121368408, -0.11252883821725845, -0.19255222380161285, 0.6229853630065918, 0.12003528326749802, -0.4565272927284241, -0.01887468248605728, 1.2060238122940063, 0.41798096895217896, -0.176631897687912, -0.3176637589931488, -0.36291468143463135, -0.46547403931617737, -1.0896676778793335, -0.42952921986579895, -0.7413952946662903, -1.7155848741531372, -0.6135976910591125, -0.49349161982536316, 1.0372449159622192, 2.489428758621216, 0.38369759917259216, 0.05415855348110199, -1.0447639226913452, -0.883643388748169, -0.611692488193512, -1.0404279232025146, -1.003173589706421, -0.37772926688194275, -1.9524892568588257, -0.9720609784126282, -0.5204323530197144, -0.5077681541442871, 2.5002002716064453, 2.768326997756958, 0.45687398314476013, 0.6964783668518066, -1.171452283859253, -0.45257148146629333, -0.6631888151168823, 0.5920432209968567, -0.5434187650680542, -2.8422939777374268, -0.568443238735199, -0.6094357371330261, -0.599245011806488, 1.5216293334960938, 1.7533209323883057, 2.630681276321411, 3.6637518405914307, 1.404898762702942, 2.3497812747955322, 2.4409408569335938, 2.701129913330078, 0.14902661740779877, -1.1972570419311523, -0.31855684518814087], [-0.07899703085422516, -0.23941753804683685, -0.19842644035816193, -0.12060312926769257, -0.040795329958200455, -0.1721990704536438, -0.1513587385416031, -0.1345878392457962, 0.037271782755851746, -0.047486744821071625, -0.12762732803821564, -0.030009940266609192, -0.2613013982772827, 0.0432356558740139, -0.021577030420303345, -0.03477775305509567, -0.0560787171125412, 0.05601261183619499, 0.11324729770421982, -0.09010026603937149, 0.19817820191383362, -0.07801594585180283, 0.2198328822851181, 0.13327836990356445, 0.06436995416879654, -0.039489299058914185, -0.28832316398620605, -0.2376292198896408, 0.16987936198711395, 0.05090164765715599, 0.14721296727657318, 0.05432093143463135, 0.1553187519311905, -0.027098650112748146, -0.03419669345021248, 0.005994867067784071, -0.05647134408354759, -0.031582605093717575, -0.04678827524185181, -0.21638748049736023, -0.07334039360284805, 0.012599943205714226, 0.03502894937992096, 0.06288579851388931, -0.05776307359337807, 0.2266276478767395, 0.08588767796754837, 0.05498700216412544, 0.012616436928510666, 0.11955077201128006, -0.01336255855858326, 0.02079973928630352, -0.15063133835792542, 0.04702431336045265, 0.01681283488869667, 0.16142451763153076, -0.010087167844176292, 0.028577424585819244, 0.044016242027282715, -0.019476313143968582, 0.060908012092113495, 0.22626374661922455, 0.22391222417354584, 0.016260510310530663, -0.24789844453334808, -0.251785010099411, -0.10532255470752716, -0.0728074163198471, -0.03551176190376282, 0.113736093044281, 0.008404464460909367, 0.013740791007876396, 0.17305536568164825, -0.033026743680238724, 0.11418790370225906, 0.12742863595485687, -0.018731694668531418, -0.19633761048316956, -0.23484012484550476, -0.04553618282079697, 0.04991175979375839, 0.13092635571956635, 0.016345800831913948, -0.08162302523851395, 0.01373567059636116, 0.14370159804821014, 0.0803857371211052, 0.021492503583431244, 0.24460919201374054, 0.07506846636533737, -0.14342191815376282, -0.25560814142227173, 0.012755703181028366, -0.01663939468562603, -0.06905516237020493, -0.11552345752716064, 0.03816183656454086, 0.15139132738113403, 0.1528272181749344, 0.0005768627161160111, 0.1921951323747635, 0.1165136843919754, 0.07998434454202652, -0.16934475302696228, -0.1622203141450882, -0.13768111169338226, 0.01664007641375065, 0.17552824318408966, 0.16529607772827148, -0.030109109356999397, 0.01937948726117611, -0.07779901474714279, 0.09363013505935669, -0.10180465131998062, 0.22480735182762146, 0.08213069289922714, -0.1572977751493454, -0.16617117822170258, -0.20343944430351257, -0.07369915395975113, 0.18669678270816803, 0.10101161897182465, 0.03575240075588226, 0.09100279211997986, 0.15178628265857697, 0.011427590623497963, 0.13683849573135376, 0.051279786974191666, 0.183973029255867, -0.2541860342025757, -0.07586241513490677, 0.020600881427526474, -0.18320687115192413, 0.01408343855291605, -0.05369164049625397, 0.10133284330368042, 0.0255520548671484, 0.11842119693756104, 0.10423571616411209, -0.009284567087888718, -0.09836264699697495, -0.10160350799560547, -0.18183396756649017, -0.05558384582400322, -0.11313508450984955, 0.051685720682144165, -0.08664028346538544, -0.03202518820762634, 0.1342351734638214, 0.1530858725309372, 0.011768207885324955, 0.18458585441112518, 0.10839975625276566, -0.07129586488008499, 0.023920901119709015, -0.025078658014535904, -0.0856945663690567, -0.09724802523851395, -0.10141982138156891, 0.024529702961444855, -0.1401335895061493, -0.09321810305118561, -0.056093133985996246, -0.00908314436674118, -0.06733591109514236, -0.00042103571468032897, 0.10240545123815536, -0.13474738597869873, -0.032871637493371964], [-1.0815538167953491, -1.0018442869186401, -0.9585491418838501, -0.9452731013298035, -0.9046187996864319, -1.1750885248184204, -0.6561295390129089, 0.4471718668937683, -0.7643030881881714, -1.1919348239898682, -0.9818398952484131, -1.01263427734375, -1.0139520168304443, -0.7883546948432922, -1.0584722757339478, -0.9388614296913147, 0.6887154579162598, 1.1184184551239014, 0.0251941941678524, -1.1625699996948242, -0.6967797875404358, 1.6729369163513184, -0.15421390533447266, -1.8002150058746338, -0.8427615761756897, -1.1608604192733765, -0.9290780425071716, -0.7284597158432007, 0.6899710297584534, 1.5677419900894165, 1.198960304260254, -1.7359755039215088, -1.664261817932129, 3.2153239250183105, 2.5354530811309814, -0.6222057938575745, -0.9872917532920837, -1.8315238952636719, 0.10991743206977844, -1.2799898386001587, -0.11299628764390945, 0.8395918011665344, 2.0593466758728027, 0.7046400904655457, -1.6955223083496094, -1.6616487503051758, 3.902573823928833, -0.28349974751472473, 0.1348704844713211, 0.7986437678337097, -0.5564715266227722, -1.6143194437026978, -0.9979028701782227, 0.5327794551849365, -0.031958844512701035, 1.6335413455963135, 1.6840888261795044, -0.9500739574432373, -0.48348337411880493, 1.0013527870178223, -1.346530556678772, -0.9706804156303406, -0.67377108335495, 0.017983151599764824, -0.21221674978733063, -0.8948268890380859, 0.06322791427373886, 1.0868937969207764, -0.1685093492269516, 0.7664875984191895, -2.005847215652466, 1.1695702075958252, 0.38506272435188293, -0.24692568182945251, 0.7942286729812622, 0.18484750390052795, 0.4925631582736969, -0.09466753154993057, -1.2176908254623413, 0.12048223614692688, 0.6063210964202881, 0.38334596157073975, -0.8355461359024048, -0.548323392868042, 1.4632970094680786, -0.3598681092262268, -0.3092498779296875, 0.035975344479084015, -0.4417203664779663, -0.6950266361236572, -0.1528971791267395, -0.7118347883224487, 1.2739750146865845, 0.5101076364517212, -0.8785433769226074, 0.10424619913101196, 0.5439335703849792, 0.23619434237480164, -0.05371975153684616, -0.8183750510215759, -0.6006715893745422, -0.4847511947154999, 1.3296492099761963, 1.108332633972168, -0.69983971118927, -0.9557557702064514, -0.0878896564245224, 0.19887672364711761, 0.9208452701568604, 0.22239406406879425, -0.5241132974624634, -0.14491625130176544, -0.428341805934906, -0.044317517429590225, 0.533345639705658, -1.154110312461853, -1.3532094955444336, -1.0143810510635376, -0.765296995639801, 0.5012009143829346, 2.061567544937134, 1.553950309753418, -0.19995903968811035, 0.722535252571106, 0.7642318606376648, 0.18289245665073395, 0.22795605659484863, 1.1027462482452393, 0.6259162425994873, -0.2457905262708664, -0.8602392077445984, 1.1732239723205566, 3.4164185523986816, -0.1737310141324997, -1.2423319816589355, -1.0764517784118652, 0.9711831212043762, 0.23359167575836182, -0.029288683086633682, -0.3484845459461212, 0.15819303691387177, -0.10334543138742447, -0.37998276948928833, -1.1352713108062744, 0.29506099224090576, -0.6660339832305908, -0.02809087373316288, -0.2843548357486725, -0.39467868208885193, -0.7893402576446533, 0.4864319860935211, 0.5465225577354431, 0.9060479402542114, -0.7025203108787537, -0.7273173332214355, -0.7280095815658569, -0.8354057669639587, -0.8451948165893555, 0.36302450299263, 0.5000179409980774, 0.27008891105651855, -0.15598663687705994, 0.05861750245094299, -0.31077203154563904, 2.8333168029785156, 0.4534682631492615, -0.6001619100570679, -1.370859146118164, -0.926112711429596], [-0.3566106855869293, -0.18994277715682983, -0.21400363743305206, -0.4227476418018341, -0.3229748010635376, -0.4026906490325928, -0.11961527913808823, -0.01317785307765007, -0.049262575805187225, 0.30299317836761475, 0.43435484170913696, -0.3446427285671234, -0.16888746619224548, -0.13127173483371735, -0.20842720568180084, -0.4240249693393707, -1.3261150121688843, -1.1340221166610718, 0.7674925327301025, 1.7095822095870972, 1.9185417890548706, 1.279036283493042, 1.417050838470459, -0.7212566137313843, -0.2059864103794098, -0.2659360468387604, -0.190791055560112, -1.1655634641647339, -2.9160420894622803, -0.8117658495903015, 0.27754268050193787, -0.38919201493263245, -0.12097714096307755, -1.0560872554779053, -1.102421522140503, 0.3001148998737335, 0.9867936372756958, 0.04335063323378563, -0.7034599184989929, -0.5952648520469666, -1.9236642122268677, -2.4278411865234375, -1.7202835083007812, -0.7103410363197327, 0.018480561673641205, 0.5400323271751404, -0.34210699796676636, 0.2314501851797104, 1.1122628450393677, 1.381973385810852, 1.154007077217102, -0.10309150815010071, -0.7580623626708984, -0.018317613750696182, 1.048008918762207, 1.1524293422698975, 2.0200953483581543, 0.7493276596069336, -0.016014128923416138, 0.24313943088054657, 0.5570071339607239, 0.8086847066879272, 0.760748028755188, 1.688227891921997, -0.016398904845118523, -0.18787652254104614, -0.9472252130508423, 1.2079747915267944, 1.1580528020858765, -0.3952300548553467, -2.247192859649658, -0.6791825890541077, 0.2113538533449173, 0.7405446171760559, 0.014353525824844837, 0.3723818063735962, 1.4893966913223267, 0.24009054899215698, -0.33859068155288696, -0.36851534247398376, -1.6141020059585571, 0.025962719693779945, -1.0623173713684082, -0.4242064356803894, -0.3223066031932831, -0.59820955991745, 0.40830016136169434, 0.768155038356781, -0.6932017803192139, -1.0000686645507812, 0.8975257277488708, -0.23212410509586334, 2.0367424488067627, 0.7414838075637817, 0.8462536931037903, 2.534390687942505, 1.816693663597107, 2.4717674255371094, 0.3483804762363434, 1.1618015766143799, -0.8002316951751709, -1.5539814233779907, -0.2021157294511795, 3.0163958072662354, -0.15647661685943604, 0.8453885316848755, 1.1495803594589233, 0.9924814105033875, 2.457084894180298, 1.4562684297561646, 3.056070327758789, 1.5456349849700928, 2.779151201248169, 0.5622521638870239, -2.1048338413238525, -1.7797030210494995, 1.952906847000122, -0.2335984855890274, 1.7181488275527954, 0.4560805857181549, -0.5633118748664856, -1.1648088693618774, -0.37663930654525757, 0.19194385409355164, 0.8382208347320557, -0.22344698011875153, 0.17375817894935608, -0.6218883991241455, -1.8346657752990723, 1.614755630493164, -0.44377875328063965, -0.182028666138649, 1.1988791227340698, -0.061354681849479675, -0.05800291895866394, 0.14172595739364624, 0.5266203880310059, -0.6779143214225769, -0.7378062009811401, -0.03920016065239906, -0.49625256657600403, -0.7829124927520752, -0.1365867704153061, -0.13702455163002014, -0.2477145791053772, 0.01494793314486742, -0.6622365713119507, -0.3929769992828369, 0.9165011048316956, 0.9920880198478699, -0.13949522376060486, 0.030025266110897064, -0.6682872772216797, 0.5558719635009766, 0.02417914569377899, -0.3295731246471405, -0.31551438570022583, -0.18988630175590515, -0.4167959988117218, -0.4106697142124176, -0.948538601398468, -1.4581471681594849, -2.803077220916748, -2.4896557331085205, -2.129411458969116, -1.6161688566207886, 0.11142680794000626, -0.667575478553772, -0.14422336220741272], [-0.7945739030838013, -0.5298431515693665, -0.6604829430580139, -0.7896918654441833, -0.22811610996723175, -0.5868777632713318, -0.5674315690994263, -0.8612993955612183, -0.31728577613830566, -0.7978906631469727, -0.8202369213104248, -0.7198523879051208, -0.49389562010765076, -0.8183332085609436, -0.5707229971885681, -0.3435567617416382, 0.6964696645736694, 0.8871745467185974, 0.2525145709514618, 2.109954595565796, 0.22164416313171387, -0.26472634077072144, 1.6254942417144775, -1.933439016342163, 0.20324063301086426, -1.4898282289505005, -0.6655976176261902, -0.5103787183761597, 0.6055387854576111, 1.3382618427276611, -0.028177855536341667, -0.9726778864860535, -0.603230357170105, 0.22257238626480103, -0.21345354616641998, 0.2968236804008484, 0.23400165140628815, 0.0023260361049324274, -0.7546616792678833, -0.8817392587661743, -0.23648060858249664, 0.8885471820831299, 3.7871570587158203, 0.3977297246456146, -0.7465041875839233, 0.12372168898582458, -0.2050480991601944, 0.28421661257743835, 0.006849551107734442, -2.4113473892211914, -2.6597588062286377, -1.129748821258545, -0.5237835645675659, -0.1968502700328827, 0.8367732167243958, 2.567725419998169, 0.13503700494766235, -1.1099488735198975, -0.5788344740867615, 1.4563703536987305, 0.573062002658844, -0.08527687937021255, -0.16736748814582825, -2.713447332382202, -3.5558056831359863, -0.7424858212471008, -0.6568958759307861, 1.2957817316055298, 2.3326079845428467, -0.10213731229305267, -0.8408117890357971, -1.8616254329681396, 0.12276162207126617, 1.4270497560501099, 1.5704319477081299, 1.7239854335784912, -0.8664040565490723, -1.865890622138977, -0.6264191269874573, 0.04423109441995621, 1.4389662742614746, 0.30547741055488586, -0.6147822141647339, -1.188584327697754, -0.6389036774635315, -0.5397717356681824, 0.9627383351325989, 0.8003724813461304, 2.210097074508667, -1.2859528064727783, -1.5598220825195312, -0.6864568591117859, 0.3673747479915619, -0.40515777468681335, -0.02644517831504345, 0.1603405624628067, -0.21560241281986237, -0.027813004329800606, 0.6365201473236084, 0.26865801215171814, 1.481891393661499, 2.086317539215088, 1.072619080543518, 1.289900541305542, -0.435329407453537, -0.24620243906974792, -0.30742037296295166, 0.05682831630110741, -0.33422181010246277, -0.30232155323028564, 1.2858232259750366, -0.2150726318359375, -0.4959321618080139, 1.3753048181533813, 2.8831872940063477, 1.1851909160614014, -0.441398561000824, -0.48329946398735046, 0.24138107895851135, 0.8021856546401978, -0.34377673268318176, 0.42674344778060913, 0.36246365308761597, 1.1721434593200684, 0.5045409798622131, -0.47465842962265015, 0.851454496383667, 2.8128726482391357, 0.33548980951309204, -0.8658220171928406, -0.6148303747177124, -0.3825596272945404, -0.3582409918308258, 0.03326182812452316, -0.19018320739269257, -0.510966956615448, 0.03873531147837639, -0.3159245252609253, -0.6030210852622986, 0.3745654821395874, 2.6944284439086914, -0.049275290220975876, -0.5226688385009766, -0.5778795480728149, -0.09892953932285309, 0.19312091171741486, -0.7268190383911133, -0.43576952815055847, -1.0916086435317993, -0.8986018300056458, -0.196312814950943, 0.2318505048751831, -1.0905439853668213, 0.9371160864830017, -0.2432464212179184, -0.754136323928833, -0.5874600410461426, -0.2711029350757599, 1.5682258605957031, 2.088061809539795, 2.3205525875091553, 0.5627052187919617, 1.5345356464385986, 0.22730329632759094, -1.207254409790039, -0.061911605298519135, -0.4761190116405487, -0.5583739876747131, -0.6655816435813904], [-0.6884281635284424, -0.8162147998809814, -0.7834070324897766, 0.14604681730270386, -0.0879417210817337, 0.3397175371646881, 0.007414232008159161, -0.20126472413539886, -0.15198534727096558, -0.603098452091217, -0.5256560444831848, -0.7754746079444885, -0.735855221748352, -0.8197128772735596, -0.5413995385169983, -0.32256290316581726, 0.5187835097312927, 2.584477186203003, 2.5379528999328613, -0.03716306760907173, 1.1540241241455078, 0.9350700974464417, -1.7573238611221313, -0.8084413409233093, -0.5227551460266113, -0.7811068296432495, -0.5623041391372681, -0.1047464981675148, 0.22768357396125793, 0.06940557807683945, 1.1091845035552979, 1.7786039113998413, 1.2305060625076294, 0.6156131625175476, -0.24902628362178802, -1.4635570049285889, 0.21709564328193665, 0.13264252245426178, -0.5768709182739258, -0.471329927444458, -0.5722664594650269, 0.7737089991569519, 0.7675195336341858, 0.5306298136711121, -0.2813678979873657, 0.2945614159107208, 1.038284182548523, -0.27974435687065125, 0.05279914289712906, 0.8556254506111145, 1.584183931350708, -0.37410974502563477, -0.45335254073143005, -0.7506894469261169, -0.3634108006954193, -0.5131744742393494, -0.7778469920158386, 0.4142780900001526, 1.6720553636550903, 0.4096011817455292, 0.17667852342128754, 0.20563332736492157, 0.46853482723236084, 0.6397157907485962, -0.4615093171596527, 0.050536662340164185, 1.639958143234253, -1.0423457622528076, -0.21778109669685364, -0.08643161505460739, 1.7298632860183716, 0.6515121459960938, -0.5376076698303223, 0.5481746196746826, 0.7295565605163574, 0.340209037065506, 0.758359968662262, -0.0949312075972557, -0.2970864772796631, -0.19711598753929138, -0.9441238641738892, -1.117203712463379, -0.01906626485288143, 0.8659589290618896, 1.2863857746124268, 1.1830401420593262, 0.4182572066783905, -1.5826772451400757, -0.23959843814373016, -0.2360769510269165, 0.282394677400589, -0.796840250492096, -0.4106367230415344, -0.5517618060112, -0.8436960577964783, -0.6904320120811462, -0.03819386661052704, 1.0090217590332031, 1.4802581071853638, -0.34626373648643494, -2.6608614921569824, -0.01924063451588154, 0.6623696088790894, -0.8119935393333435, -1.0915201902389526, 0.5287483334541321, -0.32977724075317383, -0.6702449917793274, -0.3055827021598816, 0.11090297251939774, 1.104999303817749, 0.8867098689079285, -1.6958175897598267, -1.8575713634490967, -0.5086959600448608, 0.6166957020759583, -0.7356192469596863, -0.7289901375770569, -0.4317248463630676, -1.699164628982544, -0.7727148532867432, 0.7508559226989746, 0.8724979758262634, 1.826210856437683, 2.3011703491210938, -1.4169626235961914, -1.342078447341919, -1.2895987033843994, -1.1554689407348633, -1.2915500402450562, -0.7701025009155273, 1.7683168649673462, 0.4676322937011719, 0.2689356207847595, 0.5376842021942139, 1.8385045528411865, 3.661367893218994, 1.0467981100082397, -0.9937868118286133, -2.3109290599823, -1.2455863952636719, -2.313293218612671, -1.6780569553375244, -0.6272001266479492, 1.1276923418045044, 1.9488701820373535, 2.4794907569885254, 3.9943230152130127, 3.9906911849975586, 3.2348647117614746, -0.030210688710212708, 0.8667325377464294, -2.5077483654022217, -1.2884618043899536, -0.1764593869447708, -1.0699397325515747, -0.5825468301773071, -0.6353662014007568, -0.9873701333999634, -0.5135451555252075, -0.5584889054298401, 0.2928365170955658, 0.078916035592556, 0.9482923746109009, -0.1622445434331894, -2.6993813514709473, -1.971763253211975, 0.09641363471746445, -0.7754307985305786], [-0.2626667022705078, -0.07750845700502396, -0.0471341572701931, -0.26160481572151184, -0.15444761514663696, -0.017972329631447792, -0.19184090197086334, 0.0011490376200526953, -0.0561082661151886, -0.19583573937416077, 0.030575277283787727, 0.0014450546586886048, -0.14264440536499023, -0.11806514859199524, -0.23881156742572784, -0.04041765630245209, -0.11866635829210281, 0.11235182732343674, -0.09226779639720917, 0.013028240762650967, -0.00535872858017683, -0.03483155742287636, -0.028880536556243896, -0.02616957575082779, 0.07165635377168655, -0.09621793776750565, -0.12404529750347137, -0.19834508001804352, -0.15610060095787048, 0.05147303640842438, 0.06396932899951935, 0.19392797350883484, -0.05799434706568718, -0.0018168039387091994, 0.06184249371290207, -0.014484828338027, -0.01953005976974964, -0.007354945410043001, -0.21522307395935059, 0.043540772050619125, 0.04159050062298775, -0.24292977154254913, -0.05707484483718872, 0.2111002802848816, -0.0041708690114319324, 0.15637275576591492, 0.2584214210510254, 0.28361213207244873, 0.17094750702381134, 0.18233782052993774, 0.08850633352994919, -0.2539620101451874, -0.1268608421087265, -0.21435411274433136, -0.0796399936079979, 0.12286565452814102, 0.05456707626581192, -0.027171393856406212, 0.16290929913520813, 0.05376872047781944, -0.11433878540992737, 0.17005909979343414, -0.029927557334303856, -0.07461808621883392, -0.2312282919883728, -0.14809422194957733, 0.14281295239925385, 0.11650017648935318, 0.01489880122244358, -0.022621620446443558, 0.10403724014759064, 0.07207651436328888, 0.1413908302783966, 0.14959633350372314, 0.2131170928478241, 0.04474179446697235, -0.08902287483215332, 0.02730400674045086, -0.13652577996253967, -0.16556304693222046, 0.06721357256174088, -0.10625753551721573, -0.0632549300789833, 0.2591662108898163, 0.10486331582069397, 0.1008375734090805, -0.0380445159971714, 0.23573347926139832, 0.18626858294010162, -0.1549101322889328, 0.11500509083271027, -0.13679757714271545, 0.028736284002661705, -0.04019306227564812, -0.036990534514188766, 0.08055556565523148, -0.03363938629627228, 0.20117469131946564, 0.19626308977603912, 0.22540484368801117, 0.1930609941482544, 0.09847716242074966, -0.1530766785144806, -0.0009699199581518769, 0.022508827969431877, 0.04108278080821037, -0.0150333596393466, 0.015954095870256424, 0.09353400021791458, 0.184268519282341, 0.20509925484657288, -0.07742534577846527, 0.09445458650588989, 0.03107038512825966, 0.1328466385602951, -0.04988240823149681, 0.08175352215766907, -0.06214933842420578, -0.23407059907913208, -0.050193361937999725, 0.031548578292131424, 0.13021790981292725, 0.014446662738919258, 0.1651059091091156, -0.07314147800207138, 0.02893618680536747, 0.08062374591827393, -0.019748928025364876, 0.03442138060927391, 0.008694645948708057, 0.04865715280175209, -0.07468070834875107, -0.013779545202851295, 0.047450874000787735, -0.08333680778741837, 0.10565779358148575, 0.08533484488725662, 0.08129614591598511, 0.04964553937315941, 0.019157923758029938, 0.16441190242767334, 0.007423874456435442, -0.15295110642910004, -0.00033700925996527076, -0.10321824252605438, -0.17115837335586548, -0.004469368606805801, -0.12785428762435913, -0.15292415022850037, 0.16026808321475983, 0.2716279923915863, -0.035694289952516556, -0.12211426347494125, 0.09554634988307953, -0.2567747235298157, -0.2447812408208847, 0.0351615808904171, -0.08735160529613495, -0.05211858078837395, -0.2143293023109436, 0.031428780406713486, 0.04427161067724228, -0.013198100961744785, -0.1532764434814453, 0.05903903394937515, -0.2678295969963074, -0.1179361343383789, -0.0330275297164917, -0.12994825839996338], [-0.6670403480529785, -0.622726321220398, -0.6397609114646912, -0.9026141166687012, -0.8013675808906555, -0.7755575776100159, -0.7527145147323608, -0.5929412841796875, -0.05066094547510147, -0.6193102598190308, -0.8229832649230957, -0.6411433219909668, -0.81439208984375, -0.7976582050323486, -0.7426142692565918, -0.7278681397438049, -0.7958228588104248, -1.704384684562683, -1.4512581825256348, 0.08809569478034973, 0.19093067944049835, 0.17923028767108917, -0.9081024527549744, 0.1959516853094101, -0.7329402565956116, -0.07983061671257019, -0.8799455165863037, -0.8018776774406433, 0.24102160334587097, 1.2507580518722534, -0.3570748567581177, -0.41237378120422363, 0.45320630073547363, 0.13295090198516846, 0.3164873719215393, -0.3467048108577728, 0.3337321877479553, -0.66813725233078, 1.752164602279663, -0.6353194713592529, -0.3751310408115387, -0.4038347899913788, 0.7011836171150208, -0.7160375714302063, -0.994138777256012, -0.18073731660842896, 0.4484364688396454, -1.2424452304840088, -0.7646310925483704, -1.045248031616211, -0.14144550263881683, 1.8349027633666992, -0.5767709016799927, 0.17986109852790833, 0.7235643267631531, 0.2800259292125702, 0.10121839493513107, -0.4641287326812744, 2.1889429092407227, -1.2744982242584229, -0.4235389530658722, 0.4561013877391815, -0.4114503860473633, 0.47791343927383423, -0.48417797684669495, -0.6950274705886841, -0.3515934348106384, 0.2299267202615738, -0.5664787292480469, -0.10897549986839294, 0.5361229181289673, 0.8807787299156189, -1.5462604761123657, -0.4157251715660095, 0.8608677983283997, 0.7028657793998718, 1.125678539276123, -0.6221348643302917, -0.7667467594146729, -0.2862723171710968, 0.27887582778930664, 1.3711377382278442, 2.409078359603882, 1.3545295000076294, -0.08794184029102325, -0.5114020705223083, -0.22151488065719604, 1.1188410520553589, 1.0955499410629272, 0.8902574777603149, -0.01723596081137657, -0.7197525501251221, -0.669964075088501, 1.2658263444900513, 0.4475259780883789, 0.6833277940750122, -0.035377196967601776, -0.9859544634819031, -0.031793177127838135, 1.5825386047363281, 3.98477840423584, 2.134775400161743, 0.9316250085830688, -1.2410236597061157, -0.8280280232429504, 0.5323748588562012, 2.1443896293640137, 1.431799054145813, -0.347624808549881, -1.0109500885009766, 1.8919962644577026, 4.161977767944336, 6.284045696258545, 2.882312297821045, 0.09586638957262039, -0.05833907425403595, -1.0641621351242065, -0.5889511704444885, -1.2016359567642212, -0.5852434039115906, 0.2766479253768921, -1.2233333587646484, -0.749522864818573, 2.9437034130096436, 1.295380711555481, -1.2569414377212524, -1.1059728860855103, -0.6982945203781128, 0.48807743191719055, -0.555937647819519, -0.3995576798915863, -0.24585072696208954, -1.1049151420593262, -0.4991917014122009, -0.5834705829620361, -0.4389216899871826, -0.06921740621328354, -0.44404077529907227, -1.4058574438095093, -0.6932473182678223, -0.05681277811527252, -0.08781804144382477, -0.8542020320892334, -0.7118772268295288, -0.29891929030418396, -0.81624835729599, -0.12137693166732788, 0.6066421866416931, -0.15200045704841614, 0.8720192909240723, 1.3156633377075195, 0.5911838412284851, -0.026503492146730423, -0.4971410632133484, -0.8804489374160767, -0.8666874766349792, -0.6324741244316101, -1.1778192520141602, -2.324166774749756, -1.4138085842132568, -0.10385683178901672, -0.9325790405273438, 0.064608134329319, 0.4642873704433441, -0.1472906917333603, -0.06371193379163742, -0.6629282832145691, -0.6052412986755371, -0.6821151971817017], [-0.6840187311172485, -0.623914361000061, -0.5012946724891663, -0.5747761726379395, -1.7629249095916748, 0.9010584354400635, 2.0370852947235107, 0.0748588815331459, 0.15532457828521729, -0.023473015055060387, -0.40971800684928894, -0.6002079844474792, -0.5196303129196167, -0.5722111463546753, -0.8287554383277893, -1.069131851196289, -1.2809491157531738, 1.274802327156067, 0.6840660572052002, 2.568387508392334, 4.964380264282227, 3.948415517807007, 0.4820236265659332, -1.5028586387634277, -0.8669695854187012, -0.6778284907341003, -0.6871843338012695, -2.3477680683135986, -1.6126995086669922, -1.8406718969345093, -0.3390818238258362, -1.1865546703338623, 0.3710629940032959, 3.1689746379852295, 4.093683242797852, 1.8762325048446655, -0.9335794448852539, -0.6279106140136719, -1.0102342367172241, -0.6008371114730835, -2.3042855262756348, -0.5585339665412903, 0.3638465702533722, -0.13993945717811584, -1.3126394748687744, -2.266758918762207, 2.8688387870788574, 5.401667594909668, 4.444523811340332, 0.8458744883537292, -0.33124205470085144, -0.7097765803337097, -0.7570881843566895, -0.6871326565742493, -0.28714025020599365, 0.15572839975357056, -0.34411200881004333, -1.2182142734527588, -2.387211799621582, 0.4919634163379669, 1.6821731328964233, 2.089212656021118, 1.6975734233856201, -0.9298331141471863, 0.2986973822116852, -0.6934515833854675, 0.43763822317123413, 1.174584984779358, 0.9069547653198242, 0.5812276005744934, -0.8574336171150208, -1.261222004890442, 0.4619815945625305, 0.26627740263938904, 2.537088394165039, 2.4474005699157715, -0.06015926972031593, -0.8514986634254456, -0.6802890300750732, 0.2714981138706207, -0.1480293720960617, 0.7584130167961121, -0.28163397312164307, 0.47425204515457153, -0.24815255403518677, 0.36616045236587524, 0.06465671956539154, 0.4965272843837738, 0.5980618000030518, -1.4961825609207153, -3.3199052810668945, -0.8066105842590332, -1.7694283723831177, -0.9456996321678162, -0.3077426254749298, -0.12699288129806519, 1.0585319995880127, -0.9942761659622192, -0.36535578966140747, -0.26066145300865173, -0.8774025440216064, 0.38248008489608765, -0.6723039150238037, -2.9909863471984863, -0.5158056616783142, -1.8542969226837158, 0.1388806849718094, -0.1612229347229004, 0.11944203078746796, 0.5332600474357605, 0.751231849193573, -0.048237256705760956, 0.5022103786468506, -0.38357189297676086, -0.7310437560081482, -0.4026534855365753, -3.664193868637085, -0.8691301345825195, -0.8665457367897034, 1.237951636314392, -0.43405580520629883, -0.21691688895225525, -0.21230854094028473, 0.5098575949668884, -0.3346472680568695, 0.4252432882785797, -0.08754172921180725, 0.1719333678483963, 0.20689542591571808, -0.19428721070289612, -0.5569702982902527, -0.8183488249778748, -0.18998177349567413, 0.23849226534366608, -0.3914753198623657, 0.029681716114282608, 0.5764296054840088, -0.15621542930603027, 0.7265816330909729, -0.439753919839859, 0.2415006160736084, 0.07375983148813248, 0.34144774079322815, -0.7642244100570679, -0.597984254360199, -0.6598217487335205, -0.31923744082450867, 0.0274062417447567, 0.3739509880542755, 0.7678823471069336, 0.6779974699020386, 1.1556158065795898, 0.32407161593437195, 0.06680385768413544, 0.95943683385849, -0.5203187465667725, -0.5932799577713013, -0.6455091238021851, -0.6594052910804749, -0.6821024417877197, 0.331719309091568, -0.09718319028615952, 0.785828709602356, 1.1737040281295776, -0.5302677154541016, 0.6453350782394409, -0.4619259536266327, 0.0034830563236027956, -0.751174807548523], [-0.26062214374542236, -0.14121225476264954, -0.19127362966537476, -0.36504262685775757, -0.32317018508911133, -0.9159452319145203, 0.6597113609313965, 0.6035433411598206, 0.16801534593105316, -0.7469174265861511, -0.5665998458862305, -0.3178060054779053, -0.35232216119766235, -0.21791237592697144, -0.1413991004228592, 0.05636366829276085, 0.8137797713279724, 0.4095894694328308, -1.4368607997894287, -1.2154027223587036, 0.07236142456531525, 0.5007233023643494, -0.11207124590873718, 0.08570140600204468, 0.34934183955192566, -0.1452484279870987, -0.04115213826298714, 0.49131810665130615, 0.3646058738231659, 0.5482271909713745, 1.095874547958374, -0.34230947494506836, -0.4558984041213989, 0.22803901135921478, 0.438889741897583, 0.1554378867149353, 1.526625394821167, 1.2457879781723022, -0.15723969042301178, -0.20789624750614166, 0.04223218932747841, 0.6064557433128357, 0.9883297085762024, 0.1368677169084549, -0.07891526073217392, -0.11739020049571991, 0.23739933967590332, 1.2040551900863647, 0.5637297630310059, 1.0327855348587036, 2.465033531188965, 0.12636521458625793, 0.24880948662757874, 0.34360259771347046, 0.8220380544662476, 0.14365781843662262, -0.932343065738678, -0.1439247727394104, 1.3639039993286133, -0.24182845652103424, 0.3687681555747986, 0.8976619839668274, 0.6629769802093506, 1.1972159147262573, 0.4586876630783081, 0.17115330696105957, 0.21252188086509705, -0.9407764077186584, 0.6459386944770813, -0.11812729388475418, -0.14203663170337677, 0.7272719144821167, -0.970461368560791, -1.3166308403015137, -0.25535649061203003, 0.7188945412635803, 0.7945818901062012, 0.9683840274810791, -0.33748096227645874, -0.4899888336658478, 0.8224826455116272, -0.24888138473033905, -0.4725193977355957, -0.71998131275177, 1.5997345447540283, 0.739549458026886, -1.125145673751831, -0.3658428192138672, 1.3920429944992065, 2.5741634368896484, 0.306231290102005, -0.2801080644130707, -0.10335692763328552, 0.4132553040981293, -0.3091750741004944, -0.48946619033813477, -0.40179240703582764, 2.428663730621338, 1.0148526430130005, -1.236979365348816, 0.07661732286214828, 1.1854006052017212, 1.0037541389465332, 0.13984937965869904, -0.38787904381752014, 0.16052460670471191, 0.12530647218227386, -0.56026691198349, -1.1706682443618774, -1.1881784200668335, 1.1536601781845093, 0.32101601362228394, -1.5459825992584229, 0.1552087515592575, 0.1575397551059723, 0.7496165633201599, 1.1768479347229004, -0.695181131362915, -0.3896404504776001, -1.0224405527114868, 0.29263511300086975, 0.1703185886144638, 0.6562148332595825, 1.572144865989685, -0.5928510427474976, -1.1982135772705078, -0.3048476576805115, 0.7901730537414551, 0.5742924213409424, -0.2621827721595764, -0.4043926000595093, -0.2707568109035492, -2.0559544563293457, -0.36688458919525146, 1.9443458318710327, 1.5231770277023315, 0.6076594591140747, -1.5582976341247559, -1.5790143013000488, 0.03892559930682182, 0.6280176639556885, -0.02540709264576435, 0.25719374418258667, -0.3633192181587219, -0.5244261622428894, -0.2882266342639923, 0.8533359169960022, 0.21870294213294983, 1.7727106809616089, 0.8666378259658813, -1.1365840435028076, -0.6463873982429504, -0.9576521515846252, -2.306406259536743, -1.5225995779037476, -0.6640563607215881, -0.08872182667255402, -0.26999950408935547, 0.009926574304699898, 0.5988097786903381, -0.5458689332008362, 0.44174543023109436, -1.1255075931549072, -1.0868008136749268, -1.1844444274902344, -3.2142791748046875, -2.63608980178833, -0.5822723507881165, -0.10031657665967941], [-0.8501787781715393, -0.7089590430259705, -0.9332429766654968, -1.0848414897918701, -0.6204113364219666, -1.5137661695480347, -0.14987419545650482, -3.3821494579315186, -3.734529972076416, -3.6694910526275635, -2.4273338317871094, -0.9729257225990295, -0.7975447177886963, -0.2520410120487213, -0.46809840202331543, -0.490933895111084, -0.7020751237869263, -1.2671302556991577, 0.7171913385391235, -0.8512529134750366, -0.9047604203224182, -1.3102443218231201, -2.116229295730591, -0.44284600019454956, -0.108370840549469, -0.3949221074581146, -0.6306490898132324, -1.237134575843811, 0.16866886615753174, 0.396759957075119, -0.7556185722351074, -0.1927192658185959, 0.4053214192390442, -0.03985600173473358, -0.6308644413948059, 0.7341747879981995, 3.536757469177246, 0.9172773361206055, -0.49875617027282715, -0.6789596676826477, -0.08297581225633621, 1.2805432081222534, 1.169418454170227, 0.7991743683815002, 0.0694812461733818, 0.6402966380119324, 0.8002920746803284, 2.591074228286743, 6.25278902053833, 4.159128665924072, 1.8753637075424194, -0.30380281805992126, -0.8829867243766785, 0.06399262696504593, 1.4155479669570923, -0.25850585103034973, 1.3667560815811157, -0.03255651146173477, 0.5081498026847839, 2.162986993789673, 3.2717461585998535, 3.3780696392059326, 1.1267207860946655, 2.5128185749053955, 0.9623563885688782, -0.5467019081115723, 1.149775743484497, 1.3602025508880615, -0.24566857516765594, -0.5945915579795837, -1.1743192672729492, -0.23492582142353058, 0.10406361520290375, -1.171573519706726, -0.5921425223350525, 0.08960967510938644, -1.0137845277786255, 0.2657853066921234, -0.7236177325248718, 0.5602502822875977, 1.0547583103179932, 0.21137897670269012, -0.35481739044189453, -0.2928704619407654, -0.08146936446428299, -0.3852100074291229, 0.618988573551178, -1.2251116037368774, -0.9344284534454346, -0.5996299982070923, -0.38518351316452026, -0.675561249256134, 0.7587732076644897, -0.4547635018825531, 0.9439188838005066, -0.19439323246479034, 0.01085758674889803, -0.5719842314720154, -0.21707384288311005, -0.4250894784927368, -1.7244479656219482, -0.9263713955879211, 0.1044180765748024, -2.2114787101745605, -0.7892608046531677, -0.028641629964113235, 0.23625747859477997, 0.5707382559776306, 0.6750099658966064, -0.029918748885393143, -0.15980812907218933, -0.2917816936969757, -0.13701441884040833, 0.6051746606826782, 0.09837155044078827, -0.7235147953033447, -0.8301562070846558, -0.9931634068489075, -1.5385805368423462, -0.5985744595527649, 0.0635642260313034, -1.1099833250045776, -0.8076902627944946, -1.7826341390609741, -1.3339530229568481, -0.39694809913635254, 0.29630759358406067, -0.35863175988197327, -0.2370273768901825, -0.053670644760131836, -0.5077313780784607, -0.43459102511405945, 1.519709825515747, -0.02025938779115677, -0.7205712795257568, 0.7421000003814697, 0.001249701832421124, -0.35997870564460754, 0.5917877554893494, -0.32820725440979004, 0.644627571105957, 1.995238184928894, -0.08874276280403137, -0.5659602880477905, -0.9175834059715271, -0.6107013821601868, 3.3354501724243164, 3.1307787895202637, 4.2969794273376465, 3.681359052658081, 1.9395744800567627, 2.3144407272338867, 0.720586359500885, 1.083653450012207, -0.22308634221553802, -0.824569821357727, -0.8061012625694275, -0.8563784956932068, -0.7546816468238831, -0.7186875343322754, -0.9473056197166443, -1.6509971618652344, 0.13310903310775757, 0.3005112409591675, -0.19205151498317719, -1.0013701915740967, -0.3151354193687439, -0.7677865624427795, -0.7260728478431702], [-0.702198326587677, -0.5999739766120911, -0.7117242217063904, -0.2255014330148697, -0.5439155101776123, 0.11978880316019058, 0.8767192959785461, 2.396498441696167, 1.352433443069458, -0.5095529556274414, -0.35825496912002563, -0.19962076842784882, -0.6615393757820129, -0.597612202167511, -0.566107988357544, -0.12785911560058594, 2.2322564125061035, 1.5888309478759766, 1.5852603912353516, 1.4745969772338867, 0.07832694053649902, -0.4359722137451172, -0.048666566610336304, -1.2183873653411865, -1.0387626886367798, -1.7197284698486328, -0.8611640334129333, -0.06153128668665886, -1.7252755165100098, -0.8377792835235596, -0.10315143316984177, 1.137485384941101, 0.1591358333826065, -0.29124560952186584, -1.170987606048584, 0.042882807552814484, 0.26707279682159424, -1.3319802284240723, 0.1509990394115448, -1.2037029266357422, -0.8789024949073792, -1.9988422393798828, -0.7810202240943909, -0.4613381326198578, 0.49587103724479675, -0.18106535077095032, 0.22374306619167328, -1.0269912481307983, 0.14541484415531158, -1.2415199279785156, -0.254178524017334, 0.4335799813270569, -0.26015469431877136, 0.5346542000770569, -0.02535109408199787, 0.48982709646224976, -0.6115147471427917, 0.2031187266111374, -0.2475145310163498, 0.4275949001312256, 0.5386443138122559, 0.8007177114486694, -0.2909795641899109, 2.2585854530334473, -1.0598503351211548, -0.9541618227958679, 0.08618034422397614, 0.37369075417518616, -0.2276959866285324, 0.30599942803382874, 0.2777002155780792, 1.2071832418441772, -0.644502580165863, 0.030243508517742157, 1.4494385719299316, 0.792445719242096, 2.9775731563568115, -0.04678914695978165, -0.7005506753921509, -0.5929184556007385, 0.031937554478645325, -0.15504929423332214, 0.060468100011348724, 0.7761793732643127, 1.3888016939163208, 0.292493611574173, 0.4153699576854706, 0.7641881704330444, 1.2208938598632812, 1.7375493049621582, -0.13949261605739594, -0.7500354051589966, 0.9911732077598572, -0.13478074967861176, -1.439612627029419, -0.44436803460121155, -0.14958348870277405, 1.2631033658981323, -1.285814881324768, -1.2595278024673462, -0.742006242275238, -0.9820350408554077, -0.38328492641448975, 0.43992701172828674, -0.7890132665634155, 1.054508924484253, 0.11279575526714325, -1.1412924528121948, -0.5538656115531921, 0.9328336715698242, 0.6864190101623535, -1.8120166063308716, -0.13352954387664795, 0.09865180402994156, 0.13527941703796387, 0.49405887722969055, 0.9026684761047363, -0.8472567200660706, 0.5017307996749878, 1.269835114479065, 0.3957478404045105, -0.6932938098907471, 1.9210526943206787, -1.2910226583480835, -1.3475847244262695, 0.5341958403587341, -0.02575918473303318, 1.355830430984497, 0.2403613179922104, 0.0008496031514368951, -0.7387312650680542, 1.0290507078170776, 0.6709035634994507, -0.5171558856964111, 1.9382777214050293, 2.4985897541046143, -1.4519565105438232, -0.9634455442428589, 0.3165140151977539, 1.0605340003967285, 1.9657288789749146, -0.06493327766656876, -0.5755816698074341, -0.6828767657279968, -0.3683602213859558, -1.1065460443496704, 2.6794676780700684, 3.823948621749878, -0.5062375068664551, -0.5595370531082153, -1.480338454246521, 0.8835316896438599, 0.9054158329963684, 0.9057543873786926, 0.5746490955352783, -0.5453207492828369, -0.7999758720397949, -0.6989786028862, 0.03559471666812897, 2.371647834777832, 3.7339110374450684, 0.628385066986084, -0.2022538036108017, -1.3447942733764648, -0.006434797775000334, 1.6875861883163452, 0.14418774843215942, -0.6016145348548889, -0.7413511872291565], [-0.09593598544597626, -0.34541329741477966, -0.34026890993118286, -0.2878820598125458, -0.1298304945230484, -0.09714122861623764, -0.1033271849155426, -0.018243635073304176, -0.27134501934051514, -0.12010163068771362, -0.24122323095798492, -0.227187842130661, -0.30987638235092163, -0.23917746543884277, -0.2410251349210739, -0.20864494144916534, -0.1389627754688263, -0.0769510269165039, 0.14905020594596863, 0.15285225212574005, 0.04744886979460716, 0.10569144785404205, 0.07639917731285095, 0.09832450747489929, -0.13171054422855377, 0.0849812924861908, -0.23722317814826965, -0.06253569573163986, -0.23082925379276276, -0.029157303273677826, 0.0187679436057806, 0.18430860340595245, -0.08566366881132126, -0.007592471782118082, 0.17569184303283691, 0.020361846312880516, 0.027220873162150383, -0.03200000151991844, -0.8136516213417053, -0.22071167826652527, -0.04786057397723198, 0.03472323715686798, 0.05416020750999451, 0.17261917889118195, 0.261274516582489, 0.3028991222381592, 0.1043529137969017, 0.03547196835279465, -0.18072687089443207, 0.3247290551662445, -0.023765040561556816, -0.2150111049413681, -0.16487014293670654, -0.12249234318733215, -0.04689919576048851, -0.18829728662967682, 0.05757031962275505, 0.0626855418086052, -0.13791349530220032, -0.013522540219128132, 0.31946617364883423, 0.33763593435287476, 0.22047163546085358, 0.05254311114549637, -0.5755926966667175, -0.22018875181674957, -0.33658692240715027, 0.3149377703666687, 0.10780076682567596, 0.32850217819213867, 0.30243411660194397, 0.2549079954624176, 0.5782411694526672, 0.6056370735168457, 0.2807689905166626, 0.12738078832626343, -0.2255529910326004, -0.4989999532699585, -0.21498547494411469, -0.04559694230556488, 0.44877925515174866, 0.23365044593811035, 0.2274438589811325, 0.1553279608488083, 0.23866122961044312, 0.5067480802536011, 0.34391289949417114, 0.17223623394966125, -0.02996884472668171, -0.029728081077337265, -0.022127777338027954, -0.1806199848651886, -0.24503450095653534, 0.27359023690223694, 0.670353889465332, 0.13141708076000214, 0.007828881032764912, 0.412435382604599, 0.18320932984352112, 0.29081255197525024, 0.1421353667974472, 0.28268110752105713, 0.14305110275745392, -0.25205671787261963, -0.21975918114185333, -0.1213953047990799, 0.5249053835868835, 0.6137277483940125, 0.10195791721343994, 0.2961392104625702, 0.5105165839195251, 0.5600735545158386, 0.49011898040771484, 0.2164984941482544, 0.15198105573654175, 0.13886305689811707, -0.05421091243624687, -0.30068573355674744, -0.14938731491565704, 0.32619979977607727, 0.23581291735172272, 0.32727015018463135, 0.04728911072015762, 0.2974220812320709, 0.4650034010410309, 0.45879849791526794, 0.25361108779907227, 0.057292766869068146, 0.057298336178064346, 0.02895250730216503, -0.09902316331863403, -0.19630610942840576, -0.6667711734771729, -0.5411565899848938, -0.3159474730491638, 0.18231429159641266, 0.25026196241378784, 0.37780535221099854, 0.16535954177379608, -0.16067542135715485, 0.11970318108797073, -0.06581440567970276, -0.3446020781993866, -0.07618481665849686, -0.2721884250640869, -0.3884836733341217, -0.42526334524154663, 0.06152212247252464, 0.5655465722084045, 0.035652611404657364, -0.012637871317565441, 0.09949647635221481, -0.21023395657539368, -0.018321022391319275, -0.18855701386928558, -0.1965303272008896, -0.3304509222507477, -0.26598307490348816, -0.14903919398784637, 0.0327422209084034, 0.3149339258670807, -0.1585978865623474, -0.29197919368743896, -0.06284520775079727, -0.171365886926651, -0.1866104006767273, -0.20461060106754303, -0.35500994324684143, -0.08515948057174683], [-0.5364545583724976, -0.43989965319633484, -0.4501129686832428, -0.5135523676872253, -0.30755215883255005, -0.5895938873291016, -2.490840196609497, -1.3539665937423706, 0.046757109463214874, -0.2937711179256439, -0.5025171041488647, -0.43530505895614624, -0.5462833046913147, -0.5545899868011475, -0.3505913019180298, -0.2954530119895935, -0.7047973871231079, -0.9523344039916992, -0.9725803136825562, -1.298198938369751, -0.30459508299827576, -1.8555301427841187, 1.0058188438415527, 1.3589856624603271, 0.49543166160583496, -0.15689773857593536, -0.4472046196460724, -0.5729917287826538, 0.02492235228419304, -0.17386257648468018, 0.3602945804595947, -0.18265947699546814, -1.1894320249557495, -0.33325859904289246, -0.34419071674346924, 0.09297063201665878, 1.519453525543213, 1.0854377746582031, 0.33051636815071106, -0.6178983449935913, -0.3730509579181671, 0.6138802170753479, 2.6072909832000732, 0.25765669345855713, -0.3918217718601227, -0.7817749381065369, -0.8844389319419861, -0.4273477792739868, 0.328030526638031, 0.7836477756500244, -0.11011826246976852, -0.13891060650348663, -0.5868159532546997, -0.27443286776542664, 0.2681128680706024, 0.31253066658973694, -0.2718740403652191, 1.3822860717773438, -0.7215593457221985, -0.7960391044616699, 2.307142734527588, 0.8967328071594238, 0.4911629557609558, 0.5005391836166382, -0.15506663918495178, -0.5288200378417969, -0.2924967110157013, 0.317126989364624, -0.35815081000328064, -0.013368366286158562, 0.27995678782463074, -1.1139181852340698, 0.9350506067276001, 2.5043482780456543, -0.2631138861179352, -0.6657701730728149, -0.7046557664871216, -0.44889816641807556, -0.5514770746231079, -0.5235086679458618, 0.8353242874145508, 1.6763641834259033, 0.700268566608429, -0.3532187342643738, -0.8792584538459778, 2.2382073402404785, 2.3187270164489746, -0.9244112372398376, 0.3515923023223877, 0.03359833359718323, 0.8059790730476379, -0.4828759729862213, -0.5176565051078796, 1.3708311319351196, 2.0249173641204834, 0.7267747521400452, -0.9559800624847412, -0.06786668300628662, 3.7885098457336426, 1.0521798133850098, -0.17707671225070953, -0.7350320816040039, -0.8252701759338379, -0.1943565160036087, -0.5635691285133362, 0.2359095960855484, 1.3699449300765991, 1.2364763021469116, -0.4584091305732727, -0.5819876194000244, -0.3489670157432556, 3.865007162094116, -0.5918101072311401, -0.6682546138763428, -1.3707276582717896, -1.4254933595657349, -0.9947959780693054, -0.3896717429161072, 0.529078483581543, -2.071223735809326, -0.6991795897483826, 0.4599057137966156, -0.6688717603683472, 0.5652469396591187, 4.325631141662598, 1.2947611808776855, 0.2284831702709198, 0.6938045024871826, -0.22390836477279663, -1.2590720653533936, -0.5272709131240845, -0.16858385503292084, 1.0509036779403687, 0.6182164549827576, 0.5386686325073242, -0.6454348564147949, -0.1690860539674759, 2.2777507305145264, 0.2922341823577881, -1.157347559928894, -0.7531801462173462, -1.0531728267669678, -0.3858250379562378, -0.35170724987983704, -0.47182419896125793, 0.2653188407421112, 0.3564549684524536, -0.3397449851036072, 0.2050570696592331, -0.40047144889831543, 1.2207199335098267, 0.43036559224128723, -0.30600738525390625, -1.1620115041732788, -0.46750742197036743, -0.4581480920314789, -0.6092368364334106, -0.38475802540779114, -0.237416610121727, -0.2485506534576416, -0.9349175691604614, -0.5597288012504578, -0.4048398733139038, 0.36187392473220825, 0.4602320194244385, 0.2260390818119049, -0.24683500826358795, -0.603934645652771, -0.6374732255935669], [-0.5879543423652649, -0.7122535109519958, -0.5757961273193359, -0.5225310325622559, -0.3552670180797577, 0.5242803692817688, -1.7161771059036255, -2.817789077758789, -1.0320050716400146, -0.5142450928688049, 0.0340074859559536, -0.6324628591537476, -0.6671673059463501, -0.5664931535720825, -0.6187132596969604, -0.22501763701438904, -1.241965889930725, -1.9971402883529663, -0.11651910841464996, -0.9965833425521851, -1.027595043182373, -0.35636281967163086, -0.7540619373321533, -1.7347358465194702, -2.448993444442749, -1.024741291999817, -0.6120299696922302, -0.9471372365951538, -0.8095108270645142, 0.11885261535644531, 0.2249707579612732, 0.26303184032440186, -0.7631360292434692, -0.09460525959730148, -0.07962574064731598, -0.7071930170059204, -0.1004374772310257, -1.0869098901748657, -1.7641372680664062, -0.32725611329078674, 1.34306800365448, 1.0120818614959717, 0.20318178832530975, -0.45812296867370605, -0.601449191570282, -0.10133980959653854, -0.07093021273612976, 0.07616230100393295, -0.3880128562450409, 0.05148525908589363, 1.5753364562988281, -1.0239430665969849, -0.13849225640296936, 2.0313310623168945, -0.6613490581512451, -0.9598302841186523, 0.3569597899913788, -0.07362130284309387, -0.14494268596172333, -0.8219510316848755, -0.04984816536307335, 0.09626758098602295, 0.4360198974609375, 1.9058152437210083, -0.6523562669754028, -0.16351497173309326, -0.17756332457065582, -1.0941437482833862, 0.7504429817199707, -0.5860462784767151, -0.5246022939682007, -0.7206915020942688, -0.09867428243160248, 0.0066279456950724125, -0.12443146854639053, 1.4282317161560059, 2.1283750534057617, -0.4199763834476471, -0.6044586896896362, 1.9875577688217163, 3.264127731323242, 1.8285765647888184, -0.03397949039936066, -0.6196416020393372, -1.1600542068481445, -0.023010795935988426, 0.9912959337234497, 0.5101904273033142, -0.6580619215965271, 0.9517613053321838, -0.7769664525985718, -0.8240649104118347, 3.401714324951172, 3.373396873474121, 6.126989841461182, 6.514451503753662, 6.079996585845947, 2.1619277000427246, 0.673210084438324, -0.12074124813079834, -0.13450931012630463, -1.242350459098816, -0.5878396034240723, 0.05491866543889046, -0.9229782223701477, -0.3530656397342682, -0.3940693438053131, -0.9545040726661682, -0.9711305499076843, 2.2465059757232666, 1.9376416206359863, -0.35595759749412537, -0.4788137674331665, -0.48555976152420044, 0.20964379608631134, 0.5120922923088074, 0.31203344464302063, -0.38082706928253174, -0.6651251912117004, -1.0100709199905396, -1.3833427429199219, -1.243817687034607, -0.8796608448028564, 0.14091354608535767, 0.5386872887611389, 0.24892009794712067, -0.21740686893463135, -0.5127901434898376, -0.39167284965515137, -0.7065780162811279, 0.4503647983074188, 0.07988829910755157, 1.0116543769836426, 0.3304661214351654, -0.06630901992321014, -0.0839124470949173, 0.27718624472618103, 0.6076297760009766, -0.019424857571721077, -0.7040404677391052, -0.2945890724658966, 1.5097957849502563, 0.286060094833374, -0.4679155945777893, -1.2013286352157593, -0.8905234336853027, -1.244077444076538, -0.1942262053489685, -0.20346158742904663, -0.07163240015506744, -0.33741945028305054, 0.3610323369503021, 0.5717900395393372, 0.6546169519424438, -0.37337663769721985, -0.48875442147254944, -0.7596921920776367, -0.6727792620658875, -1.6674784421920776, -0.917439877986908, 0.031853087246418, 1.0511505603790283, 0.5966695547103882, -0.718310534954071, 0.14091649651527405, 1.5161736011505127, -0.34832891821861267, -0.6142474412918091, -0.6305570006370544], [-0.49266135692596436, -0.41570019721984863, -0.4821239113807678, -0.4562506079673767, -0.356960654258728, -0.29331427812576294, 0.17411714792251587, 0.07319311797618866, -0.29299795627593994, -0.44326719641685486, -0.24321462213993073, -0.463235080242157, -0.4389631748199463, -0.6953461170196533, -0.4937146008014679, -0.10274498909711838, -0.41499462723731995, 0.5425158143043518, -0.06304408609867096, -0.18254506587982178, -0.1968306303024292, -0.5293718576431274, 1.3186417818069458, -0.3526884913444519, -1.348109245300293, -0.7189915776252747, -0.6055014729499817, -0.39588654041290283, 1.3724043369293213, -0.9069877862930298, 0.33298468589782715, -0.15612046420574188, -0.4468115270137787, -0.9962226748466492, -0.7982494235038757, -0.394599050283432, -0.7532062530517578, -0.21818238496780396, 0.031763482838869095, -0.3922407329082489, 0.40541180968284607, 2.106793165206909, 0.30874454975128174, -0.722486674785614, -0.08753592520952225, -0.3590821921825409, -0.8280425071716309, -0.0789177417755127, 0.2141525149345398, -0.21887201070785522, -0.7891228199005127, -1.4824559688568115, -0.11865328252315521, -0.22376438975334167, 1.2800995111465454, -1.120351791381836, -0.9012132287025452, 0.17390932142734528, 1.5372581481933594, 1.107679009437561, 0.3774440884590149, 0.8425840139389038, -0.2647986114025116, -0.977128267288208, -0.539815366268158, -0.29586443305015564, 0.26866060495376587, 1.880850076675415, 0.19246244430541992, -0.7259091734886169, -0.6148717403411865, -0.6078066825866699, 0.3304429352283478, -0.9033021926879883, -0.7648617029190063, -0.25741901993751526, 0.13428077101707458, -1.0592920780181885, -0.6725510358810425, 0.612608015537262, 2.071587562561035, 1.1232694387435913, -0.24655736982822418, -1.588590383529663, -2.03303599357605, -0.38777607679367065, -0.4093898832798004, -0.19950978457927704, 0.5253199934959412, 2.1487693786621094, -0.30635684728622437, -1.1860851049423218, 0.1044795960187912, 1.5253009796142578, 2.735475540161133, 2.8116626739501953, 0.8803891539573669, -2.028479814529419, -0.8193382620811462, 0.3362393081188202, -0.16677029430866241, -0.1378658413887024, 1.3477096557617188, 0.4825248718261719, -1.0346853733062744, -2.9025895595550537, -0.7775968313217163, 1.4621165990829468, 2.074169158935547, 1.9957103729248047, 2.032195806503296, 0.07199663668870926, 0.7054409980773926, -0.32229146361351013, 0.25405725836753845, 1.7133769989013672, 0.1421000212430954, -0.1395697146654129, -1.866897463798523, -1.0304455757141113, -0.6357204914093018, -1.7014673948287964, 0.008781718090176582, 1.578027367591858, 0.6666098237037659, 0.31382039189338684, 0.5287131071090698, 0.21431690454483032, 2.0641164779663086, -0.08447135239839554, 0.9738104939460754, 0.35060322284698486, -0.3538970649242401, 0.5211665630340576, 0.33823907375335693, -1.0233246088027954, -0.5013993978500366, -0.4923885464668274, 0.7860361933708191, 0.6160077452659607, 0.25679636001586914, 0.8409641981124878, 0.05780556797981262, -0.49753537774086, -1.341966986656189, -0.8053689002990723, 0.9191666841506958, -0.06601588428020477, -0.019177166745066643, 0.27475136518478394, 0.9340587258338928, 3.5372650623321533, 1.9188798666000366, -0.11442180722951889, -0.49323052167892456, -0.20444129407405853, -0.3484540581703186, -0.30939558148384094, 0.5594355463981628, 0.6209303736686707, -0.8738529682159424, -0.5857953429222107, 1.1003963947296143, -0.17944326996803284, 0.13443197309970856, -0.5785255432128906, -0.7494521141052246, -0.3256545662879944, -0.6169383525848389], [-0.1281265765428543, -0.03801848739385605, -0.12139274179935455, -0.05172606185078621, -0.10843173414468765, 0.6779479384422302, 0.786634624004364, 0.8573883175849915, 0.3484152853488922, 0.1983402967453003, 0.27519771456718445, -0.10948149859905243, -0.14956249296665192, -0.11060404777526855, -0.04053223878145218, 0.2684710919857025, 1.6279791593551636, 2.7266013622283936, 2.3315789699554443, 2.581629514694214, 1.4063594341278076, 1.5786088705062866, 1.3137184381484985, -0.4862184524536133, -0.6954169869422913, -0.3080047369003296, -0.06854542344808578, 0.38171815872192383, 1.4735369682312012, 1.9695045948028564, 0.49003005027770996, -0.3283686339855194, 0.7812684178352356, 1.2623189687728882, 0.07243198156356812, -0.42034414410591125, -0.4007984697818756, 0.35606953501701355, -0.6893294453620911, 0.072549968957901, -0.25765442848205566, 0.2613159716129303, -0.6208089590072632, -0.3637114465236664, 0.9267792105674744, -0.3888103663921356, -0.6932106614112854, -0.7345077991485596, -1.1090871095657349, -1.075162649154663, 1.0504722595214844, 0.09118815511465073, 0.12277895957231522, 1.0926042795181274, 0.3849053382873535, -0.274672269821167, -0.20730499923229218, 0.777384340763092, 0.5239014625549316, 0.3907455801963806, 0.8710006475448608, 0.675169050693512, 0.4594537913799286, -0.25678324699401855, -0.26195666193962097, 0.6500667929649353, 0.7786949872970581, -1.4656498432159424, -1.9093526601791382, -1.3544634580612183, 0.747087836265564, 0.9804787635803223, 0.8987933993339539, 1.3008687496185303, -0.8410078287124634, -2.034602642059326, -1.318416714668274, -0.342581182718277, 0.15953755378723145, -2.6272709369659424, -1.8230326175689697, -0.9991123676300049, -1.3545140027999878, -0.4578525722026825, -0.5354262590408325, 0.05816115811467171, -1.269642949104309, -1.474136233329773, -0.535542368888855, 0.7888662815093994, 0.7945373058319092, -0.09176246076822281, -0.9562514424324036, -0.05395974591374397, -0.17668911814689636, 0.21522963047027588, -0.1389673352241516, -0.8836216926574707, -0.10234326124191284, -0.62003493309021, 0.6893500089645386, 0.6008151173591614, 1.5471642017364502, 1.0352872610092163, -0.004809442441910505, 2.316577434539795, 1.4921319484710693, -0.24559646844863892, 1.1030291318893433, 0.10970499366521835, -0.415240079164505, -0.039488837122917175, 0.5075421333312988, 0.790239155292511, 0.5174276828765869, 1.496911644935608, -0.07817289978265762, -0.20904427766799927, 2.1789562702178955, 2.7758145332336426, 2.7904090881347656, 1.2409343719482422, 0.4128117263317108, 0.5083964467048645, -0.43934929370880127, -0.2301829308271408, 0.11086709052324295, -0.301161527633667, 0.2848995625972748, -0.5614184737205505, -0.06699041277170181, 1.2636226415634155, 1.1226625442504883, 0.403658926486969, 0.4822421073913574, -0.1314145028591156, 0.6909099817276001, 0.20287461578845978, -0.9503368735313416, -0.5394594073295593, -1.2287863492965698, 0.5835990309715271, 0.6187775135040283, -0.26733630895614624, -0.2927100658416748, -0.284572958946228, -0.7536793351173401, -0.7076748013496399, 0.06453686952590942, 0.2349776178598404, -0.7542432546615601, -0.5534782409667969, -2.0828545093536377, -2.235583782196045, -1.9584707021713257, 0.07515554875135422, -0.2988419532775879, -0.4122886061668396, -2.815476417541504, -0.3011496067047119, 0.15056803822517395, -1.4958281517028809, -2.3379628658294678, -2.2459349632263184, -1.46665358543396, -2.6672985553741455, -1.6428495645523071, -0.1744450181722641, -0.22273056209087372], [0.7435638308525085, 0.6624270081520081, 0.7568162083625793, 0.4884929656982422, 0.03534182906150818, -0.1785612553358078, -0.5435805320739746, -0.5824130773544312, 0.252250611782074, 0.9417943358421326, 0.7999664545059204, 0.7419055700302124, 0.5808882117271423, 0.7027791142463684, 0.7362552285194397, 0.4863264560699463, -0.5523377656936646, -1.0346685647964478, -0.887190043926239, 0.32933497428894043, -0.27939572930336, 0.2060050368309021, -0.2815432548522949, -1.3089187145233154, 0.5868827700614929, 0.594328761100769, 0.82237309217453, 0.7000733017921448, 1.0158454179763794, -0.12459541112184525, 0.770792543888092, 0.8738631010055542, 0.5194364786148071, -0.054612915962934494, 0.4582909345626831, 0.1569405347108841, -0.45019084215164185, 0.543965756893158, -0.8969540596008301, 0.6975972652435303, -0.4642951488494873, 0.5118314623832703, -0.39784175157546997, 1.3907819986343384, 0.12160744518041611, -0.3953286111354828, 0.2716318368911743, -0.019903644919395447, 1.0761183500289917, 0.4002062678337097, 0.11142554879188538, -0.8130046129226685, 0.17410209774971008, -1.9300180673599243, 0.5621882081031799, 0.2026166021823883, 0.13583339750766754, -0.4620453119277954, -0.09862352162599564, 0.3173842430114746, -0.16948311030864716, -0.3016264736652374, -0.20072728395462036, -1.06289803981781, -0.10264068096876144, 0.6811965703964233, -2.3849470615386963, -0.7401870489120483, -1.366234302520752, 0.49361756443977356, 1.0941052436828613, 1.7616015672683716, 1.4294723272323608, -0.33988407254219055, -0.707470178604126, -0.2920644283294678, -1.967284083366394, -2.699826240539551, 0.46796098351478577, -0.0884891077876091, 3.267143964767456, 3.1058309078216553, 2.1136744022369385, 1.3905493021011353, -0.4311017692089081, 1.538663625717163, 1.0810390710830688, -0.3177534341812134, -0.44299930334091187, 0.9340499639511108, -0.8201645612716675, 0.464294970035553, 1.0022495985031128, 3.2861528396606445, 1.2177495956420898, 0.4689837694168091, -0.5680712461471558, -1.4754265546798706, 0.45577749609947205, 2.126619338989258, 2.4232523441314697, 1.28107750415802, 1.7629449367523193, -0.23350773751735687, 0.528615415096283, 0.7322273850440979, 0.02265864610671997, -0.20763809978961945, -0.18312087655067444, -0.6847572326660156, -0.5884696245193481, -0.18459807336330414, 0.7089757919311523, 1.5141230821609497, 1.3290170431137085, 2.9070966243743896, -0.1313180774450302, 0.6729912161827087, -0.8465445637702942, -1.254295825958252, -1.525516152381897, -0.7476872205734253, 0.6489582061767578, -0.670194149017334, -1.6675549745559692, -1.4285845756530762, -0.16134291887283325, 0.48775961995124817, 0.5642566680908203, -0.15063682198524475, 0.8261921405792236, -1.7174577713012695, -0.7352535724639893, 0.03944802284240723, -0.336773544549942, -0.03481980785727501, 0.022032830864191055, -0.578515350818634, -1.8479588031768799, -1.3630038499832153, -1.4888075590133667, -2.702240467071533, -0.10540945082902908, 0.5733312368392944, 0.8152309060096741, 0.4275868535041809, -0.414306104183197, -0.526163637638092, -0.9988225102424622, -1.1480076313018799, -1.8341925144195557, -0.4971329867839813, -0.9624958038330078, -1.0684524774551392, -0.8857554197311401, 0.4941164553165436, 0.7957676649093628, 0.9684695601463318, 0.26350629329681396, -0.49717482924461365, -0.5685631632804871, -0.9903327226638794, -0.6280308365821838, 0.3997138738632202, -0.7910549640655518, -0.3281465470790863, 1.0556373596191406, 0.6307141184806824, 0.6521878242492676], [-0.0976647138595581, 0.021877232939004898, -0.28955304622650146, -1.078981876373291, -2.3518478870391846, -4.354329586029053, -3.2596449851989746, -0.37990811467170715, -0.46414175629615784, -0.3952823877334595, -0.0600152388215065, 0.021343819797039032, -0.006537077948451042, 0.01602494716644287, -0.2244015783071518, -1.7896243333816528, -2.6470513343811035, -2.628042459487915, -0.7990462779998779, -2.018742322921753, 0.6575347185134888, -0.10715334117412567, 0.0934433564543724, 1.67570960521698, 2.2799065113067627, 0.0689222663640976, 0.02689329721033573, -2.0695302486419678, -1.0779147148132324, -1.0629926919937134, -0.08545224368572235, -0.42957988381385803, 1.1647483110427856, 2.7192459106445312, 2.008885383605957, 2.626566171646118, 4.727832317352295, 4.436639785766602, -0.3593553602695465, -0.11261060833930969, -1.0879358053207397, -1.3601642847061157, -1.4551947116851807, -0.17345541715621948, -0.3089001774787903, 1.8239511251449585, 0.5106092095375061, 1.25543212890625, 1.6750941276550293, 1.920555830001831, 3.38737416267395, 1.1807781457901, -0.3066144585609436, -0.49231263995170593, -0.2894046902656555, -0.6809148788452148, -1.3773185014724731, 0.3977351486682892, 0.8945009112358093, -0.643948495388031, -0.42178329825401306, -0.27147892117500305, -1.1996275186538696, 0.14429700374603271, 1.0193371772766113, -0.1905265748500824, 0.05182532221078873, 0.41533926129341125, -0.14720527827739716, -0.3259642720222473, 1.952823519706726, 2.280066728591919, -0.9136046171188354, -0.3028889000415802, -1.3735454082489014, -0.8358418941497803, -2.095060110092163, -1.3050317764282227, -0.12222809344530106, 1.484902262687683, -0.002406582934781909, 0.3559899628162384, 0.16072560846805573, 2.426123857498169, 1.3778268098831177, -0.7056461572647095, -0.7931972146034241, -0.15212368965148926, -1.3595669269561768, -1.93478524684906, -0.5283645987510681, -0.07006344199180603, 2.8958356380462646, -0.7765823602676392, 0.5917669534683228, 0.4918600618839264, 0.5942178964614868, 1.3709701299667358, 0.8679487109184265, 0.2966495752334595, 1.0350779294967651, -0.613724946975708, -1.4249303340911865, 0.016023550182580948, 0.09195808321237564, 2.0268442630767822, -0.5052104592323303, 0.2778226137161255, 0.580619752407074, -0.3512105643749237, -1.5151623487472534, -0.5242589116096497, 0.09704960137605667, 0.28556397557258606, -0.6061067581176758, -1.28995680809021, -0.566550076007843, -0.02571864053606987, 0.24026086926460266, 0.058074865490198135, -0.21010811626911163, 0.06469545513391495, 0.294541597366333, -1.3286662101745605, -1.3876891136169434, -0.9349722266197205, -0.08366507291793823, 0.750336229801178, 2.2596065998077393, -0.24952496588230133, 0.010051880031824112, 0.3242473900318146, 0.11469265818595886, 0.8759298920631409, -1.0492300987243652, 0.5938050150871277, -0.6163310408592224, -0.019999606534838676, -0.047306306660175323, -0.11826841533184052, 1.0337306261062622, 3.457273006439209, -0.5205581188201904, -0.06259173154830933, 0.05371475964784622, -0.05145963281393051, 0.8125108480453491, 0.6507343649864197, 1.1236748695373535, 0.15030251443386078, 0.19266925752162933, 0.9633345603942871, 1.6611298322677612, 0.5795882344245911, 1.7582169771194458, -0.19229409098625183, -0.09852087497711182, 0.22128888964653015, 0.9045499563217163, -0.13375994563102722, 0.39605021476745605, 1.0938940048217773, -0.6758026480674744, -1.0395445823669434, -2.1899988651275635, -1.2124974727630615, 0.22113870084285736, 0.26471468806266785, 0.034317247569561005], [-0.49943533539772034, -0.310376912355423, -0.48502033948898315, -0.4070740044116974, -0.8523911833763123, -0.2778962552547455, -0.24276448786258698, 0.6535488963127136, 0.04682007431983948, -0.6623879075050354, -0.8603225946426392, -0.30597788095474243, -0.43414589762687683, -0.24791285395622253, -0.44609129428863525, 0.39929521083831787, -0.1927337944507599, -2.111816883087158, -1.6555911302566528, -0.28773733973503113, -0.8651649951934814, 0.813156247138977, 1.0229475498199463, -0.18850193917751312, -0.6618805527687073, -0.3216066360473633, -0.32956358790397644, -0.7269105315208435, -1.2471027374267578, -0.26355788111686707, -1.6928389072418213, -1.2188433408737183, -0.009816382080316544, -1.1420738697052002, -0.2153240442276001, 1.3265316486358643, 1.0303908586502075, -1.1862711906433105, -0.7022257447242737, 0.08140557259321213, -1.2836627960205078, 0.39795923233032227, 0.38676440715789795, -1.5157179832458496, 0.9738255739212036, 0.726996660232544, 0.33700594305992126, 1.060949444770813, 0.5830864906311035, -0.013847768306732178, 0.2961999773979187, -0.5130652189254761, -0.31906285881996155, 1.5836325883865356, 0.8890243172645569, 0.8237621188163757, -0.8975182175636292, -1.9624227285385132, -2.0384297370910645, -0.6539178490638733, 1.0202369689941406, 1.5127264261245728, 1.0904673337936401, 0.728202760219574, -0.4548780620098114, -0.36092111468315125, -0.1468975841999054, -0.49397754669189453, 0.2541368901729584, 0.22061513364315033, -0.38400277495384216, -0.7662388682365417, 0.23695921897888184, 0.04812530428171158, 0.3495161235332489, -0.2517109513282776, 0.393730491399765, 0.13942591845989227, -0.23981623351573944, 0.007359446492046118, 0.8400272130966187, 2.3736908435821533, 1.97394597530365, 3.0066845417022705, 2.6338632106781006, -0.8352445363998413, -0.2982010543346405, -0.6197186708450317, -1.4788219928741455, -1.169887900352478, -0.40252581238746643, -0.5412098169326782, 0.6244572997093201, 1.0901957750320435, 1.966503381729126, 1.1614710092544556, 2.2385103702545166, 3.3819825649261475, 1.2703297138214111, 0.9827040433883667, -0.5560274124145508, -1.5213260650634766, -1.5538097620010376, 0.27837231755256653, -0.48909398913383484, -1.178144097328186, -0.5395172238349915, -0.4663236141204834, -0.8840111494064331, -0.7530882954597473, 0.2653873562812805, 1.5081664323806763, 1.378627061843872, -0.2691996991634369, 0.21777725219726562, -0.7494674921035767, 0.5193820595741272, -1.1571820974349976, -0.2857604920864105, 0.06546240299940109, 0.2513265609741211, -0.5522356629371643, 0.663641095161438, -0.050218574702739716, 0.691665530204773, 0.5055475234985352, -0.11459033936262131, 0.3582235276699066, -0.5695645809173584, 0.2994960844516754, -0.43608298897743225, 1.3550853729248047, 1.175284504890442, 0.8875994086265564, -0.4902459383010864, 0.09996058791875839, 0.14550669491291046, 0.24267679452896118, 0.5287166833877563, -0.2972964942455292, -1.126319408416748, -0.6395389437675476, -0.31771206855773926, -0.4122171700000763, -0.15321947634220123, 0.7501154541969299, 1.2906639575958252, -0.5121387243270874, 0.05447554215788841, 0.26890233159065247, 0.2551491856575012, 0.5387216806411743, -0.565912127494812, -0.8575904965400696, -0.47664040327072144, -0.23804999887943268, -0.42998942732810974, -0.3163895308971405, -0.38509321212768555, -0.7207862138748169, -0.04401743784546852, 1.6392583847045898, 2.1428818702697754, 0.2142743617296219, 1.3653199672698975, 0.9449006915092468, -0.07056044787168503, -0.31635865569114685, -0.5306057929992676], [-0.6715777516365051, -0.8259680867195129, -0.7587458491325378, -0.7705488204956055, -0.706882894039154, -0.5533400177955627, -0.632171094417572, -0.8267971873283386, -0.8865523934364319, -0.8718789219856262, -0.5881451964378357, -0.6346185803413391, -0.8488970398902893, -0.8465851545333862, -0.6564106345176697, -0.6161758303642273, -0.3926656246185303, -1.5992127656936646, -0.6778865456581116, -1.1147782802581787, 0.3389807641506195, 1.1803170442581177, 0.18734967708587646, -0.5265225768089294, -0.8118903040885925, -0.6417785286903381, -0.6105114221572876, 0.4145198166370392, 0.8693446516990662, 1.0303404331207275, 0.756574273109436, 1.4158350229263306, 0.18630000948905945, 0.7049092650413513, 1.4044026136398315, 1.704751968383789, 0.5070923566818237, -1.0005903244018555, -1.170209527015686, -0.844316840171814, -0.405396431684494, -0.12685754895210266, -0.3424006402492523, -0.2192324548959732, 0.8624842762947083, 0.15012824535369873, 0.7448519468307495, 1.391156554222107, 1.1942890882492065, 1.6781309843063354, 0.10532188415527344, -0.7521926164627075, -1.1989123821258545, -2.284065008163452, -0.048813316971063614, -0.4717293977737427, 0.09498857706785202, -1.0200753211975098, -0.6088845133781433, 0.24557220935821533, 1.562677264213562, -0.21335984766483307, -0.5713586807250977, -0.5416246652603149, -0.3862846791744232, -2.3449838161468506, -3.0606436729431152, -1.7837414741516113, -0.6729578375816345, -0.6408606767654419, 0.15248261392116547, -0.6409193873405457, -0.4143560826778412, 0.2883916199207306, -1.7540333271026611, -0.13872164487838745, -0.2984819710254669, -0.5127125978469849, -1.5490176677703857, -2.8619918823242188, -0.6652788519859314, 1.0391203165054321, 0.6153586506843567, 1.4561673402786255, 0.5455544590950012, 0.5277700424194336, 0.49561792612075806, 0.21348193287849426, 0.020627403631806374, 0.14888820052146912, -0.6119445562362671, -0.8965475559234619, -0.544409453868866, 0.8549652099609375, 1.8999611139297485, 0.8567266464233398, 2.766455888748169, 1.9739881753921509, 1.2730724811553955, 0.06524945050477982, 0.6211118698120117, -0.37301093339920044, -0.19011789560317993, -0.8059553503990173, -0.7283114790916443, -0.8111695051193237, 0.6427519917488098, 1.8036830425262451, 1.059631109237671, 2.247305154800415, 1.8645803928375244, 0.5423012375831604, -0.6083685159683228, 1.5075262784957886, 0.7493586540222168, 0.5745312571525574, -0.7923341989517212, -0.39999860525131226, 0.0865122601389885, 0.3256642818450928, 0.6301038265228271, 1.2914135456085205, 2.0940630435943604, 0.9301279187202454, -0.38042253255844116, -1.211025595664978, 1.8233814239501953, 2.2275516986846924, 1.353023648262024, -0.624310314655304, -0.7525098323822021, -0.32909369468688965, 0.5751944184303284, -0.2300848364830017, 0.5091937184333801, 0.3920850157737732, 0.03680472820997238, 0.6421316266059875, -2.19883394241333, -0.033945079892873764, 0.8327715992927551, 1.0427101850509644, -0.696949303150177, -0.6850841641426086, -1.0799243450164795, -0.3556756377220154, -0.011436020955443382, 1.4524996280670166, 1.93447744846344, 0.4294149875640869, 1.260274052619934, -2.4695982933044434, -3.034200429916382, -0.27660226821899414, -0.43598857522010803, -0.6386883854866028, -0.734955370426178, -0.6963645815849304, -0.9122336506843567, -0.8716223835945129, -0.08127231895923615, -0.9535260796546936, -0.6401459574699402, 0.8489404320716858, -1.0296661853790283, -2.6810314655303955, -0.9166350960731506, -0.8412400484085083, -0.7108559012413025], [0.061870064586400986, -0.09523230046033859, 0.037106502801179886, 0.05985458195209503, 0.764660120010376, 0.9201788306236267, 0.5193522572517395, -1.117906928062439, -0.371090292930603, -0.029267877340316772, 0.08860837668180466, 0.21023747324943542, 0.15540266036987305, -0.055104032158851624, 0.08249547332525253, -1.1761934757232666, -1.680764079093933, -1.5261375904083252, 0.9844099283218384, 1.5363425016403198, 1.379055142402649, 0.4680137634277344, -1.1575630903244019, -2.370063066482544, -3.6204965114593506, -0.6596875190734863, 0.10458631068468094, -0.19525395333766937, 0.21972741186618805, -0.014767426997423172, -0.5496481657028198, 0.34048131108283997, -0.2876421809196472, -0.8462234735488892, -1.166099190711975, -0.8313062191009521, -1.4858742952346802, -2.448221206665039, -2.058579683303833, 0.06101889908313751, 2.2599265575408936, 0.6739610433578491, -1.2895255088806152, -0.996484100818634, 0.02200571447610855, 1.3402377367019653, 2.111513137817383, 1.9459539651870728, 2.5519487857818604, 5.016533374786377, 3.329408645629883, 0.42575982213020325, 0.20436155796051025, 0.8042174577713013, -1.0748523473739624, -0.746966540813446, -1.6071734428405762, -0.9920821189880371, 1.1261229515075684, 1.4361913204193115, 2.22117280960083, 2.5791893005371094, 3.807526111602783, 1.6750186681747437, -0.3726288676261902, -0.06965234130620956, -1.4996963739395142, -1.6461724042892456, -0.7100079655647278, -0.022559743374586105, -0.29757341742515564, -0.14570605754852295, -0.6627947092056274, -0.9947670698165894, -0.9307495951652527, 0.2693025767803192, 0.31337180733680725, 0.31086501479148865, -0.01436072587966919, -0.9019798040390015, 0.5312693119049072, 0.16646040976047516, -0.10454549640417099, 0.7617924213409424, 1.0415648221969604, 0.7884805798530579, 0.009053435176610947, -0.872124433517456, -0.5449485182762146, -0.1888837367296219, 1.046935796737671, 0.05542702227830887, 0.3139883875846863, 2.1799697875976562, 3.1148746013641357, 2.236632823944092, 0.40692704916000366, -0.5915822982788086, -0.7715190649032593, -0.613925576210022, -0.9954419732093811, 0.377872109413147, -0.21569323539733887, -0.33709943294525146, -0.05261131376028061, 0.8610487580299377, -0.22547903656959534, 1.7263931035995483, 0.9276993870735168, -0.2509995698928833, 0.10800445079803467, -1.33949875831604, -0.3788035213947296, -0.9556980729103088, -0.5473611354827881, -1.1354937553405762, 0.06713548302650452, -0.5911660194396973, -0.9069346785545349, -0.9782968759536743, -1.1466588973999023, -0.6851078271865845, -0.0331202894449234, 1.8656268119812012, -0.4634872376918793, -0.05188599228858948, 1.0323872566223145, -0.7655367255210876, -0.05619656294584274, -0.5224929451942444, 0.056821610778570175, -1.038338303565979, -0.7366647124290466, -1.113470196723938, -1.590490460395813, -0.8012540340423584, 0.5568305850028992, 0.46882542967796326, -0.12505468726158142, 0.7551473379135132, -0.08946247398853302, -0.4170387387275696, -1.7863192558288574, 0.1581825613975525, -0.5282078385353088, 0.04606381803750992, -0.597896158695221, -0.12871676683425903, 0.7180532217025757, 0.1829163283109665, 0.16007429361343384, 0.7156460285186768, 2.6721105575561523, 1.175397515296936, -1.0740331411361694, -0.7363332509994507, 0.10462375730276108, -0.10909401625394821, 0.1308337301015854, 0.2246517688035965, 1.1275088787078857, 1.4859509468078613, 0.5713091492652893, 0.8643905520439148, 0.887378990650177, -0.5773860216140747, -0.012555026449263096, 0.10601934045553207, 0.19839641451835632], [-0.806448221206665, -0.8749613165855408, -0.670971155166626, -0.8776472210884094, -0.022139474749565125, -0.01746368780732155, 1.0596833229064941, -0.063617043197155, -0.5998697876930237, -2.4009323120117188, -2.290095329284668, -1.2095218896865845, -0.8015276789665222, 0.2445150464773178, -0.3134762942790985, -1.0987181663513184, -0.5137404203414917, 1.0655081272125244, 4.741241455078125, 2.877476692199707, 0.4976756274700165, -0.06549891829490662, -0.3249809145927429, 0.8740288615226746, -2.0290136337280273, 0.39080455899238586, -0.5500189661979675, -1.4827316999435425, -1.4369114637374878, -0.13707716763019562, 1.0427907705307007, 5.017587661743164, 1.1940242052078247, 0.8445814251899719, -0.051365770399570465, -0.014056367799639702, 0.14767701923847198, -1.2279915809631348, -2.5045368671417236, -0.9198260307312012, -1.1180139780044556, 0.0476096048951149, -0.3735255300998688, 3.218635320663452, 4.381616592407227, 0.23352044820785522, -0.5689608454704285, -0.04911891743540764, 0.29547056555747986, 0.19981028139591217, 0.8168306350708008, -1.7708423137664795, -0.8055912852287292, 0.06093759462237358, 1.0956312417984009, 0.8824575543403625, 3.8580853939056396, 2.398038387298584, -0.40957242250442505, -0.3140113055706024, 0.5951288342475891, 1.887018084526062, 3.9054434299468994, 3.824150323867798, -0.25346899032592773, -0.8996383547782898, 0.25720179080963135, 0.01496088970452547, 0.6469855904579163, 3.3364763259887695, -0.03199123963713646, -1.3759599924087524, 1.1984081268310547, 0.7826741933822632, 2.0274596214294434, 2.6809239387512207, 2.063507080078125, 0.22839359939098358, -0.8846265077590942, -0.7971958518028259, 0.14029909670352936, -0.34769272804260254, 1.2036705017089844, -1.3766196966171265, 0.19921568036079407, 0.3711244761943817, -0.6393591165542603, -0.7964794635772705, 0.1844981610774994, 1.9127485752105713, 1.2664129734039307, -0.5469282269477844, -1.6100544929504395, -2.7228856086730957, -0.9853704571723938, 0.28504544496536255, -1.3682814836502075, 0.08232178539037704, -0.2792447507381439, -1.6378724575042725, -0.4373478293418884, -0.5151458382606506, 0.45227453112602234, 0.011910621076822281, -1.1596059799194336, -2.03079891204834, -1.579003095626831, 0.8952466249465942, 0.09424953907728195, -0.8966412544250488, 0.06785683333873749, -0.18399538099765778, -1.4893240928649902, -0.45774999260902405, 1.9003422260284424, 1.0799317359924316, -1.1237540245056152, -0.6750970482826233, 0.09015126526355743, -0.22956803441047668, 0.2986205816268921, 0.79719078540802, -0.9834994077682495, -0.6523608565330505, 0.7134621739387512, -0.5838820934295654, -0.17142662405967712, 0.2591205835342407, 0.9976545572280884, -1.0556352138519287, -0.6594709753990173, 0.3183848559856415, 1.4407614469528198, 0.4201164245605469, -0.3515074551105499, -0.6283056735992432, -0.6983017921447754, -0.1681898832321167, 1.0686157941818237, -1.3944814205169678, -0.7395154237747192, -0.2768661081790924, -0.6736572980880737, -0.7820861339569092, -0.7241106629371643, -1.677554726600647, 0.46508869528770447, 0.4476737678050995, -0.7331219911575317, -0.19655291736125946, -0.5327754020690918, -1.025887131690979, -1.679590106010437, 0.0185291338711977, -0.5326530933380127, -0.8247024416923523, -0.7207629680633545, -0.5833789110183716, -0.6528326869010925, -0.3816329538822174, 0.12128617614507675, -0.31350407004356384, 0.6523758769035339, -0.1468893587589264, -0.6097477674484253, 0.287535697221756, -0.36267024278640747, -0.6906089782714844, -0.7757433652877808], [-0.13831748068332672, -0.03259803354740143, -0.14696826040744781, 0.08620258420705795, -0.11680129170417786, 0.09911215305328369, 0.026850642636418343, -0.2586328685283661, -0.9466572403907776, -0.7754226922988892, -0.1609712392091751, -0.15541933476924896, -0.2738916575908661, -0.16786275804042816, -0.25342825055122375, 0.21095524728298187, 0.5127490162849426, -0.3650203049182892, -0.9184613227844238, 0.30161556601524353, -0.6236052513122559, -0.38492318987846375, -0.18138045072555542, -0.5226155519485474, -0.18793219327926636, -0.3325463831424713, -0.008290925063192844, -0.7057584524154663, -0.18509262800216675, -0.26609528064727783, -0.2842828333377838, -0.24945999681949615, -0.1146843284368515, 0.08475933223962784, 0.0581500306725502, -0.17069780826568604, -0.1996348798274994, -0.14440199732780457, -0.06203628331422806, 0.1503228396177292, -0.40845629572868347, -0.8130089640617371, 0.456627756357193, -0.3033384680747986, -0.1911674290895462, -0.32057446241378784, -0.5439477562904358, 0.05865297466516495, 0.028112012892961502, -0.0852358415722847, -0.3319897949695587, -1.2437769174575806, 0.07974531501531601, -1.2060798406600952, -0.5524855852127075, -0.5952842235565186, 0.44700145721435547, -0.2671118378639221, 0.4281332194805145, 0.8199629187583923, -0.12416341155767441, 0.1319323182106018, 0.11379275470972061, -0.20497265458106995, -0.8184826970100403, 0.6093887090682983, 0.20093569159507751, 0.9272654056549072, -0.029807675629854202, 0.6259059309959412, 0.24719907343387604, 0.5042209029197693, 0.6950101852416992, 0.7002754211425781, 0.8223227262496948, 0.6917591094970703, -0.07765069603919983, -0.520696222782135, -0.02563515305519104, 0.8746626377105713, -0.9785153865814209, -0.8993517160415649, 0.20896512269973755, -0.6111595630645752, -0.2880685031414032, 0.38708555698394775, 0.1620609015226364, 0.08545029163360596, 1.127667784690857, 1.5625684261322021, 0.2729826867580414, -0.43874210119247437, 2.7764484882354736, 2.5483205318450928, 2.3911778926849365, -0.1401040256023407, -1.7423232793807983, -0.24590779840946198, 0.8461610674858093, -0.4689701497554779, -0.0736858993768692, -1.0388153791427612, 0.38500866293907166, 0.23793622851371765, -0.515437126159668, 1.130060076713562, 3.2368457317352295, 4.867987632751465, 7.317107677459717, 6.04954719543457, 3.465629816055298, 0.5860074162483215, -0.04392009973526001, -0.46425262093544006, 0.0806245505809784, 0.8936310410499573, 0.4042570888996124, -0.30259472131729126, -0.15293915569782257, 0.8324962854385376, 0.7331539988517761, 1.0791590213775635, 0.48143330216407776, -0.13544592261314392, -1.3216915130615234, -0.7573378086090088, -1.268185019493103, -0.8034726977348328, -0.5694883465766907, -0.05774741619825363, -0.017171790823340416, -0.09106781333684921, -1.0258725881576538, -0.3438006341457367, -0.9552503228187561, -1.9247361421585083, -0.8214820623397827, -0.18019971251487732, -0.1126151829957962, 0.12437073886394501, -0.15725499391555786, 1.2507978677749634, 0.8135798573493958, -0.22601646184921265, -1.037482738494873, -2.5886876583099365, -0.873481273651123, -1.2147176265716553, -1.4069443941116333, -0.7565123438835144, -0.4268348813056946, -0.7849265933036804, -0.31803369522094727, -0.49993282556533813, 0.04060084745287895, -0.03515443578362465, -0.18980170786380768, -0.16297903656959534, -2.1253182888031006, -1.212805986404419, -0.32354190945625305, -1.8290873765945435, -1.2352449893951416, -0.7213907837867737, -1.3472241163253784, 0.5805086493492126, -0.5335590839385986, -0.0903179943561554, -0.31910571455955505], [-0.1651056408882141, -0.2663014829158783, -0.34513038396835327, -0.22287435829639435, -0.4224872887134552, -0.2260594367980957, -0.4863356947898865, -0.38120901584625244, -0.22070473432540894, -0.32237517833709717, -0.26850876212120056, -0.13317839801311493, -0.3957565128803253, -0.2343694269657135, -0.44007670879364014, -0.5279393196105957, -0.648415744304657, -0.26624560356140137, -0.3644315004348755, -0.9390948414802551, -0.7623661160469055, -0.04366987198591232, -0.054235342890024185, -0.03589332848787308, -0.3783644735813141, -0.3222300112247467, -0.29319506883621216, -0.45927563309669495, -0.438423216342926, -0.27805066108703613, -0.06047217175364494, 0.050764087587594986, 0.3337754011154175, -0.017684025689959526, 0.5327070951461792, 0.09952566772699356, -0.1521030068397522, -0.45640242099761963, -0.36762478947639465, -0.4230281114578247, -0.31992101669311523, -0.05587390810251236, -0.3286660313606262, 0.031172707676887512, 0.2091934084892273, 0.375370591878891, 0.3065580427646637, 0.17197422683238983, 0.18185952305793762, 0.08907105028629303, -0.14721398055553436, -0.1627194881439209, -0.31052497029304504, -0.16191129386425018, -0.18988220393657684, 0.1460438072681427, 0.372979074716568, 0.7372772097587585, 0.5967918038368225, 0.2121090292930603, 0.034609682857990265, 0.34290626645088196, 0.384450227022171, 0.06905490905046463, -0.27595654129981995, -0.1875525414943695, -0.02552114427089691, -0.18448910117149353, -0.004329761490225792, 0.2819887399673462, 0.6396581530570984, 0.16785265505313873, 0.24792727828025818, 0.33696499466896057, 0.3294617533683777, 0.29291412234306335, -0.25864407420158386, -0.5082817077636719, -0.16420596837997437, -0.17722415924072266, 0.035280317068099976, 0.43397507071495056, 0.7027323246002197, 0.5128530263900757, 0.09607788175344467, 0.5143231153488159, -0.13570556044578552, -0.07828667014837265, -0.38404157757759094, -0.5021762847900391, -0.540535032749176, -0.40207546949386597, -0.45765697956085205, 0.038581039756536484, 0.3176596462726593, 0.5842657685279846, 0.030207831412553787, 0.1160259023308754, 0.3521285355091095, 0.12296810001134872, 0.18318022787570953, 0.2237834334373474, -0.2111726552248001, -0.10557031631469727, -0.2942892909049988, -0.33584290742874146, 0.3555792272090912, 0.354474276304245, 0.4699559509754181, 0.19046537578105927, 0.10826835036277771, 0.5474221706390381, 0.054233867675065994, -0.03856964409351349, 0.2612430155277252, 0.007124572992324829, -0.43243443965911865, -0.3078833222389221, -0.5253674387931824, -0.40936583280563354, 0.04990607127547264, -0.021916886791586876, -0.10843951255083084, -0.052107781171798706, 0.27867770195007324, -0.3217187821865082, 0.15740202367305756, 0.31784483790397644, -0.05504147335886955, -0.3155166506767273, -0.4224030077457428, -0.6416452527046204, -0.7751539945602417, -0.1569516509771347, 0.057396382093429565, 0.36511316895484924, 0.248640775680542, -0.2581325173377991, -0.3092348575592041, -0.3788710832595825, -0.1821853220462799, -0.27590158581733704, -0.3499864339828491, -0.2683485746383667, -0.11424858868122101, -0.03969844803214073, -0.004639735911041498, 0.2070450633764267, 0.6243171095848083, 0.469621479511261, 0.1493804007768631, -0.07339886575937271, -0.4257866442203522, -0.3653920590877533, -0.4860369563102722, -0.15813234448432922, -0.3119127154350281, -0.41064974665641785, -0.5398222804069519, -0.4128190577030182, -0.21088317036628723, -0.4202349781990051, -0.16181354224681854, -0.5490036010742188, -0.3183242678642273, -0.5455487370491028, -0.3364247679710388, -0.45696204900741577, -0.45018720626831055], [-0.11858867853879929, -0.12315023690462112, -0.11567804217338562, -0.14136548340320587, -0.5370913743972778, -0.21880823373794556, -0.34086495637893677, -0.5116146802902222, -0.325257807970047, -0.2502281665802002, -0.40136080980300903, -0.139031782746315, -0.14699798822402954, -0.18689757585525513, -0.1809714287519455, 0.08471673727035522, -0.3955855965614319, -1.0665415525436401, -1.6303311586380005, -0.11814311891794205, 1.2985352277755737, 0.9851608872413635, -1.0691871643066406, 0.10861211270093918, -1.2902857065200806, -0.417407751083374, -0.06902872025966644, 0.7182095050811768, -0.029782624915242195, -0.7810747027397156, -1.5477852821350098, -0.6067286133766174, 1.0249145030975342, 0.15406230092048645, -0.01591840386390686, 1.9651833772659302, 1.7453004121780396, -0.3071986734867096, 0.48274660110473633, -0.22517132759094238, 1.039445161819458, 1.6255967617034912, -0.1292584240436554, -1.114097237586975, 0.8377888798713684, 0.4118058979511261, 0.6344466209411621, 0.9462977647781372, 1.1721460819244385, -0.9377082586288452, -0.7806979417800903, -0.916569173336029, -0.060816116631031036, 2.6865901947021484, 0.7159260511398315, -1.4389097690582275, -1.2291139364242554, 1.7304173707962036, 0.7250319123268127, 0.9679515361785889, 0.8876402378082275, -0.3726668059825897, 0.15816901624202728, -1.4550094604492188, -1.513107180595398, -0.037116505205631256, 2.496182918548584, 0.05393418297171593, 