{"weights": [[[-0.030406206846237183, -0.05640922486782074, -0.1088356152176857, 0.113980233669281, -0.14436830580234528, 0.00982239842414856, 0.11507490277290344, 0.0027738064527511597, -0.07555195689201355, 0.01541060209274292, 0.10428884625434875, -0.020038068294525146, 0.1262383759021759, 0.14167091250419617, 0.0649869441986084, -0.022017836570739746, 0.11452442407608032, -0.02852204442024231, -0.13363017141819, -0.0580223947763443, 0.14078408479690552, -0.049477167427539825, -0.17120982706546783, 0.07783525437116623, -0.14331290125846863, 0.098786860704422, 0.1004883348941803, 0.12960752844810486, 0.1273721158504486, 0.09758895635604858, 0.005287975072860718, -0.10502956807613373, -0.09408226609230042, -0.010978895239531994, -0.06591250747442245, 0.040159016847610474, 0.029422692954540253, 0.008054486475884914, -0.04437963664531708, 0.08190193772315979, 0.06899285316467285, -0.1007407009601593, -0.12213843315839767, 0.14108797907829285, 0.02822098881006241, -0.09086518734693527, -0.1867649257183075, -0.21849514544010162, 0.014180481433868408, -0.11069922894239426, -0.21204140782356262, -0.15698881447315216, -0.15167531371116638, 0.06969141960144043, 0.04716186225414276, -0.012765929102897644, -0.13191276788711548, -0.17652627825737, 0.05077366158366203, 0.04788647219538689, -0.21473392844200134, -0.028948195278644562, 0.07675786316394806, -0.15606623888015747, 0.08008962869644165, -0.06264274567365646, -0.12540467083454132, -0.16962862014770508, -0.08305823057889938, 0.010225934907793999, -0.1889168620109558, -0.04690539836883545, 0.03576445206999779, -0.08021249622106552, -0.010908330790698528, -0.06748376041650772, -0.1139727383852005, 0.017990514636039734, -0.07875828444957733, 0.15187287330627441, -0.1073380708694458, -0.14593732357025146, -0.18559783697128296, -0.14351272583007812, -0.12203165143728256, -0.13930310308933258, 0.04245501011610031, -0.08734117448329926, 0.026989340782165527, 0.0026284605264663696, 0.011785447597503662, -0.01338285207748413, -0.14046241343021393, -0.1233544647693634, -0.13287018239498138, -0.10219845175743103, 0.05395429953932762, 0.08806908875703812, -0.20087619125843048, -0.08744588494300842, -0.05719183012843132, -0.008104711771011353, -0.15855656564235687, -0.012644335627555847, 0.03477133810520172, -0.04454599320888519, -0.08743561804294586, -0.10868720710277557, -0.20768052339553833, -0.17501972615718842, 0.02890522964298725, -0.13789448142051697, -0.11098611354827881, -0.024766206741333008, -0.03378137946128845, -0.096062071621418, 0.06186780333518982, -0.09200485795736313, 0.08618518710136414, 0.044279977679252625, -0.1064973920583725, -0.002192004816606641, 0.06141185015439987, -0.07547339797019958, -0.15711088478565216, 0.09039923548698425, -0.09393925219774246, 0.0058409422636032104, -0.044249631464481354, 0.019127890467643738, -0.05989989638328552, 0.06873314082622528, 0.016084730625152588, -0.06590914726257324, -0.17493849992752075, -0.08826828002929688, -0.20649905502796173, 0.007436245679855347, -0.10161060094833374, 0.006895825266838074, -0.12337803840637207, 0.0338851660490036, -0.10571770370006561, 0.04900580644607544, -0.010430953465402126, -0.03597809746861458, -0.12229172885417938, 0.060481805354356766, 0.017101138830184937, 0.085846908390522, -0.06384558230638504, -0.15666241943836212, 0.046742454171180725, 0.008385032415390015, -0.04587213695049286, -0.11657188832759857, -0.14061786234378815, -0.04762355610728264, 0.027272408828139305, -0.06548719108104706, -0.11377997696399689, -0.011027091182768345, -0.14464129507541656, 0.06684167683124542, 0.1109975278377533, -0.15236110985279083, 0.15475913882255554, 0.15350937843322754, 0.15413343906402588], [0.020876258611679077, 0.0669785737991333, 0.08225381374359131, -0.06114715337753296, 0.10469576716423035, 0.09503358602523804, -0.048114560544490814, 0.014897093176841736, 0.09873097389936447, -0.04612382873892784, -0.08623967319726944, -0.020538389682769775, -0.005402609705924988, 0.1358409821987152, -0.036043308675289154, 0.003973960876464844, -0.08930034190416336, -0.0912843570113182, -0.15813258290290833, -0.13628514111042023, -0.1984865367412567, -0.11336232721805573, -0.09307026863098145, -0.06171803176403046, 0.006855461280792952, -0.11884511262178421, -0.1224217414855957, -0.07988394796848297, -0.13622580468654633, 0.14296293258666992, 0.004556149244308472, -0.05383417755365372, -0.08733083307743073, -0.18979795277118683, 0.07529225945472717, 0.1078229621052742, 0.12346198409795761, -0.19168061017990112, 0.035291966050863266, -0.15734638273715973, 0.11005908250808716, 0.15012389421463013, -0.09357088059186935, -0.09711991250514984, 0.042957380414009094, -0.11339788138866425, -0.002680448815226555, 0.04795169085264206, -0.17043593525886536, 0.030647093430161476, -0.06974999606609344, -0.18951810896396637, -0.10219171643257141, -0.15254972875118256, 0.10332798957824707, 0.036143697798252106, 0.14995478093624115, 0.09240822494029999, -0.1943037211894989, -0.1406199187040329, -0.07914391905069351, 0.1474742442369461, -0.0655350312590599, 0.10571043938398361, -0.04253092035651207, 0.04418912157416344, -0.10636962950229645, 0.16618381440639496, -0.1229199692606926, -0.04581446200609207, -0.08520328253507614, -0.15346460044384003, 0.07253003120422363, -0.19627100229263306, -0.13509483635425568, -0.018902691081166267, -0.036129556596279144, 0.015430266968905926, 0.046040087938308716, -0.045929983258247375, 0.052924394607543945, 0.044417399913072586, 0.010176116600632668, -0.10180407762527466, -0.0007383719203062356, -0.12560094892978668, -0.06082257628440857, -0.19601911306381226, -0.06441377103328705, 0.09875399619340897, 0.026591598987579346, 0.03225850313901901, 0.06601531058549881, 0.17248626053333282, -0.03464499115943909, -0.22452642023563385, -0.20057694613933563, -0.10135143995285034, -0.15162408351898193, 0.004903630819171667, -0.036094848066568375, -0.05834696814417839, -0.1394783854484558, 0.07506591081619263, 0.10500085353851318, 0.07866530120372772, -0.21250571310520172, -0.14608563482761383, 0.06292513012886047, -0.16828690469264984, 0.09152773022651672, -0.13876107335090637, -0.05455010011792183, -0.19479764997959137, -0.1623413860797882, -0.0999450534582138, -0.002778363414108753, 0.09415578842163086, -0.0771128237247467, -0.18264202773571014, -0.19592618942260742, 0.030170127749443054, 0.06531048566102982, -0.21144044399261475, 0.012493446469306946, 0.06631746888160706, -0.10255187749862671, -0.08807390183210373, 0.045911893248558044, -0.01531997136771679, -0.05062643438577652, -0.1435188204050064, -0.014576690271496773, 0.0693913996219635, -0.03119806759059429, -0.07714630663394928, -0.22399461269378662, -0.022694945335388184, -0.06442008912563324, -0.003397478023543954, 0.04621444642543793, -0.10902030020952225, 0.13959252834320068, 0.1210264265537262, -0.16059140861034393, -0.04314219206571579, -0.09307949244976044, 0.09095510840415955, -0.07720087468624115, -0.11624115705490112, -0.05165659263730049, -0.11824852973222733, -0.11364317685365677, 0.010631278157234192, 0.05055356025695801, -0.09597533941268921, -0.07515321671962738, 0.07305873930454254, -0.10696935653686523, 0.030423730611801147, -0.18346139788627625, -0.20439819991588593, 0.03881110996007919, -0.11444880813360214, -0.13321034610271454, 0.05938875675201416, -0.06469467282295227, -0.006667688488960266, -0.015195056796073914], [0.181840181350708, 0.10445500910282135, 0.07433914393186569, 1.1060608625411987, 1.572174310684204, -0.9171764850616455, 0.9057601094245911, 1.5385057926177979, -0.33206620812416077, -0.5190695524215698, -0.7094306945800781, -0.1553899347782135, -0.06512586772441864, 0.030977653339505196, -0.13482211530208588, 0.08255600184202194, -0.02999812737107277, -0.08640804141759872, -0.018773941323161125, 0.4270879328250885, 1.0630377531051636, 1.2682573795318604, 0.20974142849445343, 0.02517836168408394, 0.07856911420822144, -0.2790142893791199, -0.18950949609279633, -2.433135509490967, -0.45296356081962585, -0.7502650618553162, 0.11981827765703201, 0.5023730993270874, 0.8311144709587097, 0.33049070835113525, 0.1935199648141861, 0.3133545219898224, 0.17333638668060303, -0.3069734275341034, -0.8559858202934265, -2.8273508548736572, -1.2624388933181763, 0.36511629819869995, -0.6216906309127808, 0.06979595869779587, 0.027998585253953934, 0.8776406049728394, 0.520935595035553, -0.17694346606731415, 0.24845236539840698, -0.45510709285736084, -0.5925354361534119, 0.19372542202472687, -1.7329987287521362, -0.12754681706428528, 0.18801365792751312, -0.22655965387821198, 0.08443211019039154, -0.8062315583229065, -0.6377973556518555, -0.23820383846759796, 0.5713615417480469, -0.06093476340174675, 0.6074418425559998, -1.0882478952407837, -0.5565975904464722, -0.39634406566619873, 0.2339024394750595, 0.4225265681743622, -0.7809385061264038, -0.19729307293891907, -1.6383947134017944, -1.8632469177246094, -0.6552799940109253, -0.49698665738105774, -0.10496868938207626, 0.5404214262962341, -0.4701785743236542, -1.5914512872695923, 2.365540027618408, 1.0856024026870728, -0.2778899371623993, -0.9779844284057617, -0.5509915351867676, -1.7125571966171265, -0.3559688627719879, -0.5599291324615479, -1.140848159790039, -0.2547014057636261, 1.199917197227478, 0.20762702822685242, -1.562533974647522, 0.9094862341880798, 0.07684724032878876, -0.9512818455696106, -2.3831787109375, -2.2258269786834717, -1.9274810552597046, -0.034276023507118225, -1.3508880138397217, -1.2334386110305786, 0.624596357345581, 0.5139026641845703, -0.7504497766494751, -0.6165769100189209, 0.1235451027750969, -0.39616721868515015, -0.09240815043449402, 0.19909809529781342, -0.7892087697982788, -2.1388840675354004, -3.0156266689300537, -1.9577274322509766, 0.3849353492259979, 0.9334590435028076, -0.228913813829422, -0.6747687458992004, 1.0030252933502197, 0.08468330651521683, -0.10774391144514084, 1.6204066276550293, 1.4248199462890625, 1.0339571237564087, 1.1967605352401733, 0.27299702167510986, -0.07143163681030273, 0.7460349798202515, -0.32709306478500366, -0.7070758938789368, -0.9657585620880127, -0.84657883644104, 1.563940167427063, -0.500417947769165, -0.2953589856624603, 1.1528542041778564, 0.8273743987083435, 1.1953670978546143, 1.1237084865570068, 1.768637776374817, 0.39088597893714905, -0.5311812162399292, -0.8018260598182678, -0.059128839522600174, 1.7481207847595215, -1.1959805488586426, -0.7913125157356262, 0.043335821479558945, 0.14506365358829498, 1.5987699031829834, 1.004321813583374, 1.0007424354553223, 1.0195233821868896, 0.912417471408844, 1.9649866819381714, 1.6155544519424438, 1.1139580011367798, 1.0565552711486816, -0.44585657119750977, -1.815706729888916, -0.20628561079502106, -0.09643886238336563, -0.4916607439517975, -0.3399704396724701, 0.17701776325702667, 0.9601781368255615, 0.7735812664031982, 0.05054021626710892, 0.5875993967056274, -0.16633471846580505, 0.18747566640377045], [-0.1025257259607315, 0.007028549909591675, 0.03023962676525116, -0.03888942301273346, 0.03259257972240448, -0.014607921242713928, 0.13885849714279175, 0.09126114845275879, 0.10827386379241943, 0.14059391617774963, -0.1353818029165268, -0.024400100111961365, 0.13271886110305786, 0.09634971618652344, -0.05551835894584656, 0.06287471950054169, -0.06458360701799393, 0.09317082166671753, 0.05447831749916077, 0.001552686095237732, -0.08084850758314133, -0.023835808038711548, -0.11928653717041016, -0.128043994307518, 0.0026893317699432373, -0.023573055863380432, -0.10868758708238602, -0.015370622277259827, -0.13321053981781006, -0.025384977459907532, -0.1547657549381256, -0.08285275846719742, -0.10416120290756226, 0.01418653130531311, -0.12776462733745575, -0.014364093542098999, 0.0407896488904953, -0.15268421173095703, 0.025781527161598206, 0.07500220835208893, 0.010194674134254456, -0.09900808334350586, -0.13689756393432617, -0.07942326366901398, -0.24701374769210815, -0.1398608535528183, -0.18814300000667572, -0.22026146948337555, -0.17239771783351898, -0.1992923617362976, -0.025877833366394043, 0.12160143256187439, -0.08751064538955688, -0.14928314089775085, -0.18889670073986053, -0.2808990478515625, -0.3248571455478668, -0.27976149320602417, -0.29371899366378784, -0.08839297294616699, -0.24766866862773895, -0.2031981647014618, -0.1459382176399231, 0.028856277465820312, -0.10845106840133667, -0.14128132164478302, -0.07743514329195023, -0.04475622624158859, -0.14904482662677765, -0.172360360622406, -0.30804774165153503, -0.05441216379404068, 0.11628711223602295, -0.2297954559326172, -0.04179665073752403, -0.04932304844260216, 0.12848368287086487, -0.14472484588623047, -0.06609653681516647, -0.1389354169368744, -0.24966289103031158, -0.13937921822071075, 0.022923067212104797, -0.1118054986000061, -0.0522909089922905, -0.12558652460575104, -0.23591302335262299, -0.18668434023857117, -0.18494293093681335, 0.09866735339164734, -0.021310240030288696, 0.1314515769481659, 0.003939330577850342, -0.09821905940771103, -0.14044015109539032, 0.054251283407211304, -0.06611092388629913, -0.04735755920410156, -0.11020751297473907, -0.2521592080593109, -0.10631226748228073, -0.19978134334087372, 0.014948323369026184, 0.010209396481513977, 0.05762438476085663, 0.007038876414299011, 0.10437145829200745, -0.1080639585852623, -0.12100289762020111, 0.09829449653625488, -0.01768745481967926, -0.3077344000339508, -0.06945361942052841, -0.24815230071544647, -0.04557252675294876, -0.009485453367233276, 0.1211014986038208, 0.04550917446613312, 0.031127288937568665, -0.14422300457954407, -0.08048737794160843, -0.07075641304254532, 0.10212868452072144, 0.14533114433288574, -0.19475750625133514, -0.24289312958717346, -0.28430047631263733, 0.1524462103843689, 0.09471490979194641, -0.09660696238279343, 0.05849325656890869, -0.07938496768474579, -0.10978708416223526, 0.10802355408668518, -0.00829179584980011, -0.13630874454975128, -0.16479602456092834, -0.040402308106422424, -0.1430341601371765, -0.0976199209690094, -0.15385498106479645, -0.078947052359581, -0.05465782433748245, -0.1301814615726471, 0.030672729015350342, 0.024592965841293335, -0.12990421056747437, -0.0685085579752922, -0.18167424201965332, -0.27739766240119934, -0.19467519223690033, -0.0055439770221710205, -0.12581178545951843, -0.07311540842056274, 0.14220616221427917, -0.003631576895713806, 0.04726053774356842, -0.037697337567806244, 0.12199202179908752, 0.15259337425231934, -0.23266935348510742, -0.060640599578619, -0.027608351781964302, -0.2811543643474579, -0.021334916353225708, -0.04163973033428192, 0.13286110758781433, -0.06657370924949646, -0.16031388938426971], [-0.08235713094472885, 1.008593201637268, 0.9815412163734436, -0.18890245258808136, -0.6124457716941833, 0.8145169615745544, 0.15951043367385864, -0.1796623319387436, 1.6116251945495605, 5.050702095031738, 3.5580668449401855, 1.5572506189346313, 1.1488693952560425, -2.4055399894714355, -2.1833035945892334, -0.38882872462272644, -0.7029901146888733, -0.7776357531547546, -0.6529838442802429, -0.9008601307868958, 0.3653987944126129, 0.20406918227672577, 0.8586705327033997, 1.2727996110916138, 2.37538743019104, -0.30292367935180664, -1.6982790231704712, -0.43862655758857727, 0.5018576383590698, 0.02039070427417755, 0.7448049187660217, 0.09997212141752243, -0.5385220050811768, 0.9520951509475708, 2.119312047958374, 1.9467929601669312, 1.3509517908096313, 2.5838205814361572, -0.6085696220397949, -1.9925624132156372, -1.5585768222808838, -0.8664478659629822, -0.6583650708198547, 0.0267178975045681, -0.017034171149134636, 0.8235290050506592, 0.7449648976325989, 0.17519457638263702, 0.898286759853363, -0.5988869071006775, -2.2504279613494873, -1.6936246156692505, -1.8384145498275757, -1.7752341032028198, -1.1871062517166138, -0.4046027958393097, -0.31856149435043335, -0.4569401741027832, -2.0901923179626465, -2.786360025405884, -5.487573146820068, -7.88397216796875, -8.88918399810791, -4.567680358886719, -1.4344574213027954, -0.6436144113540649, -0.674210250377655, 0.43908998370170593, 0.1934390515089035, -0.06638109683990479, 0.022479578852653503, -0.03820451721549034, 0.366278737783432, 0.49909865856170654, -0.9179232716560364, -1.485404133796692, -1.875392198562622, -0.0943012461066246, 0.679111123085022, -1.4576691389083862, 1.168854832649231, -0.5716514587402344, 0.44734758138656616, -0.19807468354701996, -0.44983428716659546, 0.12012193351984024, 1.1820249557495117, 0.7824369072914124, 0.8154340386390686, 0.6122130155563354, -1.9358667135238647, -0.15825128555297852, -0.12989355623722076, 1.2003376483917236, -0.11942455172538757, 0.5391461253166199, -0.021886393427848816, -0.7618695497512817, 0.28781837224960327, 0.2528599500656128, 1.0743687152862549, 0.4503120183944702, -0.8626441955566406, 0.7903154492378235, -1.8233838081359863, 0.09085337072610855, -0.011381324380636215, -0.34916478395462036, -0.24722759425640106, -0.60027676820755, -0.1904713213443756, -0.05969403311610222, 0.5192189812660217, 0.25843045115470886, 1.251501202583313, 0.07997457683086395, 0.613531231880188, 1.1025065183639526, 0.4933052361011505, 0.7080800533294678, 0.6412236094474792, 0.12490159273147583, 0.6173881888389587, -0.2630988359451294, 0.8559338450431824, 0.3461722433567047, -0.3540373146533966, 0.11982853710651398, 0.3698602318763733, 0.7303803563117981, -0.16766685247421265, 0.9204701781272888, -0.45699235796928406, -0.36680784821510315, 0.39259570837020874, 0.6480549573898315, 0.7328628301620483, 0.7302733063697815, 0.0740729495882988, 0.18535779416561127, 1.0953773260116577, -0.005373632535338402, 0.6482145190238953, -1.8885493278503418, 2.2376887798309326, -0.32509487867355347, 0.2647940516471863, 0.3258465528488159, -0.2889912724494934, -0.3340308666229248, 0.32384195923805237, -1.1981451511383057, -0.4265720248222351, -0.24729497730731964, -0.22827208042144775, 1.6591393947601318, -0.07885605841875076, 2.3371264934539795, 2.6149704456329346, 1.6695170402526855, -0.13828207552433014, 1.4122368097305298, 1.1074286699295044, 0.9887717962265015, 1.1414778232574463, -0.25972533226013184, 0.12281302362680435, -0.9081953763961792, 0.3870837390422821], [-0.08615925163030624, -0.009324148297309875, -0.14509883522987366, 0.09571394324302673, 0.08431002497673035, 0.07309041917324066, 0.123451828956604, -0.0012516820570454001, 0.13363128900527954, 0.10851427167654037, 0.009328517131507397, 0.0879451259970665, 0.09783035516738892, -0.03677570819854736, 0.1579659879207611, 0.08182878792285919, 0.05051711946725845, 0.10688140988349915, -0.16153883934020996, 0.21434125304222107, 0.1381109356880188, 0.009053653106093407, -0.02542049065232277, -0.08994588255882263, -0.11687789857387543, 0.10710081458091736, 0.06066174805164337, 0.09520211815834045, -0.08442934602499008, -0.17215877771377563, -0.21721379458904266, -0.2025911808013916, -0.20265723764896393, -0.027991656213998795, 0.05835934355854988, -0.15406204760074615, -0.10514982789754868, -0.04559807479381561, -0.056360065937042236, -0.0344432108104229, 0.06980669498443604, -0.09597548097372055, 0.08259151875972748, -0.043323270976543427, -0.1725720465183258, -0.17394012212753296, -0.21091945469379425, 0.01754319667816162, -0.11373741179704666, 0.08050583302974701, 0.08972584456205368, -0.09802141785621643, -0.040469665080308914, 0.1385468989610672, 0.050817593932151794, 0.09363366663455963, -0.11535193026065826, -0.12916287779808044, 0.03148387745022774, -0.14662805199623108, -0.1617065966129303, -0.03908590227365494, 0.08928313851356506, -0.05785633996129036, -0.0735606700181961, 0.08728863298892975, -0.06334751099348068, -0.17215946316719055, 0.11788403987884521, 0.025688882917165756, 0.03240630030632019, -0.24325470626354218, 0.03975242003798485, -0.23658797144889832, 0.12870094180107117, 0.03837519884109497, -0.06540343910455704, 0.03495822846889496, 0.08782146871089935, -0.07638443261384964, -0.19836406409740448, 0.1752527505159378, -0.15439745783805847, -0.04416150227189064, -0.10425540059804916, -0.012275006622076035, -0.13168682157993317, 0.08064692467451096, -0.06344899535179138, -0.18597887456417084, -0.05513694882392883, -0.19795064628124237, -0.04929668828845024, 0.09039159119129181, -0.021320363506674767, -0.01921449974179268, -0.20522566139698029, 0.05555720627307892, 0.0020554987713694572, -0.023077335208654404, 0.04454657435417175, -0.04145364463329315, -0.06605145335197449, -0.10736454278230667, -0.21777783334255219, -0.02149296924471855, -0.09187282621860504, -0.06340443342924118, -0.20714572072029114, -0.09075991064310074, 0.04832536727190018, -0.04969758167862892, -0.05490510165691376, 0.04859232157468796, -0.23125092685222626, 0.06603599339723587, -0.10208394378423691, -0.19456224143505096, 0.03604957088828087, 0.005419514141976833, -0.047133635729551315, -0.25128239393234253, -0.07332902401685715, -0.14918038249015808, 0.0030623781494796276, -0.16650338470935822, -0.0690884068608284, -0.10231228917837143, -0.0991356298327446, -0.17298220098018646, 0.047694966197013855, -0.20886914432048798, 0.05435153469443321, -0.20504111051559448, 0.0009821890853345394, -0.17398716509342194, -0.2290785163640976, -0.07508628070354462, 0.07426076382398605, -0.09891901910305023, -0.029743652790784836, 0.16757671535015106, -0.08923140168190002, -0.13997070491313934, -0.048832572996616364, -0.17908118665218353, -0.020293571054935455, 0.10425882041454315, -0.0057845949195325375, -0.026195282116532326, -0.15819351375102997, -0.2028479129076004, 0.03436758369207382, 7.145848212530836e-05, -0.026509182527661324, -0.14333809912204742, 0.07091675698757172, -0.09837537258863449, 0.11619007587432861, -0.06567289680242538, 0.08665604889392853, 0.012581020593643188, 0.09422214329242706, -0.05584883689880371, 0.10694880783557892, -0.13628080487251282, -0.02287030965089798, -0.08565065264701843, 0.14900392293930054], [0.006261618807911873, 0.11182725429534912, -0.07136016339063644, -0.3372657299041748, 1.0316132307052612, 0.2684130370616913, -1.4647685289382935, -1.3051854372024536, -0.5080459713935852, -0.2513139843940735, -0.36242055892944336, 0.07579029351472855, -0.15102805197238922, 0.08600487560033798, -0.029462380334734917, -0.8702343106269836, -0.24640369415283203, -1.4526991844177246, -0.7382882237434387, -2.4724628925323486, -2.793619155883789, -2.185485601425171, 0.05914030224084854, -1.0309416055679321, 1.1874879598617554, 0.7587469816207886, 0.06494873017072678, 0.9750723838806152, 1.5001686811447144, 2.427366018295288, -0.3831421434879303, 0.6900537014007568, 0.8668196797370911, -0.11994390934705734, -0.01319069042801857, -1.0216903686523438, -0.3710280954837799, -1.0900846719741821, -1.9832441806793213, 0.0644301325082779, -2.3868861198425293, -1.0907131433486938, 0.9151321053504944, -0.06998329609632492, 1.3500012159347534, -0.05173441767692566, -1.3189996480941772, 0.14395226538181305, -0.11439070105552673, -0.1669461578130722, 0.363246351480484, -0.8978652954101562, 0.9038735032081604, -1.5043047666549683, 0.0038755605928599834, -1.3644344806671143, -0.2752067744731903, 0.40795230865478516, 0.09681997448205948, 0.12197569012641907, 0.6063900589942932, 0.881385087966919, -0.047305431216955185, -0.3461194634437561, 0.2887272238731384, -0.8305961489677429, -0.7699398398399353, -2.4025251865386963, 1.1140472888946533, 0.6088520288467407, 1.0173853635787964, -0.1113467738032341, 0.5966811776161194, 0.9878777861595154, 0.6358662843704224, 0.47388336062431335, 0.6461064219474792, 0.5496178269386292, 0.15810026228427887, -2.2971909046173096, -2.5746073722839355, 0.6860148906707764, 0.7369362115859985, -0.38762134313583374, -0.012839656323194504, 0.9758036136627197, 0.1750999242067337, 0.2912614941596985, 1.0678964853286743, -1.1546486616134644, -0.2009330540895462, -0.7731064558029175, -0.848158597946167, -0.13082648813724518, -0.5849865078926086, -0.7631498575210571, -0.5044867992401123, 0.4432637393474579, 0.8030228018760681, 0.38972967863082886, 0.4109525978565216, -0.49854302406311035, -0.42476096749305725, -1.72115159034729, -1.3942451477050781, -0.11157860606908798, 0.18644008040428162, -1.4485950469970703, -0.46309876441955566, -0.6190187335014343, 0.6949018836021423, -0.23969443142414093, -1.112363576889038, 0.6386662125587463, -2.0899813175201416, -0.8403468132019043, 0.14113064110279083, 0.4569239616394043, -0.012379160150885582, -2.8930740356445312, -1.626244306564331, -1.5717579126358032, 1.561826229095459, -1.3562345504760742, -1.6333767175674438, -0.4785890281200409, -0.9322670698165894, -1.8162777423858643, -1.7700393199920654, 2.6774749755859375, -0.6149349808692932, -0.525950014591217, -0.6517238020896912, -0.3713502883911133, 1.4286056756973267, 0.965453565120697, -2.8364222049713135, -4.438571453094482, -2.2903194427490234, -0.2513391971588135, -0.03532753139734268, -1.1181243658065796, 1.0190547704696655, -1.9622235298156738, 0.27674707770347595, 1.3877899646759033, 0.9004412889480591, 0.6522087454795837, 0.3182275891304016, -3.4907233715057373, -2.8589937686920166, -4.599197864532471, -0.36731216311454773, 0.6096693277359009, -0.190415620803833, 0.3408929407596588, 0.4519832134246826, 1.493025779724121, 0.6212746500968933, 2.202179431915283, 1.0500836372375488, 0.20640015602111816, -1.740031361579895, -1.7788130044937134, -2.1686782836914062, -0.7135006785392761, 1.0133143663406372, -0.4772784113883972, -0.1653730869293213], [0.1939702033996582, 0.2303471565246582, 0.061352621763944626, -0.14682258665561676, -1.562544822692871, -0.37247735261917114, 0.009369702078402042, -1.5071617364883423, -1.392177939414978, -1.6424891948699951, -0.7422373294830322, -0.35132837295532227, -0.3654665946960449, -0.06710518896579742, -0.41178372502326965, -1.0714792013168335, -2.74471378326416, -4.014896392822266, -3.767533779144287, -2.9975481033325195, 0.09990156441926956, 0.02968883514404297, -0.9331481456756592, -0.8282005190849304, -0.4881022274494171, -0.6208563446998596, 0.8748427629470825, 1.2969658374786377, -1.5241440534591675, -2.8826608657836914, -0.7198222875595093, -0.3466356098651886, -1.2738025188446045, -1.5616458654403687, -2.6476364135742188, -1.6634857654571533, -1.9615848064422607, -1.6319698095321655, -1.4438523054122925, 2.031794786453247, 2.860755681991577, -1.2275290489196777, -2.102698802947998, -0.025181518867611885, -1.5333939790725708, -1.889983057975769, -1.03622567653656, -0.9470666646957397, -0.2010856419801712, -0.0954202339053154, -0.1300055980682373, -0.1594935804605484, 2.524851083755493, 1.273924469947815, 0.0550302192568779, -0.9631726145744324, 0.44781211018562317, 0.5375664830207825, 1.417334794998169, 2.6048920154571533, 1.9290939569473267, 2.3217318058013916, 1.15989351272583, 1.6537216901779175, 2.9428305625915527, 1.9426183700561523, -1.2977471351623535, -0.31497722864151, 0.5208735466003418, 0.09622352570295334, 1.0353134870529175, 0.5262667536735535, -0.297356516122818, -0.2937871813774109, 0.6425299644470215, 0.3715498745441437, 3.421251058578491, 1.9954010248184204, 1.5168150663375854, -2.4307706356048584, -0.5791117548942566, 0.37458980083465576, 1.1300010681152344, 0.5622246861457825, -0.022528070956468582, -1.1213366985321045, -1.8203920125961304, -3.189661741256714, -0.8032963871955872, -0.07855342328548431, -0.38967132568359375, -0.9069567322731018, 1.6036288738250732, 1.0817385911941528, 0.20698332786560059, 0.33991554379463196, 0.18596434593200684, -1.0576318502426147, -1.397460699081421, 0.03464042767882347, -0.8889359831809998, -0.3156602382659912, -0.057212769985198975, 0.13305583596229553, -3.4540460109710693, -0.716055691242218, 0.31843385100364685, 0.3819248378276825, 0.45655107498168945, -0.07825133204460144, -1.2355371713638306, -0.2929830253124237, 0.48190903663635254, 0.05576903745532036, -1.362851858139038, -3.10752272605896, -0.6869922876358032, -2.614063024520874, -0.7868006825447083, 0.43880850076675415, 0.2964702844619751, 0.42476946115493774, 0.753715455532074, -0.42358139157295227, -0.10807771980762482, 0.7810503244400024, -0.8119091391563416, -0.5872716307640076, -0.6777604222297668, -1.343353033065796, -2.0895187854766846, -1.6016029119491577, -0.7696865200996399, -0.712350070476532, -0.32842645049095154, -0.3223855197429657, -0.13562895357608795, -1.1504839658737183, -0.3479579985141754, -0.8093865513801575, 0.11181803792715073, 1.4365302324295044, -0.280948668718338, 0.16992545127868652, -2.150576114654541, -2.4857637882232666, 0.11782421171665192, 0.9082826972007751, 0.5440327525138855, 0.34863218665122986, 0.5207094550132751, 0.03555946797132492, -0.3428838551044464, -0.30600041151046753, 0.616954505443573, 0.6414678692817688, 0.19131438434123993, -0.30302849411964417, -0.7607723474502563, -1.037672758102417, -0.6900128722190857, -0.0026209214702248573, -0.7564319968223572, -0.5780644416809082, 0.8811992406845093, 0.7130770683288574, 2.687155246734619, 0.7441374659538269, 0.23793570697307587], [0.16147588193416595, 0.10364039987325668, 0.12965771555900574, -1.9084004163742065, -2.1630287170410156, -0.3300504982471466, -0.948599100112915, 1.1315609216690063, 1.1688491106033325, 1.4547039270401, -0.33879733085632324, 0.03298725187778473, -0.4848352074623108, -0.5994351506233215, -1.6750121116638184, -0.9749616980552673, -2.254081964492798, -1.7861716747283936, -0.3055427074432373, -0.1817830204963684, 0.46003150939941406, -0.7924202680587769, 0.08421529829502106, 0.35381007194519043, -0.5696883797645569, 0.5750389099121094, 0.3368067443370819, -2.567660331726074, -4.073069095611572, 0.32438722252845764, 0.6739930510520935, -0.10087606310844421, -0.2448805868625641, -0.26868683099746704, -0.04863085225224495, 0.3592373728752136, -0.14411674439907074, -0.11467455327510834, 2.279212236404419, 1.6837414503097534, -4.1711745262146, -1.153807520866394, -0.0018569666426628828, -0.22726282477378845, -0.14867372810840607, -0.19481688737869263, 0.13481082022190094, 0.5759832859039307, 2.383129596710205, 2.2640700340270996, 2.2707905769348145, 1.887413501739502, -2.1053898334503174, -1.8831572532653809, 0.16184110939502716, -0.12643960118293762, -0.2903992235660553, 0.20771536231040955, -0.22320881485939026, -0.9123125076293945, -0.5059201121330261, -0.047526150941848755, 1.061383605003357, 2.1369051933288574, 2.3490307331085205, -0.12447144091129303, -1.3231874704360962, -1.4903440475463867, -0.11401387304067612, 0.7234352827072144, 0.35338300466537476, -0.14757931232452393, -2.054112195968628, -4.051149368286133, -5.047037124633789, -4.505106449127197, -5.286385536193848, 0.40862494707107544, 0.20175793766975403, -2.2265655994415283, 0.5778802633285522, 0.663183331489563, 0.3162769675254822, -0.2506597936153412, -0.1967105269432068, 0.12600187957286835, -0.30738916993141174, -0.8630032539367676, -5.5735063552856445, -5.309747695922852, -0.6501642465591431, 0.0516386404633522, -1.22555673122406, -0.5208982229232788, 0.09327837824821472, -0.5019023418426514, -0.057743579149246216, -0.2776724398136139, -0.08191457390785217, -0.5792580246925354, 0.08062145113945007, -0.23836174607276917, -2.6068336963653564, -2.3060784339904785, -0.6497617959976196, -0.10740960389375687, 0.35298505425453186, -0.331411749124527, -0.24521993100643158, -0.6945858597755432, 0.45269322395324707, 1.002885341644287, 0.2878679633140564, 0.39175835251808167, 0.4071125388145447, -2.1060080528259277, -4.6462483406066895, 0.9155154228210449, -0.49901795387268066, 0.0960899293422699, 0.65828537940979, 0.48818719387054443, 0.05397096648812294, 0.45464131236076355, 0.7991514801979065, 0.34704843163490295, 0.7168639302253723, -0.3473062217235565, 0.30120909214019775, -1.0306487083435059, -1.0685957670211792, 0.2248130589723587, -0.3740358352661133, 0.6242159008979797, 1.086254358291626, 1.0671608448028564, 0.9867657423019409, 0.6365305185317993, 0.7691617012023926, 0.2813577950000763, 0.8808726072311401, 0.47307726740837097, -0.23424869775772095, -1.8315057754516602, 2.3096513748168945, -0.20050379633903503, -0.5403410196304321, 0.20826134085655212, -0.055648427456617355, 0.007470482494682074, 0.40436699986457825, 0.07063830643892288, -0.6546792387962341, -1.0905393362045288, -1.381544828414917, 0.8050855994224548, -0.26895830035209656, 0.8628869652748108, -0.12019001692533493, 1.1523505449295044, 0.9046969413757324, 0.8575126528739929, 0.6475189328193665, -0.7894562482833862, -0.5096368193626404, -2.32027268409729, -1.7107466459274292, -1.915718674659729, -0.5361073613166809], [-0.05542668700218201, 0.013688698410987854, -0.1506507247686386, -0.06511468440294266, -0.09993350505828857, 0.015359684824943542, 0.12122371792793274, 0.022166207432746887, -0.09797075390815735, 0.012139588594436646, 0.07929866015911102, 0.018299028277397156, -0.10962635278701782, 0.042107418179512024, 0.11019784212112427, 0.0019037127494812012, -0.1577792912721634, -0.057691603899002075, -0.05102415010333061, -0.17281369864940643, 0.014840934425592422, -0.1757243126630783, -0.04020990431308746, -0.025262117385864258, 0.11779215931892395, 0.07450459897518158, -0.06558661162853241, 0.03394627571105957, 0.05829958617687225, -0.002860531210899353, -0.0731431096792221, -0.10129624605178833, -0.0660049170255661, -0.005246254149824381, -0.05051949620246887, -0.18538452684879303, -0.0332767516374588, -0.0737597718834877, -0.10767467319965363, -0.08973148465156555, 0.08362740278244019, 0.06890951097011566, -0.15488497912883759, -0.0512692928314209, -0.060757748782634735, 0.07426577061414719, 0.01778087206184864, 0.043434444814920425, -0.002505703130736947, -0.11679297685623169, -0.06886877119541168, -0.04563404619693756, -0.13267233967781067, 0.10147738456726074, -0.0505341961979866, -0.19781138002872467, -0.10303988307714462, -0.159718319773674, -0.13619305193424225, 0.04485983029007912, -0.014686771668493748, -0.05726024881005287, -0.05608062818646431, -0.10026873648166656, 0.04723222553730011, -0.07280737906694412, -0.030775487422943115, -0.10589882731437683, -0.062455352395772934, 0.019369933754205704, 0.08399370312690735, -0.05457519739866257, -0.18432879447937012, -0.13417653739452362, 0.07741028815507889, -0.0070474278181791306, -0.01596449501812458, -0.05518569052219391, -0.05205710977315903, -0.032006070017814636, -0.11397691071033478, 0.003794372081756592, -0.1340409219264984, -0.024234982207417488, 0.026133248582482338, -0.07831279933452606, 0.060592301189899445, 0.131876140832901, 0.08520746976137161, 0.14571093022823334, 0.12344786524772644, 0.08777035772800446, -0.009049952030181885, 0.0933280885219574, -0.15781629085540771, -0.016501501202583313, -0.12047760933637619, -0.11370472609996796, -0.06172015145421028, -0.13450853526592255, -0.031721387058496475, -0.08982928097248077, -0.1272343099117279, -0.06563574075698853, -0.010108351707458496, 0.07868008315563202, 0.12016957998275757, -0.021460220217704773, -0.1473109871149063, -0.02486449107527733, -0.22635842859745026, 0.08853225409984589, -0.16492867469787598, -0.07840725034475327, 0.04493294656276703, -0.1129768043756485, 0.03507530689239502, -0.05670987069606781, 0.02794407308101654, 0.027574673295021057, -0.11384904384613037, -0.12375378608703613, 0.10309168696403503, -0.04151419177651405, -0.15489713847637177, -0.07534845918416977, 0.0474669486284256, -0.13392950594425201, -0.02994588017463684, -0.12164565175771713, 0.13697472214698792, 0.012946352362632751, -0.14552971720695496, -0.11971569806337357, -0.06142555549740791, -0.12219071388244629, -0.13268092274665833, -0.18400372564792633, -0.16939695179462433, 0.049012742936611176, 0.160109281539917, -0.1329590231180191, -0.013118058443069458, 0.08837936818599701, 0.12160864472389221, -0.09552502632141113, -0.10079808533191681, -0.11525323987007141, -0.028822677209973335, -0.17683111131191254, 0.02628178894519806, -0.027433855459094048, 0.19962908327579498, -0.09991069883108139, -0.03497245907783508, 0.08520196378231049, -0.05318017303943634, 0.08925053477287292, -0.06057059392333031, -0.04742879793047905, -0.017135880887508392, 0.12073858827352524, -0.04739036038517952, -0.19634048640727997, 0.020536994561553, 0.03214946389198303, -0.14501060545444489, -0.09836781024932861, -0.09081047773361206], [-0.12837941944599152, 0.09538920223712921, -0.5322924256324768, -0.8954450488090515, -1.6079453229904175, -2.7275612354278564, -1.8538998365402222, -1.3993875980377197, 0.9958388209342957, -1.2347426414489746, -1.3907586336135864, -0.21864014863967896, -0.04586265608668327, -0.029872043058276176, -0.6189446449279785, -1.8168270587921143, -2.3050341606140137, -1.1417347192764282, -1.1962112188339233, -2.7792320251464844, -1.8017425537109375, -1.2733129262924194, -0.4807974696159363, -0.39218011498451233, 0.0021662425715476274, 0.016317961737513542, 1.27118718624115, -1.1931495666503906, 0.5958350300788879, 0.8706529140472412, -0.0488407276570797, 0.2452457696199417, -0.9312723875045776, -0.26034459471702576, -0.45592570304870605, -0.09021039307117462, 0.9533622860908508, -0.2697637975215912, -1.3015942573547363, 3.831169843673706, -0.052058957517147064, 0.15258820354938507, 0.8423566222190857, 0.5533707141876221, 0.6133634448051453, -0.31382331252098083, -0.20355896651744843, 1.1065418720245361, 0.6473662853240967, 0.6532222032546997, 0.2764277458190918, -1.7937959432601929, 2.5432353019714355, -0.08471813052892685, 0.27976876497268677, 1.096176266670227, 0.005288858897984028, 0.007524099200963974, 0.06981316208839417, -0.009941548109054565, -0.5243471264839172, 0.4372239112854004, 0.28674596548080444, -0.9023463726043701, -1.475164771080017, 1.388129711151123, 0.6775710582733154, -1.6260651350021362, 0.908363401889801, 0.11629278212785721, -0.12945570051670074, -0.8882850408554077, 0.8323666453361511, -0.8044353127479553, 0.3682743012905121, 0.5379065871238708, -1.8990343809127808, -3.567857503890991, 2.132185935974121, 1.0289503335952759, 1.2463408708572388, 0.2889653444290161, 0.6443448066711426, -1.2518341541290283, -0.1759875863790512, 0.825584888458252, -0.959920346736908, 0.6620153784751892, 0.8201916217803955, -2.7959303855895996, -0.5254358053207397, -1.280658483505249, -1.0752079486846924, 0.9337024092674255, 0.4022482633590698, -0.5916600227355957, -0.7059924006462097, 0.14005374908447266, 0.9947859048843384, 0.45594462752342224, 1.4605660438537598, 0.7844750285148621, -0.8966645002365112, -2.2405855655670166, -1.6106716394424438, -1.6142981052398682, 0.42682817578315735, -0.2742972671985626, 0.2888049781322479, -0.13603922724723816, 0.9728776216506958, 0.33818700909614563, -0.05058469995856285, 0.7204403877258301, -0.10116851329803467, -1.1647961139678955, -2.128782272338867, -0.08340690284967422, -1.0046054124832153, -2.4157609939575195, -1.3388748168945312, -2.154561996459961, -0.4593377411365509, 1.4090018272399902, -0.9322189092636108, -2.0511584281921387, 0.500541627407074, -1.4631831645965576, -2.0256357192993164, -0.9091340899467468, -0.9922817349433899, -1.4541109800338745, -2.3475611209869385, -2.1434388160705566, -0.8947149515151978, 0.5190408229827881, 1.4710643291473389, -2.209641933441162, -3.700852155685425, -1.8553427457809448, 1.0960347652435303, 0.015243958681821823, -0.6482055187225342, -0.44775715470314026, 0.20023857057094574, -0.9426612854003906, -1.8265118598937988, -0.26744338870048523, 1.1310739517211914, 1.2491191625595093, -1.2553117275238037, -3.5159997940063477, -3.648498058319092, -1.2228448390960693, -1.2812331914901733, 0.8309227824211121, 0.3168954849243164, -0.17984002828598022, -1.7817063331604004, 0.0468209870159626, 0.8255988955497742, 0.8167127966880798, 1.7279982566833496, 2.1864147186279297, -1.8607574701309204, -4.678107261657715, -1.317018747329712, -1.4268301725387573, -0.19617480039596558], [0.10644710063934326, -0.10282665491104126, -0.18303760886192322, -0.11624006181955338, -0.9154890775680542, -1.8446033000946045, -2.629870891571045, -2.248725414276123, 0.5749055743217468, 0.7171569466590881, -0.4154111444950104, -0.36415907740592957, -0.04031139984726906, -0.07686307281255722, 0.10839196294546127, -1.405255675315857, -2.1277425289154053, -3.3807754516601562, -2.562671422958374, -1.6594605445861816, 0.13116633892059326, -0.2571907639503479, -0.00028909899992868304, 0.01066482812166214, 1.8673572540283203, -0.23715080320835114, 0.49086248874664307, 2.513442277908325, 0.8870454430580139, 0.09389345347881317, -0.5756458640098572, 1.3360973596572876, 0.5340511798858643, -0.29962536692619324, 0.6794725656509399, -0.3036407232284546, 0.25351661443710327, 0.8600813746452332, -0.8800365924835205, 0.8594713807106018, -0.81351238489151, -0.7847988605499268, -0.40600496530532837, 0.5788403749465942, -0.6268392205238342, -0.28126752376556396, -0.43329209089279175, -0.14726121723651886, -0.5541934370994568, 0.2608732283115387, 0.5743660926818848, 0.16417436301708221, -0.2905192971229553, -1.215450406074524, -0.8580785989761353, -0.5499134659767151, -0.44241636991500854, -0.05794167146086693, -0.26261910796165466, 1.1180720329284668, 1.0276449918746948, -0.02865665778517723, 0.9905370473861694, 0.11354265362024307, 1.5763659477233887, 0.6133732199668884, 0.5906392931938171, 0.7764093279838562, 0.7750942707061768, 0.4342717230319977, -0.12672871351242065, -2.29256272315979, -1.286874532699585, -0.8022879362106323, -0.012410932220518589, -0.8124441504478455, 1.2302651405334473, 1.2573213577270508, 1.6928998231887817, 1.462955355644226, -0.47876664996147156, -0.6095068454742432, 0.20527170598506927, -0.8256300091743469, -1.9372185468673706, -1.2841036319732666, -1.1530513763427734, 0.19551557302474976, 0.9709265232086182, 0.18285827338695526, 0.7988391518592834, 0.08698006719350815, 0.7339729070663452, -0.30023738741874695, 0.503210186958313, 2.011425256729126, 1.129775047302246, 1.1720110177993774, -0.10388784110546112, -0.9007108211517334, -0.5295398235321045, -0.43893560767173767, -2.115429639816284, -1.5950300693511963, -0.7132748365402222, -3.6287665367126465, -1.6572332382202148, 0.9547987580299377, 1.7036998271942139, 2.435073137283325, 1.7450494766235352, 0.5135255455970764, -0.6597706079483032, -1.116360068321228, -1.1269638538360596, -0.45487916469573975, -1.6797605752944946, 0.13951542973518372, -0.931827187538147, -2.7534077167510986, -3.0466160774230957, -2.878718376159668, -1.0922409296035767, -0.9449145793914795, 0.49701955914497375, 0.5311813354492188, -0.6809186339378357, -0.2427629977464676, -1.4126965999603271, 0.1375342458486557, 1.4816925525665283, 0.20574693381786346, 0.6246470212936401, 0.2962323725223541, -0.2767971158027649, -0.6229775547981262, -0.9115254282951355, -0.11206577718257904, 0.6437617540359497, 0.08614727854728699, 0.3838920295238495, 0.625235915184021, 1.5536764860153198, 1.7053405046463013, -0.22747457027435303, 0.8216010928153992, 0.822284996509552, 1.5795446634292603, 0.8938586711883545, 0.49726754426956177, 0.7031389474868774, -0.16434317827224731, -0.578330397605896, -0.12501072883605957, 2.535184144973755, 1.3865163326263428, 0.6352391242980957, 2.0661070346832275, 1.5707606077194214, 0.029349517077207565, -0.2439974844455719, 0.6566279530525208, 1.1473116874694824, -0.22476056218147278, 0.022314542904496193, 0.38965660333633423, -0.6359661221504211, 2.4009957313537598, 0.017578398808836937], [0.16877365112304688, 0.06773111969232559, -0.092203289270401, 0.030863329768180847, -1.5566462278366089, 1.674295425415039, 0.6407468318939209, 0.3481104373931885, 0.7048881649971008, 0.17191872000694275, -1.5369457006454468, -1.6154756546020508, -0.4909614622592926, -1.0494030714035034, -0.5662196278572083, -0.28803470730781555, -0.7025257349014282, -2.870971202850342, 0.7202160358428955, 0.7612192034721375, 0.3554563820362091, -1.2709952592849731, -0.3330641984939575, -0.2986641228199005, -1.0279690027236938, -0.4992837607860565, -0.7761907577514648, 0.05750858783721924, -0.2782336473464966, -2.144571542739868, -0.8815954327583313, 0.09944652020931244, 0.35621339082717896, 0.4358598589897156, -0.29594096541404724, 0.3638344407081604, 1.083430290222168, 0.19401787221431732, 2.202847957611084, 0.5749946236610413, 0.6188201308250427, 0.4171062111854553, -0.2099466174840927, -0.3984381854534149, 0.32316380739212036, 0.6720641255378723, 1.1758655309677124, 1.0464164018630981, -0.0362725630402565, 0.34698015451431274, 1.4391822814941406, 0.12907817959785461, 1.5449979305267334, 0.8809905052185059, 0.3896295428276062, 1.34538733959198, -0.7271649241447449, 0.21164746582508087, 0.2714749276638031, 0.9116967916488647, 0.7968403100967407, 0.6193696856498718, 0.12828505039215088, 1.8700282573699951, 2.446406602859497, 1.8186094760894775, 1.2068291902542114, 0.8800458908081055, 0.6030359864234924, -0.11650260537862778, 0.855800449848175, 0.3604375123977661, -0.043796829879283905, 0.873841404914856, 1.0075335502624512, -0.5115278959274292, -0.05422424152493477, 1.2678779363632202, -0.9916952252388, 1.0292682647705078, 0.3983871042728424, 0.6479422450065613, -1.170676827430725, -0.063622385263443, -0.4727341830730438, -0.5643581748008728, 0.1960318386554718, -1.0100044012069702, -1.5939048528671265, -1.1192749738693237, -1.3895516395568848, -2.780160903930664, 2.469658851623535, 0.42794424295425415, -1.4485782384872437, -1.7806785106658936, -0.45898276567459106, -1.4932130575180054, -0.49037685990333557, -0.7581486701965332, -1.0646706819534302, 0.193359836935997, -0.8132189512252808, -0.5808510780334473, -0.455651193857193, 2.3075714111328125, -0.08216848224401474, -0.1728644222021103, -0.6289536356925964, -1.331583857536316, -1.2619731426239014, 0.32764700055122375, 0.3640649914741516, -1.6298775672912598, -1.5751078128814697, -2.5349583625793457, -0.04990188777446747, -0.5474312901496887, 1.7207462787628174, 0.8754099011421204, 1.3576003313064575, 0.4060903489589691, -0.255031943321228, 0.5311458110809326, 0.40029415488243103, -1.416345238685608, -2.577683210372925, -2.1970770359039307, -0.8641020655632019, 0.582643985748291, -0.9776927828788757, -0.12138049304485321, 0.2599352300167084, -0.1498316377401352, 0.8238828778266907, 0.7377890944480896, 0.39739444851875305, -0.788727343082428, -3.382084846496582, -4.262940406799316, -2.58821964263916, -0.2729848623275757, 1.5187413692474365, 0.9296700954437256, -0.12464919686317444, -1.146913766860962, -0.2238290160894394, 0.19372260570526123, -0.23410072922706604, -0.9895570874214172, -2.2132625579833984, -3.907724618911743, -2.389497995376587, -1.2237788438796997, -0.9334898591041565, -0.8536078333854675, 0.2819747030735016, -0.45913317799568176, -1.7972021102905273, -2.024293899536133, -2.3508241176605225, -1.7138311862945557, -0.3698621690273285, 0.023962534964084625, -1.6944371461868286, -1.349832534790039, -1.2228318452835083, -0.4155808985233307, -0.1492009162902832], [-0.12034961581230164, 0.023603122681379318, -0.6065496206283569, -1.217813491821289, -2.2117624282836914, -1.738804578781128, -2.436702251434326, -1.1960973739624023, 0.13019905984401703, 2.013712167739868, -0.6913422346115112, -0.6071195006370544, -0.2992122769355774, -0.056629665195941925, 1.599847674369812, -0.6087101101875305, -2.9828460216522217, -2.1849350929260254, -1.5802068710327148, -2.2831928730010986, 0.11019197106361389, -0.016802586615085602, 0.19833926856517792, 0.611573338508606, 0.3799351751804352, 0.9269144535064697, -2.176731586456299, -0.432439923286438, -0.4259184002876282, -0.983225405216217, -0.7158634662628174, -0.03558788448572159, -0.5493435859680176, -0.6337618231773376, -0.5546549558639526, -1.2972943782806396, -2.032580852508545, 1.3338607549667358, 2.6806681156158447, -0.5194655060768127, -0.024074433371424675, -0.6502259969711304, -0.13414834439754486, -0.7495319843292236, -0.12620516121387482, 0.04909439757466316, 0.7087674140930176, 0.48665961623191833, 0.30980920791625977, -0.30151522159576416, -0.6362331509590149, 0.47912880778312683, -0.25773248076438904, -0.9511286020278931, 0.09339530020952225, 0.02763775922358036, -0.4231020212173462, -1.6671862602233887, -0.9209069013595581, 0.7712171077728271, 0.40704280138015747, -0.6911723613739014, 0.18677057325839996, -1.1418559551239014, 2.0868678092956543, -1.9329239130020142, -0.8218575119972229, 2.108407974243164, 1.2487627267837524, 0.8519817590713501, -2.889583110809326, -2.3539247512817383, -1.0600574016571045, -1.203906774520874, -0.40283501148223877, 0.31917116045951843, 0.8093906044960022, 0.027858281508088112, -0.6926887631416321, 1.328660488128662, 1.4141737222671509, 2.461785078048706, 2.5543324947357178, 0.9156699776649475, -0.8501603007316589, -0.19825106859207153, 0.2772779166698456, 0.3851741552352905, 1.055123209953308, 1.3226712942123413, -1.3822721242904663, 1.797537922859192, 1.950065016746521, 0.6148545742034912, 0.2074759602546692, 2.118826389312744, 2.032045364379883, 0.9256429672241211, -0.04146094247698784, -0.04029526188969612, 0.49434083700180054, -0.40192508697509766, -0.22731749713420868, -1.5629743337631226, 0.8764290809631348, 0.42613086104393005, -0.6860290169715881, -2.0116262435913086, -1.1844199895858765, -0.6957023739814758, -0.15591342747211456, -0.3281213343143463, -0.13619287312030792, -0.9829533696174622, -0.9223193526268005, -1.2704353332519531, -1.4956108331680298, -1.6398940086364746, -0.9751365184783936, -1.267971158027649, -1.2758476734161377, -0.2615047097206116, 0.2845268249511719, -0.15003785490989685, -0.17652533948421478, -0.15102671086788177, -0.15778037905693054, -0.45066535472869873, -0.76568204164505, -1.9593888521194458, -1.566293716430664, -3.0122172832489014, 0.019326474517583847, -0.08285702019929886, 0.3256310224533081, 0.01577034592628479, 0.1578277200460434, -0.4905470907688141, 0.38085946440696716, -0.3843817710876465, 0.9245389103889465, 0.6884084939956665, -0.08257753401994705, 0.18696467578411102, -1.0353690385818481, -0.8790881633758545, 1.3088324069976807, 0.3334697186946869, -0.6733911037445068, -0.18725557625293732, -0.6263267993927002, -0.4565834403038025, 1.223854660987854, 1.57990300655365, 0.44201523065567017, 0.7661434412002563, 0.258432537317276, 0.4850451648235321, 0.17126432061195374, -1.0512926578521729, -0.9172165989875793, -0.866138219833374, 0.16400863230228424, 0.24718858301639557, -0.17606200277805328, 0.9743843674659729, -0.1565297544002533, -1.3660691976547241, -1.075134038925171], [0.20853620767593384, -0.011672602035105228, 0.09097428619861603, 0.22826656699180603, 1.5894049406051636, 0.4984019994735718, 0.7561891674995422, 0.688991904258728, -0.601564884185791, 0.3866610527038574, -1.4140677452087402, -0.2519729435443878, -0.040264979004859924, 0.6179537177085876, 1.3469487428665161, 0.009058831259608269, 0.14828957617282867, -0.17566317319869995, -0.3649630546569824, -0.8314518332481384, 0.6881059408187866, 0.22142314910888672, -0.8191090822219849, -1.623679757118225, -0.9482179880142212, -0.38564595580101013, 0.7621233463287354, -0.0831623449921608, 0.16083522140979767, -1.5667104721069336, -0.930504322052002, 0.3900047540664673, 0.41284504532814026, 0.2500676214694977, 0.5053479671478271, 1.0411977767944336, -1.241276741027832, -0.42147594690322876, -0.1085410937666893, -2.635096788406372, 1.511074185371399, 0.4932717978954315, 1.0552054643630981, 1.4011996984481812, 0.25030580163002014, -0.07434184849262238, 0.5321170687675476, 0.772362232208252, -0.3886224627494812, -1.4451266527175903, -1.0629209280014038, -1.6476837396621704, -0.3462805151939392, 1.9478588104248047, 0.8598787784576416, -0.04409890994429588, -1.4245809316635132, -2.152353525161743, 0.7489984035491943, 1.2363301515579224, 0.6903314590454102, -0.9015931487083435, -1.4986876249313354, -1.3556795120239258, -0.8093400001525879, 1.072383999824524, 1.185799241065979, -1.0703176259994507, -1.5729353427886963, -0.914984941482544, 0.594771683216095, 1.4716434478759766, 0.09648970514535904, -0.6523409485816956, -2.3277812004089355, -2.414043426513672, -1.08663010597229, 0.3770483136177063, -0.4509608745574951, 0.6223304271697998, -0.5635918378829956, 0.8453508615493774, 0.19447292387485504, 0.382652223110199, 0.22345876693725586, -0.35066545009613037, -0.9871044754981995, -0.5544007420539856, 0.1106996014714241, 0.486096054315567, 0.485210657119751, 0.7932010889053345, -2.049010753631592, -3.123115301132202, -2.759884834289551, -1.6408532857894897, -0.7804062962532043, 0.40795573592185974, -0.4489019215106964, -1.1763341426849365, 0.4481870234012604, 1.1477007865905762, 0.38736534118652344, 0.830618679523468, 2.6532232761383057, -0.9797775149345398, -1.6681779623031616, -0.3192756772041321, -1.8263567686080933, -4.7434186935424805, -2.074486017227173, 0.19842855632305145, -0.055123038589954376, 0.3245534300804138, 0.982603907585144, 1.02839195728302, 0.041413649916648865, -0.4647917151451111, -0.5247273445129395, 0.38196954131126404, 1.8532222509384155, 0.7671943306922913, 0.4315774440765381, 0.46867606043815613, 0.21701303124427795, 0.27812430262565613, 0.5765027403831482, 2.2233879566192627, 1.614874005317688, -0.20082512497901917, -0.8421415686607361, 0.2976847290992737, 1.6286848783493042, 0.45251932740211487, 0.35325855016708374, 0.16493570804595947, 0.036277398467063904, 0.022090492770075798, 0.1674417406320572, 0.5934651494026184, -0.4669326841831207, 0.7267423272132874, -1.706812858581543, 0.8287161588668823, 0.9475671052932739, 0.021254636347293854, 0.9719723463058472, 0.3228297233581543, 0.6435326933860779, 0.22943568229675293, 0.10425874590873718, -0.17709150910377502, -0.029060060158371925, -0.8448739647865295, -1.0058709383010864, 0.2720269560813904, 0.14293983578681946, 0.44168394804000854, 2.033159017562866, 2.2394044399261475, 0.46400395035743713, -0.6873418092727661, -0.00019988341955468059, -0.8394744396209717, -0.31260111927986145, -1.0771764516830444, -0.7048006057739258, -1.061225414276123, 0.23977138102054596], [-0.14683225750923157, 0.11607739329338074, 0.005082830786705017, -0.13031449913978577, 0.05571000277996063, -0.11700145900249481, -0.03468139469623566, 0.07418874651193619, 0.04196187108755112, -0.20908239483833313, -0.0026225969195365906, 0.03402554988861084, 0.09728652238845825, 0.032275259494781494, 0.1501307189464569, -0.06427749246358871, 0.10754033178091049, -0.10199537873268127, -0.05410325527191162, -0.16791032254695892, -0.04160638153553009, -0.13040205836296082, 0.08773134648799896, -0.11782869696617126, 0.008773457258939743, -0.0952722504734993, 0.1475633978843689, -0.05152515321969986, -0.06663285940885544, 0.051862433552742004, 0.06585893779993057, -0.09449338912963867, -0.11064720898866653, -0.08679000288248062, -0.006042973138391972, -0.048286356031894684, 0.058595117181539536, -0.14712484180927277, -0.14426618814468384, 0.05132210999727249, -0.02867598831653595, 0.05283372476696968, -0.02986440248787403, -0.10740261524915695, -0.2069736123085022, -0.0668935477733612, -0.025793157517910004, 0.009262819774448872, -0.16827818751335144, -0.06911803036928177, -0.08929910510778427, -0.0156448632478714, 0.09997742623090744, -0.04830753430724144, 0.014132073149085045, -0.06719322502613068, -0.1810496598482132, 0.06329407542943954, 0.013062020763754845, -0.00015621725469827652, 0.045783042907714844, -0.09565447270870209, -0.009991563856601715, 0.010620985180139542, 0.05085153877735138, -0.041995733976364136, -0.0058042434975504875, -0.0062477062456309795, -0.09079105406999588, -0.007712260354310274, -0.20716552436351776, -0.1644190102815628, 0.044099777936935425, -0.21017107367515564, -0.0514821819961071, -0.03923122584819794, 0.055159833282232285, 0.06307672709226608, 0.0659705102443695, -0.09067299962043762, -0.022272584959864616, -0.05024060979485512, -0.21646876633167267, 0.021341264247894287, -0.20012742280960083, -0.12780742347240448, -0.12710848450660706, 0.05318937823176384, 0.011724375188350677, 0.028183093294501305, -0.026613537222146988, 0.21304187178611755, 0.065703846514225, -0.1704295426607132, -0.19701354205608368, -0.029620278626680374, 0.07816235721111298, 0.02585393376648426, 0.057446856051683426, -0.0019365540938451886, -0.0023047777358442545, -0.10160345584154129, 0.009463834576308727, -0.03541005402803421, 0.16499055922031403, 0.21518874168395996, -0.13581542670726776, -0.09537218511104584, -0.08112547546625137, -0.018890896812081337, -0.0271206796169281, -0.18282246589660645, -0.19888174533843994, 0.007056728471070528, -0.029064645990729332, -0.09907089918851852, 0.19319459795951843, 0.14373546838760376, -0.11451560258865356, 0.07140279561281204, -0.22626285254955292, 0.09485453367233276, 0.012966611422598362, 0.02516421489417553, -0.19264793395996094, -0.014700706116855145, -0.027462927624583244, -0.10765580087900162, -0.03630145266652107, -0.028872130438685417, 0.1860651671886444, 0.036017950624227524, -0.1655840277671814, -0.12078066915273666, 0.01551685482263565, -0.21107473969459534, -0.03705911710858345, 0.04621153324842453, -0.09312397241592407, -0.15974467992782593, 0.003717356361448765, -0.08886386454105377, 0.1796109825372696, 0.06609506905078888, 0.04474058002233505, -0.03443179279565811, 0.05193912237882614, 0.03826000913977623, -0.13256652653217316, -0.03919389098882675, -0.15117773413658142, -0.18616415560245514, -0.1414863020181656, -0.16453589498996735, -0.21493610739707947, -0.12909582257270813, -0.03018900752067566, -0.15715019404888153, 0.05370532348752022, -0.21626722812652588, 0.09490681439638138, 0.024933336302638054, -0.09254481643438339, -0.10015646368265152, -0.023477371782064438, -0.03034626878798008, -0.10957018285989761, -0.15492486953735352, -0.09516852349042892], [-0.19465157389640808, -0.09579342603683472, -0.3669449985027313, 0.5672813057899475, 0.5627694725990295, 0.16361577808856964, -0.6237902045249939, -0.8321154117584229, -0.06147146224975586, 0.05970300734043121, 0.05266794189810753, -0.24547560513019562, -0.05685533955693245, 0.054309580475091934, 1.3119946718215942, 1.088430404663086, 0.029027314856648445, 0.13138170540332794, -1.9208215475082397, -2.0334019660949707, -1.9671084880828857, -1.5701059103012085, -1.397958517074585, -0.39440980553627014, -0.35029134154319763, -0.05676204338669777, -0.07569584250450134, 1.6959716081619263, 0.6019684076309204, -0.36227256059646606, -1.0218168497085571, -1.668898105621338, -1.21519935131073, -0.9256357550621033, -0.1280844807624817, -0.08231750130653381, 0.7400320172309875, -0.7649444937705994, -1.14889395236969, 0.7815924882888794, 1.9416251182556152, 0.462496280670166, 0.04149426519870758, -0.8764247894287109, -0.40449753403663635, -0.057863909751176834, 0.1313515603542328, -0.15367545187473297, -0.15187077224254608, -0.1210569217801094, 0.8143895268440247, -0.3465128242969513, -0.2699088454246521, 2.547614574432373, 0.2916525602340698, -0.28569963574409485, -0.6451206803321838, 0.15607477724552155, 0.46242618560791016, 0.4019671082496643, 0.5178806185722351, 0.0026935110799968243, 1.3519102334976196, 1.5473681688308716, -0.08999528735876083, -0.3948252201080322, 0.7257235050201416, -0.8406510353088379, -1.0317103862762451, -0.38571393489837646, 0.01738446019589901, 0.14963077008724213, 0.15344010293483734, -2.4183807373046875, -1.824999213218689, 0.6829500198364258, 2.193697690963745, 0.8956148624420166, 0.014369919896125793, 1.2609333992004395, 0.11528134346008301, -0.4332224428653717, -0.7933820486068726, -1.005090355873108, -0.24711525440216064, -0.4631105661392212, -2.127955198287964, -1.891427755355835, 0.34379589557647705, 1.2557170391082764, 1.7052620649337769, 0.21273770928382874, 1.4879381656646729, 1.5495508909225464, 0.2592942416667938, -0.8085972666740417, -0.9881487488746643, -0.5206513404846191, -1.1709284782409668, -1.2572226524353027, -0.31949591636657715, 0.7685747742652893, 0.8986949920654297, 1.110797643661499, 0.9705010056495667, 0.6184127330780029, 1.682419776916504, 0.5688424110412598, -1.5716935396194458, -1.2644635438919067, -2.0767784118652344, -1.609697937965393, 0.19173787534236908, 0.5090844631195068, 1.0452330112457275, 1.3398007154464722, -0.3887737989425659, -0.12649540603160858, 0.24262318015098572, 0.9696345329284668, 0.5400059223175049, 0.07792378216981888, -1.0260179042816162, -1.545182704925537, -0.08785741776227951, 0.3979591727256775, -0.12542136013507843, 0.543129026889801, 0.00040891036042012274, -0.5166596174240112, 0.12915687263011932, 0.16653761267662048, -0.004401389975100756, 0.5705214738845825, -0.2970394790172577, -0.25954845547676086, 0.29724088311195374, 0.7827890515327454, -0.4854206442832947, -0.923340916633606, -1.1761153936386108, -0.5478998422622681, -0.726150631904602, 0.08675584197044373, 0.5097572803497314, 1.1971548795700073, 0.18183203041553497, 0.8551196455955505, 1.2227412462234497, 1.012560248374939, -0.07532190531492233, -0.9168990850448608, -2.402005434036255, -2.520895481109619, -0.4996371865272522, -0.7626277804374695, -0.16733305156230927, -0.21219709515571594, 0.8780785202980042, 1.7102389335632324, 1.5425875186920166, 1.0105977058410645, -0.861871063709259, -2.5181586742401123, -3.0152599811553955, -2.6120662689208984, -0.11913617700338364, -0.06620436161756516, -0.07231790572404861], [-0.18724896013736725, 0.2890058159828186, -0.08475794643163681, 1.8100494146347046, 1.8857455253601074, 1.7321817874908447, 2.035701036453247, 1.5463979244232178, -0.16523714363574982, -0.6117362380027771, 3.767220973968506, 1.2741849422454834, 0.3885846734046936, 0.01672835275530815, -0.6504873633384705, -0.9179117679595947, 0.25274214148521423, 1.1485615968704224, 0.2285011112689972, -0.1845681071281433, -0.11909016966819763, 1.273037075996399, 0.4695908725261688, 1.8122061491012573, -0.638191282749176, -2.077604293823242, 0.6093873977661133, -2.560697078704834, -1.4471832513809204, -1.243322730064392, -0.15027309954166412, 0.023976776748895645, 0.08389787375926971, -0.1436219960451126, -0.16334454715251923, -0.46800094842910767, -0.921853244304657, -0.6819875240325928, -0.28656530380249023, -0.301910936832428, -1.4799219369888306, -1.1083272695541382, -1.8168317079544067, 0.36575958132743835, 0.16679614782333374, -0.21094584465026855, 0.5334068536758423, 1.0917649269104004, -0.12437524646520615, -0.7250641584396362, 0.37332162261009216, -0.07068611681461334, 0.1124662384390831, 0.08160015195608139, -0.7369052767753601, -0.4231770634651184, 0.7553927302360535, 0.7666937708854675, -0.36793816089630127, -0.9014250040054321, -0.720645010471344, 0.3207821846008301, 0.13499294221401215, -0.423036128282547, -0.10699627548456192, 0.5148030519485474, -0.6993593573570251, -0.4774419367313385, 1.3033032417297363, 0.854246973991394, -0.5746380090713501, 0.7425504922866821, -0.4560122787952423, -1.0894447565078735, -0.38561299443244934, 1.364651083946228, 0.22613802552223206, -0.5028473138809204, 0.10331703722476959, -1.7053521871566772, -0.6576365232467651, -0.5480338931083679, -0.2166341096162796, 0.38450464606285095, 0.01916811242699623, 0.14747826755046844, -0.1748816967010498, -0.8511113524436951, -0.31786972284317017, -0.6690868735313416, -0.0660543367266655, -0.5921705961227417, -0.15875153243541718, -0.5532677173614502, 0.18175743520259857, 0.7521743774414062, 1.3136769533157349, -0.5723332762718201, -1.2324450016021729, -1.024082064628601, -1.130927562713623, -0.0698690190911293, 0.5730029940605164, -0.8195438981056213, -1.480002760887146, -1.6535229682922363, -1.0207574367523193, 1.0592620372772217, 3.1192524433135986, 0.051167409867048264, -2.643778085708618, -1.0755743980407715, -0.6207646131515503, -0.6487107872962952, -0.06624837964773178, -0.054583318531513214, 0.8815475106239319, -1.5998821258544922, -2.1613142490386963, 0.022350307554006577, 1.4288181066513062, 2.549870252609253, -1.7858555316925049, -1.630445957183838, -0.759971022605896, -0.7984880805015564, -0.03622160851955414, 1.2945952415466309, 1.630899429321289, 2.2217366695404053, -0.7211046814918518, 1.1415996551513672, 0.9986438751220703, 0.8288355469703674, 1.6905522346496582, 0.6182821393013, -0.14269839227199554, -0.26321887969970703, -1.210220456123352, 0.24639032781124115, 0.7733161449432373, -2.0805752277374268, -0.9275040030479431, 0.24893149733543396, -0.6178572177886963, -0.40067288279533386, 0.7085391283035278, 0.8516837358474731, 0.2944848835468292, 0.5128899812698364, -0.8606665730476379, -0.7504189610481262, -0.9362245202064514, -1.0220261812210083, -2.1118881702423096, -0.9891859889030457, -0.506881833076477, -1.206613302230835, -1.7335659265518188, -1.5512021780014038, 0.36785802245140076, 0.9063249230384827, 0.01566317118704319, 0.2401255965232849, -0.17816269397735596, -0.6566376686096191, -3.4529049396514893, 0.7959737777709961, 0.31880736351013184], [0.1433359831571579, -0.38694411516189575, 0.18645186722278595, 0.15825633704662323, -1.1194612979888916, -1.4001270532608032, -2.104207992553711, -2.4237852096557617, -2.0261688232421875, -2.7888119220733643, -1.1185846328735352, 0.0511055551469326, -0.4116172194480896, 1.7125822305679321, 0.22455202043056488, -0.6479334235191345, -0.07284092158079147, -1.8008432388305664, -0.851542592048645, 0.5608004331588745, 0.03451700508594513, 0.38721054792404175, -0.3457053303718567, 0.14301592111587524, -0.4840735197067261, 1.7384597063064575, 1.2784714698791504, -0.08660672605037689, -1.870678186416626, -0.5925912261009216, -3.3414230346679688, -0.39445263147354126, -0.4574034512042999, 0.20203621685504913, 0.37946754693984985, -0.6319850087165833, 1.5482313632965088, 0.4908686876296997, 2.047020196914673, 1.6738442182540894, 0.19626525044441223, -2.209254264831543, -1.978649616241455, -2.39581561088562, -0.854500949382782, 0.53886878490448, 0.7556456923484802, -0.3851150870323181, -0.642391562461853, 0.8191692233085632, 0.1921059787273407, 1.2833222150802612, 0.30569222569465637, 1.7357585430145264, -2.672917366027832, -1.9787968397140503, -1.2103047370910645, 1.067217230796814, 0.8300449252128601, -1.1647255420684814, -1.2790616750717163, -0.4209122955799103, -0.5941684246063232, -0.32020407915115356, -0.842832088470459, 0.8208463788032532, -0.13790461421012878, -2.792219638824463, 0.07456950098276138, 0.11814336478710175, 1.338437557220459, -0.4755881428718567, -0.3180898427963257, 1.3228782415390015, 0.849940836429596, -1.7921849489212036, -1.7061183452606201, -0.6768927574157715, 1.639029860496521, -2.5304112434387207, 0.5291696786880493, -0.21365532279014587, 0.6412388682365417, -0.1687631458044052, 0.14464955031871796, 0.8647086024284363, 1.3946431875228882, -0.7249714732170105, -1.707836389541626, -3.0500407218933105, -0.5339317917823792, 0.768186628818512, -0.6554777026176453, -0.4856201708316803, -0.19677498936653137, -0.20012755692005157, 0.2155681699514389, 0.898964524269104, 1.945939064025879, 0.4277816712856293, -1.9295532703399658, 0.43868425488471985, 0.9024047255516052, 1.2020679712295532, 0.7047398090362549, 0.06805529445409775, 0.6753993034362793, 1.1386597156524658, 0.6100144386291504, 0.8818477392196655, 0.39608505368232727, 0.5769419074058533, -2.5899410247802734, -1.0449968576431274, 2.7741596698760986, 1.1433775424957275, -0.34045708179473877, -1.4074642658233643, -0.7211410999298096, 0.1386754959821701, 0.5066200494766235, 0.8279495239257812, -1.2034505605697632, -0.24614179134368896, 0.1109984889626503, -0.8368529081344604, 0.5805569887161255, 2.8833229541778564, 1.622070074081421, 0.21159009635448456, -2.2328288555145264, -0.43176648020744324, -0.4248095154762268, -0.06741409003734589, -1.3323495388031006, -1.6046041250228882, -0.5288066864013672, 0.47781673073768616, -0.7506444454193115, -1.669312596321106, -0.8562363982200623, 0.8769940733909607, 0.9138049483299255, -0.3689686357975006, -0.08956640213727951, 0.3785938322544098, 0.238740473985672, 0.2817133367061615, -0.25047627091407776, -0.9434364438056946, -0.35983434319496155, 0.9278895258903503, 0.12980878353118896, -1.425100564956665, 0.9721033573150635, -1.25136399269104, -0.5235415101051331, -1.6037559509277344, 0.05660335347056389, 0.7026999592781067, 0.4327031075954437, 0.8017638921737671, 0.2560001611709595, 0.16512057185173035, 1.7740439176559448, 0.5696865320205688, 1.4568989276885986, -0.7008764743804932, -0.6754354238510132], [-0.11345290392637253, 0.7419895529747009, 0.37264859676361084, -0.09872494637966156, -0.26018908619880676, 0.14440008997917175, -0.9315159320831299, -1.4342888593673706, -0.956027090549469, 0.0017980142729356885, 0.7410081028938293, -1.299286127090454, -0.2602523863315582, 0.08711528033018112, -0.27075448632240295, -0.11818290501832962, -0.1115211620926857, -2.135380268096924, -2.364696741104126, -1.0033578872680664, 1.381262183189392, -0.06038302555680275, -1.0563156604766846, 0.15094897150993347, 0.3624962568283081, -0.03808100149035454, 0.6314145922660828, -2.04186749458313, -0.8324949145317078, -1.2361928224563599, -0.7304357886314392, 0.005015515722334385, -1.1959894895553589, -1.026143193244934, 0.06970252841711044, 0.3989778757095337, 0.8004503846168518, -0.5338090658187866, 1.0003268718719482, 0.9579882025718689, 1.121186375617981, 0.7132546305656433, -1.848433017730713, -0.7770859003067017, -1.1317033767700195, -1.387644648551941, 0.06294821202754974, 2.738095998764038, 2.3871896266937256, 1.0976383686065674, -0.07803406566381454, -1.3800476789474487, -0.9030063152313232, -0.01632016710937023, -1.034949541091919, -0.6272629499435425, -0.21806375682353973, -0.3975818157196045, 0.35464897751808167, 1.1878936290740967, 0.43761327862739563, 0.8714863061904907, 1.0467073917388916, 0.5710383653640747, -1.1701796054840088, 0.1144721657037735, -2.67262864112854, -0.09095682948827744, 0.6886164546012878, 0.7218471169471741, 0.3388337790966034, 0.5971572399139404, -1.5911239385604858, -1.7058253288269043, 0.0641368106007576, 1.1063640117645264, 2.2047853469848633, -0.20517387986183167, -1.6660503149032593, -0.42216625809669495, 0.19426265358924866, -0.5976722836494446, 0.40479516983032227, -0.6999568343162537, 0.38378357887268066, -1.5070823431015015, -0.6303464770317078, 1.3137739896774292, 1.4377411603927612, 2.3571648597717285, 0.21351146697998047, -3.4877920150756836, 1.059055209159851, -0.09669240564107895, -1.2381744384765625, 0.569919764995575, -0.145273819565773, -1.0345795154571533, -1.0873700380325317, -0.48742637038230896, -0.10402201861143112, 0.24922971427440643, 0.30944371223449707, -0.46428197622299194, -1.866963267326355, -0.7421185374259949, -0.21301127970218658, 0.7485378384590149, 0.9885287880897522, -0.5432222485542297, -1.4941080808639526, 0.13690559566020966, -0.18170581758022308, -0.7124552130699158, -1.1725794076919556, -0.25494590401649475, -1.2342272996902466, -0.12627539038658142, 0.13513809442520142, 1.0198026895523071, 0.8825825452804565, 0.34238776564598083, -1.372785210609436, -0.07637837529182434, -0.6381197571754456, -0.46836817264556885, -0.7116843461990356, 0.10402527451515198, -0.2743930220603943, -1.741408348083496, 0.7311147451400757, -0.7532336711883545, -0.029137521982192993, 0.6807577013969421, 0.8496924638748169, 0.7165639400482178, -0.35419419407844543, -0.8065305948257446, -1.53026282787323, -2.242457628250122, -2.452672004699707, -1.4963946342468262, -1.3557441234588623, -1.009456753730774, -3.076397180557251, -0.4973337650299072, -0.3389506936073303, 0.6076309680938721, -0.0769948959350586, 0.5143532156944275, -0.8871393799781799, -0.13787269592285156, -3.5200624465942383, -3.8955137729644775, -0.06028115004301071, -1.312281847000122, -0.21040396392345428, -0.6370820999145508, 0.20555998384952545, 0.5421566963195801, 1.2399715185165405, 0.8728180527687073, 0.5370020866394043, 0.12470624595880508, -0.863335371017456, -2.298795223236084, -2.0744378566741943, -1.552004098892212, -0.14301753044128418], [-0.04538176953792572, -0.08896729350090027, 0.05243973433971405, 0.018110260367393494, -0.004877075552940369, 0.06869781762361526, 0.1570042371749878, -0.09632039815187454, 0.07371069490909576, -0.14134274423122406, 0.14641126990318298, 0.09981060028076172, 0.07654474675655365, -0.15090985596179962, 0.08870923519134521, -0.10630813241004944, -0.32058870792388916, -0.10848800092935562, -0.107179194688797, -0.04400739073753357, -0.11983148008584976, -0.32026469707489014, -0.25259479880332947, -0.1547844111919403, -0.14783233404159546, -0.05729106813669205, -0.15285450220108032, 0.11754833161830902, -0.20358909666538239, -0.259010374546051, -0.3063264787197113, -0.09120862931013107, -0.07391499727964401, -0.21666498482227325, -0.1260279417037964, -0.43075740337371826, -0.20630206167697906, -0.13918444514274597, -0.05043553560972214, -0.12566275894641876, -0.041216712445020676, -0.2248486876487732, -0.036747630685567856, -0.12009108811616898, -0.09483736008405685, -0.3250260055065155, -0.18162572383880615, -0.17653439939022064, -0.11213448643684387, -0.151411235332489, -0.21693205833435059, 0.03571181371808052, -0.12469788640737534, -0.17561544477939606, -0.08892036974430084, -0.24331916868686676, -0.3667077124118805, -0.13395564258098602, -0.10061204433441162, -0.19255216419696808, -0.095168337225914, 0.04865244776010513, 0.049146685749292374, -0.05785999819636345, 0.14656952023506165, -0.09263177961111069, -0.2659483850002289, -0.1693088710308075, -0.0012023869203403592, -0.3450334370136261, -0.23082326352596283, -0.13978919386863708, -0.0045153857208788395, -0.17862330377101898, -0.27189332246780396, -0.0505530871450901, 0.1898423284292221, 0.35176873207092285, 0.12250679731369019, 0.19905851781368256, -0.14333589375019073, -0.20803160965442657, -0.36643803119659424, -0.2044992595911026, -0.3979354500770569, -0.34399861097335815, -0.4082813560962677, -0.19894033670425415, -0.06090063974261284, 0.19277292490005493, 0.4889953136444092, -0.03392899036407471, 0.48015326261520386, 0.22538325190544128, 0.006276121363043785, -0.3456069827079773, -0.36241206526756287, -0.41505876183509827, -0.22131802141666412, 0.011680000461637974, -0.37042009830474854, -0.18858619034290314, 0.19718798995018005, 0.5263005495071411, 0.008379251696169376, -0.12688755989074707, -0.04711656644940376, 0.07407829165458679, -0.1367744505405426, -0.10779471695423126, -0.2039509266614914, -0.1003931313753128, -0.08842783421278, -0.024086205288767815, -0.0034773682709783316, 0.08403629064559937, 0.341039776802063, 0.11574331670999527, -0.1315149962902069, -0.010034555569291115, -0.005704162176698446, -0.221128910779953, -0.26963329315185547, 0.034322112798690796, -0.19605568051338196, -0.4865294396877289, -0.28571435809135437, -0.09652096033096313, 0.12618808448314667, 0.19119323790073395, -0.045362748205661774, 0.030522238463163376, -0.19660264253616333, -0.06600663810968399, -0.16419392824172974, -0.09301681071519852, -0.3162059187889099, -0.2268396019935608, -0.4307725429534912, -0.11646384000778198, 0.022868981584906578, -0.11985518783330917, -0.06889879703521729, -0.005454719997942448, 0.040557678788900375, 0.040396396070718765, 0.005447229836136103, -0.05968671664595604, -0.277272492647171, -0.1960838884115219, -0.07801990211009979, -0.08276531100273132, -0.024208687245845795, -0.06330839544534683, -0.3373776376247406, -0.0632287785410881, 0.08028478920459747, -0.06502095609903336, -0.06440316885709763, -0.11680231243371964, 0.010188722051680088, -0.1049695834517479, -0.2304949164390564, -0.2757885754108429, -0.024144837632775307, -0.11898922920227051, -0.129503071308136, 0.08893303573131561, 0.09970402717590332], [0.08256644755601883, 0.5670377612113953, 1.2766060829162598, 1.932798981666565, 3.494953155517578, 2.371150255203247, 0.3630596101284027, 2.5566771030426025, 2.241018772125244, 1.2185004949569702, 1.7259749174118042, 0.6207496523857117, 0.12127117812633514, -2.4488208293914795, 0.6987281441688538, 1.742920994758606, 3.3079710006713867, 0.745184600353241, -0.22586983442306519, 0.44822442531585693, -0.031620562076568604, 0.1720104068517685, -0.5083221197128296, 0.09069753438234329, -3.2785794734954834, -1.4224766492843628, 0.06424879282712936, 1.7803512811660767, 0.05591271072626114, -1.3753244876861572, -0.9520220756530762, -0.8750672936439514, -1.186326503753662, -0.9136508703231812, 0.19270725548267365, -1.794633150100708, -2.4665956497192383, -4.82692289352417, -2.5869996547698975, -1.1363015174865723, -0.6050801873207092, -0.6859641075134277, 0.8526929616928101, -0.10796255618333817, -0.12925958633422852, -0.6821600794792175, -1.9362828731536865, -3.241811752319336, -2.1127805709838867, -2.4302971363067627, -4.020701885223389, -0.3254706859588623, -3.09507155418396, -0.9338763952255249, 0.8196948766708374, 0.1780916303396225, -0.4168080985546112, 0.019764337688684464, 0.23548917472362518, -1.2175235748291016, -1.9461324214935303, -0.7609818577766418, -0.4917941391468048, -0.7535701394081116, -3.6264703273773193, 1.1835672855377197, 0.8418710231781006, 0.9285939335823059, 1.0067943334579468, 0.40211138129234314, 0.2145260125398636, 0.8455165028572083, 0.7428441643714905, 1.3212106227874756, 1.315717101097107, 1.329301118850708, 0.34678390622138977, 0.8514531254768372, 2.0507893562316895, 1.859552025794983, -0.10029378533363342, -0.3743187487125397, 0.1294957846403122, -0.6842878460884094, -0.17647865414619446, 0.5359901189804077, -0.23077444732189178, 0.3081587851047516, 1.8605483770370483, 1.8632245063781738, -1.223628044128418, 0.5552582740783691, 0.18267183005809784, -0.4428325891494751, -0.5566505789756775, -0.41495829820632935, -0.31726953387260437, 1.3918864727020264, 0.0010855537839233875, -0.5229182243347168, 0.742007315158844, 1.0384364128112793, -0.18043318390846252, 0.21879936754703522, -0.12949863076210022, -0.8488115072250366, 0.14652569591999054, -0.8039958477020264, -0.09106550365686417, 0.5005198121070862, 0.45609861612319946, -0.19132116436958313, 0.8360217809677124, 0.12939870357513428, 0.6080287098884583, -0.4306540787220001, 1.7793099880218506, 2.204116106033325, -2.4535844326019287, -0.7813457250595093, -0.12603522837162018, 0.829805850982666, 1.2608650922775269, 1.0009684562683105, 1.2421120405197144, 1.2878211736679077, -0.2339584082365036, -0.2826409935951233, -0.00662093423306942, 0.9243173003196716, 0.382568359375, -2.019117832183838, -0.4992508590221405, 0.4067894518375397, 1.2591259479522705, 1.2484662532806396, 1.3960314989089966, 0.2513355314731598, -0.5966294407844543, -0.9020560383796692, -1.4987847805023193, -2.939084053039551, -0.6756049990653992, -0.47861814498901367, -0.7441704869270325, -1.192099690437317, -1.2641794681549072, 0.25791481137275696, -1.1833791732788086, -1.3411495685577393, -3.0291101932525635, -2.7540173530578613, -2.092123031616211, -1.9267133474349976, -3.7404894828796387, -1.968714714050293, -0.07105419039726257, -0.5405982732772827, -0.8557476997375488, -2.6575520038604736, -3.8706603050231934, -3.1824984550476074, -2.594803810119629, -0.3492763042449951, -1.6765930652618408, 0.5985437631607056, -1.1683353185653687, -2.097921848297119, -0.022211771458387375], [0.0647408589720726, 0.05845543369650841, 0.2766745090484619, 0.42159542441368103, 1.2018969058990479, 1.0094382762908936, 2.2588951587677, 1.022376298904419, 0.39582639932632446, 0.4341302216053009, -0.31112897396087646, 0.06569850444793701, 0.11451835930347443, 0.11773214489221573, -0.7640036344528198, 0.7254182696342468, 2.1863698959350586, 0.8225128054618835, 0.5265345573425293, 0.42797785997390747, 0.1951698362827301, 0.8365459442138672, -0.40314173698425293, 1.2993427515029907, -0.8403698205947876, -0.9557048678398132, -1.2996573448181152, 0.04734928905963898, 2.185889959335327, 0.49807843565940857, 0.25645628571510315, -0.9248529672622681, -0.837509036064148, -0.4819040298461914, 0.544166088104248, -0.5241202116012573, -0.042707622051239014, 1.849631905555725, 0.9238483309745789, -0.3737991750240326, -0.27437320351600647, -0.6545512676239014, -0.3436356782913208, 0.40594860911369324, 0.2743551433086395, -0.7022098898887634, -1.1988790035247803, -0.9561244249343872, -0.9325470924377441, -0.622917652130127, 0.19713883101940155, -0.6935369372367859, 1.564234733581543, -0.791668176651001, -1.5085140466690063, 0.33225134015083313, 1.9751688241958618, -0.96297687292099, -1.8367695808410645, -0.8547026515007019, -0.48320290446281433, -0.4032132923603058, 1.1742054224014282, -2.154721736907959, 0.9934874773025513, 2.073202610015869, -0.005512821953743696, 0.17707176506519318, 1.5251702070236206, 1.6614965200424194, -2.392359733581543, -1.127740502357483, 0.6837761402130127, 1.1327844858169556, 0.480808287858963, 1.01969313621521, 0.4679262340068817, -1.2494689226150513, 1.9238699674606323, 1.2544182538986206, 1.515288233757019, 1.770209789276123, 0.36861932277679443, -2.469128370285034, -1.8848340511322021, -0.39334505796432495, 0.07777619361877441, -0.21806937456130981, 0.9032713174819946, 0.7693367004394531, -1.6424826383590698, 1.908721685409546, 0.2872921824455261, 0.5958396792411804, 1.040971279144287, 0.5877267122268677, -0.48121100664138794, -1.7458643913269043, -2.0013864040374756, -0.3584458529949188, 0.6210085153579712, -0.3667963445186615, -0.16382938623428345, 0.3086825907230377, -0.14341554045677185, -0.9848109483718872, -1.170588731765747, 0.27027028799057007, 0.047631505876779556, -0.302662193775177, -1.2637056112289429, -1.8821896314620972, 0.14598463475704193, 0.9088764190673828, -0.18547001481056213, 0.5633213520050049, 1.1698956489562988, 2.4305121898651123, 0.4857885539531708, 0.27653768658638, 0.44142085313796997, 0.5642057061195374, -0.03802110254764557, -1.2005525827407837, -1.0615991353988647, 1.4876633882522583, 1.0435770750045776, 0.5865992903709412, -0.21433672308921814, 1.4673840999603271, -0.7632853984832764, 0.48262250423431396, 0.275059312582016, -0.38196489214897156, 0.05616775155067444, -0.09243758022785187, -1.1452940702438354, -0.06356089562177658, 0.8401362299919128, 0.25391802191734314, -0.1655230075120926, 0.02189074270427227, 2.0397908687591553, -1.3925873041152954, -1.6258330345153809, -0.6541959047317505, -0.9230487942695618, -0.5938596725463867, -0.501234769821167, 0.0968463346362114, 0.823898434638977, 0.7561600804328918, 0.36333078145980835, 0.7505972385406494, -0.5833595991134644, 0.5233732461929321, 0.3408793807029724, 0.24704039096832275, 1.7290093898773193, 1.0790401697158813, 0.4753325283527374, 0.4826708734035492, -0.47232791781425476, 1.0638043880462646, 0.14565235376358032, 0.8433958292007446, 1.3177918195724487, 1.100723147392273, -0.015426269732415676], [-0.02100214920938015, 0.02216346561908722, -0.09182220697402954, -0.19795405864715576, -1.4945956468582153, -2.015072822570801, -1.6173676252365112, -0.7360748648643494, 1.0653831958770752, 2.3342604637145996, 0.6918754577636719, 0.05281002074480057, -0.32092487812042236, 0.7649528384208679, 0.34463149309158325, 0.02161543257534504, -0.434308797121048, 0.3782694339752197, -0.019995324313640594, -0.4878978431224823, -0.07070095092058182, 0.3806573450565338, 0.6721600294113159, 1.6122187376022339, 2.0798070430755615, 1.0682858228683472, -0.23224537074565887, -1.0131820440292358, -0.6766639947891235, -0.5939146280288696, -0.6313050389289856, 0.39745840430259705, -0.4353092908859253, 0.15184783935546875, 0.3953186571598053, -0.27681782841682434, 0.2998873293399811, 0.5596567392349243, 0.23303160071372986, -0.19602511823177338, -1.2833683490753174, -1.5187877416610718, -0.43170252442359924, 0.38131144642829895, 0.45228251814842224, -0.3311825394630432, -0.4391852617263794, -0.06762201339006424, 0.04576187953352928, -0.281357079744339, -0.33738189935684204, 0.34598708152770996, -0.2681630551815033, -1.283446192741394, -0.6580451130867004, -0.29742562770843506, 0.5192538499832153, 0.5819052457809448, -0.885703444480896, -0.484992116689682, -0.6465984582901001, 0.17269553244113922, 0.7821750640869141, 1.420271635055542, 2.139526844024658, -0.5192099809646606, -1.9832535982131958, -1.2028499841690063, -0.25567588210105896, 1.666296362876892, 0.937853991985321, -0.23345321416854858, -0.5111552476882935, 0.32654356956481934, 1.4337013959884644, 0.9373094439506531, 0.9442241191864014, 0.8636208772659302, -1.5176974534988403, -2.867607593536377, -1.523159146308899, -0.08794474601745605, 0.739072859287262, 2.3969295024871826, 1.27538001537323, 0.2597266137599945, 0.2588677704334259, 0.3456887900829315, 0.7296163439750671, -0.8156890869140625, 1.0123605728149414, -0.04089517891407013, -0.9099142551422119, -4.890559196472168, -5.184857368469238, -2.949793815612793, 0.16803990304470062, 0.929663360118866, 0.22748799622058868, -0.24044886231422424, -0.11351096630096436, -0.24965786933898926, -1.200718879699707, -1.0162407159805298, 1.5274505615234375, 2.916175365447998, 1.215654969215393, -0.8107946515083313, -2.410179615020752, -2.4084632396698, -0.3900175094604492, 0.16974467039108276, 0.005007288884371519, -0.7065403461456299, -0.051557477563619614, -1.1085525751113892, -0.5207141041755676, -0.9092724919319153, 2.102083444595337, 1.3860275745391846, 2.364061117172241, 1.2340425252914429, -0.1628025323152542, -1.2690211534500122, -0.038980431854724884, -0.3682098984718323, -0.3537648320198059, -0.20653961598873138, -0.7213966250419617, -0.4812436103820801, -1.2645316123962402, 0.11273272335529327, 0.3895937204360962, 0.5290563702583313, 0.2829509973526001, 0.1605110764503479, 0.04111127555370331, -0.20014391839504242, -0.27824926376342773, -0.4453948736190796, -0.9626287817955017, 0.07012460380792618, -0.4321962296962738, -0.6955808401107788, -0.9809743762016296, -1.0287357568740845, -0.12728509306907654, -0.3827855885028839, 0.5294063091278076, 0.37821751832962036, 0.08901536464691162, 0.10329771041870117, -1.6434341669082642, -0.6444958448410034, 1.1959425210952759, -0.46078699827194214, 0.29057028889656067, 1.9000940322875977, -1.414878010749817, -1.1984645128250122, -0.5698860883712769, -0.7370607852935791, -1.0716750621795654, 0.12260141968727112, 0.4128268361091614, -0.7422534823417664, 1.2857961654663086, 1.048639178276062, 0.008001008071005344], [-0.1348656415939331, -0.09654456377029419, 0.08778385072946548, -0.14150360226631165, -0.08197523653507233, 0.290635347366333, -0.12051659822463989, -0.0468551404774189, -0.26455554366111755, 0.017757080495357513, -0.18710988759994507, 0.04328283295035362, 0.03485589846968651, -0.06368904560804367, -0.0686691552400589, -0.10141443461179733, 0.056757550686597824, 0.10638562589883804, 0.25004899501800537, -0.1500902771949768, -0.3011222779750824, -0.08713941276073456, -0.11068380624055862, -0.19094118475914001, 0.038908619433641434, -0.13779598474502563, -0.03936910256743431, -0.31930461525917053, -0.16647177934646606, 0.06952796876430511, -0.031214583665132523, -0.03147699683904648, 0.060415077954530716, -0.020361561328172684, -0.062201619148254395, -0.18642351031303406, -0.17901910841464996, 0.06840528547763824, -0.04328608140349388, -0.15558652579784393, -0.23638641834259033, 0.08658095449209213, 0.19603686034679413, 0.01894969493150711, -0.25421449542045593, -0.23483684659004211, -0.09523461759090424, -0.23367169499397278, 0.04341159015893936, 0.030597031116485596, -0.07942429184913635, 0.07610507309436798, -0.012356995604932308, 0.28263792395591736, 0.05315282940864563, -0.07345439493656158, -0.3290020823478699, -0.34494009613990784, -0.45089513063430786, -0.3817431926727295, -0.30125313997268677, -0.09800965338945389, 0.026254918426275253, 0.07046618312597275, 0.034581784158945084, 0.08604477345943451, 0.19220735132694244, -0.11840622872114182, -0.2606818974018097, -0.15338675677776337, -0.18647000193595886, -0.2930087447166443, -0.2673802375793457, -0.28858256340026855, -0.4216430187225342, -0.06913404911756516, 0.16448669135570526, 0.1544024497270584, 0.08128713816404343, 0.10456830263137817, 0.09648264944553375, -0.07864964008331299, -0.253965824842453, -0.16388289630413055, -0.17843443155288696, -0.2135610729455948, -0.37303850054740906, -0.6726664900779724, -0.2163485437631607, -0.05609600991010666, 0.05057378113269806, -0.2932940125465393, -0.07917627692222595, -0.0014192989328876138, -0.12093383818864822, -0.024813786149024963, -0.12502135336399078, -0.24110651016235352, -0.055827535688877106, -0.1458854079246521, -0.3767050802707672, -0.06094380468130112, 0.37646275758743286, 0.10209795832633972, -0.13943861424922943, -0.06712216883897781, -0.113547183573246, -0.25373807549476624, -0.10914454609155655, 0.04114554822444916, 0.0561956986784935, -0.3409055471420288, -0.43381011486053467, -0.4350554645061493, -0.11908238381147385, 0.19322878122329712, 0.11021028459072113, -0.07989521324634552, -0.2061576098203659, 0.08101189881563187, -0.06985122710466385, -0.22651539742946625, -0.11297857016324997, -0.18901295959949493, -0.1568116694688797, -0.36646124720573425, -0.24818934500217438, 0.2013922482728958, 0.27935847640037537, -0.04589695855975151, -0.11088553816080093, -0.18523208796977997, -0.06354185938835144, 0.059627335518598557, -0.2737039029598236, -0.05896998196840286, -0.26730623841285706, -0.12505367398262024, -0.299025297164917, -0.02064990997314453, -0.052293941378593445, -0.18370679020881653, -0.10957290977239609, 0.11743286997079849, -0.26254990696907043, -0.14466172456741333, -0.23780182003974915, -0.1829455941915512, -0.18161612749099731, -0.036731939762830734, -0.07326392084360123, -0.049713801592588425, -0.09187939763069153, -0.19957135617733002, -0.3676524758338928, -0.24057739973068237, 0.11858239024877548, -0.13620026409626007, 0.1306084245443344, 0.20460985600948334, -0.16122771799564362, 0.03186342865228653, -0.12700027227401733, -0.16566622257232666, -0.0024057235568761826, -0.2117585390806198, -0.16595153510570526, -0.12412795424461365, -0.21827688813209534], [-0.021828381344676018, 0.03887343406677246, -0.010827763006091118, -0.4699070155620575, 1.8107829093933105, 0.2881532311439514, -1.8770556449890137, -0.5600199699401855, 0.16326209902763367, 0.45730826258659363, 0.606695294380188, 0.27037227153778076, 0.1320507675409317, 0.42719143629074097, 2.6529321670532227, 1.2315369844436646, 0.14082957804203033, 1.9918278455734253, 1.448319435119629, -0.07301908731460571, 0.7450574040412903, -0.5747043490409851, 0.5190709233283997, -0.26954248547554016, -0.35825303196907043, 0.6263066530227661, -0.0574951134622097, 0.7039250731468201, 0.8046291470527649, 1.4877231121063232, 0.9789276123046875, 0.2548532485961914, -0.22695565223693848, 0.7307748198509216, -0.732291042804718, -0.9545800089836121, -0.18807987868785858, 0.15594065189361572, 0.9970588088035583, 1.2096291780471802, -1.2254226207733154, -0.8018328547477722, 0.3189340829849243, 0.6688612699508667, 0.5620264410972595, 0.6692144870758057, 1.0208908319473267, 0.3509104251861572, 0.03254151716828346, 0.5748160481452942, -0.29895898699760437, -0.6474167704582214, 0.8635392189025879, -0.2051893174648285, -0.39400824904441833, 0.41336217522621155, 1.0337698459625244, -0.32471227645874023, -1.7640669345855713, -0.7241517305374146, -0.40775877237319946, -0.24995194375514984, -0.3509311079978943, -1.5119895935058594, -0.5770686268806458, -2.5322821140289307, 0.30125561356544495, 0.5188009142875671, 1.1175479888916016, 1.1746898889541626, 1.6626231670379639, 2.022329807281494, 1.3090673685073853, 0.7207184433937073, 0.03426697477698326, 0.20881636440753937, -2.5702106952667236, -1.2371058464050293, -1.6644805669784546, -1.7991424798965454, 0.07380299270153046, -0.07151509821414948, -0.8824464678764343, 2.2162866592407227, 2.121584415435791, -0.4283217787742615, -0.36530840396881104, -0.6053983569145203, -0.9137822389602661, -1.519183874130249, -0.6907522678375244, -1.612465500831604, -3.2365877628326416, -2.323093891143799, -1.5287487506866455, -2.0449039936065674, -0.8512176275253296, -0.09523288160562515, 0.574161171913147, 0.7956488132476807, -0.7934116125106812, -0.48197245597839355, 0.7279524803161621, 1.4486565589904785, 0.1640050858259201, -1.516394019126892, -0.8067970871925354, 0.023295868188142776, -0.6485327482223511, -1.866148829460144, -1.6852883100509644, 0.2617560625076294, 0.7207789421081543, 0.89679354429245, 0.30884307622909546, 0.03189181163907051, -2.131629228591919, -0.8915390372276306, -1.1621066331863403, -0.6843780279159546, 0.9011344909667969, -0.34173479676246643, -1.0067898035049438, -1.5308165550231934, -2.7732465267181396, -0.24919147789478302, 0.38617798686027527, 0.19529788196086884, -0.3029070496559143, -1.6869797706604004, -0.602277934551239, -0.2774439752101898, -0.061994072049856186, 0.3262633979320526, -1.2375296354293823, -0.12618964910507202, -0.6553242206573486, -0.33364635705947876, -0.46463945508003235, 0.4300379455089569, 0.46212127804756165, -1.9937801361083984, -2.783228874206543, -0.2901137173175812, 0.19258932769298553, -0.4718479812145233, -0.37253186106681824, -0.5570516586303711, -0.1519288718700409, -0.0667686015367508, 0.1112944483757019, 0.3124253451824188, 0.49112358689308167, -0.5675467848777771, -1.879351019859314, -1.445282220840454, 0.023440472781658173, -1.0420504808425903, -0.12928055226802826, 0.20224815607070923, 2.197284698486328, 0.30830058455467224, -0.5914642810821533, 0.4001573920249939, -0.708896279335022, -1.8757497072219849, -1.4579768180847168, 0.34651026129722595, 0.14004585146903992], [0.07936987280845642, -0.6993744969367981, -0.13995592296123505, -0.04000947251915932, 0.9904184937477112, 0.08908407390117645, 0.96165531873703, -0.9623435139656067, -1.9451223611831665, -0.39183831214904785, -1.01432466506958, 0.26969844102859497, 0.3051566183567047, 0.9305800199508667, -1.1426260471343994, -0.7361369729042053, -0.2993414103984833, 1.824265718460083, 0.8323471546173096, -0.2088022232055664, -0.8478416204452515, 1.1563308238983154, 0.15460285544395447, -0.11973952502012253, -2.3358418941497803, -1.2609624862670898, 0.9159507751464844, -2.2641124725341797, 0.045599229633808136, -0.19433929026126862, -0.9136171936988831, -0.12915945053100586, 0.34313464164733887, 0.32299429178237915, 0.11955533921718597, 0.20834046602249146, 0.2999059557914734, -1.264957308769226, -2.4282076358795166, -0.7493060231208801, -1.7031660079956055, -0.6104069948196411, -0.11265316605567932, 0.904163122177124, 1.0023150444030762, 0.8913048505783081, -0.4395464062690735, -0.5305959582328796, -0.1553647816181183, 0.1033845841884613, 0.8200122117996216, 0.5655790567398071, -0.3585447669029236, -0.5201177597045898, -1.3737187385559082, -0.14055807888507843, 0.015553632751107216, 0.48138660192489624, 1.2866042852401733, -0.23644424974918365, -0.4838142693042755, -0.062118589878082275, 0.8411363959312439, 1.3864003419876099, 1.1893271207809448, -1.2407289743423462, 0.14870096743106842, -1.4132007360458374, -0.533568799495697, -2.647570848464966, -1.9131126403808594, -0.018369747325778008, -0.28312018513679504, -1.451859951019287, -0.49972325563430786, 0.15850487351417542, -0.2986077070236206, 1.2481648921966553, -1.379679799079895, -0.3621750473976135, -1.3287113904953003, -1.942338466644287, -1.7395853996276855, 0.20551715791225433, 1.2468891143798828, 0.9950011968612671, 0.5979929566383362, 1.51864755153656, 0.5066455602645874, -0.7310860753059387, 0.5501449704170227, 1.5274901390075684, -0.056893009692430496, -0.08569569140672684, 0.09263454377651215, 1.27169930934906, 1.2380549907684326, 1.4684385061264038, 0.6959261894226074, -0.355077862739563, 0.3189288377761841, 0.5684481859207153, -0.615144670009613, -0.14068375527858734, 0.7657973766326904, 1.7339391708374023, 0.7504013180732727, 0.7671720385551453, 0.7160564064979553, 0.6657260656356812, 0.796170711517334, -0.23718197643756866, -1.4152967929840088, -0.06670819222927094, 0.9303560853004456, -0.0037820865400135517, 0.4347705543041229, -0.7674404382705688, 0.8600481152534485, -0.3932921886444092, 0.030774187296628952, 0.6109033226966858, -1.1472512483596802, -0.48848894238471985, -2.033245801925659, 0.04593660682439804, -0.5619498491287231, 0.5019089579582214, 1.7587331533432007, 0.10615409165620804, -1.7171787023544312, -0.134955495595932, 0.7930225729942322, 0.6484530568122864, -0.17564734816551208, -0.8076354265213013, -1.3353201150894165, -1.8131061792373657, -1.2531437873840332, -0.16872334480285645, -1.0399656295776367, 0.6932162046432495, 0.016004478558897972, -1.5391721725463867, -2.014366388320923, 0.20124785602092743, 1.031346321105957, 0.5888417959213257, 0.9421526193618774, -0.17735303938388824, -0.23872704803943634, 0.2715248763561249, -2.340268611907959, -0.4955489933490753, 0.29101547598838806, 0.44540029764175415, -0.11996889114379883, -1.2711141109466553, -0.08141754567623138, -0.47724923491477966, -0.01466752402484417, 0.7806974649429321, 0.44596195220947266, -0.5139923691749573, 0.2618218958377838, -3.055877447128296, -0.6745491623878479, -1.4668829441070557, -0.2863370478153229], [-0.03136298432946205, -0.18511314690113068, -0.5892915725708008, -0.21088345348834991, -2.047121047973633, -0.144434854388237, -1.0937434434890747, -2.205584764480591, -2.0278029441833496, -0.38759538531303406, 1.6062442064285278, 2.2623708248138428, 0.7409693598747253, -0.7689559459686279, -0.464316725730896, 0.0862349420785904, -1.6740154027938843, -0.7024605870246887, -0.8864443302154541, -0.42039769887924194, -0.9714379906654358, -1.0760258436203003, 0.48937782645225525, 0.6995709538459778, 1.3879554271697998, -0.5620951652526855, 0.494202584028244, 1.3408303260803223, -0.7263913154602051, -2.2529056072235107, -0.3041512370109558, -0.26960253715515137, 0.6564443707466125, -0.8581019043922424, -0.6596481204032898, 0.21639598906040192, 0.20241226255893707, 1.0918192863464355, 0.32979410886764526, -0.8556574583053589, -0.05627812445163727, -1.618584394454956, -1.7141467332839966, -0.6958237886428833, 0.2807766795158386, 0.06749346107244492, -1.128913402557373, -0.6607610583305359, -1.1406038999557495, 0.3416849374771118, 0.18975330889225006, 0.44542232155799866, 0.4109063148498535, -0.9026059508323669, -3.6783080101013184, -0.5970715880393982, -2.689105987548828, -0.7159138321876526, -0.4730670154094696, -0.7852151393890381, -0.08543018996715546, 0.45636099576950073, -0.8327336311340332, -0.29541313648223877, -0.18660981953144073, -0.14730949699878693, -1.175026297569275, -2.2489852905273438, -1.7543261051177979, -0.9427768588066101, 2.1695284843444824, 0.8222625255584717, -0.9356072545051575, 0.5992361903190613, 0.2624001204967499, -0.8089413046836853, -0.7875082492828369, -2.3047144412994385, -0.923266589641571, -0.49849599599838257, -1.9571669101715088, -0.7965953946113586, 1.5237443447113037, 2.522960901260376, -1.593957543373108, -1.0737019777297974, 0.27381473779678345, 0.9844740033149719, -0.04704984650015831, -2.1103599071502686, -4.160096645355225, 0.740216851234436, 0.2977902293205261, 0.042247045785188675, 0.38479360938072205, 1.6385008096694946, 1.1852654218673706, -1.4923608303070068, -0.04118733108043671, 0.5669322609901428, 1.3766725063323975, 0.7263402938842773, -1.9411571025848389, -3.8966846466064453, -0.44769424200057983, 0.15309740602970123, -1.1541261672973633, -1.0412460565567017, 0.8175473213195801, -0.13257361948490143, -0.15242047607898712, 0.5312783122062683, 0.6485874652862549, 0.4870586693286896, -0.9329924583435059, -0.5488097667694092, -4.080167770385742, 1.0798978805541992, 1.1993236541748047, 0.11740640550851822, -0.8126317262649536, -0.6764882802963257, 0.5401909947395325, 0.044928569346666336, 1.080079436302185, 1.1399524211883545, -0.3751828372478485, -0.4141165018081665, -1.6245826482772827, -3.4200634956359863, 0.195845827460289, -0.33610305190086365, -0.47534191608428955, -0.11654479056596756, -1.4903242588043213, -0.08433785289525986, 0.50753253698349, 0.37626534700393677, -0.13765175640583038, -0.4289979636669159, -0.7517252564430237, -2.138401508331299, -1.1954562664031982, -1.7210148572921753, -2.080434799194336, 1.2234591245651245, 0.2924050986766815, 1.1009440422058105, 0.8495337963104248, 0.27090731263160706, 0.42344534397125244, 0.06034344062209129, 1.593301773071289, 1.2123218774795532, 0.6917294263839722, -0.3703639805316925, 0.06977829337120056, -2.7343716621398926, -0.8789353966712952, 0.2683459520339966, 0.45444849133491516, -0.1938735693693161, -0.2211027294397354, -0.11014171689748764, -0.5810238122940063, -0.014471061527729034, -0.29453346133232117, 0.7055054306983948, -0.08698128163814545], [0.06638234853744507, -0.0814414992928505, -0.270692378282547, -0.1265152543783188, 0.1488320231437683, 0.9255942106246948, -0.2800648510456085, -3.9096224308013916, -2.8991379737854004, -0.7007236480712891, -0.16851796209812164, 0.06436022371053696, 0.04978327080607414, 0.8267136216163635, 0.23475542664527893, -0.6735124588012695, 1.6828526258468628, 0.3884689211845398, 0.7398442029953003, 2.4329962730407715, 1.2230371236801147, -0.32517367601394653, -2.342777729034424, -3.016101121902466, -2.214916944503784, -0.7709373235702515, 0.5388422012329102, -0.8090234994888306, 0.16335804760456085, -0.4038025736808777, -0.6448957920074463, 