-7.759134471416473389e-02
-2.408568263053894043e-01
7.942417263984680176e-01
4.721649289131164551e-01
-5.074176937341690063e-02
-1.067339330911636353e-01
-7.240379452705383301e-01
2.173119038343429565e-01
6.166759133338928223e-01
4.476856291294097900e-01
7.937219738960266113e-01
2.792592346668243408e-01
2.775967717170715332e-01
-8.205457031726837158e-02
5.778078436851501465e-01
-5.238475799560546875e-01
-1.709964871406555176e-01
-1.139246582984924316e+00
-4.134252667427062988e-01
-6.169632077217102051e-02
2.509405910968780518e-01
-1.864234656095504761e-01
-3.366774022579193115e-01
-6.013819575309753418e-01
2.040558494627475739e-02
3.051914870738983154e-01
-1.949513107538223267e-01
-6.668038964271545410e-01
-1.845302432775497437e-01
4.190323650836944580e-01
-1.468703299760818481e-01
1.613565683364868164e-01
5.364907979965209961e-01
-5.789859294891357422e-01
-4.607499577105045319e-03
-8.418255448341369629e-01
-1.646827459335327148e-01
5.551732331514358521e-02
3.774195611476898193e-01
5.732851624488830566e-01
-4.149830639362335205e-01
-5.131764337420463562e-04
-1.652933806180953979e-01
9.504191279411315918e-01
5.660315752029418945e-01
1.391496658325195312e-01
2.546486556529998779e-01
2.244900763034820557e-01
3.922783434391021729e-01
4.399867951869964600e-01
-3.249529302120208740e-01
2.544740140438079834e-01
4.191763699054718018e-01
-1.301656663417816162e-01
-1.281679391860961914e+00
-4.589347243309020996e-01
-1.293288826942443848e+00
1.086669564247131348e+00
1.096595674753189087e-01
-1.642132401466369629e-01
1.373698413372039795e-01
-2.474132180213928223e-01
8.726120591163635254e-01
1.591274291276931763e-01
