-1.147091984748840332e-01
5.753268953412771225e-03
-3.282578662037849426e-02
3.009477443993091583e-02
-3.565559163689613342e-02
-5.921142175793647766e-03
-2.114337123930454254e-02
4.641907662153244019e-02
-8.146711625158786774e-03
-1.448618918657302856e-01
2.206820249557495117e-02
-3.128775581717491150e-02
-6.059419736266136169e-02
8.646043390035629272e-02
4.703543707728385925e-02
2.927221730351448059e-02
-6.454254500567913055e-03
7.731357216835021973e-02
3.141354536637663841e-03
-7.335193455219268799e-02
-3.226799517869949341e-02
-1.263809762895107269e-02
1.494366209954023361e-02
-1.106459721922874451e-01
9.544739872217178345e-02
1.243015676736831665e-01
1.243163347244262695e-01
-4.404877312481403351e-03
-9.738956391811370850e-02
-8.270820230245590210e-02
-7.122672162950038910e-03
9.972203522920608521e-02
-3.241040930151939392e-02
-5.890940781682729721e-03
6.700614094734191895e-02
-4.308385401964187622e-02
-4.198728874325752258e-02
-2.455274388194084167e-02
-2.091909386217594147e-02
1.791966706514358521e-02
2.079892158508300781e-01
-1.380994822829961777e-02
-1.201845519244670868e-02
1.029889192432165146e-02
-2.959362976253032684e-02
-1.038337200880050659e-01
-6.004327908158302307e-03
1.324955839663743973e-02
-5.046624690294265747e-03
-8.917082846164703369e-02
-6.584855262190103531e-03
-7.750353217124938965e-02
-6.801076233386993408e-02
-5.880540609359741211e-02
-5.309728905558586121e-02
5.005839839577674866e-02
8.371789753437042236e-02
1.995400153100490570e-02
-1.855555176734924316e-02
-6.860802322626113892e-02
-9.226343780755996704e-02
-2.054382674396038055e-02
-1.244076620787382126e-02
1.413470506668090820e-01
