2.593634463846683502e-02
-6.208869069814682007e-02
-6.002150941640138626e-03
1.826802194118499756e-01
-2.721348777413368225e-03
-4.297491908073425293e-02
-1.038283035159111023e-01
5.703308805823326111e-02
7.577940821647644043e-02
1.020480133593082428e-02
-6.108297407627105713e-02
-2.063001878559589386e-02
-1.948556862771511078e-02
-5.924310535192489624e-02
1.296201813966035843e-02
9.449697099626064301e-03
-5.763515457510948181e-02
-4.760709032416343689e-02
8.332630991935729980e-02
3.020632453262805939e-02
-1.206723824143409729e-01
-6.003265269100666046e-03
-1.657208800315856934e-01
-3.544822335243225098e-02
-1.066094730049371719e-02
-3.505023568868637085e-02
-9.450564160943031311e-03
-1.047938317060470581e-01
-4.594720155000686646e-02
4.856625944375991821e-02
-1.565831303596496582e-01
-1.485341880470514297e-02
7.740551233291625977e-02
-9.378137439489364624e-02
-1.210977137088775635e-01
-1.235610842704772949e-01
3.289295732975006104e-02
-6.186693906784057617e-03
-1.665489003062248230e-02
-7.968277484178543091e-02
-7.577108591794967651e-02
1.976441405713558197e-02
-6.005052011460065842e-03
4.440602287650108337e-02
-7.653284817934036255e-02
1.027588769793510437e-01
-8.261122740805149078e-03
1.328491568565368652e-01
-3.392821550369262695e-02
2.693924494087696075e-02
-3.584184497594833374e-02
8.732445538043975830e-02
8.105292916297912598e-02
3.909444063901901245e-02
1.028328388929367065e-01
-3.938429802656173706e-02
-5.624831840395927429e-02
-2.570153586566448212e-02
-1.403630711138248444e-03
1.919495165348052979e-01
1.011533141136169434e-01
9.409698657691478729e-03
8.775109797716140747e-02
2.632403001189231873e-02
