-1.190894749015569687e-02
5.625836923718452454e-02
-2.575541101396083832e-02
-4.023954272270202637e-02
8.455535024404525757e-02
3.553235903382301331e-03
6.733835325576364994e-04
-3.857349604368209839e-02
3.481580642983317375e-03
-6.487222760915756226e-02
1.275084167718887329e-02
8.480340242385864258e-02
3.020044788718223572e-02
5.627490580081939697e-02
8.741909638047218323e-03
7.765096426010131836e-02
3.069508634507656097e-02
-3.534354642033576965e-02
3.829950233921408653e-03
8.137214928865432739e-02
-2.029091119766235352e-02
4.946823045611381531e-02
-1.320549752563238144e-02
1.572277210652828217e-02
-3.383364155888557434e-02
3.589584305882453918e-02
5.393397063016891479e-02
2.355744503438472748e-02
2.765871956944465637e-02
1.496389391832053661e-03
-1.650615409016609192e-02
3.124853037297725677e-02
7.700295746326446533e-02
-2.477620542049407959e-02
1.082199141383171082e-01
8.430530317127704620e-03
9.313888847827911377e-03
7.842555642127990723e-02
1.835693605244159698e-02
-6.583445239812135696e-03
-2.592618390917778015e-02
-9.102986752986907959e-02
-7.383908145129680634e-03
-3.004045784473419189e-02
1.116091310977935791e-01
3.203610703349113464e-02
5.899788066744804382e-02
1.562823541462421417e-02
3.536067157983779907e-02
-3.320884704589843750e-02
6.074614450335502625e-02
3.377304226160049438e-02
-3.876101225614547729e-02
-5.017170682549476624e-02
-1.216676272451877594e-02
4.032338410615921021e-02
-2.099295146763324738e-03
-4.932239651679992676e-02
3.892636299133300781e-02
-5.137175321578979492e-02
6.844054907560348511e-02
-3.614117205142974854e-02
-5.595169961452484131e-02
-7.865889929234981537e-03
