5.274645686149597168e-01
-1.212239742279052734e+00
-1.167662978172302246e+00
-2.532053366303443909e-02
-9.621104598045349121e-01
-1.123929977416992188e+00
-1.639948606491088867e+00
1.050941124558448792e-01
-5.639382004737854004e-01
-2.894845008850097656e+00
8.130966871976852417e-02
-1.361461132764816284e-01
-6.442651152610778809e-01
-6.291733980178833008e-01
-5.902064442634582520e-01
5.309809446334838867e-01
-1.616870760917663574e-01
7.360969185829162598e-01
5.956536531448364258e-01
-1.282810330390930176e+00
-6.862350702285766602e-01
1.408153325319290161e-01
1.018385767936706543e+00
-6.728473305702209473e-01
1.616521716117858887e+00
1.039931550621986389e-01
-6.708978414535522461e-01
-8.978156447410583496e-01
-6.271967291831970215e-01
-3.398410677909851074e-01
-2.821541205048561096e-02
-3.324850797653198242e-01
-9.175350069999694824e-01
8.722221106290817261e-02
-4.155896604061126709e-03
-8.256092071533203125e-01
-6.556963920593261719e-01
-1.504351139068603516e+00
2.632621824741363525e-01
-1.491013407707214355e+00
-7.904045283794403076e-02
-3.523821830749511719e-01
-5.528320670127868652e-01
-1.460106134414672852e+00
4.266412258148193359e-01
8.244854211807250977e-01
-1.387893259525299072e-01
2.880321443080902100e-01
3.588538765907287598e-01
6.860699057579040527e-01
-6.511126160621643066e-01
-1.427386879920959473e+00
-1.010281592607498169e-01
4.208587408065795898e-01
9.872896075248718262e-01
4.551559388637542725e-01
-2.223218381404876709e-01
-1.898811906576156616e-01
-9.206838011741638184e-01
-5.844807028770446777e-01
5.230171084403991699e-01
-9.640737175941467285e-01
2.306490093469619751e-01
-9.652366042137145996e-01
