-5.181547254323959351e-03
1.952284276485443115e-01
9.364888072013854980e-02
-8.278430439531803131e-03
-1.048023626208305359e-01
1.937634348869323730e-01
-6.480129808187484741e-02
1.693877577781677246e-01
-1.228056252002716064e-01
-1.125552058219909668e-01
-1.328336000442504883e-01
5.371470376849174500e-02
-2.308044433593750000e-01
-7.407870888710021973e-02
-8.872324228286743164e-01
-4.602699875831604004e-01
5.982873439788818359e-01
2.971006371080875397e-02
-5.045663714408874512e-01
-1.783337891101837158e-01
2.455440163612365723e-01
7.745671272277832031e-02
-4.760760068893432617e-01
4.851486682891845703e-01
-4.399258270859718323e-02
1.812947243452072144e-01
6.310459971427917480e-01
-2.866369783878326416e-01
1.379365473985671997e-01
-5.025177597999572754e-01
-2.689710259437561035e-01
-4.504774138331413269e-02
-6.006787419319152832e-01
-7.556141614913940430e-01
3.121695518493652344e-01
3.774096667766571045e-01
5.257794260978698730e-01
-3.388062119483947754e-01
4.203748703002929688e-01
-1.271164417266845703e-01
-7.475057989358901978e-02
-4.272550716996192932e-02
3.032460808753967285e-01
2.581445574760437012e-01
-2.229035496711730957e-01
-9.793066233396530151e-02
1.026280760765075684e+00
-1.072531715035438538e-01
3.589125573635101318e-01
3.871096968650817871e-01
8.262126147747039795e-02
-5.425465703010559082e-01
6.420993208885192871e-01
3.050907850265502930e-01
-2.593805193901062012e-01
-5.179986357688903809e-01
8.382778763771057129e-01
4.661686122417449951e-01
4.575457572937011719e-01
2.440998554229736328e-01
-1.452032327651977539e-01
-9.839398413896560669e-02
-1.159697920083999634e-01
1.086774110794067383e+00
