-6.003179773688316345e-02
-8.078575879335403442e-02
4.004387557506561279e-01
-1.776385009288787842e-01
1.312251985073089600e-01
-9.703412652015686035e-02
-2.594044245779514313e-02
3.562891185283660889e-01
-4.038334190845489502e-01
-6.561312079429626465e-02
-5.618629977107048035e-02
-7.698535174131393433e-02
6.154865622520446777e-01
-9.602742642164230347e-02
-3.352828323841094971e-01
-5.822725221514701843e-02
-2.835271358489990234e-01
7.440907508134841919e-02
-1.065855771303176880e-01
-2.356027364730834961e-01
-1.497531086206436157e-01
4.339521527290344238e-01
7.372710704803466797e-01
-3.679687678813934326e-01
-2.492130845785140991e-01
-4.044074118137359619e-01
1.246729046106338501e-01
-9.399992972612380981e-02
-6.095159649848937988e-01
1.119694858789443970e-01
-6.272593140602111816e-02
-4.716056883335113525e-01
-4.862616956233978271e-01
1.861782073974609375e-01
3.308021277189254761e-02
1.918464154005050659e-02
-4.627926349639892578e-01
-3.766399919986724854e-01
7.047029733657836914e-01
4.338993132114410400e-01
9.028782844543457031e-01
1.270571500062942505e-01
-6.954536586999893188e-02
2.742440402507781982e-01
-2.590377330780029297e-01
-8.884278684854507446e-02
-5.682753399014472961e-02
-4.482195973396301270e-01
-5.710759386420249939e-02
-8.301270753145217896e-02
-1.553139686584472656e-01
1.057087406516075134e-01
-7.508467882871627808e-02
-2.638678550720214844e-01
2.745873034000396729e-01
-8.097974956035614014e-02
8.949381709098815918e-01
-3.085957467555999756e-01
1.324264556169509888e-01
5.488601922988891602e-01
1.396634876728057861e-01
-4.681142866611480713e-01
-4.331980049610137939e-01
-5.915166139602661133e-01
