[-0.3055441975593567, 0.05992034450173378, -0.017114577814936638, 0.2520221173763275, 0.39869043231010437, 0.28435373306274414, -0.19554109871387482, 0.32152482867240906, 0.24009111523628235]
[-0.07927516847848892]
[0.4114305078983307, -0.41615402698516846, -0.013077948242425919, -0.3711862564086914, -0.816047728061676, 0.14557115733623505, 1.0692152976989746, 0.39747828245162964, -0.2778335511684418, -0.5575445890426636, 0.13705113530158997, 0.47614073753356934, -0.1448695957660675, 0.9492208361625671, -0.7547433376312256, 0.22884242236614227, 0.6377570033073425, 0.7013779282569885, -0.6860107779502869, -0.17944517731666565, 0.6817813515663147, -0.3961380124092102, -0.13301414251327515, -0.11781772971153259, -0.49540045857429504, -0.07724124938249588, 0.9090259671211243, 0.8343603014945984, -0.19212031364440918, 0.20579558610916138, 0.6614019870758057, 0.27578553557395935, 0.31579697132110596, -0.15790385007858276, 0.25996771454811096, 0.8249342441558838, 0.26713961362838745, 0.02011812850832939, 1.2023268938064575, 0.35140788555145264, 0.4230613708496094, 0.4741201102733612, 0.15218773484230042, 0.07230526208877563, 0.47055453062057495, 0.2530398368835449, 0.6402701735496521, 0.7438316941261292, -0.5817710161209106, 0.9234272241592407, -0.574478805065155, 0.4472406208515167, 0.9215229153633118, 0.25148311257362366, 0.6039372086524963, 0.5959705710411072, 0.4518527090549469, -0.5257307887077332, 0.1306009441614151, 0.28198927640914917, -0.8570288419723511, 0.0860476866364479, 0.39119166135787964, 0.9929635524749756, 0.5560747981071472, -0.5058774352073669, 0.19993138313293457, -0.1835399717092514, -0.8579727411270142, 0.2860165238380432, 1.0115687847137451, 0.37943410873413086, -0.3834805190563202, -0.3803543746471405, 0.15058483183383942, 0.6118923425674438, -0.09107744693756104, 1.020487904548645, -0.8052219748497009, 0.25130292773246765, 0.8907753825187683, 0.8873005509376526, -0.7857133746147156, -0.2980038523674011, 0.625612199306488, -0.22857187688350677, -0.13718527555465698, -0.17318876087665558, -0.7489242553710938, -0.19865861535072327, 0.610345721244812, 0.8109187483787537, -0.1259404569864273, 0.1725580245256424, 0.8982686996459961, 0.19078552722930908, 0.41749337315559387, -0.5528955459594727, -0.01856289990246296, 0.8017474412918091, 0.2915329039096832, 0.0841839611530304, 1.1887354850769043, 0.474216103553772, 0.1709480583667755, 0.435610294342041, 0.2827184200286865, 0.15769228339195251, 0.6152779459953308, 0.291813462972641, 0.7940292954444885, 0.7124807238578796, -0.8711446523666382, 0.8080781698226929, -0.41538119316101074, 0.34230321645736694, 0.8751741051673889, 0.31473150849342346, 0.9198073148727417, 0.46191340684890747, 0.4018324911594391, -0.1114569753408432, 0.11628138273954391, 0.4331543743610382, -0.6998833417892456, -0.07606052607297897, 0.5215012431144714, 1.1396636962890625, 0.44932687282562256, 0.016062406823039055, 0.10115392506122589, -0.3707254230976105, -0.32339683175086975, 0.17501075565814972, 0.9797632694244385, 0.5585058927536011, -0.6080865263938904, -0.12125561386346817, -0.06428520381450653, 0.18884824216365814, -0.3066520690917969, 0.5190291404724121, -0.5655146241188049, 0.37426111102104187, 0.8301301598548889, 1.501923680305481, -0.8971548080444336, -0.2125335931777954, 0.5958901047706604, -0.3652222156524658, -0.5262647867202759, -0.20323446393013, -0.6395841836929321, -0.03812028840184212, 0.9133728742599487, 0.3163927495479584, -0.08821586519479752, 0.07529947906732559, 1.0445079803466797, 0.050294049084186554, 0.36751338839530945, -1.1250673532485962, 0.263347327709198, 0.7409082055091858, 0.05217963829636574, -0.0008052620687521994, 1.0442805290222168, 0.5846813917160034, 0.36339473724365234, 0.45281684398651123, 0.5025917887687683, -0.01982482708990574, 1.0422977209091187, 0.6338828802108765, 0.5138424038887024, 0.9477285146713257, -1.275742769241333, 0.7943114638328552, -0.7002902626991272, 0.3751315176486969, 0.579563558101654, 0.1643713265657425, 0.8544570803642273, 0.3267526626586914, 0.3327386975288391, -0.19632476568222046, 0.21666139364242554, 0.418335884809494, -1.253636360168457, 0.3232574164867401, -0.08758490532636642, 1.2280380725860596, 0.4184274971485138, 0.10195449739694595, -0.4129389524459839, 0.39063236117362976, -0.1381394863128662, 1.0348789691925049, 0.7158664464950562, 0.2207545042037964, -0.09557078778743744, -0.07983184605836868, -2.1647586822509766, 0.1289929896593094, 0.2834361791610718, -1.3411849737167358, -1.0533628463745117, 0.1130351573228836, 0.9549728035926819, 2.4723939895629883, -1.354219913482666, 0.722007691860199, 0.026001257821917534, 0.0031996590550988913, -1.188207983970642, 0.5113410949707031, -0.17905834317207336, 0.13605646789073944, 0.8042213916778564, -1.502918004989624, -0.21459457278251648, -1.350346326828003, 2.53566312789917, 0.2947307527065277, 0.4836598038673401, -1.1580244302749634, 0.4034689664840698, 0.4419405162334442, -0.9478647708892822, -0.9812108278274536, 1.0173192024230957, -0.5393825769424438, 0.8826579451560974, 0.03694184124469757, 0.25469398498535156, 0.13545316457748413, 2.7172868251800537, 1.3013807535171509, 0.36180660128593445, 0.2743396759033203, -0.40852922201156616, 0.1590731143951416, -2.009382963180542, 0.5159072279930115, 0.5988330841064453, -0.04907599836587906, 1.252256989479065, 0.6458426117897034, -0.41700679063796997, -0.08247778564691544, 0.7557762861251831, 0.42993882298469543, -1.079281210899353, 1.5804258584976196, -2.134287118911743, 0.9336631894111633, 0.03994758799672127, -0.28561899065971375, 1.0460090637207031, 0.6788333058357239, -1.3318955898284912, 1.9571592807769775, -0.06488146632909775, 1.3220428228378296, -1.0184392929077148, -0.567181408405304, -1.9987802505493164, 0.4473271369934082, -0.734521210193634, -1.5924735069274902, -1.4435675144195557, 1.5862497091293335, 1.3753141164779663, 2.2126004695892334, -2.5657074451446533, 1.7065222263336182, -0.42416977882385254, 0.5796597599983215, -1.20732581615448, -0.008638942614197731, 0.4224817454814911, 1.562625765800476, 1.6595990657806396, -1.4243065118789673, 0.1645200401544571, -1.1958191394805908, 1.699924349784851, 0.6226452589035034, -0.22982147336006165, -2.1605775356292725, 1.1780669689178467, -0.45920103788375854, -1.800232172012329, -1.243540644645691, 1.3012112379074097, -0.46210265159606934, 0.28851228952407837, -1.1450058221817017, -0.8565040826797485, 0.5037079453468323, 2.5475430488586426, 1.9140433073043823, -1.8947010040283203, 0.6836903691291809, -0.8416914939880371, -0.004773534368723631, -1.8989620208740234, 0.01708908937871456, 0.32414188981056213, -0.6534138321876526, 1.1338964700698853, 1.4070144891738892, -1.2010011672973633, -0.08453300595283508, 0.8630689382553101, 1.377820372581482, -1.2275276184082031, 0.35025665163993835, -2.6713969707489014, -0.2316255122423172, -1.5550236701965332, -2.59053897857666, 0.41043198108673096, 0.9584788084030151, 0.3624723553657532, -0.5072398781776428, 1.355645775794983, 3.8528616428375244, 1.9536832571029663, -1.2934457063674927, -2.7749388217926025, -0.3947696387767792, -1.0345064401626587, 0.09004604071378708, -1.28348970413208, 1.1863385438919067, 0.68465256690979, 4.350734233856201, -2.4876625537872314, 2.9941210746765137, 0.25893691182136536, 0.08584975451231003, -0.2543969750404358, -0.9255593419075012, 0.8056378960609436, -0.13740716874599457, 3.5491631031036377, -0.5789343118667603, 0.6058562397956848, 0.6493102312088013, 2.228370189666748, 0.9354646801948547, -0.7606590390205383, -0.34552979469299316, 3.493692636489868, -1.0520799160003662, -0.47756296396255493, -3.4825360774993896, 1.2321786880493164, 0.5241981148719788, 0.6024211645126343, -0.20678088068962097, -0.11194822937250137, -0.3552749454975128, 1.2189579010009766, -0.021372096613049507, -1.2026933431625366, 1.4964890480041504, 1.1314759254455566, 1.6690428256988525, -0.16626212000846863, -1.1029250621795654, 1.4844777584075928, 0.08749751001596451, 0.5963839888572693, 0.7909537553787231, -0.8423898816108704, -1.5278328657150269, -0.5409820675849915, 1.202791452407837, 0.8990106582641602, 1.122801661491394, -2.2323837280273438, -1.773571252822876, -0.9671078324317932, -0.9731229543685913, -0.00729002570733428, 1.2562147378921509, 1.509699821472168, 0.11915504187345505, 1.3046269416809082, 1.7782772779464722, -1.0652257204055786, 2.353712320327759, -1.6661391258239746, -0.8558018803596497, 0.7426124811172485, 0.67668616771698, -0.04252508282661438, 0.14408156275749207, 1.3185456991195679, 4.528331279754639, -1.9094918966293335, 4.388155460357666, 0.44303643703460693, 0.21964074671268463, -0.366519957780838, -0.5377390384674072, 0.8478720784187317, -1.1793410778045654, -0.6061797738075256, 1.3099228143692017, 1.5675727128982544, 0.9483828544616699, 3.0836448669433594, 0.4290103316307068, 0.9728572964668274, -1.2620941400527954, 1.9175523519515991, -2.2316694259643555, -0.9878720045089722, -2.22880482673645, -1.8323625326156616, 0.6024571061134338, 1.1234784126281738, -0.09963904321193695, 2.1828973293304443, -0.8274024128913879, -0.37923064827919006, -0.020918885245919228, 0.9931581616401672, 1.3780778646469116, 1.720399260520935, 0.5095698237419128, -0.06571930646896362, -1.5757039785385132, -0.9230988621711731, -0.8819383382797241, -0.18262438476085663, 0.022233152762055397, 0.2462519109249115, -2.399235486984253, -1.0851869583129883, -0.04040490463376045, 1.2828787565231323, -0.1605212539434433, -1.4429606199264526, -2.5186123847961426, 0.29842618107795715, 0.9569781422615051, -0.40736666321754456, 0.5948914885520935, -0.4548191428184509, -0.020969750359654427, -1.2473533153533936, 0.9402700066566467, -1.4496666193008423, 0.955348789691925, -1.699763298034668, -0.24804280698299408, -0.23937885463237762, 0.18412654101848602, 0.6011555790901184, -0.3856845796108246, 0.5262983441352844, 1.3613255023956299, 0.06660377979278564, 3.8306190967559814, -0.5773801207542419, 1.172522783279419, 2.065089464187622, 1.5072025060653687, 1.7385090589523315, -1.2778819799423218, -1.7568918466567993, -0.5594713687896729, 0.08490315824747086, -0.7043065428733826, 2.32670521736145, -1.4301930665969849, 1.4956516027450562, -1.2811832427978516, -1.3326148986816406, -1.6045697927474976, -0.5966731905937195, 0.06820378452539444, -1.2969294786453247, -1.2082726955413818, 2.2122139930725098, -0.16066588461399078, 1.7803817987442017, -0.7776880860328674, 1.6067031621932983, -0.5970993638038635, -1.3204838037490845, 1.4645551443099976, 0.43028905987739563, -0.23415841162204742, -2.1533854007720947, 1.6536365747451782, 0.17099638283252716, -0.4271680414676666, -0.8753577470779419, -0.08496221899986267, -0.26367270946502686, -0.470786988735199, -0.3944685757160187, 0.0780528262257576, -1.5122570991516113, -0.6360539793968201, 0.3020106256008148, -1.6883394718170166, 0.0779569000005722, -0.37572556734085083, -1.6588531732559204, 1.213165521621704, 1.1495827436447144, -0.7744828462600708, 0.6649337410926819, 0.8302244544029236, 0.281579852104187, 1.9286377429962158, -2.139932632446289, -0.505129873752594, -0.7320506572723389, 1.0677887201309204, 2.3847458362579346, -1.5228208303451538, -1.4488343000411987, 1.8640166521072388, 0.5047858357429504, 1.3242943286895752, -0.5237040519714355, 1.7290372848510742, 1.2221059799194336, 0.654513955116272, 1.3863612413406372, 0.06739339977502823, -0.9021753668785095, -2.494901657104492, -1.3970662355422974, -0.4233514368534088, -0.7786072492599487, -0.46208062767982483, -1.0919586420059204, -0.035586897283792496, -2.1088531017303467, -1.0388731956481934, -0.17588263750076294, 0.18115924298763275, 0.7444607019424438, -0.4845898449420929, 0.6755428910255432, 1.7621939182281494, 1.4780672788619995, 0.12710709869861603, 2.0625996589660645, -1.7227922677993774, -0.22437183558940887, 1.6141318082809448, -0.3777009844779968, -0.27048465609550476, -2.3424980640411377, 1.9872297048568726, 0.8659205436706543, 0.08811315894126892, -1.509960412979126, 0.08903401345014572, 0.6546894311904907, 1.0316498279571533, -0.5922891497612, 0.2364291548728943, -3.8310418128967285, 0.14322371780872345, -0.4667936861515045, 0.7536436319351196, -0.8113682866096497, -0.577958881855011, -0.6826051473617554, 0.23926612734794617, -0.2872854173183441, -1.271865963935852, 1.222640872001648, -0.5620607137680054, -0.04769684001803398, 1.4924652576446533, -0.6764485836029053, 0.4121607542037964, -0.01610996387898922, -0.7486684322357178, 1.3379350900650024, -0.011797560378909111, 0.3384881913661957, 0.05959977209568024, 0.05797380581498146, -0.7151567935943604, -1.4825087785720825, -0.35124173760414124, 0.549859881401062, -2.810755968093872, 0.19735707342624664, 0.49172940850257874, -0.20410551130771637, -0.9295101165771484, -1.2252380847930908, -1.7254164218902588, -0.7246705889701843, 0.5204026699066162, -0.3698127269744873, -0.3842974603176117, -0.35771694779396057, 0.1413692981004715, 0.1185944527387619, 1.3318054676055908, 0.9504008293151855, -0.40804973244667053, -0.5767598748207092, 0.30182433128356934, 1.3266963958740234, -0.5298609733581543, 0.05069760978221893, -0.9057000279426575, 0.12181054055690765, 0.8207299113273621, -0.5591460466384888, 0.11996183544397354, -1.0659489631652832, 1.040452480316162, 0.9457513689994812, -0.33785948157310486, 0.6346632838249207, 0.840528666973114, 2.021796464920044, 0.6908401846885681, 0.7044884562492371, 1.5638784170150757, -2.8471834659576416, 0.2475791722536087, -0.3404270112514496, 1.0964637994766235, 1.348368763923645, -2.2068982124328613, 1.2577823400497437, 0.05684438347816467, -0.019716504961252213, -0.5649719834327698, 0.665721595287323, -0.5389382839202881, -0.3990188241004944, 0.3581550419330597, -2.062774419784546, -0.6581559181213379, -0.6234979033470154, 0.19999036192893982, 0.6640527248382568, 0.12907853722572327, 0.8392471671104431, 0.5405116677284241, -1.223570466041565, 0.7408937215805054, -0.06287731230258942, -0.8775370717048645, 0.4483175575733185, -2.4551711082458496, -1.3774645328521729, 0.289680153131485, 0.6432706713676453, -0.335927277803421, 0.04098552092909813, 1.210640549659729, 0.4583371877670288, 0.10968084633350372, 0.7210590839385986, -2.6893632411956787, -1.7330918312072754, 0.6979018449783325, -0.11877087503671646, 0.2865943908691406, 0.38430309295654297, 0.3377366065979004, -0.45740580558776855, 0.3343237638473511, 0.5186410546302795, -1.485975980758667, 0.5520557761192322, 1.1420358419418335, 2.3263988494873047, 0.8942812085151672, 0.46132776141166687, 1.06209135055542, 0.23766329884529114, 0.568855345249176, 1.0339552164077759, 0.07104374468326569, 0.9251922369003296, 1.624328374862671, 2.3424582481384277, 0.8974422812461853, -0.5750721096992493, 1.0774551630020142, -1.1616437435150146, -0.7024219632148743, 0.27229076623916626, 2.5649895668029785, 0.6134132742881775, -1.275282859802246, 1.0777095556259155, 0.026457015424966812, -0.39068564772605896, 0.27595579624176025, 1.017593264579773, 0.7801972031593323, -0.3758601248264313, -0.3293411433696747, -1.072322964668274, 0.13593822717666626, -0.34099650382995605, 0.736731767654419, -0.2755015194416046, 0.47845664620399475, 1.5014995336532593, 0.8106261491775513, -0.6160445213317871, 0.2385072410106659, 0.8054555654525757, -0.6406868100166321, -0.4040012061595917, -0.6340964436531067, -0.7439453601837158, -0.20568495988845825, 0.47680628299713135, 0.5004532337188721, -0.19637592136859894, 0.5281617641448975, 0.4477824568748474, 0.24315659701824188, 0.6620868444442749, -0.5695187449455261, -0.42167267203330994, 0.2524563670158386, 0.7980785369873047, -0.04418504238128662, 1.053879976272583, 0.5083436965942383, 0.4654483497142792, 0.930653989315033, 0.03862420842051506, -0.37624529004096985, 1.4750150442123413, 1.195518136024475, 1.1092973947525024, 0.8229626417160034, -0.927675187587738, 0.5139271020889282, -0.08828182518482208, 0.8808011412620544, 0.2535383701324463, -0.5876404047012329, 0.633818507194519, 0.8669590950012207, 0.7245766520500183, 0.19263872504234314, -0.17256425321102142, 0.7400995492935181, -1.0081533193588257, 0.09110650420188904, 0.0032343100756406784, 1.74891197681427, 0.11467406153678894, -0.368302583694458, -0.23930947482585907, -0.46469664573669434, -0.6929933428764343, 0.26949748396873474, 0.9248522520065308, 0.16510438919067383, -0.22053802013397217, -0.4242248237133026, 0.34279364347457886, 0.5567225813865662, -0.34335577487945557, 0.8446150422096252, -0.8959589600563049, 0.21560023725032806, 0.9494582414627075, 0.5813667178153992, -0.47738218307495117, -0.15659521520137787, 0.9610042572021484, -0.275112122297287, -0.2390134334564209, -0.02829558029770851, -0.5476350784301758, 0.01029177661985159, 0.8195860981941223, 0.9464508891105652, -0.30972835421562195, -0.3777574300765991, 0.6388920545578003, 0.012794675305485725, 0.31943362951278687, -0.3131852447986603, 0.07762637734413147, 0.60679692029953, 0.9061406850814819, 0.12044127285480499, 1.0417263507843018, 0.493069052696228, 0.3521653115749359, 0.6499339938163757, 0.1789044737815857, 0.22420988976955414, 0.6694148778915405, 0.19878755509853363, 0.794012188911438, 0.7290226221084595, -0.8829097151756287, 0.6627888679504395, -0.2578134536743164, 0.3774479627609253, 0.47302404046058655, 0.441860556602478, 0.6286075115203857, 0.46819013357162476, 0.6463639736175537, -0.38083457946777344, 0.10941373556852341, 0.4445424973964691, -0.6469800472259521, 0.08254283666610718, 0.318312406539917, 1.1957974433898926, 0.38067755103111267, -0.3799966275691986, -0.6410799026489258, -0.3695370852947235, -0.8355844020843506, 0.3801478445529938, 1.0311758518218994, 0.5024852752685547, -0.6038729548454285, -1.2656306028366089, 0.3616407513618469, 0.49839600920677185, -0.2041626274585724, 0.6862830519676208, -1.2360395193099976, 0.23329317569732666, 0.8152250647544861, 0.8597614765167236, -0.8201544284820557, -0.4366857409477234, 0.9529955387115479, -0.43709734082221985, 0.4798753559589386, -0.17937412858009338, -0.6174324750900269, -0.4427693784236908, 1.3090628385543823, 0.7346728444099426, -0.14444144070148468, 0.0788857638835907, 0.2637919783592224, 0.11303802579641342, 0.26943880319595337, -0.10989274084568024, 0.19578760862350464, 0.5723339319229126, 0.27060091495513916, -0.00796118937432766, 1.5423657894134521, 0.45458921790122986, 0.5381331443786621, 0.5365368127822876, 0.10674836486577988, -0.008204960264265537, 0.5889968276023865, -0.07292360812425613, 0.41410893201828003, 0.820944607257843, -0.5580708384513855, 0.6762505769729614, -0.526811420917511, 0.4963051676750183, 1.1405614614486694, 0.5017541646957397, 0.25954923033714294, 0.3513834476470947, 0.003911762963980436, -0.9091026186943054, 0.20831149816513062, 0.47856125235557556, -0.6492321491241455, -0.026265067979693413, 0.21352021396160126, 1.0615535974502563, 0.5687243342399597, 0.3812333643436432, 0.431417852640152, -0.8640923500061035, -0.9392912983894348, -0.4798412322998047, 0.8894295692443848, 0.27930858731269836, -0.742817759513855, -1.0971324443817139, -0.20209576189517975, -0.04691193997859955, -0.4502417743206024, -0.19565099477767944, -1.2466238737106323, 0.6000601649284363, 0.9502900242805481, 1.9143099784851074, -0.6641175746917725, -0.3120768368244171, 0.7676634788513184, -0.10817133635282516, 0.7188827395439148, -0.3823876976966858, -0.16957151889801025, -0.7571541666984558, 1.3223929405212402, 0.4655328094959259, -0.1664508581161499, -0.7879267334938049, 0.2587406039237976, -0.09795590490102768, 0.7466472387313843, -0.5836097598075867, 0.48195144534111023, 0.5412197113037109, 0.9139449000358582, -0.2001345455646515, 0.8422309756278992, 0.23341722786426544, 0.42770448327064514, 0.589271068572998, 0.8429586291313171, -0.7491818070411682, 0.9756703972816467, 0.18958744406700134, 0.6429502367973328, 0.832595944404602, -0.6048486828804016, 0.003029817482456565, -0.6335696578025818, 1.1040927171707153, -0.06954668462276459, 0.682266116142273, -0.9351744651794434, -0.046288780868053436, 0.15181757509708405, -0.1548430323600769, 1.1463658809661865, -0.20578329265117645, -1.204491376876831, 1.5450137853622437, 0.07456274330615997, 1.3141343593597412, 0.8688887357711792, 1.9549860954284668, 2.044792890548706, -0.3385796844959259, 0.8081209659576416, 0.018741652369499207, 1.9108712673187256, -0.9125170707702637, -0.776187539100647, 0.9142530560493469, -0.8330507874488831, -1.241137146949768, -0.2763643264770508, -1.3454067707061768, -1.2951946258544922, -0.15113218128681183, 1.2855134010314941, 0.8195126056671143, 0.1027219295501709, 0.07391951233148575, 1.0428919792175293, -0.31781476736068726, -0.2916366457939148, -1.4457526206970215, 0.7916180491447449, -1.5588841438293457, 1.5899626016616821, 0.487739235162735, 0.9910292625427246, 0.04678930342197418, -0.31868255138397217, -0.6637487411499023, 0.47698724269866943, -1.8866537809371948, 1.776821494102478, -0.668057382106781, 0.5170383453369141, -0.5287074446678162, 0.33308231830596924, 1.1726443767547607, 0.2749837636947632, -0.0026583601720631123, 1.3363534212112427, 0.22095578908920288, 1.1281962394714355, 1.6770075559616089, -0.6699756979942322, 0.7278892993927002, -0.47561585903167725, 1.2251083850860596, 0.3475304841995239, 0.49082517623901367, -0.8087494373321533, -0.8967950344085693, -0.9589044451713562, -1.2427783012390137, -1.6348005533218384, 0.2320261150598526, 1.5418095588684082, -1.8767908811569214, -1.3937110900878906, 2.204397678375244, 0.41957706212997437, 1.1111862659454346, 1.0963666439056396, 1.9571462869644165, 1.3787842988967896, 0.059955526143312454, -1.709683895111084, 0.39085760712623596, 1.8625729084014893, -1.4313400983810425, 0.49986016750335693, 0.7981782555580139, -2.382667064666748, 0.6210339069366455, 0.621823251247406, -0.5924715995788574, 0.1291607767343521, 0.6431441307067871, 1.262336015701294, 1.322344422340393, -0.6521447896957397, -0.4309030771255493, -1.3427233695983887, -0.4442691504955292, 0.15067408978939056, -1.151804804801941, 0.35230252146720886, -0.5952077507972717, 0.7287173271179199, -0.6642932295799255, 0.6367790699005127, -0.017738670110702515, 1.1650841236114502, 0.637413501739502, -0.023172220215201378, -1.863532304763794, 2.945833444595337, -2.1965126991271973, -0.9539845585823059, -0.637509822845459, -1.2169803380966187, 1.016709566116333, -0.12615036964416504, -1.305224895477295, 0.048425108194351196, 2.2933309078216553, 2.5744619369506836, 2.9986507892608643, -3.0338237285614014, 0.46093061566352844, -0.7329143285751343, 0.5480483174324036, -0.6451152563095093, 1.0242643356323242, -1.1047314405441284, -0.9593364596366882, -0.8986940383911133, -0.5256350636482239, 0.47916409373283386, -0.38067126274108887, -0.46602699160575867, -0.5459943413734436, 0.3168310523033142, 1.9163919687271118, -1.4841727018356323, 0.05818052217364311, -0.0420353040099144, 0.057481929659843445, 1.8873850107192993, -0.7507380843162537, -3.0088436603546143, -0.8887307047843933, -0.7834481596946716, -1.9158952236175537, 0.2653425335884094, 0.020319368690252304, -1.4740482568740845, -0.7114582657814026, -0.08235826343297958, -0.6194390654563904, -1.2094452381134033, -0.2788665294647217, -1.1980146169662476, -0.5017803907394409, 0.0889931246638298, 1.1603730916976929, -2.115248441696167, -1.8336704969406128, -0.4966152012348175, -0.757138729095459, 1.3516671657562256, -0.3749743103981018, 0.7408319711685181, -2.3258755207061768, -0.6316746473312378, 0.3165714144706726, -0.9892839193344116, -0.92287677526474, 2.4786171913146973, -0.5947979092597961, 0.16722612082958221, -2.1048572063446045, -0.6341936588287354, 0.7357118725776672, -0.4300021827220917, -0.750664234161377, -0.4836170971393585, 0.015846239402890205, -0.9000062942504883, 1.633647084236145, 2.9436330795288086, 2.4179399013519287, -0.6727886199951172, 0.30716463923454285, 0.3411855101585388, -0.03860494866967201, 0.12627370655536652, -0.22378568351268768, -0.3738393783569336, 0.41277453303337097, -0.5046408772468567, 0.5356379747390747, 0.6998355388641357, 0.9798061847686768, 0.42437681555747986, -0.33754533529281616, 0.3861697316169739, 1.5131901502609253, -1.5011460781097412, -3.4505200386047363, -0.5545830130577087, -1.3599257469177246, 0.6356826424598694, 0.25365790724754333, 0.03630458936095238, 0.09324262291193008, -0.007621873170137405, -1.1589752435684204, 0.8196561932563782, 0.217366024851799, -0.40022268891334534, -1.0263340473175049, -0.26725947856903076, 0.46661242842674255, -1.0074783563613892, 0.047015439718961716, -0.05059882253408432, 0.06480364501476288, 0.30166417360305786, 1.3179429769515991, -2.0985915660858154, -1.7613496780395508, -0.15677326917648315, 0.17454545199871063, 0.028969936072826385, 0.97523432970047, 1.8252488374710083, -1.4716583490371704, -1.2085248231887817, 1.3363903760910034, -0.5054401159286499, -1.0524834394454956, 2.09546160697937, 0.34135136008262634, 0.4223484396934509, -0.2978614866733551, -0.23293651640415192, 0.031618643552064896, 1.4121383428573608, 0.43156448006629944, 0.2819274365901947, 2.1745870113372803, 0.6750901341438293, 0.06256983429193497, 1.8614509105682373, 0.9917051792144775, 1.5930670499801636, 0.6576842069625854, -0.5798392295837402, -0.8312548398971558, 0.026038946583867073, -3.9350342750549316, -0.31682607531547546, -0.5341953635215759, -0.0288283359259367, -0.32716822624206543, -0.5144752860069275, 0.40293607115745544, 0.35159173607826233, 1.1803160905838013, 0.4243830144405365, 1.9589601755142212, -1.120237112045288, -2.1960816383361816, 0.20426703989505768, -0.30776581168174744, -0.8910769820213318, 0.7867779731750488, 1.0325311422348022, 0.7212013006210327, -0.7464990019798279, 1.295653223991394, -0.018644554540514946, -0.93198561668396, -0.2219582349061966, -1.7618558406829834, -1.6377123594284058, -0.10426592826843262, -1.1007822751998901, -0.7636110186576843, -2.2905001640319824, 1.1082053184509277, 0.11965558677911758, 0.04881150647997856, -0.4830331802368164, 0.20706599950790405, 0.44780391454696655, 0.45651963353157043, 0.5605902671813965, 0.14886227250099182, 0.9012256860733032, -0.015883831307291985, -0.16183963418006897, 0.3614689111709595, 0.3800370395183563, -0.1051739752292633, -1.3838776350021362, -1.1698718070983887, 1.472400426864624, 0.5680737495422363, -2.272041082382202, -1.432765245437622, 1.3996305465698242, -0.292514443397522, 0.5517589449882507, -0.4587979316711426, 1.962349534034729, 0.03403141349554062, 0.1988157033920288, 0.4434880018234253, 0.14918409287929535, -1.3117289543151855, 0.2206611931324005, -0.822350263595581, 0.3094288110733032, -0.22655506432056427, -0.9022688865661621, 0.036371372640132904, -0.37227046489715576, -1.0335625410079956, -0.8100217580795288, -2.5459983348846436, -0.18448710441589355, -0.12463366240262985, -0.8383776545524597, -1.1113063097000122, -0.5368521213531494, -0.744948148727417, 0.4013562500476837, 0.4356602728366852, -0.13720957934856415, -0.23798248171806335, 1.1904789209365845, 0.1691569685935974, -2.2927651405334473, 1.9898443222045898, 0.10566650331020355, 1.2013641595840454, -1.8087955713272095, -0.1880303919315338, -1.8167262077331543, -0.6070816516876221, -0.58637535572052, -1.3696520328521729, -2.1956441402435303, 0.2437174767255783, 0.43151262402534485, -0.4554470479488373, -0.17078617215156555, -0.5559302568435669, -0.3708517849445343, 0.049120981246232986, -0.01911146380007267, -0.49065446853637695, -1.2933664321899414, -0.9705535173416138, -0.14907336235046387, -0.09778013825416565, 0.41467276215553284, -0.37052902579307556, -1.640813946723938, -0.20999343693256378, 1.3165130615234375, 0.2912399172782898, -1.4999890327453613, -0.6791630387306213, -0.22809378802776337, -2.3470230102539062, 0.8301486968994141, -1.0908788442611694, 0.23501291871070862, 0.7549962997436523, 0.39284682273864746, 0.6151876449584961, -0.5975441932678223, -2.3951265811920166, 1.160452961921692, -0.07632452994585037, 0.04615802317857742, 0.7162497639656067, -0.04249504581093788, 0.7319509387016296, -1.3495147228240967, 0.3629540503025055, -0.12649361789226532, -2.67602801322937, -0.1538301706314087, -1.7436507940292358, -0.7646790146827698, -1.5103113651275635, 0.01442769169807434, -1.0980998277664185, -0.41729170083999634, -0.008356932550668716, 0.2630234658718109, 0.6029174327850342, 1.7496002912521362, 0.06392332166433334, -0.8444308042526245, 1.7508972883224487, 0.16225957870483398, 1.962091326713562, -0.46910667419433594, 0.013348506763577461, 0.6011555194854736, 0.4478698670864105, 0.6336972117424011, -0.3039206564426422, -0.2736716866493225, -1.2448862791061401, 0.6124265789985657, -0.24956783652305603, -0.30644941329956055, -0.02238781563937664, -0.0032974889036267996, -0.0605616457760334, -0.45199528336524963, -0.10031671822071075, -3.2325146198272705, -0.35217249393463135, 1.094254732131958, 0.8122920393943787, -1.626543402671814, 0.4177154302597046, 0.9909561276435852, 0.7208846211433411, 0.603506863117218, -0.5331188440322876, -1.3573116064071655, 0.0024118684232234955, 0.06812787055969238, -0.45166364312171936, 1.1363940238952637, -0.3321034014225006, -2.464312791824341, -0.029494494199752808, -0.30953001976013184, 0.7665046453475952, -0.2865740954875946, -0.5158218741416931, 1.6595137119293213, 1.069502353668213, -0.8965378403663635, 0.6111053824424744, 1.9354034662246704, -0.9624654650688171, 0.8167493343353271, 0.6848365068435669, 0.232987642288208, 0.41699081659317017, 0.32734206318855286, -0.7993384599685669, 1.5341428518295288, -0.3190697431564331, -0.2564544081687927, 0.6228663921356201, -0.20236200094223022, 0.5932340025901794, -0.4214746057987213, 0.48307913541793823, 1.5262279510498047, 0.4096757769584656, -0.40013062953948975, 0.6021766066551208, 0.43318629264831543, 3.9552555084228516, -0.7271472811698914, 0.06880225986242294, 0.16734716296195984, 0.18940570950508118, 1.151149034500122, -0.754119336605072, -0.8305036425590515, 0.025653183460235596, -0.45603832602500916, 0.6237779855728149, -0.8890342116355896, -0.08058001846075058, 0.6136101484298706, 0.15456512570381165, -0.5292083024978638, 0.31538066267967224, 0.5507618188858032, -2.443805694580078, -0.3986613154411316, -0.7043457627296448, 0.34811070561408997, 1.0360738039016724, 1.1088000535964966, 0.17529579997062683, 1.1625114679336548, -0.2042349874973297, -0.5066472887992859, -1.562221884727478, 0.30015742778778076, 0.6595093607902527, 0.15173615515232086, 0.014422428794205189, -1.8832660913467407, -1.3164663314819336, 0.2875557541847229, -0.2147936075925827, 0.834221363067627, -1.8599001169204712, 1.832617998123169, -0.2484784722328186, -2.380291223526001, 1.0649200677871704, 0.06995851546525955, -0.6318517923355103, -0.16597643494606018, -0.013878004625439644, 0.16428658366203308, 1.8514255285263062, 0.9463256597518921, -1.198722243309021, 1.031430959701538, 1.7057881355285645, -0.21277835965156555, -0.553841233253479, 0.7433017492294312, -0.35611459612846375, 0.15026085078716278, -0.40024280548095703, 0.09006494283676147, -0.5093201994895935, 0.5476272106170654, -0.9170660972595215, 0.6963320374488831, 1.8232663869857788, -0.13645407557487488, 1.1804207563400269, -0.7035349011421204, -1.5216939449310303, 2.7654006481170654, -1.9777591228485107, -0.18077212572097778, -1.013275146484375, -0.1551598757505417, -0.7083286643028259, -0.7184292674064636, -0.381784051656723, -0.15354697406291962, -2.7938320636749268, 0.5658256411552429, -1.2990950345993042, 1.2215970754623413, 0.48974233865737915, -1.951393723487854, 0.2898203730583191, -1.1182500123977661, -0.9097020030021667, 1.4783117771148682, 0.2439298778772354, 0.8184966444969177, 0.8164730668067932, -0.5842956304550171, -0.9018157720565796, -1.1922413110733032, -2.257554531097412, -1.4645061492919922, -0.39414602518081665, -0.45483049750328064, -1.3236290216445923, -2.4825994968414307, 0.5691162347793579, 0.820121705532074, -1.3379212617874146, 1.8898091316223145, -0.06942538917064667, 0.47623005509376526, 1.9397515058517456, -0.14529798924922943, 0.15289680659770966, -1.3908852338790894, 1.1957265138626099, 0.5390209555625916, 1.772600531578064, -0.3408447802066803, -0.38246238231658936, 0.741719663143158, 1.6196136474609375, 0.9720171689987183, -1.289322018623352, 0.2769591212272644, -0.9252842664718628, 2.1449952125549316, -0.6078149080276489, 0.3173285126686096, 0.310514897108078, -0.06448126584291458, -0.7660550475120544, -0.9763230681419373, 0.10158760845661163, 0.11239195615053177, -1.3908847570419312, 0.04150416702032089, -0.5674530267715454, 1.13087797164917, 0.06380460411310196, 0.812679648399353, -0.4710194170475006, 1.1085742712020874, 1.2959603071212769, -1.4908348321914673, -1.2450928688049316, -0.7339532375335693, -1.167270302772522, -0.933441698551178, 0.35690033435821533, -0.36888712644577026, 1.1356751918792725, 0.5777983069419861, -0.80132657289505, -2.368382215499878, -0.76847243309021, 1.621978759765625, -0.13266755640506744, -0.39272505044937134, 0.7236093282699585, 0.2972525954246521, 0.34178996086120605, -1.1657812595367432, -1.9899709224700928, -0.3450528681278229, 0.20150017738342285, 0.2812885046005249, -0.8462014198303223, -0.3063211441040039, -0.9140451550483704, 1.9040173292160034, 0.28659477829933167, 0.6104239225387573, -1.754856824874878, 1.3061351776123047, 0.3932693302631378, 0.09306472539901733, 1.4161864519119263, 0.82437664270401, 2.2306337356567383, 0.5661546587944031, 1.846642017364502, -0.2699888050556183, -0.2226615846157074, 1.5576368570327759, 2.066904067993164, 2.1252248287200928, 2.064344644546509, 0.0843883827328682, -0.42919692397117615, 1.8843376636505127, -1.4846068620681763, 0.2838400900363922, 0.9127970337867737, -1.7650604248046875, -1.552553653717041, -0.3392978012561798, -0.6764904856681824, -0.8530703186988831, -1.0255801677703857, 0.11497306823730469, 0.888458251953125, -0.7059298753738403, 0.6666423678398132, 0.33260518312454224, -0.18634173274040222, 1.1266868114471436, 1.6653285026550293, -0.11285095661878586, -1.7219661474227905, -1.1281102895736694, -0.28882086277008057, -1.5740439891815186, 0.7222516536712646, 0.36349067091941833, 0.8336737155914307, -0.3303079307079315, -1.311140537261963, 0.06129419431090355, 0.07382690161466599, -0.06886885315179825, 0.15087434649467468, -0.9798850417137146, 1.0234092473983765, 0.9612529873847961, -0.47313597798347473, 0.8335652947425842, 0.40320277214050293, -0.6332417726516724, 0.8813929557800293, -0.009020039811730385, 0.19474272429943085, 0.3208431899547577, -1.4347364902496338, 1.5737090110778809, 0.7765550017356873, -0.7327659130096436, -1.2499635219573975, 0.543719470500946, -0.2952858805656433, 0.08862856030464172, 1.879562497138977, 0.9171745181083679, 1.642716407775879, 0.8623431921005249, 0.7663746476173401, -0.6236192584037781, -0.07971063256263733, -0.18784940242767334, 1.030280590057373, 0.15627525746822357, 0.9804574251174927, -0.8207561373710632, -0.33407217264175415, -0.6861202120780945, -0.41912829875946045, -1.477233648300171, -0.3238748610019684, 1.153732180595398, -0.12268723547458649, -0.9760178327560425, -0.9843190312385559, 0.14091753959655762, 0.816765546798706, 0.2527916133403778, 0.5599619746208191, -1.0852477550506592, 0.32388463616371155, 0.6786125898361206, 1.3488833904266357, -0.22972559928894043, -0.8703553676605225, 0.7976035475730896, 0.04377362132072449, -0.027229849249124527, 0.4587879180908203, -0.2639509439468384, -0.5234549045562744, 0.9508451223373413, 1.2610349655151367, -0.19144949316978455, -0.17718861997127533, 0.9962222576141357, 0.9636103510856628, 0.2742190361022949, 0.26564544439315796, 0.5677036046981812, 2.220427989959717, 0.4053928852081299, 1.2718172073364258, 1.4564800262451172, 0.7821441292762756, 0.17925962805747986, 0.5492494106292725, 0.2312571257352829, 0.7212426066398621, 1.057863712310791, 0.8321462869644165, 0.7522186636924744, 1.4298702478408813, -0.689929723739624, 0.729889452457428, -0.8462605476379395, -0.13225708901882172, 0.7257333993911743, 0.6633082032203674, 0.4665448069572449, 0.048144660890102386, 0.6427072882652283, -0.2506856322288513, 0.0979674682021141, 0.24529264867305756, -1.1334011554718018, 0.6164801716804504, 0.3181026577949524, 1.30635404586792, 0.05070238560438156, 1.6943961381912231, 0.10887730121612549, -0.5382431149482727, 0.5857107639312744, -1.2226228713989258, -1.7804919481277466, -0.8672845959663391, -0.1541644185781479, -1.5227298736572266, -0.6842115521430969, -0.01505998894572258, -0.6973352432250977, -1.7791491746902466, -0.8355960249900818, 1.0158889293670654, 0.7484250664710999, 1.7342044115066528, 0.4484782814979553, -0.6933256983757019, 0.6478044986724854, -0.7889161705970764, 0.21581459045410156, 1.3166340589523315, -0.3729041814804077, -0.7953281998634338, 0.8644469976425171, 0.901827335357666, -0.5072596669197083, -1.1940077543258667, 1.1830737590789795, 1.0329043865203857, 0.5840747952461243, 1.3967469930648804, 0.9144867062568665, 0.9637963175773621, 0.2599097490310669, -0.4714917838573456, 0.010205637663602829, -0.7365619540214539, -1.101450800895691, 0.8433868288993835, 0.08231371641159058, 0.6212145686149597, 0.7679629921913147, 1.526879072189331, 0.1505134552717209, -0.2687002122402191, -0.5029209852218628, -0.35367345809936523, -2.856034755706787, 0.06677696108818054, -0.6895460486412048, 0.8192286491394043, -1.743640661239624, 0.12437073141336441, 0.23331797122955322, -0.21896177530288696, 2.4774508476257324, 0.6248849034309387, -1.8054362535476685, 2.059164047241211, -0.3337652087211609, 1.8579179048538208, 0.2642974257469177, 3.3411552906036377, 0.555014431476593, -0.005095718894153833, -0.33847126364707947, -0.04769372195005417, -0.9534773230552673, -1.2261912822723389, 0.30124351382255554, -0.3090454638004303, -0.8413384556770325, 0.3280426561832428, -0.43873345851898193, -1.3839935064315796, -1.376176118850708, -0.14253848791122437, 2.6339643001556396, -0.892859160900116, 1.4237126111984253, 0.12225080281496048, 0.7336629629135132, -0.3468380570411682, 0.7054290175437927, -0.6351230144500732, 0.7146137356758118, -0.6771671772003174, 1.2276057004928589, 1.7253289222717285, 1.7621870040893555, -1.1904159784317017, 0.8853349685668945, 0.24357295036315918, 1.1397857666015625, 0.6939560174942017, 2.381601333618164, -2.1670961380004883, 0.3288034498691559, -0.754100501537323, 0.6088250279426575, 0.12139708548784256, -0.5801619291305542, 0.16629348695278168, 0.5235770344734192, 0.14970803260803223, -0.7900229096412659, 0.5876834392547607, -3.1268370151519775, 1.1893069744110107, 0.007728956174105406, 0.22442913055419922, -2.083484172821045, 0.22352713346481323, -1.217851996421814, -0.2296961098909378, -0.21778570115566254, -0.7125365138053894, -0.5543003082275391, -0.1047150194644928, 0.6563103199005127, -0.7684335708618164, -0.7020217180252075, 2.341801404953003, 0.5449572205543518, 1.3070645332336426, 0.15674015879631042, 1.6294834613800049, 1.2226524353027344, 0.5282798409461975, -0.7546177506446838, -0.2758651077747345, 0.45770522952079773, -2.577146053314209, 0.11765851080417633, -0.8996670246124268, 0.28328269720077515, 0.40138861536979675, -0.8142083287239075, 0.3752176761627197, -0.7876738905906677, 0.8382563591003418, 0.6737391352653503, -1.5988280773162842, 0.683832585811615, 0.22883857786655426, 0.03612661734223366, -0.710002064704895, 1.0021908283233643, -0.20313222706317902, 0.057479772716760635, 0.2044936865568161, 0.771830141544342, 0.11765915155410767, -0.3520848751068115, -0.372485876083374, -0.0023638405837118626, -0.07094664126634598, -0.11718832701444626, 0.6817308068275452, 0.9936156868934631, -0.9786935448646545, -0.8989711403846741, -1.852327585220337, -0.2799749970436096, 0.4393930733203888, -0.5896716117858887, -0.2100108563899994, -1.2217570543289185, 0.7948028445243835, -1.2699648141860962, -0.4992765486240387, -4.8687052726745605, 1.519347071647644, -0.6476476788520813, -1.2002229690551758, -0.09748448431491852, 1.7263376712799072, -0.4984307289123535, -0.33216792345046997, -0.7462788224220276, 0.784649133682251, -0.2091902196407318, -0.10052669048309326, -0.1047353446483612, -0.4187042713165283, 2.206641674041748, 1.1602343320846558, 0.30048954486846924, 0.4238053858280182, -0.563921332359314, 0.8291383981704712, 0.5345787405967712, -0.10403174161911011, -1.0759309530258179, -0.5820564031600952, -0.6546969413757324, -1.4777027368545532, -0.27419808506965637, -0.3968017101287842, -0.7280870079994202, 1.4648560285568237, 0.8561424612998962, 0.2962559163570404, -0.8660287857055664, -0.31677189469337463, 1.639420509338379, -0.07174906134605408, 0.2603900134563446, -0.6608482003211975, 0.07327678054571152, -0.5681972503662109, 1.1246039867401123, -0.1679338663816452, 0.9335232973098755, 0.1373594105243683, 0.4654911160469055, -1.1019110679626465, -1.0895189046859741, -0.3539930284023285, -0.7706281542778015, 0.09545302391052246, 0.20832106471061707, 0.5295295715332031, 2.2330892086029053, -1.2923723459243774, -1.9121817350387573, 0.3879793584346771, 0.07874202728271484, -0.2797181308269501, 1.3481192588806152, -0.2909673750400543, 0.06524579972028732, -0.5539682507514954, -0.10715775191783905, 1.1935933828353882, -0.48494505882263184, 0.11867277324199677, 0.5995460748672485, -0.8396966457366943, -0.8625584840774536, 0.42149481177330017, -0.9336953163146973, 0.41505375504493713, -1.081192970275879, 0.8505557179450989, 0.23438633978366852, 0.9286602139472961, 1.1547937393188477, -0.18916243314743042, -0.6846910715103149, -0.8295323252677917, 0.5222088098526001, -7.2083210945129395, -0.9391615390777588, -0.14766599237918854, -0.00710327411070466, 0.11484575271606445, 0.70294588804245, -0.32300296425819397, 0.27113357186317444, -2.3894755840301514, -0.035919371992349625, 0.9022465944290161, -2.6393749713897705, 1.3137784004211426, -0.05507910996675491, 1.072924017906189, 0.04857321083545685, -0.4257251024246216, 2.178791046142578, -2.2765846252441406, 0.9146826863288879, 0.6551983952522278, 0.5057298541069031, -0.8500330448150635, 0.7604609727859497, -0.1357709914445877, 0.45382604002952576, -0.15578551590442657, 0.848122239112854, 0.4572840929031372, -1.5660055875778198, -0.35437673330307007, -0.5847609043121338, 2.074117660522461, 1.0712660551071167, 0.4200717806816101, 1.014461636543274, -1.3649975061416626, -2.083892583847046, 0.2916856110095978, 0.29947757720947266, -0.5438659191131592, -0.37093278765678406, -1.350627064704895, 0.9092317819595337, -1.6546926498413086, -1.0472328662872314, 0.2519385516643524, 0.18794049322605133, -0.6904970407485962, 0.47659099102020264, -0.9274851679801941, 0.828708827495575, -4.874231338500977, -0.7991311550140381, 0.6812488436698914, -1.3832749128341675, 0.06530119478702545, 0.17096735537052155, 1.4316797256469727, 0.7015958428382874, 0.8633657097816467, 0.8935906291007996, -0.09857064485549927, -0.3678464889526367, -1.2770391702651978, 0.8400830626487732, 0.0890955850481987, -1.2664510011672974, 0.10002829879522324, 0.37598133087158203, -0.21912230551242828, -0.09875484555959702, 0.6011233329772949, -0.11784615367650986, -0.9013765454292297, -0.5946733951568604, -0.1218552440404892, -0.8749183416366577, 0.8749590516090393, -0.46349310874938965, 0.31144511699676514, -2.7293076515197754, -2.2153680324554443, -0.03344012424349785, 0.5042397975921631, 0.37244924902915955, -0.45143187046051025, 0.32057803869247437, 0.8349870443344116, 0.9583964943885803, -0.012525513768196106, 1.8057080507278442, -0.0518147274851799, -1.854925274848938, -0.5691893696784973, -0.009199963882565498, 2.0443384647369385, -3.4576830863952637, -0.587863028049469, 1.6519181728363037, -1.476888656616211, -2.403754711151123, -0.6793774962425232, -0.4941229522228241, -1.870079755783081, -0.6179144978523254, -0.9674643874168396, 1.2404327392578125, -1.8403384685516357, 0.5256194472312927, 0.11979906260967255, 0.0036642183549702168, -1.9935070276260376, 0.4518112540245056, -0.13915063440799713, 0.5538202524185181, -1.6714861392974854, 0.7411643266677856, -0.40450575947761536, -1.2286089658737183, -1.2835743427276611, 0.26838886737823486, -0.04696109518408775, 0.008389872498810291, 0.4868854880332947, -0.33500778675079346, 0.3997647166252136, 0.11298968642950058, 0.42123550176620483, 0.4315047562122345, 0.5856577157974243, -0.757455587387085, 0.22613847255706787, -0.3842453062534332, -0.3317386209964752, -0.21388529241085052, 0.6372514367103577, 0.0945034846663475, -0.8442150354385376, 0.13862177729606628, -0.7134692668914795, 0.18299973011016846, 0.4978104829788208, -0.13642698526382446, -0.27314746379852295, -3.501607894897461, -1.0233960151672363, 0.35238349437713623, -0.6010053157806396, 0.8383485078811646, -0.9142928123474121, -0.7883737683296204, 0.7841433882713318, 1.015473484992981, -0.33808594942092896, 0.8253270387649536, 0.6896888613700867, -0.7637829184532166, -0.7599861025810242, 0.2816694974899292, 0.8620493412017822, -3.2305798530578613, 0.9778414368629456, 1.1478430032730103, -0.7679343819618225, -1.846985936164856, -0.9054805636405945, -0.46316394209861755, -1.302535057067871, -0.01293711643666029, 0.9636155962944031, -0.6161399483680725, -2.604922294616699, 0.33896851539611816, 0.9738460779190063, -0.24871374666690826, -0.20002159476280212, 0.030662348493933678, 0.4443068206310272, -0.028894012793898582, 1.5948911905288696, -0.03454327955842018, -1.458543300628662, -0.2958020865917206, -0.04667671397328377, 1.439943790435791, -2.4380440711975098, -0.146891251206398, 0.3777425289154053, 0.04035620018839836, -2.6855733394622803, -1.016327142715454, -0.3461264669895172, 0.4695356786251068, -0.08508580178022385, -0.6919054388999939, -0.0722421258687973, -0.06834679841995239, 0.5821475982666016, -0.2719140350818634, 1.3231608867645264, -0.12205774337053299, 0.8469094038009644, 0.4744246304035187, -0.15666507184505463, -0.22448325157165527, -0.24861721694469452, 0.2325425148010254, -0.030345842242240906, 0.16507644951343536, -0.5182245373725891, 0.9469375014305115, -1.1524877548217773, 0.09075954556465149, -0.9034103155136108, 0.40482988953590393, 0.5165081024169922, 1.1300359964370728, -0.6703857779502869, -0.7539857029914856, 0.32231995463371277, -0.17497104406356812, -0.4768337607383728, -0.9192211627960205, -0.7504348158836365, 1.7646329402923584, 0.44499683380126953, 0.3451361656188965, -0.4049169719219208, -1.85923171043396, 0.50660640001297, 0.11104180663824081, 0.23954841494560242, 0.014663410373032093, 1.535727620124817, -1.7497540712356567, -1.338627815246582, -0.7826526165008545, 0.13955157995224, 0.11539654433727264, 0.2347332090139389, -1.1136680841445923, 1.2197731733322144, -1.5783648490905762, 0.5767734050750732, -0.10137172788381577, -0.05359683185815811, 0.28755050897598267, 0.19012382626533508, 2.1575558185577393, -2.7398929595947266, 0.6655444502830505, 0.6275906562805176, 1.3135879039764404, -1.4311552047729492, -0.12675310671329498, 0.47625377774238586, 0.7530015110969543, 1.171327829360962, -0.25916367769241333, -0.7128967642784119, 0.014830932021141052, 0.9537354707717896, -1.1165530681610107, 1.7481930255889893, -0.37459006905555725, 3.1947009563446045, 0.29739847779273987, -0.59524005651474, 0.5337581038475037, -0.04348525032401085, 1.9543049335479736, -0.08410072326660156, 0.4674130082130432, -1.191877007484436, -0.029071349650621414, 0.21183112263679504, -0.07071839272975922, -0.4462699890136719, 0.6309697031974792, -0.6644901633262634, -0.6559585928916931, 1.0482536554336548, -1.1719032526016235, -0.45387718081474304, -0.639430582523346, -0.6140187978744507, -0.33546000719070435, -0.8978657722473145, 1.574475884437561, -0.251492977142334, 0.10856074094772339, 0.004023936577141285, 0.08148571103811264, 0.5198560357093811, 0.23307082056999207, 1.245299220085144, 1.160027265548706, 1.1911684274673462, -1.053621530532837, -1.005786657333374, -1.1492375135421753, -2.156071901321411, 0.38636723160743713, -0.6010667085647583, 0.6262596845626831, 0.13753525912761688, -1.7295924425125122, 0.35447126626968384, 0.239714115858078, -0.5369684100151062, -0.12685458362102509, -1.6775224208831787, 1.7573037147521973, -0.854770839214325, 0.4988190531730652, -0.2526889443397522, 2.9035511016845703, 0.9830785989761353, -0.12315735965967178, 1.0420949459075928, 0.33508986234664917, 0.7082757949829102, -0.2459162324666977, -0.6916510462760925, -0.5042035579681396, -0.03428073972463608, -0.4907085597515106, 0.5395935773849487, 0.4176260530948639, 2.6341986656188965, -0.12500303983688354, 1.0818244218826294, 0.7016112208366394, 0.8764184713363647, 3.210230588912964, 0.10679128766059875, 1.1547410488128662, -1.855483055114746, -2.026670455932617, -0.3739573359489441, 2.090545415878296, 0.8644514679908752, 0.7736856341362, 0.2615664303302765, -1.4558556079864502, 0.6586419343948364, -2.8006179332733154, -0.03132088482379913, 0.5331860184669495, -0.2824580669403076, -1.2557475566864014, -2.2622241973876953, 1.2922765016555786, 0.5504922270774841, 0.6775243878364563, -0.15424302220344543, -0.4653990566730499, -0.3642709255218506, -1.199945092201233, -0.15635856986045837, -1.3358087539672852, -0.14863130450248718, 0.027787823230028152, -0.3124336004257202, -2.6745657920837402, -2.3616929054260254, 0.5956087708473206, -1.4659749269485474, 0.8880329728126526, -0.7729198932647705, 1.072236180305481, 0.9458215832710266, -0.15611769258975983, -1.591010332107544, -0.08636771887540817, 0.6138986349105835, 0.652695894241333, 0.020702997222542763, 0.10988931357860565, 0.23495565354824066, 2.777665376663208, 0.6356198191642761, -0.7498833537101746, 0.7239492535591125, 0.5450699329376221, 0.23481819033622742, -0.17270126938819885, 0.5302184820175171, 0.2911200225353241, -0.3184799551963806, 0.771970808506012, 0.4583772122859955, -2.1104540824890137, 3.847520589828491, 0.5330458879470825, -1.21855890750885, 1.1751232147216797, -1.0507148504257202, 1.6224310398101807, -1.516504168510437, 1.3096915483474731, 0.36537766456604004, 1.0423574447631836, -0.057199254631996155, 0.9637591242790222, -0.25861382484436035, 0.7737205028533936, 0.6652078628540039, -2.998595714569092, -0.08662458509206772, -1.0576999187469482, 0.8219936490058899, 0.8320103287696838, -0.3972770571708679, -2.2991881370544434, -4.045668601989746, 1.5039352178573608, 0.0868605300784111, 0.2931266725063324, -1.6564369201660156, -0.27112796902656555, 0.7426599860191345, -2.8889081478118896, 0.08690149337053299, -1.0121737718582153, -0.21919001638889313, 0.5788255929946899, -0.3216980993747711, -2.4602670669555664, -1.604321002960205, 0.6316213011741638, -2.7863590717315674, -1.4684677124023438, -2.5369131565093994, 2.0142061710357666, -1.7203364372253418, -0.06837116926908493, 0.5063677430152893, 1.0500335693359375, 1.6465932130813599, 2.0490379333496094, 1.618765115737915, 0.07864636182785034, -0.8312245607376099, 0.24712377786636353, 2.200300693511963, -1.311507225036621, 1.3069274425506592, -0.012390416115522385, 0.7759405970573425, 2.7050976753234863, -1.7961993217468262, 0.8897023797035217, -1.156798243522644, -1.757192850112915, -0.045928820967674255, -1.4236502647399902, -0.41497644782066345, 0.25470009446144104, -2.4081430435180664, 0.7179688215255737, 0.3810434341430664, -0.54764723777771, 0.07297229021787643, -0.5010809898376465, 0.5398918986320496, 0.6177663207054138, 2.3508007526397705, 1.0331718921661377, -0.9079033732414246, -1.2768800258636475, -0.6540986895561218, -2.102346658706665, 0.36800867319107056, 0.6827574968338013, -0.10556656122207642, -1.2835533618927002, -0.639716386795044, -0.6682738065719604, -0.0833875834941864, 1.0587844848632812, 1.4155261516571045, -1.1073904037475586, 0.9502322673797607, 0.6500123739242554, -0.5045219659805298, 0.193532332777977, -0.19243767857551575, -0.5418401956558228, 0.11607437580823898, -0.4009040594100952, 1.3364629745483398, -0.3531353771686554, 0.44803380966186523, 2.240056276321411, -0.3955046534538269, -0.7279433012008667, -1.1885948181152344, 0.541683554649353, -0.35289305448532104, 0.7190648913383484, 2.5361123085021973, 1.0896315574645996, 1.5974109172821045, 1.9704170227050781, 0.11200856417417526, -1.273158311843872, 0.28491032123565674, -0.9675185084342957, 2.5621583461761475, -1.5217534303665161, 0.9997636079788208, -0.049323443323373795, -0.6719953417778015, -0.9328720569610596, -0.889040470123291, -0.5392028093338013, -0.2667889893054962, 1.2642240524291992, -0.22850991785526276, -2.224438190460205, -0.7763760685920715, 0.20049911737442017, 0.30235016345977783, -0.17733138799667358, -0.09833071380853653, -0.9037312269210815, 0.7413217425346375, 0.9305807948112488, 0.7273378372192383, -0.6614692807197571, -1.530756950378418, 1.1314953565597534, 0.1783456653356552, 0.41497352719306946, 0.199564129114151, -0.23953765630722046, 0.04428621008992195, 0.40395405888557434, 0.5044899582862854, 0.18981216847896576, -0.48854780197143555, 0.3648405075073242, 0.3622124493122101, -0.21496406197547913, 0.14492276310920715, 0.21550673246383667, 0.2987143099308014, 0.6959885954856873, 1.2169535160064697, 1.2537577152252197, 1.6675211191177368, -0.11980269849300385, 1.0495548248291016, 0.2914186716079712, 0.2935725748538971, 0.9807779788970947, 0.908648669719696, 0.7609193325042725, 0.9614561796188354, -0.6040642261505127, 0.763792872428894, -0.18230941891670227, -0.2517252564430237, 1.417500615119934, -0.27672016620635986, 0.8314979672431946, -0.5558236837387085, 0.13393534719944, -0.03593432530760765, 0.14798468351364136, 0.2945099174976349, -0.4158117175102234, 0.07321974635124207, 1.3433120250701904, 0.9265681505203247, 0.07093466073274612, 1.4449865818023682, 0.01248928252607584, -0.9487389326095581, -1.142526626586914, -1.5591357946395874, -0.6195883750915527, -0.6470291614532471, -1.3083258867263794, -1.492851972579956, -1.8683273792266846, -0.19332845509052277, -0.07925038039684296, -2.325798988342285, -2.0185232162475586, 2.338050127029419, 0.8539361953735352, -0.8109922409057617, -3.262227773666382, -0.7386254072189331, -0.05762308090925217, -2.4634554386138916, 0.3575748801231384, -0.4324251413345337, -1.1180918216705322, 0.6232920289039612, -0.2242717146873474, 0.7081465125083923, -0.018852315843105316, -0.5158064365386963, -0.7674048542976379, -0.4421766400337219, -0.4124548137187958, 3.3016951084136963, -0.743061900138855, 0.4414740204811096, -0.08595732599496841, -0.5466492772102356, 0.6438928246498108, 0.9164736270904541, -1.7469395399093628, 0.20707912743091583, -1.497938632965088, -0.6555497646331787, -0.08502455800771713, 1.8929120302200317, 0.6907967925071716, -1.819085955619812, -1.437804102897644, -0.4694591462612152, -3.426638126373291, 0.3846825361251831, 0.021938208490610123, -0.726416826248169, -1.239243507385254, -0.9389479160308838, -0.250546932220459, -0.5307340621948242, 0.9772202968597412, 1.0407741069793701, -1.3393248319625854, 0.7124137878417969, 0.036547962576150894, 1.7543542385101318, 0.2515135109424591, 1.8244459629058838, -0.2506127953529358, 0.05888059735298157, -0.4785904586315155, -0.3707177937030792, -0.4582076966762543, -1.0283526182174683, -0.44919487833976746, -0.34372973442077637, -1.4732991456985474, 0.09404515475034714, 0.7636975646018982, -0.8599048852920532, -0.09767423570156097, -0.1907133013010025, 1.2099720239639282, -0.6045427322387695, -0.056297048926353455, -0.27892956137657166, 1.9901618957519531, -1.314850926399231, 0.29355478286743164, 0.02276788093149662, -0.7091876268386841, 0.7399674654006958, -0.5969801545143127, 0.8042186498641968, 1.0638641119003296, 0.14258451759815216, -0.7583990097045898, 0.824202835559845, -0.3471967577934265, -0.06026875972747803, -1.0503315925598145, 0.7216134667396545, 0.24981914460659027, -0.19092360138893127, 0.3301958739757538, 1.9526795148849487, -1.597041130065918, -0.6032310128211975, -1.139746069908142, -0.9195162653923035, -1.3598650693893433, -0.6146915555000305, -3.440324306488037, -1.3669302463531494, -0.5294464230537415, -1.850058674812317, -2.0991907119750977, 0.2653970718383789, -0.5342236757278442, -0.11036395281553268, -2.050255537033081, -1.128440260887146, -0.8794810771942139, 0.6417565941810608, -1.012154221534729, -0.22030343115329742, -0.5693660378456116, 0.305243581533432, -0.8364777565002441, 0.9984489679336548, -0.31321820616722107, -0.019323071464896202, 0.27846840023994446, 0.4049084484577179, -0.05545167624950409, -0.6374865174293518, 0.8632090091705322, -0.6844038367271423, -0.6109758019447327, 0.3425898253917694, -0.9664299488067627, 0.33339571952819824, 0.33331412076950073, 0.02703002281486988, -0.15176230669021606, -0.44751420617103577, 1.3758525848388672, -0.02604471519589424, 0.20736098289489746, 0.22614189982414246, 1.6576181650161743, -1.9954369068145752, -0.02227887511253357, -0.07347904145717621, 1.0114595890045166, -0.28331896662712097, -0.3660779297351837, 0.6018171906471252, 0.24215391278266907, -0.7402950525283813, 0.353737473487854, 1.2915513515472412, -1.3821525573730469, 0.24923178553581238, -1.0520272254943848, 0.6142596006393433, -0.016997316852211952, -1.1371210813522339, -0.1839824616909027, 1.4254117012023926, -1.6214865446090698, -2.3548970222473145, -1.6291227340698242, -2.6555190086364746, -2.1854522228240967, -1.3090603351593018, -5.322584629058838, 0.1060832142829895, -0.4261884391307831, -2.3213374614715576, -0.45088279247283936, 0.5419822931289673, -0.5398035645484924, 0.30518290400505066, -2.084285020828247, 1.544221043586731, -0.5863393545150757, -0.16123931109905243, -0.21384268999099731, 0.5144093036651611, 0.6388176083564758, -1.2895138263702393, 0.18222728371620178, -2.3172593116760254, 0.39073994755744934, -1.0593116283416748, -1.2669522762298584, -0.05667174980044365, 0.7793347239494324, -0.7987015247344971, 0.21237187087535858, -0.33412954211235046, 0.8650512099266052, 0.06527426093816757, -1.8387118577957153, 0.4776858687400818, 0.7624237537384033, -0.1819055676460266, 0.025722768157720566, -0.28981566429138184, 0.6556689143180847, -1.7448762655258179, -0.6763806343078613, 0.24785815179347992, 2.591533660888672, -0.44601643085479736, -0.834534227848053, -1.5227237939834595, 0.5781897306442261, -0.5978032946586609, -0.08615390956401825, 0.7274650931358337, 0.10193485766649246, -0.7113857865333557, -1.44691801071167, 1.897930383682251, 0.4246934950351715, -0.6927090287208557, -1.1447186470031738, -0.5347533822059631, 1.0328774452209473, 0.4621851146221161, -0.06943267583847046, 0.8274329304695129, 0.7829517722129822, -0.7841813564300537, -1.2964633703231812, -2.286616563796997, -3.4170072078704834, -0.5284931659698486, 0.48922282457351685, 0.3252626359462738, 1.3536850214004517, -0.7410536408424377, 0.8489404916763306, 0.6627438068389893, 0.11181826889514923, -0.3411618769168854, -0.9834315776824951, 1.5445425510406494, -0.07179364562034607, -0.10634715110063553, 0.6919000744819641, 0.06796728074550629, -0.6160396337509155, -0.13888756930828094, -0.19722507894039154, -5.130043983459473, -0.11681651324033737, -0.42980653047561646, -1.5988763570785522, 0.06716818362474442, 1.0867412090301514, -1.3311713933944702, 0.03488313406705856, -0.6320317387580872, 0.055416643619537354, 0.9966874718666077, -1.7223005294799805, 0.6854157447814941, 1.7159382104873657, 0.07479756325483322, -0.18599525094032288, -0.5924285650253296, -0.4856403172016144, -1.7596166133880615, -0.4209667444229126, 0.7959880232810974, 1.3014914989471436, -0.49221137166023254, 0.7273148894309998, -0.14114148914813995, -0.137388214468956, 0.5204290747642517, -0.0076094199903309345, 0.4088662266731262, -0.3560117483139038, -0.773844838142395, 0.6631112098693848, 1.806417465209961, 0.6690755486488342, -0.7292890548706055, -1.8538861274719238, -0.787750244140625, 2.0278878211975098, 0.5929676294326782, -0.8657046556472778, 0.8750877976417542, -0.6278092861175537, -0.09247563779354095, 0.9415015578269958, -1.7873696088790894, -2.6930434703826904, -0.8726692199707031, 2.466897487640381, 0.3774608075618744, 1.2581068277359009, -0.8887925744056702, 0.0320027731359005, -4.177511692047119, -0.5630587339401245, 0.7291122674942017, -0.2385031133890152, -1.1685134172439575, 0.5764575600624084, 1.2737630605697632, 0.29641732573509216, 0.03060668706893921, -0.70125812292099, 1.4631686210632324, -0.10591794550418854, 0.7907816767692566, 0.04947387054562569, 0.4213718771934509, -0.5770816802978516, -0.38790977001190186, 0.6711661219596863, -2.454188585281372, -0.37211158871650696, 1.079110026359558, -0.4166969060897827, -2.6829943656921387, -0.28143510222435, 1.7248878479003906, 0.6096124053001404, 0.6092200875282288, -0.3160293698310852, 0.7276380658149719, -2.467154026031494, -1.3004215955734253, -1.006562352180481, 0.10902741551399231, 0.45327258110046387, 0.6347932815551758, 0.01884014904499054, 0.6104068756103516, 0.029800742864608765, -0.42531102895736694, 1.7835745811462402, 0.3274756073951721, -1.8341363668441772, -1.6010016202926636, 0.575941264629364, 0.7849694490432739, -3.5644168853759766, 1.0867847204208374, -0.03836454078555107, -1.2601356506347656, 2.441664218902588, -0.3064635396003723, 0.015010286122560501, -1.7872192859649658, -1.363673210144043, 0.6924694180488586, 1.4535508155822754, -1.6645351648330688, 0.06775536388158798, -0.4748486876487732, -0.21566735208034515, -0.29200151562690735, 0.3666922450065613, 0.24650631844997406, 0.23007673025131226, -0.9155557155609131, 0.6229009628295898, 1.508416771888733, -0.8451228141784668, -3.759901762008667, -0.2437172681093216, -0.8633633255958557, 0.06958755850791931, -0.3743874728679657, -2.0153822898864746, 0.03376619145274162, -0.029462575912475586, 2.053809404373169, -1.2176028490066528, 1.1623426675796509, -0.08861248940229416, -0.22041793167591095, -0.32803258299827576, -0.5702996850013733, 0.392802894115448, 1.5563024282455444, -0.03663656488060951, -3.621685743331909, 1.1382992267608643, 0.6453343033790588, -0.15833428502082825, 1.0272372961044312, -2.241729736328125, -0.5475138425827026, -1.6975839138031006, 0.5827047228813171, -0.2882966697216034, -0.7673978805541992, 0.7230343818664551, 1.7231324911117554, 0.483111172914505, 0.8534952402114868, -0.9341213703155518, -0.017875637859106064, 0.998540997505188, -0.19196085631847382, -1.0190249681472778, -1.1662263870239258, -0.27004474401474, -0.8003256320953369, -0.1908014416694641, 2.740354061126709, 1.1282827854156494, -0.292602002620697, 0.8895060420036316, 1.0146657228469849, 1.8388516902923584, -1.019392728805542, -0.06403497606515884, 1.3028608560562134, -2.7220277786254883, -0.530491828918457, 0.37884271144866943, 0.6953275799751282, -1.3036434650421143, 0.2977924346923828, 0.5334182977676392, -0.6664275527000427, 0.3775145709514618, 2.5218453407287598, -0.38528120517730713, -0.7705348134040833, -0.8401359915733337, -2.06951904296875, -0.32640188932418823, -2.3026249408721924, -0.5382513999938965, -0.4328397512435913, 1.2656265497207642, -2.8985238075256348, 0.12601903080940247, -0.7158832550048828, 0.19352519512176514, 0.6985702514648438, -0.8240799903869629, -0.23572863638401031, -0.22449594736099243, 0.12600605189800262, 0.40886539220809937, 1.0921270847320557, -0.4716956615447998, 0.5838835835456848, -0.22344008088111877, 0.9843133091926575, 0.7572569847106934, 0.22430519759655, -2.323671340942383, -0.7359253764152527, 0.39572980999946594, -2.0288844108581543, 0.3083150386810303, -1.175315022468567, 0.39556431770324707, 0.9954496026039124, 1.4769935607910156, 0.6378194093704224, -1.0049501657485962, 0.4877658188343048, 0.611409068107605, 0.23677347600460052, -0.5008006691932678, -0.24038474261760712, -0.04531216621398926, -2.0446743965148926, 1.5141509771347046, 1.4384478330612183, 1.4475131034851074, -0.1078978031873703, -0.26419854164123535, 2.586958646774292, 0.10553620755672455, 0.6237548589706421, -0.3112626075744629, 0.8416194915771484, -1.8482556343078613, 0.027849862352013588, -0.43371105194091797, 0.20340748131275177, -0.6252149343490601, -0.928519070148468, -0.6251523494720459, 0.39308181405067444, 0.43852296471595764, 0.1126541942358017, -1.06086266040802, 0.08422832190990448, -0.7574889659881592, -0.9002947211265564, -0.1719626486301422, -3.154489755630493, -0.2805269956588745, -0.766139805316925, 4.6327433586120605, -0.6120144724845886, 0.3744809925556183, -1.1939771175384521, 0.42969945073127747, 1.0698089599609375, -1.669284462928772, 0.1410791426897049, -0.05521499738097191, 1.0108587741851807, -0.48509666323661804, 0.8006049990653992, -1.3148751258850098, 1.6313753128051758, -0.8504548668861389, 0.558271586894989, 0.410742849111557, -0.6168508529663086, 1.9016183614730835, 0.5384301543235779, 0.8878679871559143, -1.1202431917190552, 0.5041381120681763, 0.5188470482826233, 0.2578290104866028, 0.2193753868341446, 0.4106512665748596, -0.4533011019229889, -1.8665544986724854, 0.5984998941421509, -0.7630475759506226, 0.4146893620491028, -0.9067112803459167, 0.3585626482963562, 0.07685018330812454, -1.6483957767486572, 0.2996670603752136, -0.44790154695510864, -0.03882763907313347, -0.5755152106285095, -0.19891154766082764, 1.7143462896347046, -0.5957690477371216, 1.027513027191162, -0.17253635823726654, 0.17725332081317902, -0.5006054043769836, 0.3174118995666504, -1.6291377544403076, -1.4272255897521973, -0.4545680582523346, -0.1643812656402588, 0.2552112340927124, 0.3736715316772461, 1.010306477546692, -0.2717522978782654, -0.31422796845436096, 0.4551889896392822, -1.0819379091262817, -0.6168319582939148, -0.04500895366072655, -1.0316654443740845, -0.5976623296737671, -0.4622838497161865, 5.208859443664551, 1.5471550226211548, 0.5187242031097412, -1.1307283639907837, 0.2545362114906311, 1.4638469219207764, -1.1142773628234863, -0.7645808458328247, 0.7123778462409973, -0.8858122825622559, -0.45276689529418945, -0.9294323921203613, -1.3983527421951294, 2.3789491653442383, -0.11091598123311996, 0.6269294619560242, 0.45250096917152405, -1.0536963939666748, 6.416566371917725, 0.19572266936302185, 0.9916479587554932, -0.4583982825279236, -0.024155156686902046, 1.0850404500961304, 0.5812439918518066, 0.4574654698371887, -0.17326851189136505, -0.2478540688753128, -1.5777091979980469, 0.19025087356567383, -2.846646785736084, 0.6353668570518494, -0.19144338369369507, 0.3437230587005615, -0.23691436648368835, -1.5330283641815186, -0.6971678733825684, 0.6022641658782959, 0.6254324913024902, 0.033423926681280136, -0.9129568934440613, 0.2302955687046051, -2.598503828048706, -0.552113950252533, 0.40196728706359863, 0.017275305464863777, 0.07128386944532394, 1.1225817203521729, -0.2705439329147339, -1.456676721572876, 0.6468185782432556, -0.4137100577354431, 1.4629842042922974, -1.0561659336090088, 5.10360860824585, -0.8534879684448242, 0.27147406339645386, 0.35314393043518066, -0.34620895981788635, -0.7026793360710144, 1.4408347606658936, -1.4868828058242798, 0.5438490509986877, 0.11638662964105606, -0.15922275185585022, 0.5556299686431885, 0.13522909581661224, -0.8580432534217834, -0.968157947063446, -0.6891918182373047, -1.7885297536849976, 0.7856478691101074, 0.8115092515945435, -2.5365793704986572, -0.15482571721076965, -2.099228858947754, -2.60970139503479, 4.717274188995361, -0.31018751859664917, 0.9655560851097107, -0.5933877825737, -1.3586339950561523, 2.7985782623291016, 0.6013075709342957, -0.18207360804080963, -1.9891576766967773, 0.8742992877960205, 1.4056003093719482, -1.3401453495025635, 0.20562395453453064, 2.010181188583374, -0.20180049538612366, -2.6474833488464355, 2.121020555496216, -2.9516618251800537, -0.3760964572429657, -0.7949103713035583, 0.8088590502738953, -0.43435078859329224, -4.490442276000977, -1.3324556350708008, 1.9622533321380615, -0.42930158972740173, -0.4579463601112366, -1.1501965522766113, 1.8793978691101074, -2.025491952896118, 0.12914443016052246, -1.346360445022583, 0.33293190598487854, -0.2984755337238312, 1.2892484664916992, -2.7742390632629395, -0.06412038952112198, 2.7251594066619873, -2.44901442527771, 0.7934346795082092, -1.1570420265197754, 4.09194803237915, -2.1422476768493652, -1.0707260370254517, 2.539815664291382, -0.5687689781188965, -0.19522392749786377, 1.3213924169540405, 0.7960732579231262, 0.2377832978963852, -2.462212562561035, 1.0026681423187256, -2.0816118717193604, 0.6149067282676697, 1.0664622783660889, -0.3674881160259247, -0.17021648585796356, -0.5633105635643005, -0.4633494019508362, 0.5398799180984497, -1.4538570642471313, 0.6810247302055359, -1.5559037923812866, -1.6972142457962036, 0.41353100538253784, 0.6001603007316589, -1.1215814352035522, 0.022343279793858528, -0.20725129544734955, -0.2083786576986313, -0.3543885052204132, -0.31532326340675354, -0.370952844619751, -0.036751531064510345, 2.199836254119873, 0.5626158714294434, -0.6463196277618408, 0.07092167437076569, -0.6068159937858582, -1.7501187324523926, 0.058350443840026855, -0.33118146657943726, 0.7336325645446777, -1.518724799156189, 0.8482533693313599, -0.8995288610458374, -0.6173136234283447, -0.1460469514131546, 0.8144327402114868, -0.18432895839214325, -0.05434196814894676, -0.6621569395065308, -0.05423395335674286, -0.17543727159500122, -0.5713263154029846, -0.06023353338241577, 0.7760623097419739, 0.8376060724258423, -0.4332444369792938, -0.47691231966018677, 0.44170135259628296, 2.338554620742798, -1.001626968383789, -0.9740127325057983, -0.2434191107749939, 0.08045654743909836, -0.31993523240089417, -0.37484338879585266, 2.3130295276641846, 0.930120587348938, 0.5775757431983948, 0.1758711338043213, 1.7190407514572144, -0.7720893621444702, 0.2977258563041687, -1.0450948476791382, 0.4706461727619171, 1.174787163734436, 1.5009464025497437, 0.024700455367565155, -0.7141911387443542, -0.13693095743656158, -1.8063560724258423, 0.6617540121078491, 0.47565001249313354, 1.329474925994873, 0.41792842745780945, -1.2705684900283813, -1.6632596254348755, -0.4233514368534088, 0.5251711010932922, 0.014962634071707726, -0.7849457263946533, -0.8468778133392334, 0.754551112651825, 1.8291332721710205, 1.1810944080352783, -1.0806899070739746, -1.6857560873031616, 0.46913325786590576, 0.38033926486968994, 0.4681553244590759, 0.7868953347206116, 0.05809054151177406, -0.6724058985710144, 0.37457287311553955, 0.16374154388904572, 1.1239194869995117, -0.17181849479675293, 1.1541333198547363, 0.7988938689231873, -0.32154712080955505, 0.11314067244529724, -0.15183179080486298, 0.02066085860133171, 0.9625182151794434, 0.5190191864967346, 1.3766403198242188, 0.8699631690979004, -0.01502823643386364, 1.116297960281372, 0.805276095867157, 0.3382394015789032, 0.5812779664993286, 0.48178309202194214, 0.6165089011192322, 0.7004823088645935, -0.5372170805931091, 0.443063348531723, 0.09725384414196014, -0.310985267162323, 0.6910532712936401, -0.31962767243385315, 0.6482712626457214, -0.3735038638114929, -0.10376043617725372, -0.42998453974723816, 0.5434660315513611, 0.2657659649848938, -0.2001088261604309, -0.09244593232870102, 1.739945411682129, 1.122476577758789, 0.13341309130191803, 2.102703094482422, 0.6207585334777832, -0.23112072050571442, 0.7625301480293274, 0.9658792614936829, 0.7068741321563721, -0.04956845939159393, -1.2271735668182373, -1.5793266296386719, -1.6179192066192627, -1.6266448497772217, 0.4027819037437439, -0.902879536151886, -1.0433268547058105, 1.6155811548233032, 0.41138553619384766, 0.21101830899715424, -3.03528094291687, -1.5605465173721313, -0.43894216418266296, -1.673119068145752, 0.08094549924135208, -0.5177001953125, -0.4561704397201538, -0.42983365058898926, -1.353145956993103, -1.9629870653152466, 0.27546995878219604, -0.6304563879966736, -0.22835347056388855, 0.26252683997154236, -0.906973123550415, 2.957514762878418, -3.540371894836426, 2.1881351470947266, 1.8092094659805298, -0.29571104049682617, -1.1793032884597778, 1.0631126165390015, -1.704124927520752, -0.7750298976898193, -0.18217751383781433, 1.8214194774627686, -1.1436090469360352, -0.7739320993423462, 0.7153980731964111, -1.6541647911071777, -1.8284629583358765, -0.8549778461456299, -1.20723557472229, 0.2066935896873474, 0.2874389588832855, -0.32718852162361145, -1.4188623428344727, -3.8311498165130615, 0.16614395380020142, 0.6057564616203308, 0.7831869125366211, -1.3657703399658203, -0.05677327141165733, -0.466322660446167, 0.8212853074073792, 1.9010478258132935, -0.09114382416009903, 1.0252771377563477, 1.0289347171783447, -0.09565624594688416, 0.5233717560768127, 1.13395094871521, -0.8168967366218567, -0.9218534231185913, -0.2810322642326355, -0.3484334349632263, -1.8285011053085327, -0.09643052518367767, -0.17961880564689636, 0.5759357213973999, 2.2588627338409424, 0.5269743204116821, -1.4673376083374023, 1.293899655342102, -0.6016407012939453, 0.561532735824585, 0.7193081378936768, 0.10620812326669693, -0.2873932421207428, -1.6295207738876343, -0.4384012818336487, 0.5314207673072815, -1.1069437265396118, 0.11104639619588852, -0.10276126116514206, 0.6707942485809326, 0.5261316895484924, 1.2035744190216064, -1.264489769935608, 0.38056445121765137, -3.8526194095611572, 1.912916660308838, 1.341070532798767, 0.11758989095687866, -1.446172833442688, 1.3388124704360962, -1.9239391088485718, -0.27057045698165894, -1.2902641296386719, 0.41530200839042664, -0.7328419089317322, -1.5410988330841064, -4.0629191398620605, 1.077446699142456, -0.460260808467865, -1.566211223602295, -0.2693018317222595, -0.8497500419616699, 0.8588029146194458, 1.115158200263977, -0.5686246752738953, -0.7191506624221802, -1.0483087301254272, 0.22084860503673553, -1.1250654458999634, 0.08889511227607727, -0.6878472566604614, -3.5638320446014404, -0.5884595513343811, 0.0054922085255384445, 1.1424285173416138, -0.8721562623977661, 0.6473793983459473, 0.19339556992053986, -0.2176613062620163, 1.1805150508880615, -0.8375582695007324, -1.3569855690002441, 0.8200052976608276, 0.14630450308322906, -0.7137954235076904, -0.07849431782960892, 0.08861786872148514, -0.21150118112564087, 2.9777026176452637, 1.0419491529464722, -1.596216082572937, 0.5102114677429199, -0.23455458879470825, -0.5564062595367432, 0.04124163091182709, -0.18731848895549774, 0.12994427978992462, -1.0700619220733643, 0.7900596261024475, 0.1710824817419052, -0.5935595631599426, 1.0960114002227783, 1.1597919464111328, 0.2649069130420685, -0.2719903588294983, 0.13354571163654327, -1.556848406791687, -0.5246403217315674, -3.6860249042510986, 2.160717725753784, 1.4181132316589355, 1.139005422592163, -2.0529606342315674, 1.3102551698684692, -2.190065622329712, 0.7940210103988647, -1.8764212131500244, -0.20477145910263062, -1.3276126384735107, -1.6066826581954956, -2.319622755050659, 0.2791202664375305, -0.6718735694885254, -0.41786161065101624, 1.08037531375885, 0.8575552105903625, -0.9846050143241882, 1.7381597757339478, 0.1964958757162094, 2.5675201416015625, -0.10682706534862518, 0.2912597358226776, -0.9584516882896423, 0.9388110041618347, -0.1305086761713028, -2.8849310874938965, 0.26948869228363037, -2.478780746459961, -0.24791066348552704, -0.7422528266906738, -1.6119877099990845, 0.45764434337615967, -0.20742398500442505, -0.3290255069732666, -0.6250309944152832, -0.4293406009674072, 0.5911566615104675, -0.8344724774360657, -0.2338598072528839, 0.1621752381324768, 2.0386033058166504, -0.40909895300865173, 1.4396133422851562, -0.22555311024188995, -0.923496663570404, -0.8440909385681152, -0.9725585579872131, 0.17306427657604218, -1.3405754566192627, -0.05306375399231911, 0.40710246562957764, -2.4591832160949707, -1.2534840106964111, 0.8419750928878784, -0.8181672096252441, 0.7927539348602295, 2.023808002471924, 1.7671526670455933, -0.5148842334747314, -0.09204438328742981, -0.0499579943716526, -0.695229172706604, -3.090904712677002, 1.6061630249023438, 2.910248279571533, 2.3379669189453125, -0.7050074934959412, 1.7572449445724487, -0.5509063601493835, 0.05036049708724022, -0.27997103333473206, 0.6046042442321777, -1.6494776010513306, 0.6693810820579529, 1.3687565326690674, 0.5184589624404907, 0.5280061960220337, -1.8485358953475952, 1.3125468492507935, 1.6095467805862427, -0.22700224816799164, 0.5161827206611633, 0.047768112272024155, 1.7434130907058716, -0.02370552159845829, 0.44827350974082947, -0.5503146052360535, -0.011166012845933437, -1.4155926704406738, -1.2135677337646484, 0.2442038655281067, -1.8554288148880005, -0.3967042863368988, -0.6325172185897827, -1.6421735286712646, -0.27250024676322937, -0.015192165970802307, -1.9992674589157104, -1.5634167194366455, -1.8548481464385986, -0.8443647027015686, -0.6368305087089539, 0.2337050884962082, 0.6950631737709045, 2.0783140659332275, -1.0795633792877197, 0.13992354273796082, 0.31595906615257263, -0.19036191701889038, -0.07089707255363464, -0.6237426400184631, 0.4114078879356384, -1.3875255584716797, -0.8500124216079712, 1.0262720584869385, 1.2788982391357422, -1.5855664014816284, 0.7453595399856567, -0.9909499883651733, 1.7435908317565918, -0.47781893610954285, 4.145669460296631, -0.015510628931224346, -2.0061211585998535, 0.603574275970459, -1.9878697395324707, -2.8773438930511475, 2.8501315116882324, 2.5829813480377197, -0.06502138823270798, -0.2892003357410431, -0.5135125517845154, -2.0634946823120117, 0.05201592296361923, 1.7566618919372559, 1.4783169031143188, -1.2265722751617432, 0.8374015092849731, 1.9507920742034912, 1.4041774272918701, 0.3642098009586334, -0.24049951136112213, -1.1139843463897705, -2.513798475265503, -0.2132236361503601, 0.778632402420044, -0.1515815109014511, -0.6147617101669312, -0.9356656670570374, 2.35260009765625, 1.5964243412017822, -0.5357006192207336, -0.6401489973068237, -0.7936506271362305, 0.7556251883506775, 1.0824650526046753, -0.37294459342956543, -0.17687977850437164, -1.4256947040557861, 0.8409063816070557, -1.2806049585342407, -3.0928661823272705, -0.9070737361907959, 0.5497716665267944, -1.668650507926941, -2.3872461318969727, -0.3344438076019287, 1.407457947731018, -1.2080202102661133, -2.4652585983276367, 0.462456077337265, -1.1548068523406982, 0.938382625579834, 1.3549941778182983, -0.9061117172241211, -0.22206293046474457, -1.3290141820907593, -0.0041473619639873505, 0.6777438521385193, 1.1806508302688599, -0.7588567137718201, -1.4054622650146484, 0.009667927399277687, 0.15069139003753662, -1.3985357284545898, 3.7078046798706055, 0.35383787751197815, -1.526777744293213, -2.680299997329712, -1.5944132804870605, -0.6952976584434509, 0.6217004060745239, 2.2419631481170654, -1.15052330493927, 1.3814146518707275, -2.1644740104675293, -0.5995970368385315, 0.9973534941673279, 2.2419850826263428, 2.1571860313415527, 0.38496604561805725, 0.2032281458377838, -0.0698961615562439, -0.2513687312602997, -0.05167488381266594, -1.8522000312805176, -2.2081336975097656, -0.5624772906303406, 0.8509008884429932, 2.048602819442749, -1.8434962034225464, -1.2257252931594849, -1.793692946434021, 1.1594469547271729, 1.7728575468063354, 1.9240515232086182, -2.2321250438690186, -2.5196590423583984, -0.37831246852874756, 1.587469458580017, -0.4223466217517853, 0.7879873514175415, -0.34716281294822693, 0.9792699813842773, -1.8815034627914429, 1.970566749572754, 0.4273211359977722, 0.5441281199455261, 0.9595120549201965, -1.168379783630371, 0.07196520268917084, 1.7508039474487305, -0.8645866513252258, -0.7398570775985718, -2.029550313949585, -1.6543948650360107, 1.6661521196365356, 2.2789337635040283, -1.1452759504318237, 0.5082644820213318, -0.09309055656194687, 0.8557254672050476, 0.7161034941673279, 0.23142261803150177, -0.27549225091934204, -0.8354365229606628, -0.584911048412323, -0.05539257079362869, 0.23941902816295624, 1.6855299472808838, 0.7061894536018372, 1.2208229303359985, 0.8463761806488037, 0.2857953906059265, -0.35302838683128357, -0.5744171142578125, 0.6437719464302063, -0.013804381713271141, 3.129488468170166, 0.0005800954531878233, -0.3038314878940582, 0.13520601391792297, -2.1779274940490723, 1.459453821182251, 0.26575565338134766, -0.33916527032852173, -2.078845739364624, 0.6518383026123047, 0.16730086505413055, -2.0896878242492676, -1.6716440916061401, 1.9549834728240967, 0.1603536456823349, 0.8554549813270569, -0.9698671698570251, -0.5388893485069275, -2.727017879486084, -0.28872790932655334, 0.13233302533626556, 0.8672348856925964, 2.2256572246551514, -3.568631410598755, 0.015048917382955551, 0.21409429609775543, -1.2512071132659912, -0.012546788901090622, -0.9107345938682556, 0.3870186507701874, -0.21837930381298065, 2.2890138626098633, 1.5731030702590942, -0.3091673254966736, 0.774683952331543, 1.3128801584243774, 0.468736857175827, 1.0079060792922974, -0.30910882353782654, -1.1186516284942627, -2.5681521892547607, -0.05065726488828659, 1.5970131158828735, -0.900885820388794, 0.9752122759819031, 0.1799611896276474, -0.05747801437973976, -0.9758447408676147, -0.1529587358236313, -0.7420523762702942, 1.552112102508545, 0.054012466222047806, 2.9227311611175537, 0.21471600234508514, 1.3379693031311035, 0.9573104381561279, -1.3326919078826904, 2.0254504680633545, 1.054634690284729, 1.377717137336731, -0.39590537548065186, -0.5166431665420532, -0.1375611573457718, 0.5640356540679932, -0.004987876396626234, 0.07259179651737213, -0.5007415413856506, -0.4741427004337311, 0.5641590356826782, 0.9214466214179993, -0.9159214496612549, -0.10241848230361938, -0.17823158204555511, 0.46381911635398865, -0.6637982130050659, 0.2367086261510849, 0.9027436375617981, -1.0015016794204712, 0.1865355521440506, 0.35149484872817993, -0.4125997722148895, -0.06390803307294846, -5.317935466766357, 0.021749570965766907, 1.2390053272247314, -0.7115946412086487, 3.4037885665893555, 0.5740792155265808, 0.9901453256607056, 0.20697323977947235, -0.5677443146705627, -0.3929199278354645, -0.47222667932510376, 1.0110079050064087, 0.9197472333908081, 1.7979905605316162, 1.0608646869659424, 0.850735068321228, -0.5735114812850952, 1.6821187734603882, 0.13991214334964752, 1.2665867805480957, -0.046968307346105576, -0.6222875118255615, 0.7350977659225464, 0.15750081837177277, 0.3927294611930847, -0.27301689982414246, 0.9356603026390076, -0.3220149278640747, 0.8450713753700256, -0.2926960587501526, -1.1165097951889038, -0.32811954617500305, 0.5367261171340942, -0.22072450816631317, 1.791808843612671, 0.18999145925045013, 1.1188101768493652, 0.792746365070343, -0.1968759447336197, 0.28961244225502014, -1.5017238855361938, -1.0897775888442993, 0.5472472310066223, -0.4527151584625244, -0.011240384541451931, -0.21041905879974365, -2.5541975498199463, 0.9819058179855347, -0.3364904224872589, 0.5788296461105347, 1.0614488124847412, 0.6647021770477295, -0.3892678916454315, -0.45394366979599, -1.5386278629302979, 1.7302619218826294, 0.9763205051422119, 0.7988881468772888, 2.1340670585632324, -1.825439691543579, -1.4477403163909912, -0.2098497450351715, -0.40503066778182983, 0.2365160435438156, -7.128673076629639, -0.37076330184936523, 0.493385374546051, -1.5280648469924927, 0.6181988716125488, 2.158848524093628, -0.19741956889629364, -1.4783580303192139, 0.3643994629383087, -0.07626081258058548, -1.0348749160766602, -0.5366190075874329, 1.120190143585205, 2.523857355117798, 0.3881394863128662, -0.8970018029212952, -0.6068407297134399, 0.9381586313247681, -0.12128633260726929, 0.6124032735824585, -0.824827253818512, -0.04586934670805931, 3.435291051864624, 0.46795472502708435, -0.891595184803009, 0.19261786341667175, 0.6448052525520325, -1.03384530544281, 0.7375609874725342, -0.07037750631570816, 0.7400761246681213, -0.49570542573928833, 0.7024569511413574, -0.7051799297332764, -3.2915031909942627, 0.564003050327301, 0.7747008204460144, 1.5541249513626099, -0.540865421295166, -0.22373239696025848, -0.428420752286911, -1.9565497636795044, 0.4021410346031189, 0.14318743348121643, -2.490654468536377, 0.13620895147323608, -2.033385753631592, 0.7209476828575134, 1.3860903978347778, 0.01796574890613556, 0.741127610206604, 0.39635568857192993, 0.6141742467880249, 1.2321535348892212, -0.6644492745399475, 0.12133239954710007, 1.287142038345337, -0.4626952111721039, 6.3821916580200195, -1.7386877536773682, -1.3678879737854004, 0.5204303860664368, -2.4044668674468994, 1.441377878189087, -6.869661808013916, -0.5358725786209106, 0.7440153360366821, -0.36170700192451477, -2.062838315963745, 0.664069414138794, -0.5029513835906982, -0.5259435176849365, -0.5585968494415283, -2.0294508934020996, -0.996038556098938, 1.0006152391433716, 0.31085214018821716, -1.1034822463989258, 0.6963545680046082, -1.7916914224624634, -1.7034516334533691, 1.2149053812026978, -0.260983407497406, -1.260396957397461, -0.21590034663677216, 0.4303475618362427, 2.149325132369995, 0.23585940897464752, -0.8940226435661316, 0.006080410443246365, 1.1978555917739868, -0.2857310473918915, -0.8451244235038757, 0.3733685314655304, 2.8675382137298584, -1.396616816520691, 0.24684473872184753, -0.3808344006538391, -2.800826072692871, -1.3198390007019043, 1.1157516241073608, 1.238755702972412, 2.09743595123291, -1.0784947872161865, -1.7308416366577148, -0.315019816160202, 0.5888503193855286, -1.2018861770629883, 0.6524945497512817, 1.6289218664169312, -1.0327997207641602, -0.3006786108016968, 1.215647578239441, 0.36057746410369873, 0.7636825442314148, 2.391369342803955, -0.6976830959320068, 0.19298015534877777, 0.74689120054245, 0.4956281781196594, -0.8417568802833557, -2.663407564163208, 3.303539276123047, -1.4494082927703857, -0.8792358636856079, 1.3329122066497803, -2.0390288829803467, 2.8962955474853516, -5.349371910095215, 0.823252260684967, 0.42197906970977783, -2.7161922454833984, 0.7979006171226501, -0.8496063947677612, 0.6580220460891724, 1.574409008026123, -0.4646380543708801, -0.6236642003059387, -0.7451143264770508, -0.8433765172958374, 2.115636110305786, -1.5529056787490845, -0.6243772506713867, -1.4739208221435547, -1.6412789821624756, 0.020189207047224045, -0.29962071776390076, 0.4117199182510376, -0.0714992955327034, -0.07523118704557419, -0.38906410336494446, -1.946960687637329, -0.7684206366539001, 0.5224277973175049, 1.1325434446334839, 2.0911548137664795, -0.22799675166606903, -0.46182045340538025, 2.1062326431274414, 0.3303995728492737, -0.8312911987304688, -0.6592573523521423, -0.24948032200336456, 0.5654405951499939, 1.5419420003890991, 1.0204503536224365, 0.2890026271343231, -0.3290587365627289, -0.3395698070526123, 0.9098097681999207, -0.6212705373764038, -0.5514135360717773, -0.2540508806705475, 1.0113701820373535, 0.5428757071495056, -0.6748353838920593, -0.013929898850619793, 1.9060418605804443, 0.9902909398078918, 2.424708843231201, -0.28769853711128235, -1.6574645042419434, 1.5774511098861694, -0.7418476939201355, -0.1026669442653656, -0.5312407612800598, -0.43858757615089417, -0.35383838415145874, -0.6068792939186096, 2.077101469039917, -1.0107030868530273, 0.9917683601379395, -0.4446509778499603, 0.5210967063903809, 0.11303942650556564, -1.9324625730514526, 0.8564728498458862, -0.28836482763290405, 0.9921393394470215, 1.064735770225525, -0.5459991693496704, -0.17098844051361084, -0.03150290250778198, -1.0791221857070923, -0.006765046156942844, 0.09976842254400253, 1.6494622230529785, 0.5911238193511963, -0.516444206237793, -2.3778491020202637, 0.46517765522003174, -0.16908223927021027, 0.24017935991287231, 0.1349804699420929, -0.6110878586769104, 0.5054075121879578, 1.4874025583267212, 1.3139902353286743, -1.0117512941360474, -1.1037484407424927, -0.02787248231470585, -0.4210411608219147, 0.6590381264686584, 0.4027383625507355, -0.1706061214208603, -0.70182865858078, 0.900326132774353, 0.47726455330848694, 1.3812400102615356, 0.7041186690330505, 0.12276475876569748, 1.6536840200424194, -0.6892088651657104, 0.0574624240398407, 0.34099945425987244, 0.6996126174926758, 0.7302215695381165, 0.40716099739074707, 1.6614155769348145, 0.2281048446893692, -0.08544149249792099, 0.6788345575332642, 0.6446866989135742, 1.8939976692199707, 0.7176072597503662, -0.08751144260168076, 0.47738707065582275, 0.5445995926856995, -0.7233220934867859, 0.5281723141670227, -0.29295089840888977, -0.3233751952648163, -0.12976936995983124, -0.4503663182258606, 0.12562738358974457, -0.580845832824707, 0.39141061902046204, 0.23397843539714813, 0.02527233585715294, 0.13769657909870148, -0.40791696310043335, -0.5093997716903687, 0.43605121970176697, 1.066354751586914, 0.2304695099592209, 3.03501558303833, -0.7026089429855347, 0.5732457637786865, 1.3070069551467896, 1.1888220310211182, -0.6762658953666687, 0.3844270408153534, 0.3416115343570709, -2.6346869468688965, 0.35410577058792114, -1.241367220878601, 0.5796080827713013, 0.9272165894508362, 2.5944228172302246, 0.12000799179077148, -0.26313576102256775, -0.598776638507843, -1.2973334789276123, -1.752537488937378, -2.1456339359283447, 0.6168102025985718, 2.061124086380005, -1.1264148950576782, 0.09938903898000717, -1.6065967082977295, -2.1792314052581787, -1.221927285194397, 1.329367995262146, 1.6629812717437744, -1.0380722284317017, 0.6697083711624146, -0.40652236342430115, 1.7016222476959229, -1.375722885131836, 1.6647316217422485, 2.0859336853027344, 0.7187528014183044, -1.5181636810302734, 0.7038594484329224, -0.8479470014572144, -0.381866455078125, 0.33473220467567444, 2.498534917831421, -0.16489437222480774, -2.4197874069213867, 0.00281706266105175, 2.0853288173675537, -1.1646761894226074, -0.671667218208313, 0.045795172452926636, -0.046059221029281616, -0.8020140528678894, -0.6540632843971252, -0.1263243854045868, -4.973001003265381, 0.1705799251794815, 1.9796887636184692, -0.8335581421852112, 1.4172909259796143, 0.7077326774597168, -0.36244386434555054, -1.2332162857055664, 1.4281753301620483, -0.5744649171829224, 0.44019603729248047, 0.8715678453445435, 0.8140593767166138, -0.2617989778518677, -0.9874923229217529, -1.000778317451477, -1.544809341430664, 2.166832208633423, 0.1183224767446518, 0.17961116135120392, -0.8922535181045532, -0.06690215319395065, 0.7854354381561279, 2.5360875129699707, -0.003503653919324279, -0.5119827389717102, -0.13747532665729523, 0.8057452440261841, -0.6574021577835083, -4.512027740478516, 2.024373769760132, 2.063758373260498, -2.253772497177124, -0.9137059450149536, 0.4907030463218689, -0.5827012062072754, 0.2738427221775055, -0.009126740507781506, 3.604685068130493, 0.10223438590765, -0.3074542284011841, -0.3094956874847412, 0.47417816519737244, -1.392245888710022, 0.1641293466091156, 0.2612272799015045, -0.07390730082988739, 0.2523532211780548, 0.004179620649665594, 0.28366491198539734, -0.6371586918830872, -0.21818149089813232, 0.6025072336196899, 1.3022195100784302, -2.2335500717163086, -1.938698410987854, 2.9321789741516113, -1.4695292711257935, -0.7315852046012878, 0.5391130447387695, -0.6117476224899292, 1.770762324333191, -1.2546744346618652, 0.6786284446716309, -0.731526792049408, 0.804926872253418, 0.7089183926582336, -1.683336853981018, 0.5746301412582397, -1.2582577466964722, -2.0976457595825195, -0.504244863986969, -2.4003076553344727, -0.7192592620849609, -0.01515278685837984, 1.2117480039596558, 1.3859254121780396, 0.7851929664611816, -0.07572995126247406, 0.7788488864898682, -0.16261975467205048, 0.035770658403635025, -0.026280077174305916, -0.644536018371582, -0.681101381778717, 0.7120497226715088, -2.1055471897125244, 0.7467052936553955, 0.19729915261268616, -1.7896956205368042, -0.28032195568084717, 0.04955264553427696, -0.2549738585948944, -5.027915954589844, 0.5128713846206665, 1.2411574125289917, -2.307248830795288, 0.6205493807792664, -0.3217320144176483, 0.10747502744197845, -0.026743091642856598, 1.6197291612625122, 5.135161399841309, -0.5284197330474854, -1.238738775253296, -1.372928261756897, 1.0176769495010376, 0.1052301675081253, 1.3281569480895996, 0.06207187473773956, 0.8821912407875061, -0.3033845126628876, 1.3771611452102661, -0.890766441822052, 1.0477932691574097, -0.14502637088298798, 0.2538347542285919, 2.0587241649627686, -1.5363558530807495, -0.7436648607254028, -0.3191882371902466, 0.5211644768714905, 0.7849506139755249, 0.4864123463630676, 0.09466750919818878, 0.06975983083248138, -0.5773606300354004, 1.0745446681976318, 2.3984177112579346, -0.30699169635772705, 0.7201126217842102, -0.7371044158935547, 0.23484216630458832, -0.920720100402832, -0.7094521522521973, -0.1103600412607193, -0.87428879737854, -2.4860153198242188, 0.9952263832092285, 0.6728067994117737, 0.7312883138656616, -0.9101465344429016, -0.8162602186203003, 0.27463024854660034, -1.4920328855514526, -1.4043129682540894, -0.1310524195432663, -0.31946736574172974, 0.20306120812892914, 1.5579373836517334, -1.7449851036071777, -1.1001781225204468, 1.082519769668579, -0.3057854473590851, 0.4433962106704712, 1.0723317861557007, 0.2529771029949188, -3.615839719772339, -0.2674601674079895, 0.23320938646793365, -1.0784441232681274, -2.147759199142456, -0.552469789981842, -0.8935323357582092, 1.1347942352294922, 2.1948699951171875, 2.859638214111328, 0.42546191811561584, -1.568624496459961, -0.9874873161315918, 0.9339789152145386, 1.4804346561431885, 1.338517427444458, -0.713005006313324, 2.083695888519287, 1.9734432697296143, 0.7480640411376953, -1.2533819675445557, -0.6551810503005981, 1.2127571105957031, 0.561272919178009, 1.0398120880126953, -1.772137999534607, 1.5690877437591553, 0.3637827932834625, 0.7463289499282837, -0.2372441291809082, 1.0181998014450073, 0.6108953952789307, 0.36426204442977905, -1.8349260091781616, 1.5930285453796387, 1.8359614610671997, -1.0992491245269775, -0.02622207999229431, -2.0776500701904297, -0.2972736954689026, -0.9572087526321411, -0.15887100994586945, -0.30709078907966614, 0.9976771473884583, -1.3325958251953125, 0.7696220278739929, -2.2967045307159424, 0.19336053729057312, -0.9151286482810974, -1.2398817539215088, -0.7893021106719971, -1.5732667446136475, -3.4505202770233154, 0.3364647924900055, -0.5605332851409912, -0.7651822566986084, 0.48996344208717346, -0.6819108128547668, -0.9817870855331421, -1.36629319190979, 0.24344991147518158, 2.1258490085601807, 1.8562594652175903, 0.6778490543365479, -0.15866263210773468, -1.805531620979309, -0.0575178787112236, 1.0644347667694092, -0.8548895120620728, -1.573927879333496, -0.9740284085273743, 0.860112190246582, -0.6540893912315369, 2.453237295150757, 0.7245417833328247, -3.2562851905822754, 0.040423598140478134, -0.8033040165901184, 2.1217660903930664, -0.3918328285217285, -0.7400712370872498, -0.3828357458114624, 0.42265260219573975, -2.6670620441436768, 1.0011345148086548, -1.1531639099121094, 2.162717580795288, -0.005402793642133474, 1.2653087377548218, -0.6550167202949524, 1.089720606803894, -1.4538315534591675, 1.2702521085739136, 0.4138597249984741, -0.3149454593658447, -0.7737884521484375, -0.38161394000053406, -3.399456262588501, 1.4078689813613892, 1.470452904701233, -0.6827366948127747, 2.796757698059082, -0.13860908150672913, -0.8779091238975525, -0.3070024251937866, 0.5624752044677734, 0.0812658816576004, 0.888804018497467, 1.1313406229019165, 0.9013809561729431, -3.421604633331299, 0.9975644946098328, -1.1804744005203247, 0.3260640799999237, 1.1231988668441772, 0.8381059765815735, -2.205901622772217, -1.3259333372116089, -0.3026656210422516, -3.38967227935791, -4.089300155639648, -2.0637083053588867, -0.32998016476631165, -3.109485626220703, -0.2849658131599426, 1.3887293338775635, 1.1411958932876587, 1.448768973350525, 0.4478146433830261, -1.9579017162322998, 0.5653156042098999, 2.4538073539733887, 0.9562298059463501, -1.5454862117767334, 1.0363898277282715, -0.2084323614835739, -1.8678268194198608, -0.7535344362258911, -0.9038919806480408, 0.11058904230594635, -1.6601288318634033, -1.6141904592514038, 0.22760163247585297, -3.308986186981201, 0.3575163781642914, -1.597970724105835, -0.1694357842206955, -2.764291286468506, 0.8870271444320679, 1.185692310333252, -1.393609642982483, 0.5720747113227844, 0.4175516366958618, -0.14235436916351318, -0.8489171862602234, -1.702580213546753, 1.35089910030365, -1.439069151878357, -1.1937410831451416, -0.09950534999370575, 0.528853714466095, -2.095785617828369, 0.4643295109272003, 0.503875732421875, -0.39636126160621643, 1.3734593391418457, 1.5321261882781982, 0.7231563329696655, -1.4610711336135864, 0.8694244027137756, -0.10434038192033768, 0.3628360629081726, 0.23205414414405823, 1.6990538835525513, -1.4749646186828613, 1.2863153219223022, -2.5794858932495117, 2.8816099166870117, 0.7687199711799622, -1.2204326391220093, -0.32113099098205566, -0.4468313157558441, -0.28652501106262207, -2.234013319015503, -0.5756064057350159, -0.9315406084060669, -0.8226416707038879, -0.07413696497678757, 0.9436184763908386, 1.4905339479446411, -0.5302973985671997, 1.4318119287490845, 0.894076406955719, -1.2228896617889404, -0.10920136421918869, 1.1968179941177368, 0.3102181851863861, -0.8615272641181946, 1.1508400440216064, 1.4754159450531006, -0.4176410138607025, -0.49939367175102234, -1.028365135192871, 1.7118295431137085, 0.6577046513557434, -1.4371007680892944, -1.9479750394821167, -0.4770260155200958, -0.5199047327041626, -1.1337379217147827, 2.1421313285827637, 0.8446083068847656, -1.4035613536834717, -0.2020992636680603, -0.407655268907547, 0.7157776951789856, 0.2589435875415802, -0.009454110637307167, -0.5828872323036194, 1.7918789386749268, 0.6780617237091064, -4.30140495300293, -1.079034686088562, 0.4511696994304657, 0.8712555170059204, -0.5974568128585815, 0.9125943183898926, 0.41117510199546814, 0.9264817833900452, 0.8053113222122192, 0.52899169921875, 1.9168468713760376, 1.1433898210525513, 0.4981951117515564, -0.11809682101011276, -0.25166040658950806, 0.509418785572052, 0.378620445728302, -0.9900898337364197, 0.061175428330898285, -1.714089035987854, 1.634922981262207, -0.30849015712738037, -0.12392241507768631, -0.5965420007705688, 1.0230108499526978, 0.92155522108078, -1.8018420934677124, -0.37193453311920166, -1.7107793092727661, 0.2234927862882614, 1.723141074180603, 0.849948525428772, -1.0323457717895508, -1.2121886014938354, -0.3686937987804413, 0.598974883556366, -0.8690745830535889, 0.56074059009552, 0.6222882270812988, 2.301642656326294, -0.7460140585899353, 2.055713653564453, 0.014520321972668171, 1.8165580034255981, 0.24149276316165924, -0.5071020722389221, 1.3415682315826416, 0.2101755440235138, 1.9239908456802368, -0.7464239597320557, -0.13435067236423492, -0.017471732571721077, -0.8796191811561584, -0.3253593146800995, -0.07050635665655136, -1.7371227741241455, -0.11788899451494217, 0.977207362651825, 0.9397939443588257, -0.9891137480735779, 1.3092801570892334, 0.2485893815755844, 1.0656810998916626, -1.1716235876083374, -0.9517028331756592, 1.8243250846862793, -0.46725115180015564, 2.745648145675659, -1.260729432106018, 0.7736057043075562, 0.4903426170349121, 1.4129576683044434, -0.05962271988391876, 0.4539749026298523, 1.3230775594711304, 0.17339470982551575, 1.3627861738204956, -0.6650633811950684, -0.6245424151420593, -0.32300013303756714, 0.7213672995567322, 0.016357334330677986, 0.4999087154865265, 0.6212902665138245, 1.8888523578643799, 0.4191477596759796, 0.7187440395355225, 0.8642119765281677, 2.2417776584625244, 0.4617841839790344, -0.38204407691955566, -0.8180568814277649, -1.0627878904342651, 2.0979669094085693, 2.5190846920013428, 0.794442892074585, -0.08917438238859177, -0.8921442031860352, -2.0225038528442383, 0.5986660718917847, 0.07775093615055084, 0.4671958088874817, -0.19129669666290283, 1.8489984273910522, -0.5063315033912659, -0.11705491691827774, 0.8838077187538147, 1.458328127861023, 0.9984703660011292, 0.42401787638664246, 0.6568539142608643, -1.2118332386016846, 1.3144245147705078, -0.30216455459594727, -0.22538703680038452, 0.5163928866386414, 0.6170204281806946, -4.270858287811279, -1.7805052995681763, -1.1804474592208862, -0.44234806299209595, 0.46073591709136963, -0.28040793538093567, 0.08760987967252731, 0.6964161992073059, 0.5463513731956482, 1.4106864929199219, 1.1634656190872192, 0.15510550141334534, 1.4639742374420166, -0.9487540125846863, -0.40408724546432495, -1.5969295501708984, 0.5772398114204407, 1.21620774269104, 1.440271258354187, -1.5455375909805298, 0.2489972710609436, -0.5273754596710205, -2.005685567855835, 0.3030233085155487, -1.1016672849655151, -1.2141022682189941, -0.45828181505203247, -0.7143122553825378, 0.38475731015205383, -0.31656402349472046, -0.2758239507675171, 2.212398052215576, -0.40217286348342896, 0.23509380221366882, 0.9914390444755554, 0.8946093320846558, -0.4667119085788727, -0.042292676866054535, -0.35614824295043945, -1.189154863357544, 2.504992723464966, 2.36981201171875, -1.5254815816879272, 0.48485589027404785, -1.7184396982192993, -3.6985316276550293, 1.5297092199325562, 0.647754430770874, 1.267784595489502, -2.9536969661712646, 1.525151252746582, -0.4663655459880829, -4.094503402709961, -0.5437418222427368, 1.112045407295227, 0.7326020002365112, 0.05789829045534134, -0.17079433798789978, -0.31313684582710266, -2.240492343902588, 0.20541515946388245, -0.7390594482421875, 0.6402473449707031, 1.285843014717102, 